{
    "Layer_1": {
        "Node_19": {
            "bias": 0.39383211731910706, 
            "weights": [
                0.1919691413640976, 
                -0.510453999042511, 
                -0.16086646914482117, 
                0.11300897598266602, 
                0.10746296495199203, 
                -0.3391730487346649, 
                0.3391489088535309, 
                0.003122906433418393, 
                0.19836236536502838, 
                0.17551149427890778, 
                -0.26469966769218445, 
                0.0623399019241333, 
                -0.5942219495773315, 
                0.2610646188259125, 
                0.13014386594295502, 
                0.2073030322790146, 
                0.028030024841427803, 
                -0.028822293505072594, 
                -0.19579878449440002, 
                0.015515601262450218, 
                0.23734593391418457, 
                0.33631986379623413, 
                0.059276681393384933, 
                0.08607938140630722, 
                -0.43122047185897827, 
                -0.01798056997358799, 
                0.2244429886341095, 
                0.07887008786201477, 
                -0.015422767028212547, 
                -0.21781210601329803, 
                -0.12682385742664337, 
                0.2692767083644867, 
                0.015287511050701141, 
                -0.4109964668750763, 
                0.21418219804763794, 
                0.31688201427459717, 
                -0.03674086928367615, 
                0.0889059454202652, 
                0.3289472162723541, 
                0.07821328192949295, 
                0.031262077391147614, 
                0.08875175565481186, 
                0.008139769546687603, 
                0.14342892169952393, 
                0.02957305684685707, 
                -0.10140681266784668, 
                -0.31124016642570496, 
                -0.04200468212366104, 
                -0.18823273479938507, 
                0.1283666491508484, 
                -0.016569413244724274, 
                0.20584265887737274, 
                0.3076021671295166, 
                0.06503184139728546, 
                -0.15338119864463806, 
                0.12171944230794907, 
                0.028773024678230286, 
                0.022672047838568687, 
                0.8570976853370667, 
                -0.1273273378610611
            ]
        }, 
        "Node_18": {
            "bias": 0.04152284562587738, 
            "weights": [
                0.14723385870456696, 
                0.10516886413097382, 
                -0.03954818472266197, 
                -0.19617916643619537, 
                0.03352680057287216, 
                -0.023019904270768166, 
                -0.1262783706188202, 
                0.2128354161977768, 
                -0.052900347858667374, 
                -0.018630364909768105, 
                0.04387466609477997, 
                -0.21253739297389984, 
                0.3234906494617462, 
                -0.040761906653642654, 
                0.3339957296848297, 
                -0.3647605776786804, 
                -0.2807841897010803, 
                0.11571569740772247, 
                0.07514011859893799, 
                -0.34852662682533264, 
                0.04624539986252785, 
                0.25745466351509094, 
                0.2348869889974594, 
                0.304548978805542, 
                -0.029788712039589882, 
                -0.3954129219055176, 
                -0.1327931135892868, 
                -0.03854483738541603, 
                -0.3881731927394867, 
                0.1375395655632019, 
                0.3762916028499603, 
                -0.17751944065093994, 
                0.26328468322753906, 
                0.2551174461841583, 
                -0.08049436658620834, 
                0.0399128720164299, 
                -0.024465281516313553, 
                0.14673371613025665, 
                0.39393576979637146, 
                0.17877401411533356, 
                0.28933092951774597, 
                0.05418527126312256, 
                0.015104377642273903, 
                -0.05640634149312973, 
                -0.05954807251691818, 
                -0.17216460406780243, 
                -0.06400243937969208, 
                0.07908428460359573, 
                0.005794839467853308, 
                0.05826684832572937, 
                0.3082459568977356, 
                0.46740642189979553, 
                -0.32012227177619934, 
                -0.1144850105047226, 
                0.21399810910224915, 
                0.12184382230043411, 
                0.2511289417743683, 
                -0.0943600982427597, 
                -0.01178087666630745, 
                0.38491564989089966
            ]
        }, 
        "Node_17": {
            "bias": 0.2291702926158905, 
            "weights": [
                0.13070209324359894, 
                -0.2628430426120758, 
                0.20525550842285156, 
                0.09108421206474304, 
                -0.523440957069397, 
                0.0383717343211174, 
                -0.2128349095582962, 
                0.09215577691793442, 
                0.2745257318019867, 
                0.004160190466791391, 
                0.14068299531936646, 
                -0.09214772284030914, 
                0.10372445732355118, 
                -0.03033323585987091, 
                -0.12244858592748642, 
                0.20194587111473083, 
                -0.019489331170916557, 
                0.42708349227905273, 
                -0.5125638842582703, 
                -0.1992376744747162, 
                0.3495555818080902, 
                0.040282197296619415, 
                0.183569997549057, 
                0.08588168025016785, 
                0.07349730283021927, 
                -0.056836605072021484, 
                0.28360846638679504, 
                -0.18266300857067108, 
                -0.07910416275262833, 
                0.1912555694580078, 
                0.12086748331785202, 
                -0.11462084203958511, 
                0.2917664349079132, 
                -0.28515321016311646, 
                -0.528715193271637, 
                0.08155836164951324, 
                0.13744455575942993, 
                -0.12935182452201843, 
                0.30193614959716797, 
                -0.08401088416576385, 
                -0.0648370161652565, 
                0.11147186160087585, 
                0.2311607301235199, 
                -0.21538981795310974, 
                -0.02802519127726555, 
                0.1990695297718048, 
                0.09769666939973831, 
                0.2570171654224396, 
                -0.09995070099830627, 
                0.18124999105930328, 
                -0.1201496496796608, 
                -0.08073951303958893, 
                -0.05299972742795944, 
                -0.1964569240808487, 
                -0.21781937777996063, 
                0.13536185026168823, 
                -0.2835644483566284, 
                0.33768579363822937, 
                0.09197884052991867, 
                0.3236617147922516
            ]
        }, 
        "Node_16": {
            "bias": 0.0868300348520279, 
            "weights": [
                0.09653711318969727, 
                0.2946834862232208, 
                -0.08075277507305145, 
                -0.0888797789812088, 
                0.013314987532794476, 
                0.0925903394818306, 
                0.06505492329597473, 
                0.1112125962972641, 
                -0.232012540102005, 
                -0.2951011657714844, 
                0.34304913878440857, 
                -0.5228893160820007, 
                0.08628377318382263, 
                0.061753083020448685, 
                0.08775323629379272, 
                0.38923877477645874, 
                -0.08772089332342148, 
                -0.1973506212234497, 
                -0.028229454532265663, 
                -0.20154711604118347, 
                -0.07531487941741943, 
                0.5946654081344604, 
                0.11412332952022552, 
                0.02345651388168335, 
                -0.17307545244693756, 
                -0.2587392032146454, 
                0.060006033629179, 
                0.347654789686203, 
                -0.03484945371747017, 
                -0.07767678052186966, 
                -0.21636880934238434, 
                -0.46100667119026184, 
                -0.5046018958091736, 
                -0.2684084177017212, 
                -0.1280503123998642, 
                0.43991804122924805, 
                -0.14391948282718658, 
                0.07269009202718735, 
                0.13407815992832184, 
                0.1228596568107605, 
                -0.400867760181427, 
                0.18012958765029907, 
                0.12973962724208832, 
                -0.5362550616264343, 
                0.21329177916049957, 
                0.13094083964824677, 
                -0.18738751113414764, 
                -0.3405068814754486, 
                0.36747419834136963, 
                0.055401310324668884, 
                -0.25254175066947937, 
                0.045507777482271194, 
                0.1263490617275238, 
                -0.010369147174060345, 
                0.23982736468315125, 
                0.2045501470565796, 
                -0.30495259165763855, 
                -0.30961981415748596, 
                -0.3373686373233795, 
                -0.26724356412887573
            ]
        }, 
        "Node_15": {
            "bias": -0.48214590549468994, 
            "weights": [
                -0.3590984344482422, 
                0.19606927037239075, 
                0.3084753751754761, 
                0.18981170654296875, 
                0.3304072618484497, 
                -0.1464136391878128, 
                -0.035968322306871414, 
                0.2483092099428177, 
                -0.2738407850265503, 
                0.2419903576374054, 
                -0.06333978474140167, 
                -0.27165424823760986, 
                -0.06308769434690475, 
                -0.43753185868263245, 
                0.38802576065063477, 
                -0.28825902938842773, 
                0.07671964913606644, 
                0.05099250376224518, 
                -0.18168342113494873, 
                -0.2647169828414917, 
                0.3023715615272522, 
                -0.25854116678237915, 
                0.1647116094827652, 
                -0.3294447362422943, 
                0.33156588673591614, 
                0.04457765445113182, 
                -0.13061988353729248, 
                0.1674002707004547, 
                0.2970755696296692, 
                0.06703930348157883, 
                0.34101444482803345, 
                0.07412907481193542, 
                -0.08611001819372177, 
                -0.15398816764354706, 
                0.02774319052696228, 
                -0.05741626024246216, 
                0.32674670219421387, 
                0.4339148998260498, 
                0.2560643255710602, 
                -0.011647934094071388, 
                0.021641185507178307, 
                0.27784520387649536, 
                -0.1724359393119812, 
                -0.05877844989299774, 
                0.6583683490753174, 
                0.07885800302028656, 
                -0.13384783267974854, 
                0.12543684244155884, 
                -0.10366220027208328, 
                0.33340251445770264, 
                -0.08696018159389496, 
                0.05836309865117073, 
                -0.12719206511974335, 
                -0.04891278222203255, 
                0.013042978942394257, 
                0.17175240814685822, 
                -0.05711741000413895, 
                0.31739911437034607, 
                0.2496364414691925, 
                0.41249704360961914
            ]
        }, 
        "Node_14": {
            "bias": 0.11148852854967117, 
            "weights": [
                0.012913071550428867, 
                0.12515884637832642, 
                -0.7645546793937683, 
                0.19430530071258545, 
                0.13090796768665314, 
                0.05315554514527321, 
                0.1632336974143982, 
                0.16136954724788666, 
                0.4427207112312317, 
                -0.20831415057182312, 
                0.25478050112724304, 
                0.1423145830631256, 
                0.17424288392066956, 
                0.04631154239177704, 
                0.1972198486328125, 
                -0.0639641210436821, 
                0.403796911239624, 
                0.11165677756071091, 
                -0.12895822525024414, 
                -0.0031958341132849455, 
                0.08979738503694534, 
                -0.28652265667915344, 
                0.25595822930336, 
                0.35051247477531433, 
                0.1100536584854126, 
                -0.03506673872470856, 
                -0.10828791558742523, 
                -0.03700365871191025, 
                -0.04519198462367058, 
                0.07985197007656097, 
                -0.012410509400069714, 
                -0.027163507416844368, 
                -0.003911925945430994, 
                0.08521532267332077, 
                0.1254536658525467, 
                -0.1769205927848816, 
                0.028058474883437157, 
                0.029073452576994896, 
                -0.11679276823997498, 
                -0.06924477964639664, 
                0.18138986825942993, 
                0.014347441494464874, 
                0.30521559715270996, 
                -0.02658894471824169, 
                0.012914641760289669, 
                -0.013957217335700989, 
                -0.061828020960092545, 
                0.2690260410308838, 
                -0.1825774610042572, 
                -0.39958950877189636, 
                0.21229207515716553, 
                -0.11402963101863861, 
                -0.3130791485309601, 
                0.08353723585605621, 
                0.08261187374591827, 
                0.08831534534692764, 
                -0.046582065522670746, 
                0.211922749876976, 
                0.11586588621139526, 
                0.3587160110473633
            ]
        }, 
        "Node_13": {
            "bias": 0.3946991562843323, 
            "weights": [
                0.17052355408668518, 
                -0.35632023215293884, 
                -0.1165815144777298, 
                -0.2574593126773834, 
                -0.08224254101514816, 
                0.14162258803844452, 
                0.032400913536548615, 
                -0.0038488872814923525, 
                0.0624643974006176, 
                -0.18407602608203888, 
                0.08370818197727203, 
                0.2817021906375885, 
                -0.4041464328765869, 
                0.08806858956813812, 
                -0.2536875307559967, 
                0.027089420706033707, 
                0.12618260085582733, 
                -0.17628876864910126, 
                0.2393220216035843, 
                0.12412318587303162, 
                -0.026965467259287834, 
                0.07260280847549438, 
                0.13127794861793518, 
                0.4490407705307007, 
                -0.3161959648132324, 
                0.3682194948196411, 
                0.4015105366706848, 
                -0.09444338083267212, 
                0.16580843925476074, 
                -0.024671459570527077, 
                0.06999783962965012, 
                0.48413482308387756, 
                -0.8165397644042969, 
                -0.3637918531894684, 
                0.2549070119857788, 
                0.41926109790802, 
                0.071835957467556, 
                0.24145619571208954, 
                -0.09811969101428986, 
                -0.07773321121931076, 
                -0.1740695983171463, 
                0.30153119564056396, 
                -0.03601861745119095, 
                0.3046865463256836, 
                -0.21847359836101532, 
                0.09366652369499207, 
                -0.2979591488838196, 
                -0.08711552619934082, 
                0.27267009019851685, 
                0.10578716546297073, 
                -0.37809017300605774, 
                -0.2760268747806549, 
                0.06720999628305435, 
                0.7992036938667297, 
                -0.2418951690196991, 
                0.05560903251171112, 
                0.35178056359291077, 
                0.10101532191038132, 
                0.32558774948120117, 
                0.01295556966215372
            ]
        }, 
        "Node_12": {
            "bias": 0.02872125804424286, 
            "weights": [
                0.5348466038703918, 
                0.022875715047121048, 
                -0.053144779056310654, 
                -0.26011642813682556, 
                0.18386739492416382, 
                -0.030699506402015686, 
                -0.20634393393993378, 
                0.14215034246444702, 
                0.0408298633992672, 
                0.18983644247055054, 
                0.04827167093753815, 
                -0.35762226581573486, 
                0.21196001768112183, 
                -0.05079988017678261, 
                -0.16569088399410248, 
                0.23244087398052216, 
                -0.03925009444355965, 
                -0.2593604624271393, 
                -0.49086230993270874, 
                -0.017016420140862465, 
                -0.17062757909297943, 
                -0.29006993770599365, 
                -0.10579067468643188, 
                -0.16657376289367676, 
                -0.23759052157402039, 
                -0.18062421679496765, 
                -0.052538324147462845, 
                -0.06955789029598236, 
                0.07991813868284225, 
                0.10417274385690689, 
                -0.510045051574707, 
                0.34142887592315674, 
                -0.08457481116056442, 
                0.1806538850069046, 
                0.1264362335205078, 
                -0.0005540704587474465, 
                -0.08118385076522827, 
                -0.20680980384349823, 
                0.3834567368030548, 
                0.322088360786438, 
                -0.01841145008802414, 
                -0.23218420147895813, 
                -0.14964774250984192, 
                0.1582174301147461, 
                -0.09850917756557465, 
                -0.16668912768363953, 
                0.05714025720953941, 
                -0.06206800416111946, 
                -0.13981975615024567, 
                0.43062999844551086, 
                0.0530272051692009, 
                -0.023824702948331833, 
                -0.24795885384082794, 
                0.2728668749332428, 
                -0.13145196437835693, 
                -0.03840434551239014, 
                -0.16744938492774963, 
                0.3697652220726013, 
                0.21733781695365906, 
                0.5537856221199036
            ]
        }, 
        "Node_11": {
            "bias": 0.15514075756072998, 
            "weights": [
                0.13350820541381836, 
                0.06345687061548233, 
                -0.4326886534690857, 
                -0.05807921290397644, 
                0.0217686016112566, 
                -0.18357786536216736, 
                0.04166335240006447, 
                -0.24044504761695862, 
                0.12817861139774323, 
                0.08614740520715714, 
                -0.26201483607292175, 
                0.014927075244486332, 
                -0.1158098578453064, 
                -0.04044369235634804, 
                0.2634827494621277, 
                -0.6006271839141846, 
                0.16521452367305756, 
                0.25477272272109985, 
                0.2027357816696167, 
                -0.015350725501775742, 
                0.05390374734997749, 
                0.2482178509235382, 
                0.25836992263793945, 
                0.16794376075267792, 
                0.1801573932170868, 
                0.15477730333805084, 
                -0.14446790516376495, 
                0.04208657890558243, 
                -0.00689953425899148, 
                0.16905640065670013, 
                -0.24461981654167175, 
                -0.029623566195368767, 
                -0.25806963443756104, 
                0.07273141294717789, 
                -0.01755637302994728, 
                0.14857152104377747, 
                -0.5888733863830566, 
                -0.27274227142333984, 
                0.14751340448856354, 
                0.137657031416893, 
                -0.04434755817055702, 
                0.07366951555013657, 
                0.3412221670150757, 
                -0.4095901846885681, 
                0.22634156048297882, 
                -0.4291747510433197, 
                0.16133807599544525, 
                0.03617018088698387, 
                -0.04853267967700958, 
                -0.4743401110172272, 
                0.07670720666646957, 
                0.21488428115844727, 
                0.004598459228873253, 
                0.09139572083950043, 
                0.3263658881187439, 
                -0.1829923540353775, 
                0.0819820687174797, 
                -0.038391150534152985, 
                0.04702944681048393, 
                0.15005044639110565
            ]
        }, 
        "Node_10": {
            "bias": 0.3388882577419281, 
            "weights": [
                -0.07918816804885864, 
                -0.25057458877563477, 
                -0.24919214844703674, 
                0.013941125012934208, 
                0.19549474120140076, 
                -0.27171897888183594, 
                -0.18708385527133942, 
                -0.09291977435350418, 
                0.0007508546113967896, 
                -0.1640515923500061, 
                0.2323642373085022, 
                -0.06685450673103333, 
                0.13838225603103638, 
                -0.031221838667988777, 
                -0.11352171748876572, 
                0.017013177275657654, 
                -0.18592455983161926, 
                0.0879349559545517, 
                0.14243386685848236, 
                0.13250689208507538, 
                0.044213611632585526, 
                -0.30099591612815857, 
                0.07661446928977966, 
                0.0736929327249527, 
                0.09408675879240036, 
                0.22103877365589142, 
                0.1406097412109375, 
                0.11356501281261444, 
                0.19854415953159332, 
                0.3347682058811188, 
                0.08610998094081879, 
                0.2772085964679718, 
                -0.0020957128144800663, 
                -0.02428354322910309, 
                0.4230256676673889, 
                -0.09889109432697296, 
                -0.4293927252292633, 
                -0.18050339818000793, 
                0.32891151309013367, 
                -0.07433149963617325, 
                0.2668532729148865, 
                -0.016288788989186287, 
                0.4534817934036255, 
                -0.8293505907058716, 
                -0.03267230466008186, 
                0.05558351054787636, 
                -0.08005964010953903, 
                0.006212725304067135, 
                0.12974800169467926, 
                0.16744650900363922, 
                -0.24346651136875153, 
                0.24556873738765717, 
                -0.1797340214252472, 
                0.1626850962638855, 
                0.14317327737808228, 
                0.27392062544822693, 
                0.0437382236123085, 
                0.16262157261371613, 
                0.13890960812568665, 
                -0.1212683916091919
            ]
        }, 
        "Node_26": {
            "bias": 0.4665004014968872, 
            "weights": [
                0.11073561012744904, 
                -0.11931496113538742, 
                0.07825934141874313, 
                -0.334414541721344, 
                0.17359188199043274, 
                -0.03622673824429512, 
                0.24145613610744476, 
                0.18155135214328766, 
                -0.03721371293067932, 
                -0.612003743648529, 
                0.012165906839072704, 
                0.1327337920665741, 
                -0.1181536316871643, 
                -0.05934163182973862, 
                -0.05456456542015076, 
                0.1062307208776474, 
                -0.04341014474630356, 
                0.2486775517463684, 
                -0.2894494831562042, 
                -0.2930539846420288, 
                0.14541757106781006, 
                -0.15873408317565918, 
                0.20710471272468567, 
                0.4356158375740051, 
                -0.3486696779727936, 
                0.10191433876752853, 
                0.08337624371051788, 
                -0.40795645117759705, 
                0.17064924538135529, 
                0.37925758957862854, 
                0.09475357085466385, 
                0.1661793738603592, 
                -1.1664832830429077, 
                -0.4020530879497528, 
                0.06777852773666382, 
                0.23980337381362915, 
                -0.05889494717121124, 
                0.1409502774477005, 
                0.41811901330947876, 
                -0.27972787618637085, 
                -0.1405971646308899, 
                0.007701560389250517, 
                0.2964640259742737, 
                -0.1463736891746521, 
                -0.4968715310096741, 
                -0.16238127648830414, 
                -0.3393159806728363, 
                -0.38547512888908386, 
                0.03474985435605049, 
                -0.06951117515563965, 
                -0.5244841575622559, 
                0.09258924424648285, 
                -0.06992259621620178, 
                -0.031693462282419205, 
                -0.21897214651107788, 
                -0.20243284106254578, 
                0.2588033676147461, 
                0.07593503594398499, 
                0.05229411646723747, 
                -0.2656436264514923
            ]
        }, 
        "Node_27": {
            "bias": 0.0071923877112567425, 
            "weights": [
                0.38605770468711853, 
                -0.14779742062091827, 
                0.6378664970397949, 
                0.17544089257717133, 
                0.164101704955101, 
                -0.31207075715065, 
                0.15539729595184326, 
                -0.1487531065940857, 
                -0.44853895902633667, 
                -0.19111065566539764, 
                0.1308346688747406, 
                -0.19281692802906036, 
                -0.11572696268558502, 
                0.23291344940662384, 
                0.01057002879679203, 
                -0.08998004347085953, 
                -0.26029032468795776, 
                0.3061555027961731, 
                -0.1337967813014984, 
                0.3901215195655823, 
                -0.3905704915523529, 
                0.03327237442135811, 
                -0.00922051165252924, 
                -0.21070680022239685, 
                0.21653017401695251, 
                -0.28279727697372437, 
                0.23123067617416382, 
                -0.12744486331939697, 
                0.18000882863998413, 
                0.03619169816374779, 
                -0.18950602412223816, 
                0.2699410915374756, 
                -0.13301566243171692, 
                0.22243797779083252, 
                0.20823204517364502, 
                -0.007339757867157459, 
                -0.019774707034230232, 
                0.46363991498947144, 
                0.12560582160949707, 
                0.14574997127056122, 
                0.16068872809410095, 
                0.023702798411250114, 
                -0.223536878824234, 
                0.18458648025989532, 
                0.02031259983778, 
                0.15879543125629425, 
                0.0807986781001091, 
                0.02957654930651188, 
                -0.13439235091209412, 
                -0.33468785881996155, 
                -0.03075753152370453, 
                -0.3378283977508545, 
                -0.08434788137674332, 
                -0.15992966294288635, 
                -0.035881731659173965, 
                -0.1294657438993454, 
                -0.35280075669288635, 
                -0.03530470281839371, 
                -0.10689427703619003, 
                -0.37670424580574036
            ]
        }, 
        "Node_24": {
            "bias": 0.35228562355041504, 
            "weights": [
                0.38830557465553284, 
                -0.1250883787870407, 
                -0.373588502407074, 
                0.2601657807826996, 
                0.22270724177360535, 
                -0.24037782847881317, 
                -0.031278420239686966, 
                0.2697197496891022, 
                0.1700720191001892, 
                0.21316422522068024, 
                -0.06236874312162399, 
                -0.42591148614883423, 
                -0.2702755331993103, 
                0.07542868703603745, 
                0.0008261395269073546, 
                0.39644575119018555, 
                -0.11420129984617233, 
                0.166075199842453, 
                -0.12844665348529816, 
                0.24055840075016022, 
                0.07814565300941467, 
                -0.11706370115280151, 
                -0.24026568233966827, 
                -0.03728461638092995, 
                -0.45155414938926697, 
                0.11013619601726532, 
                0.13235242664813995, 
                -0.17729498445987701, 
                0.04069774970412254, 
                0.06781546026468277, 
                -0.20009005069732666, 
                0.23345361649990082, 
                -0.6579380631446838, 
                -0.15443438291549683, 
                0.03944011032581329, 
                0.2047281563282013, 
                -0.018435833975672722, 
                -0.03902720287442207, 
                0.2378121167421341, 
                -0.23280435800552368, 
                -0.03213295340538025, 
                -0.1720547080039978, 
                0.21806980669498444, 
                -0.25530171394348145, 
                -0.3654805123806, 
                -0.06132880598306656, 
                -0.0627574771642685, 
                0.3266296088695526, 
                0.34458810091018677, 
                -0.08154230564832687, 
                0.28070783615112305, 
                0.13746418058872223, 
                0.30322933197021484, 
                0.07572629302740097, 
                -0.029009532183408737, 
                0.09707900136709213, 
                0.10721419751644135, 
                0.1217307299375534, 
                -0.02909795753657818, 
                0.063985675573349
            ]
        }, 
        "Node_25": {
            "bias": 0.09994573146104813, 
            "weights": [
                -0.024726470932364464, 
                0.06299949437379837, 
                -0.34194761514663696, 
                0.0338270477950573, 
                0.49051451683044434, 
                -0.23906025290489197, 
                0.017945313826203346, 
                -0.15521232783794403, 
                0.048473622649908066, 
                0.4000493884086609, 
                0.11161790788173676, 
                -0.08060912787914276, 
                0.31396371126174927, 
                -0.0525645948946476, 
                -0.1150776594877243, 
                -0.05136738717556, 
                -0.04987717792391777, 
                0.16590586304664612, 
                0.3088206946849823, 
                0.1446840912103653, 
                -0.12585489451885223, 
                -0.13679112493991852, 
                -0.25669172406196594, 
                0.1399717479944229, 
                0.10457873344421387, 
                0.221327006816864, 
                -0.12742719054222107, 
                0.16202108561992645, 
                0.23849588632583618, 
                -0.06147333234548569, 
                0.10385153442621231, 
                -0.027209600433707237, 
                0.21481814980506897, 
                0.27061039209365845, 
                0.08265142887830734, 
                -0.02044367603957653, 
                0.11286159604787827, 
                -0.6540411710739136, 
                0.12055444717407227, 
                0.10691476613283157, 
                0.20353150367736816, 
                0.312613844871521, 
                -0.14713212847709656, 
                -0.2888420820236206, 
                -0.15974530577659607, 
                0.05393067002296448, 
                0.13650940358638763, 
                0.009886549785733223, 
                -0.08120246976613998, 
                -0.20509684085845947, 
                0.3152769207954407, 
                0.07991170883178711, 
                0.30103185772895813, 
                -0.016794661059975624, 
                0.17230582237243652, 
                -0.04428377002477646, 
                0.3989788591861725, 
                -0.00758808758109808, 
                -0.15260082483291626, 
                0.07581310719251633
            ]
        }, 
        "Node_22": {
            "bias": 0.17351585626602173, 
            "weights": [
                0.5809077620506287, 
                -0.19291536509990692, 
                0.07421810925006866, 
                -0.10280570387840271, 
                -0.17588458955287933, 
                0.13532258570194244, 
                -0.06265118718147278, 
                -0.03457292169332504, 
                -0.09084395319223404, 
                -0.08716388791799545, 
                -0.10939665138721466, 
                -0.23864738643169403, 
                -0.17971548438072205, 
                0.16184356808662415, 
                -0.00987884122878313, 
                0.03492327779531479, 
                -0.29097679257392883, 
                0.05521499738097191, 
                -0.4980439841747284, 
                -0.1725894659757614, 
                0.32476696372032166, 
                -0.17011183500289917, 
                0.16857030987739563, 
                0.13388583064079285, 
                0.08980447053909302, 
                -0.40268373489379883, 
                0.1910819262266159, 
                0.0010291042272001505, 
                0.09268038719892502, 
                -0.15146486461162567, 
                -0.2505122423171997, 
                0.4533853828907013, 
                -0.2972452938556671, 
                -0.02113288827240467, 
                0.016918955370783806, 
                -0.12004651874303818, 
                0.0030119973234832287, 
                0.39651477336883545, 
                0.13472846150398254, 
                -0.16757790744304657, 
                -0.1428857147693634, 
                -0.25551238656044006, 
                -0.031715769320726395, 
                0.02700801007449627, 
                0.13217972218990326, 
                -0.06433100253343582, 
                -0.04853876680135727, 
                0.27268245816230774, 
                0.3046204149723053, 
                0.0016280265990644693, 
                -0.06384199112653732, 
                0.22582167387008667, 
                0.2712043225765228, 
                0.0906090959906578, 
                0.2846258580684662, 
                -0.39759430289268494, 
                0.12599335610866547, 
                0.44751203060150146, 
                0.6046519875526428, 
                -0.3632808327674866
            ]
        }, 
        "Node_23": {
            "bias": -0.2957599461078644, 
            "weights": [
                -0.2029656022787094, 
                0.08674541115760803, 
                0.25857406854629517, 
                0.1543411761522293, 
                -0.3350597321987152, 
                0.4661429226398468, 
                -0.10738815367221832, 
                -0.2629657983779907, 
                0.18475905060768127, 
                0.21853388845920563, 
                -0.13718463480472565, 
                0.1700618863105774, 
                -0.20456677675247192, 
                -0.06943224370479584, 
                0.21599414944648743, 
                0.11758586019277573, 
                0.05249621719121933, 
                -0.015219156630337238, 
                -0.032790638506412506, 
                -0.03831303119659424, 
                0.12054989486932755, 
                -0.08412689715623856, 
                0.28934580087661743, 
                0.2017558515071869, 
                -0.002027937676757574, 
                -0.2709301710128784, 
                -0.3046255111694336, 
                -0.10085739940404892, 
                0.22340121865272522, 
                0.22806723415851593, 
                -0.2506214678287506, 
                0.35463130474090576, 
                0.20490550994873047, 
                0.25327005982398987, 
                -0.26965442299842834, 
                0.05018305778503418, 
                0.04315164312720299, 
                0.19427092373371124, 
                0.7076190114021301, 
                -0.4486648738384247, 
                -0.18837065994739532, 
                -0.2917851209640503, 
                0.18865707516670227, 
                0.26166975498199463, 
                0.4224667251110077, 
                0.22168728709220886, 
                -0.16026930510997772, 
                0.010310088284313679, 
                0.23801597952842712, 
                0.07376409322023392, 
                -0.2222687155008316, 
                0.25489845871925354, 
                0.1348477303981781, 
                -0.36448994278907776, 
                0.26402050256729126, 
                0.02524428442120552, 
                0.03940252214670181, 
                0.18020738661289215, 
                -0.1780010163784027, 
                -0.0019132052548229694
            ]
        }, 
        "Node_20": {
            "bias": 0.30155664682388306, 
            "weights": [
                -0.12135745584964752, 
                -0.1225481703877449, 
                -0.41060346364974976, 
                -0.018998771905899048, 
                -0.3040062189102173, 
                -0.4056389629840851, 
                0.005602813791483641, 
                -0.09161712974309921, 
                0.48162490129470825, 
                0.3608105778694153, 
                0.4706481695175171, 
                -0.009585974738001823, 
                0.19153355062007904, 
                0.08614423125982285, 
                -0.14478735625743866, 
                -0.13793647289276123, 
                0.4612440764904022, 
                0.36253178119659424, 
                -0.06889613717794418, 
                -0.21070773899555206, 
                0.19283422827720642, 
                -0.21148352324962616, 
                0.13315001130104065, 
                0.2453630566596985, 
                0.2205236852169037, 
                0.3073279857635498, 
                0.03694828227162361, 
                -0.25679996609687805, 
                0.22289377450942993, 
                0.26728925108909607, 
                -0.21481013298034668, 
                -0.03498770296573639, 
                -0.31061679124832153, 
                -0.12194052338600159, 
                -0.14033427834510803, 
                0.10118882358074188, 
                -0.3064999282360077, 
                -0.06796994060277939, 
                -0.33919039368629456, 
                0.04197470471262932, 
                0.22075743973255157, 
                0.3410651981830597, 
                -0.11977475881576538, 
                -0.3698939085006714, 
                0.2179727703332901, 
                -0.05046478658914566, 
                -0.016189761459827423, 
                0.05238928273320198, 
                -0.33020278811454773, 
                -0.2909857928752899, 
                0.31391870975494385, 
                0.27277299761772156, 
                -0.1274815797805786, 
                0.24993877112865448, 
                -0.32525545358657837, 
                -0.08135297149419785, 
                -0.3144736886024475, 
                0.12202102690935135, 
                0.03511250019073486, 
                0.14432188868522644
            ]
        }, 
        "Node_21": {
            "bias": 0.2802838683128357, 
            "weights": [
                0.23432618379592896, 
                -0.3284217417240143, 
                -0.16995693743228912, 
                0.21585527062416077, 
                0.009267706423997879, 
                -0.036987170577049255, 
                0.03572581335902214, 
                0.2626633644104004, 
                0.12167906016111374, 
                -0.31035977602005005, 
                0.0828947126865387, 
                -0.07783397287130356, 
                0.03901201859116554, 
                0.3033645749092102, 
                -0.3137800693511963, 
                0.4627741575241089, 
                0.3991902768611908, 
                0.11718209832906723, 
                -0.13761766254901886, 
                -0.04498745873570442, 
                0.18728004395961761, 
                -0.16802559792995453, 
                -0.057060305029153824, 
                0.26001229882240295, 
                -0.28991591930389404, 
                -0.04072307050228119, 
                0.22805340588092804, 
                -0.05993781238794327, 
                0.3657435476779938, 
                0.11299631744623184, 
                -0.3486141264438629, 
                -0.12273987382650375, 
                -0.09428317844867706, 
                -0.21952250599861145, 
                0.009401720017194748, 
                0.2479088306427002, 
                -0.020753400400280952, 
                0.09613583981990814, 
                0.2542969286441803, 
                0.2862459123134613, 
                -0.012194303795695305, 
                0.2550816535949707, 
                0.13233117759227753, 
                0.22513343393802643, 
                -0.035175174474716187, 
                -0.3719429671764374, 
                -0.1143501028418541, 
                0.22175174951553345, 
                0.03734885901212692, 
                0.08600785583257675, 
                -0.2779960334300995, 
                -0.009826784022152424, 
                -0.17555956542491913, 
                0.15306632220745087, 
                -0.32794153690338135, 
                -0.2291179597377777, 
                0.2924504280090332, 
                0.1296645849943161, 
                0.07275811582803726, 
                -0.24769575893878937
            ]
        }, 
        "Node_28": {
            "bias": -0.0022108082193881273, 
            "weights": [
                -0.3974910378456116, 
                -0.31942304968833923, 
                -0.006694107782095671, 
                0.13467304408550262, 
                0.14236171543598175, 
                0.31500324606895447, 
                0.17428231239318848, 
                0.06426477432250977, 
                0.09624799340963364, 
                -0.08342442661523819, 
                0.36154705286026, 
                -0.05857030302286148, 
                -0.24066612124443054, 
                -0.12956151366233826, 
                -0.12341482937335968, 
                0.17153818905353546, 
                0.22219102084636688, 
                0.07258506119251251, 
                0.2572370171546936, 
                -0.13755597174167633, 
                0.2350352555513382, 
                0.3536103665828705, 
                -0.21996070444583893, 
                -0.13188982009887695, 
                0.01850893534719944, 
                -0.21109828352928162, 
                0.1243160143494606, 
                -0.1889621466398239, 
                0.04514029994606972, 
                -0.07581276446580887, 
                -0.1323603093624115, 
                -0.4040450155735016, 
                0.2847888469696045, 
                0.07526077330112457, 
                -0.2569539546966553, 
                0.023896435275673866, 
                0.3070361316204071, 
                0.14291439950466156, 
                -0.09104087948799133, 
                -0.2611517906188965, 
                -0.18853327631950378, 
                -0.15423668920993805, 
                -0.3786712884902954, 
                0.17984719574451447, 
                0.025395311415195465, 
                -0.1322510838508606, 
                0.09766201674938202, 
                -0.05414200201630592, 
                -0.4052636921405792, 
                0.2672921419143677, 
                -0.05014744773507118, 
                0.2818647623062134, 
                -0.06556927412748337, 
                -0.1572222113609314, 
                0.05648721382021904, 
                0.2149682492017746, 
                -0.5635705590248108, 
                0.058674249798059464, 
                -0.07109387964010239, 
                0.12608285248279572
            ]
        }, 
        "Node_29": {
            "bias": 0.0235795509070158, 
            "weights": [
                0.33912187814712524, 
                0.09047232568264008, 
                0.04091181233525276, 
                0.193651020526886, 
                -0.15138232707977295, 
                0.07718183845281601, 
                0.03405945003032684, 
                0.249723881483078, 
                0.03857690468430519, 
                -0.022510183975100517, 
                -0.22934111952781677, 
                -0.6475042104721069, 
                0.043794743716716766, 
                0.2951262295246124, 
                0.08134306967258453, 
                -0.13803353905677795, 
                -0.31542250514030457, 
                0.1667289435863495, 
                -0.6190126538276672, 
                0.15175588428974152, 
                0.13268065452575684, 
                -0.29000893235206604, 
                0.12034392356872559, 
                -0.10692992806434631, 
                -0.14200404286384583, 
                -0.04658248648047447, 
                -0.617774248123169, 
                0.08510581403970718, 
                0.11013873666524887, 
                0.11891819536685944, 
                0.29683801531791687, 
                -0.07770499587059021, 
                0.14264000952243805, 
                -0.07939222455024719, 
                -0.01858457736670971, 
                0.04791632294654846, 
                0.15347164869308472, 
                -0.14563310146331787, 
                0.27038878202438354, 
                -0.5046679973602295, 
                -0.13071174919605255, 
                0.22551864385604858, 
                0.15286220610141754, 
                0.20212669670581818, 
                0.11911250650882721, 
                -0.09284523129463196, 
                0.36822351813316345, 
                0.11182373017072678, 
                -0.055329084396362305, 
                0.23207873106002808, 
                0.2860342264175415, 
                -0.0334826298058033, 
                0.040031157433986664, 
                -0.04319077357649803, 
                -0.10491275042295456, 
                -0.11744645982980728, 
                0.07118796557188034, 
                -0.026444481685757637, 
                -0.05615544319152832, 
                -0.03463798388838768
            ]
        }, 
        "Node_9": {
            "bias": 0.27630648016929626, 
            "weights": [
                0.5892537832260132, 
                -0.2335408627986908, 
                -0.007668666075915098, 
                0.10518389940261841, 
                -0.394819974899292, 
                0.0838836282491684, 
                -0.2859322428703308, 
                -0.13767005503177643, 
                -0.18197001516819, 
                0.007647659629583359, 
                0.19691847264766693, 
                -0.7957874536514282, 
                -0.08040700852870941, 
                0.09112782776355743, 
                0.0860522910952568, 
                0.09405896067619324, 
                0.13126949965953827, 
                -0.2025182843208313, 
                -1.0230891704559326, 
                -0.23014944791793823, 
                0.015895623713731766, 
                0.07075061649084091, 
                0.30243611335754395, 
                0.107072614133358, 
                0.02371359057724476, 
                -0.1018858402967453, 
                -0.12513302266597748, 
                -0.004154343623667955, 
                0.10502602905035019, 
                0.028995200991630554, 
                0.15423862636089325, 
                0.3444548547267914, 
                0.14624015986919403, 
                0.07684186100959778, 
                -0.0011337833711877465, 
                0.11233687400817871, 
                -0.12405027449131012, 
                -0.045657481998205185, 
                0.028910396620631218, 
                0.29804784059524536, 
                0.37116456031799316, 
                0.3888821601867676, 
                -0.24916990101337433, 
                -0.12708817422389984, 
                0.10294298827648163, 
                -0.28042876720428467, 
                -0.3107162117958069, 
                0.26507046818733215, 
                -0.19960643351078033, 
                0.13221143186092377, 
                -0.2888607680797577, 
                0.3911159336566925, 
                -0.14759904146194458, 
                -0.12988150119781494, 
                0.056948162615299225, 
                0.006176436319947243, 
                -0.17810316383838654, 
                -0.11188336461782455, 
                0.3916007876396179, 
                0.3633490204811096
            ]
        }, 
        "Node_8": {
            "bias": 0.07319853454828262, 
            "weights": [
                0.18212273716926575, 
                -0.44000089168548584, 
                -0.5788854956626892, 
                -0.1369362622499466, 
                0.3646695613861084, 
                -0.23585247993469238, 
                0.011639997363090515, 
                -0.28959423303604126, 
                -0.04433184489607811, 
                0.1174497902393341, 
                0.061646655201911926, 
                -0.04242764785885811, 
                0.21383753418922424, 
                0.11380626261234283, 
                -0.1422373652458191, 
                0.21712708473205566, 
                -0.2838246822357178, 
                0.1677125245332718, 
                -0.057452552020549774, 
                0.2658996880054474, 
                -0.012063722126185894, 
                0.009194674901664257, 
                0.07335004210472107, 
                -0.015818586573004723, 
                -0.019786134362220764, 
                0.03195839747786522, 
                0.16615097224712372, 
                0.12406357377767563, 
                0.6272901296615601, 
                -0.14813539385795593, 
                0.03681298345327377, 
                -0.11208349466323853, 
                0.032714445143938065, 
                0.09627462923526764, 
                0.5235546231269836, 
                0.13061276078224182, 
                0.27376726269721985, 
                -0.2951330840587616, 
                0.3044268488883972, 
                -0.0979173555970192, 
                0.10738630592823029, 
                -0.13776130974292755, 
                0.1930137425661087, 
                -0.47342509031295776, 
                0.2676604688167572, 
                0.07866209745407104, 
                0.22651952505111694, 
                0.1290006786584854, 
                -0.3738619387149811, 
                -0.42278048396110535, 
                -0.36764803528785706, 
                0.061579085886478424, 
                -0.28157028555870056, 
                0.07575849443674088, 
                -0.10726837813854218, 
                -0.06512845307588577, 
                0.12265356630086899, 
                0.26742395758628845, 
                -0.07682444900274277, 
                -0.12013302743434906
            ]
        }, 
        "Node_7": {
            "bias": -0.03285559266805649, 
            "weights": [
                0.26519477367401123, 
                0.40947210788726807, 
                0.2005101889371872, 
                0.2288547307252884, 
                0.35764288902282715, 
                0.16958799958229065, 
                0.6343595385551453, 
                0.23719912767410278, 
                0.06715039908885956, 
                0.23199503123760223, 
                0.05583077669143677, 
                0.5826349258422852, 
                0.003084002062678337, 
                0.1066959947347641, 
                0.21210308372974396, 
                -0.1304273009300232, 
                -0.08098084479570389, 
                -0.08636707812547684, 
                0.39767321944236755, 
                0.24044427275657654, 
                -0.2056184709072113, 
                -0.029014192521572113, 
                0.07484506815671921, 
                -0.33475691080093384, 
                0.004389401059597731, 
                -0.10773880034685135, 
                0.009094234555959702, 
                0.26594114303588867, 
                -0.06370007991790771, 
                -0.007572541944682598, 
                -0.06840677559375763, 
                0.05339004471898079, 
                -0.5503556132316589, 
                0.014778363518416882, 
                0.5229430794715881, 
                0.08499132841825485, 
                0.22720454633235931, 
                0.5061615109443665, 
                0.01623709872364998, 
                -0.1106904074549675, 
                0.10872353613376617, 
                -0.32918021082878113, 
                -0.025953419506549835, 
                0.16327905654907227, 
                0.08741162717342377, 
                0.2179013192653656, 
                0.019197087734937668, 
                0.12446196377277374, 
                0.6236505508422852, 
                0.030991625040769577, 
                -0.010460951365530491, 
                -0.005689544137567282, 
                0.3171396255493164, 
                0.10844636708498001, 
                0.3270549774169922, 
                -0.20048341155052185, 
                0.11889742314815521, 
                -0.41216883063316345, 
                -0.24254991114139557, 
                -0.12326321005821228
            ]
        }, 
        "Node_6": {
            "bias": -0.16726276278495789, 
            "weights": [
                0.05825940519571304, 
                -0.09531524777412415, 
                -0.242963507771492, 
                0.24842853844165802, 
                0.1952170431613922, 
                0.08510611206293106, 
                -0.2900872826576233, 
                0.1262529045343399, 
                -0.31757184863090515, 
                0.03006354346871376, 
                0.03739446401596069, 
                -0.08704473078250885, 
                0.1887877881526947, 
                -0.12905524671077728, 
                0.06954934448003769, 
                -0.4439898133277893, 
                -0.24199514091014862, 
                -0.166595920920372, 
                0.25514501333236694, 
                0.23644301295280457, 
                -0.0223829485476017, 
                -0.26831957697868347, 
                -0.1018936038017273, 
                -0.16280221939086914, 
                0.38536152243614197, 
                -0.09289612621068954, 
                0.11111796647310257, 
                0.3933493196964264, 
                -0.6004185676574707, 
                -0.01606171764433384, 
                -0.32536453008651733, 
                0.05111272633075714, 
                -0.039304252713918686, 
                0.45806780457496643, 
                -0.0024247285909950733, 
                -0.4939258396625519, 
                0.09547120332717896, 
                -0.05527067184448242, 
                0.07204289734363556, 
                -0.2734054625034332, 
                0.079075887799263, 
                0.12390582263469696, 
                0.3636724352836609, 
                -0.20008522272109985, 
                0.3082802891731262, 
                0.05694202333688736, 
                0.007610867265611887, 
                0.08543670922517776, 
                0.032722994685173035, 
                0.09818984568119049, 
                -0.19359789788722992, 
                0.321654349565506, 
                0.24350692331790924, 
                0.17526964843273163, 
                0.17047376930713654, 
                -0.0683726817369461, 
                -0.1178349032998085, 
                0.05555180832743645, 
                -0.8525454998016357, 
                0.25084373354911804
            ]
        }, 
        "Node_5": {
            "bias": 0.4538394808769226, 
            "weights": [
                0.10291697829961777, 
                -0.6232272386550903, 
                0.21148468554019928, 
                0.12130790203809738, 
                -0.01211167685687542, 
                0.26576918363571167, 
                0.2763373553752899, 
                0.16364645957946777, 
                0.3074042499065399, 
                0.4512915015220642, 
                0.1377364695072174, 
                -0.094387486577034, 
                -0.08953649550676346, 
                0.1239241436123848, 
                0.17745660245418549, 
                0.08925284445285797, 
                0.4820752739906311, 
                -0.05035301297903061, 
                0.17930230498313904, 
                0.5035436153411865, 
                -0.11036085337400436, 
                -0.22552038729190826, 
                -0.20225511491298676, 
                0.022652601823210716, 
                -0.1265350878238678, 
                -0.08047101646661758, 
                -0.022843563929200172, 
                -0.17189711332321167, 
                0.1908591389656067, 
                0.3035966753959656, 
                -0.14487530291080475, 
                0.10149627178907394, 
                -1.1199127435684204, 
                -0.029014546424150467, 
                0.11040368676185608, 
                0.4071887731552124, 
                0.03416561335325241, 
                -0.015811024233698845, 
                -0.13086895644664764, 
                -0.1464228481054306, 
                -0.39158356189727783, 
                0.0648743137717247, 
                0.019659165292978287, 
                -0.01358096394687891, 
                -0.2310369610786438, 
                -0.016835371032357216, 
                -0.6830596327781677, 
                -0.2578405737876892, 
                0.17038166522979736, 
                -0.22500185668468475, 
                -0.335220068693161, 
                0.19153444468975067, 
                0.08553294092416763, 
                0.34159553050994873, 
                0.15723596513271332, 
                -0.1327340453863144, 
                -0.007221466861665249, 
                -0.06466618925333023, 
                0.2465958148241043, 
                -0.22046861052513123
            ]
        }, 
        "Node_4": {
            "bias": 0.32031384110450745, 
            "weights": [
                0.3624137341976166, 
                -0.06578921526670456, 
                -0.2791512608528137, 
                0.2737387418746948, 
                -1.44768488407135, 
                -0.10421043634414673, 
                0.004488626029342413, 
                0.017010727897286415, 
                -0.14175866544246674, 
                -0.16780780255794525, 
                -0.043912097811698914, 
                -0.030582387000322342, 
                0.12333229184150696, 
                -0.14210520684719086, 
                -0.12633630633354187, 
                -0.07276976108551025, 
                0.13137252628803253, 
                0.26220160722732544, 
                0.2640261650085449, 
                0.051140639930963516, 
                0.10222087800502777, 
                -0.15342985093593597, 
                0.13376151025295258, 
                -0.022891182452440262, 
                0.13905644416809082, 
                -0.2536524832248688, 
                -0.11133387684822083, 
                -0.08535134047269821, 
                0.3352152705192566, 
                0.14830467104911804, 
                -0.03609023243188858, 
                0.1259094625711441, 
                -0.05619675666093826, 
                0.11717522144317627, 
                -0.8378259539604187, 
                0.10351216048002243, 
                -0.25009918212890625, 
                0.04682683199644089, 
                0.473794549703598, 
                -0.060375310480594635, 
                -0.1076197475194931, 
                -0.030839117243885994, 
                -0.03802799433469772, 
                -0.3938813805580139, 
                0.09377959370613098, 
                0.057458240538835526, 
                -0.16041439771652222, 
                -0.012678478844463825, 
                -0.7032377123832703, 
                -0.1545749455690384, 
                0.0503658652305603, 
                0.017250636592507362, 
                0.14652670919895172, 
                -0.03576649725437164, 
                -0.12000571936368942, 
                0.16970527172088623, 
                -0.035177942365407944, 
                0.1428447961807251, 
                0.03389839828014374, 
                -0.07943388819694519
            ]
        }, 
        "Node_3": {
            "bias": 0.30346331000328064, 
            "weights": [
                -0.10109809786081314, 
                -0.4165274202823639, 
                0.009099060669541359, 
                -0.005945860408246517, 
                0.2900577485561371, 
                -0.02085592970252037, 
                0.2741180956363678, 
                0.23684395849704742, 
                0.26487818360328674, 
                -0.032588984817266464, 
                -0.06850963085889816, 
                -0.21327386796474457, 
                -0.09476630389690399, 
                0.11992871761322021, 
                -0.4834402799606323, 
                0.2672899067401886, 
                0.13063962757587433, 
                0.04768095538020134, 
                0.08221475034952164, 
                0.11080973595380783, 
                -0.13496854901313782, 
                0.1250188797712326, 
                0.08638828247785568, 
                -0.021363427862524986, 
                -0.1616281419992447, 
                0.21587218344211578, 
                0.10755977034568787, 
                0.003200369421392679, 
                0.31352418661117554, 
                -0.3233690857887268, 
                0.3397831320762634, 
                0.2473004311323166, 
                -0.6508376002311707, 
                0.21832191944122314, 
                -0.028862500563263893, 
                0.2651554346084595, 
                0.03939179703593254, 
                -0.4322875142097473, 
                0.2541038393974304, 
                0.19527919590473175, 
                0.0009704292751848698, 
                -0.007076967507600784, 
                -0.08140881359577179, 
                0.1672331541776657, 
                -0.029721828177571297, 
                -0.14872527122497559, 
                0.13600225746631622, 
                0.14991191029548645, 
                -0.3453734219074249, 
                -0.0006347079179249704, 
                -0.28465747833251953, 
                0.049923375248909, 
                0.4032873809337616, 
                0.29813647270202637, 
                -0.17628777027130127, 
                0.15351985394954681, 
                0.29367485642433167, 
                0.03104409947991371, 
                -0.02523917518556118, 
                -0.23174403607845306
            ]
        }, 
        "Node_2": {
            "bias": 0.13268065452575684, 
            "weights": [
                -0.04781530797481537, 
                -0.3014579117298126, 
                0.09033118188381195, 
                0.02496829256415367, 
                -0.03910171985626221, 
                -0.35558271408081055, 
                0.30010104179382324, 
                0.36842599511146545, 
                0.32277148962020874, 
                -0.03496253862977028, 
                -0.0753188356757164, 
                -0.5115851163864136, 
                0.12457065284252167, 
                0.32531192898750305, 
                -0.5397194623947144, 
                0.2321029007434845, 
                0.13877448439598083, 
                -0.19246381521224976, 
                0.1666635125875473, 
                -0.15843862295150757, 
                0.4008391201496124, 
                -0.02755916304886341, 
                -0.4761124551296234, 
                -0.24927709996700287, 
                -0.07137948274612427, 
                0.1610902100801468, 
                0.08794999122619629, 
                -0.05602958798408508, 
                -0.049135707318782806, 
                -0.47226282954216003, 
                -0.08959750831127167, 
                0.11624410003423691, 
                -0.5349744558334351, 
                0.10047195851802826, 
                0.14889688789844513, 
                0.3979870676994324, 
                0.06930681318044662, 
                0.19904755055904388, 
                0.11540552228689194, 
                0.26737409830093384, 
                -0.09737607091665268, 
                0.5627013444900513, 
                0.19637316465377808, 
                -0.0037162292283028364, 
                -0.0020047426223754883, 
                -0.8908952474594116, 
                0.07832809537649155, 
                0.059997301548719406, 
                -0.0031222598627209663, 
                -0.18695101141929626, 
                0.009436205960810184, 
                0.26569560170173645, 
                0.20084375143051147, 
                0.13236290216445923, 
                -0.09512104094028473, 
                -0.5177573561668396, 
                0.16079610586166382, 
                -0.24333970248699188, 
                -0.4263263940811157, 
                -0.2138887196779251
            ]
        }, 
        "Node_1": {
            "bias": 0.029058046638965607, 
            "weights": [
                -0.16289694607257843, 
                0.13475893437862396, 
                0.21574664115905762, 
                0.024181900545954704, 
                -0.6268442273139954, 
                0.17001524567604065, 
                0.42943528294563293, 
                0.1695311963558197, 
                -0.06647498160600662, 
                -0.2913454473018646, 
                0.1205945685505867, 
                -0.2831106185913086, 
                -0.152333065867424, 
                0.009912973269820213, 
                0.2965100109577179, 
                0.39252257347106934, 
                -0.2166680097579956, 
                0.21814671158790588, 
                -0.486117959022522, 
                -0.012218707241117954, 
                0.13314394652843475, 
                -0.25619715452194214, 
                -0.0962432473897934, 
                -0.09189790487289429, 
                0.09427101165056229, 
                -0.02863307297229767, 
                0.16164490580558777, 
                0.1280430257320404, 
                -0.08121573179960251, 
                -0.3286297917366028, 
                -0.1363600492477417, 
                -0.9369287490844727, 
                -0.09088215231895447, 
                0.08907631784677505, 
                0.26098716259002686, 
                -0.08468315005302429, 
                0.025793898850679398, 
                0.22723639011383057, 
                0.23401287198066711, 
                -0.1489257663488388, 
                0.19991694390773773, 
                -0.20152102410793304, 
                0.17571990191936493, 
                0.21197187900543213, 
                -0.2695789933204651, 
                -0.11726099252700806, 
                0.3150072991847992, 
                -0.271846204996109, 
                -0.11177211999893188, 
                0.23599843680858612, 
                0.07515838742256165, 
                -0.054547589272260666, 
                0.026376590132713318, 
                0.1033543199300766, 
                0.153653085231781, 
                -0.11169648170471191, 
                0.4862232804298401, 
                0.15739843249320984, 
                -0.18954218924045563, 
                -0.10787540674209595
            ]
        }, 
        "Node_0": {
            "bias": 0.10023588687181473, 
            "weights": [
                0.2656182646751404, 
                -0.03878294676542282, 
                0.1459159404039383, 
                0.08136457949876785, 
                -0.09309601038694382, 
                0.08296030759811401, 
                0.27198442816734314, 
                0.4037948250770569, 
                0.19176581501960754, 
                0.19106575846672058, 
                -0.17961452901363373, 
                -0.21774430572986603, 
                0.25237688422203064, 
                -0.1863640397787094, 
                -0.08835908025503159, 
                -0.038839809596538544, 
                0.15790902078151703, 
                0.24109935760498047, 
                -0.26110050082206726, 
                0.055242471396923065, 
                0.0363229438662529, 
                0.27841001749038696, 
                -0.030823711305856705, 
                -0.22771891951560974, 
                0.05806303769350052, 
                -0.08355437219142914, 
                0.11361141502857208, 
                -0.04385997727513313, 
                -0.12214232236146927, 
                0.1699531376361847, 
                0.3512392044067383, 
                0.07707686722278595, 
                -0.019733676686882973, 
                -0.21112293004989624, 
                -0.3504416048526764, 
                -0.27290773391723633, 
                0.04780367389321327, 
                0.14314642548561096, 
                -0.012647582218050957, 
                -0.06219561770558357, 
                -0.21522291004657745, 
                -0.3685723543167114, 
                0.18713246285915375, 
                -0.3323086202144623, 
                0.04344936087727547, 
                0.07632077485322952, 
                0.02904079481959343, 
                0.0381714329123497, 
                0.13882838189601898, 
                -0.3430883288383484, 
                -0.02056792378425598, 
                -0.16331900656223297, 
                -0.04401606321334839, 
                -0.06666658818721771, 
                0.2423713058233261, 
                0.23090629279613495, 
                0.2754937410354614, 
                0.21256624162197113, 
                -0.13520146906375885, 
                0.47233065962791443
            ]
        }
    }, 
    "Layer_0": {
        "Node_39": {
            "bias": 0.19774167239665985, 
            "weights": [
                0.30195188522338867, 
                0.03089575283229351, 
                0.08396118134260178, 
                -0.2321789264678955, 
                -0.17443864047527313, 
                0.011533080600202084, 
                -0.08484669029712677, 
                0.09868824481964111, 
                0.015497082844376564, 
                0.13581639528274536, 
                -0.09375274926424026, 
                0.16493050754070282, 
                0.5355916619300842, 
                0.21661818027496338, 
                0.20460334420204163, 
                -0.14589153230190277, 
                -0.10660899430513382, 
                0.20533020794391632
            ]
        }, 
        "Node_38": {
            "bias": 0.12360628694295883, 
            "weights": [
                0.5032153129577637, 
                0.01417911984026432, 
                0.04383772611618042, 
                -0.08781570196151733, 
                -0.259023517370224, 
                0.28599217534065247, 
                0.4736737608909607, 
                -0.08032858371734619, 
                -0.0321102999150753, 
                -0.28516942262649536, 
                -0.11717390269041061, 
                0.06159709393978119, 
                -0.1451008915901184, 
                0.020818205550312996, 
                0.3056795597076416, 
                -0.004005027003586292, 
                -0.03710727021098137, 
                -0.3306688070297241
            ]
        }, 
        "Node_19": {
            "bias": 0.1776742786169052, 
            "weights": [
                -0.3924100697040558, 
                -0.13814900815486908, 
                -0.05270102247595787, 
                -0.20124934613704681, 
                -0.2181922197341919, 
                -0.05801975727081299, 
                -0.038176968693733215, 
                0.004400577861815691, 
                0.18905866146087646, 
                0.049139462411403656, 
                -0.4065612852573395, 
                -0.6098703145980835, 
                0.14626440405845642, 
                -0.05546834319829941, 
                -0.08582817018032074, 
                -0.14832767844200134, 
                -0.19917812943458557, 
                -0.004155891481786966
            ]
        }, 
        "Node_18": {
            "bias": 0.22078905999660492, 
            "weights": [
                0.0667489692568779, 
                0.0859990194439888, 
                -0.006822329480201006, 
                0.32772162556648254, 
                -0.17377769947052002, 
                0.3976706266403198, 
                0.14420905709266663, 
                0.6304395198822021, 
                0.048221465200185776, 
                0.24449340999126434, 
                -0.4770478904247284, 
                -0.12656643986701965, 
                -0.15754884481430054, 
                -0.1216849833726883, 
                -0.15286628901958466, 
                -0.2044925093650818, 
                -0.03130447864532471, 
                0.0686519518494606
            ]
        }, 
        "Node_17": {
            "bias": 0.020502783358097076, 
            "weights": [
                -0.038509223610162735, 
                -0.049562230706214905, 
                0.08228275179862976, 
                -0.07911508530378342, 
                -0.014254432171583176, 
                -0.12827777862548828, 
                -0.05327171832323074, 
                0.0034555871970951557, 
                -0.1284579038619995, 
                0.1053176149725914, 
                0.24633513391017914, 
                0.1540898084640503, 
                0.047750089317560196, 
                -0.09234596788883209, 
                0.09063601493835449, 
                0.10330856591463089, 
                0.1096179187297821, 
                -1.2583303451538086
            ]
        }, 
        "Node_16": {
            "bias": -0.12939192354679108, 
            "weights": [
                0.2736942768096924, 
                -0.09464839845895767, 
                -0.03657473623752594, 
                -0.2758690416812897, 
                -0.03150792047381401, 
                0.022965392097830772, 
                0.04738416150212288, 
                -0.057129353284835815, 
                -0.0016004416393116117, 
                -0.9002562165260315, 
                0.35998061299324036, 
                0.4147663116455078, 
                -0.019484566524624825, 
                0.013584617525339127, 
                -0.09409566968679428, 
                0.07623525708913803, 
                -0.058910172432661057, 
                -0.05708470568060875
            ]
        }, 
        "Node_15": {
            "bias": -0.31033560633659363, 
            "weights": [
                -0.6071383357048035, 
                -0.0013238850515335798, 
                -0.06410206854343414, 
                -0.12563981115818024, 
                -0.029606014490127563, 
                -0.0597112700343132, 
                -0.01148317102342844, 
                -0.059966422617435455, 
                -0.26017722487449646, 
                0.015092304907739162, 
                -0.19455479085445404, 
                0.1927400380373001, 
                0.02553005889058113, 
                0.12627416849136353, 
                0.01736590638756752, 
                0.10402416437864304, 
                -0.7842968702316284, 
                -0.24795308709144592
            ]
        }, 
        "Node_14": {
            "bias": -0.0533655621111393, 
            "weights": [
                -0.14341497421264648, 
                -0.00287144654430449, 
                0.1107441708445549, 
                0.11155613511800766, 
                -0.14116257429122925, 
                0.8697627782821655, 
                -0.3315736949443817, 
                0.21454565227031708, 
                -0.08385297656059265, 
                -0.04954381659626961, 
                -0.03734767809510231, 
                -0.06095545366406441, 
                0.10159740597009659, 
                0.35642576217651367, 
                -0.02137613482773304, 
                -0.003885875456035137, 
                0.06695223599672318, 
                -0.08460226655006409
            ]
        }, 
        "Node_13": {
            "bias": -0.31901460886001587, 
            "weights": [
                -0.5452957153320312, 
                0.002722321543842554, 
                0.052358198910951614, 
                -0.0301224272698164, 
                0.15513227880001068, 
                0.043784402310848236, 
                0.22712014615535736, 
                -0.10656418651342392, 
                -0.17051377892494202, 
                -0.2443666011095047, 
                -0.031988974660634995, 
                0.21425974369049072, 
                0.21952469646930695, 
                -0.03848711773753166, 
                -0.25518739223480225, 
                0.25365737080574036, 
                0.24422867596149445, 
                -0.24450984597206116
            ]
        }, 
        "Node_12": {
            "bias": 0.09058920294046402, 
            "weights": [
                -0.31798648834228516, 
                -0.11169026792049408, 
                0.07844278216362, 
                0.05980925261974335, 
                -0.011305319145321846, 
                -0.04937095195055008, 
                -0.32504552602767944, 
                0.3892236351966858, 
                -0.23314957320690155, 
                0.022252025082707405, 
                0.04945356398820877, 
                0.2539224624633789, 
                -0.24735218286514282, 
                0.054303333163261414, 
                0.24557209014892578, 
                0.19424907863140106, 
                -0.08016689121723175, 
                0.0032859693747013807
            ]
        }, 
        "Node_11": {
            "bias": -0.4716349244117737, 
            "weights": [
                -0.09767778217792511, 
                0.053192440420389175, 
                0.10136168450117111, 
                0.0059769186191260815, 
                -0.0735611543059349, 
                -0.38540321588516235, 
                -0.008004064671695232, 
                0.22568990290164948, 
                0.27983585000038147, 
                -0.0040479861199855804, 
                -0.2704247236251831, 
                0.811622142791748, 
                0.276640385389328, 
                -0.1733158528804779, 
                0.0008400007500313222, 
                0.053405001759529114, 
                -0.5913801789283752, 
                0.030662432312965393
            ]
        }, 
        "Node_10": {
            "bias": -0.2720021605491638, 
            "weights": [
                0.15148749947547913, 
                -0.034935057163238525, 
                -0.07991575449705124, 
                0.38887450098991394, 
                0.38074907660484314, 
                0.08673369884490967, 
                0.018975814804434776, 
                -0.14801077544689178, 
                0.06469183415174484, 
                -0.0440664067864418, 
                -0.29748600721359253, 
                -0.44176265597343445, 
                -0.03967311978340149, 
                -0.011233203113079071, 
                -0.02374170906841755, 
                0.11320627480745316, 
                0.11199085414409637, 
                0.0073545039631426334
            ]
        }, 
        "Node_45": {
            "bias": -0.19616656005382538, 
            "weights": [
                -0.45453163981437683, 
                0.029807645827531815, 
                -0.05465403199195862, 
                0.37301164865493774, 
                -0.21653054654598236, 
                0.024274438619613647, 
                -0.009723130613565445, 
                0.28883302211761475, 
                -0.17137525975704193, 
                0.015646198764443398, 
                0.09964246302843094, 
                -0.09531580656766891, 
                0.11109865456819534, 
                -0.04797597974538803, 
                0.03962351754307747, 
                -0.13072548806667328, 
                -0.3681669533252716, 
                -0.405275821685791
            ]
        }, 
        "Node_31": {
            "bias": 0.2992246150970459, 
            "weights": [
                0.5975356101989746, 
                -0.008524572476744652, 
                0.0025163565296679735, 
                -0.168182834982872, 
                0.05166606605052948, 
                -0.22354018688201904, 
                0.19054022431373596, 
                0.32780522108078003, 
                0.10392032563686371, 
                -0.04033556953072548, 
                0.023367423564195633, 
                0.1431601345539093, 
                0.04908343404531479, 
                0.11380480229854584, 
                0.08163613826036453, 
                0.2688082158565521, 
                -1.0936603546142578, 
                -0.019679447636008263
            ]
        }, 
        "Node_40": {
            "bias": -0.2715514600276947, 
            "weights": [
                -0.1459689438343048, 
                0.06854420900344849, 
                0.09644148498773575, 
                -0.07596014440059662, 
                -0.025728145614266396, 
                0.28049468994140625, 
                -0.1781778484582901, 
                -0.3179340958595276, 
                -0.20817777514457703, 
                0.16829383373260498, 
                0.18925747275352478, 
                -0.19126930832862854, 
                -0.011154184117913246, 
                -0.29063382744789124, 
                0.09065494686365128, 
                -0.04062813147902489, 
                -0.13702939450740814, 
                0.15072810649871826
            ]
        }, 
        "Node_41": {
            "bias": -0.023953348398208618, 
            "weights": [
                -0.008978049270808697, 
                -0.021979408338665962, 
                1.2815689842682332e-05, 
                0.26296818256378174, 
                0.12193550914525986, 
                0.04278482869267464, 
                -0.006811936851590872, 
                0.0324053131043911, 
                -0.08026906847953796, 
                -0.048252418637275696, 
                -1.1616902351379395, 
                0.23981912434101105, 
                0.009055093862116337, 
                0.05119873955845833, 
                0.011144844815135002, 
                -0.016009876504540443, 
                0.009299241937696934, 
                0.017475953325629234
            ]
        }, 
        "Node_42": {
            "bias": 0.29481783509254456, 
            "weights": [
                0.29730477929115295, 
                -0.09349587559700012, 
                -0.03789127618074417, 
                0.17742088437080383, 
                -0.04281306639313698, 
                0.1376924067735672, 
                0.10028328001499176, 
                -0.2665673494338989, 
                -0.03441467881202698, 
                -0.23043273389339447, 
                -0.02315954491496086, 
                0.11945926398038864, 
                0.06047363951802254, 
                -0.2363385558128357, 
                0.07177326083183289, 
                -0.06259577721357346, 
                -0.5070856213569641, 
                0.35431578755378723
            ]
        }, 
        "Node_26": {
            "bias": -0.285923570394516, 
            "weights": [
                -0.9051924347877502, 
                0.03990383818745613, 
                -0.07285086810588837, 
                -0.0012494100956246257, 
                0.12290270626544952, 
                0.16924521327018738, 
                -0.24788150191307068, 
                -0.17029765248298645, 
                -0.15204638242721558, 
                0.22378461062908173, 
                -0.019071631133556366, 
                -0.18668946623802185, 
                -0.06244903430342674, 
                -0.1752292811870575, 
                -0.11787614226341248, 
                -0.07254146784543991, 
                0.1662294864654541, 
                -0.06562073528766632
            ]
        }, 
        "Node_27": {
            "bias": -0.2565890848636627, 
            "weights": [
                1.3771628141403198, 
                -0.027081554755568504, 
                0.04997371509671211, 
                0.05759381502866745, 
                -0.05955670773983002, 
                0.023760421201586723, 
                0.36871808767318726, 
                -0.4083777070045471, 
                -0.11603198200464249, 
                0.07051266729831696, 
                -0.012381703592836857, 
                0.007562470622360706, 
                -0.052534230053424835, 
                0.3102736473083496, 
                0.20599892735481262, 
                0.2949192523956299, 
                0.016045011579990387, 
                -0.0692618265748024
            ]
        }, 
        "Node_24": {
            "bias": 0.49396589398384094, 
            "weights": [
                0.6115115880966187, 
                -0.03005645051598549, 
                0.012755691073834896, 
                -0.009288633242249489, 
                -0.04570513963699341, 
                0.12596207857131958, 
                0.19357791543006897, 
                0.24132582545280457, 
                -0.2235552817583084, 
                -0.13728225231170654, 
                -0.10572754591703415, 
                0.03920188546180725, 
                0.18312853574752808, 
                -0.020285921171307564, 
                -0.42041581869125366, 
                0.3903316259384155, 
                0.13033543527126312, 
                -0.1835111379623413
            ]
        }, 
        "Node_25": {
            "bias": 0.019341101869940758, 
            "weights": [
                0.21343475580215454, 
                -0.05551828816533089, 
                -0.02887221984565258, 
                0.12362731248140335, 
                0.1767866164445877, 
                0.03329931199550629, 
                0.011099589988589287, 
                -0.00710584269836545, 
                0.06391915678977966, 
                -0.17855678498744965, 
                0.39126095175743103, 
                -0.993277907371521, 
                0.00994042307138443, 
                0.02322361059486866, 
                -0.07273717224597931, 
                0.023935286328196526, 
                -0.1299341470003128, 
                -0.07861294597387314
            ]
        }, 
        "Node_22": {
            "bias": -0.3897315263748169, 
            "weights": [
                0.0982687845826149, 
                0.011115556582808495, 
                0.016945939511060715, 
                -0.03899141028523445, 
                -0.051057104021310806, 
                -0.20828182995319366, 
                0.05754705145955086, 
                -0.05065135285258293, 
                0.07741453498601913, 
                -0.6732662320137024, 
                0.009292777627706528, 
                0.09278833866119385, 
                -0.10068321228027344, 
                -0.42984530329704285, 
                0.18560181558132172, 
                -0.09096714109182358, 
                -0.0379936657845974, 
                -0.05511365458369255
            ]
        }, 
        "Node_23": {
            "bias": -0.09457758069038391, 
            "weights": [
                0.19742929935455322, 
                -0.008759774267673492, 
                0.07484932988882065, 
                -0.11237186938524246, 
                -0.0686475858092308, 
                0.26174983382225037, 
                -0.14611811935901642, 
                -0.048228535801172256, 
                -0.16708378493785858, 
                -0.7229334712028503, 
                0.15260443091392517, 
                0.48779067397117615, 
                -0.04045550152659416, 
                0.08946150541305542, 
                0.059539858251810074, 
                -0.060311105102300644, 
                0.07044826447963715, 
                -0.1361735612154007
            ]
        }, 
        "Node_20": {
            "bias": 0.023503795266151428, 
            "weights": [
                0.4725959002971649, 
                0.21725501120090485, 
                0.0017972772475332022, 
                -0.5405946373939514, 
                0.65694659948349, 
                0.03496384993195534, 
                0.09536277502775192, 
                0.17263387143611908, 
                0.09648890793323517, 
                0.2714288532733917, 
                -0.12185941636562347, 
                0.002483904594555497, 
                0.11039001494646072, 
                0.13152077794075012, 
                0.13221466541290283, 
                0.012836203910410404, 
                0.1649729311466217, 
                0.08170853555202484
            ]
        }, 
        "Node_21": {
            "bias": 0.5698719620704651, 
            "weights": [
                0.5676807761192322, 
                -0.05144020542502403, 
                -0.039363566786050797, 
                -0.11255195736885071, 
                0.10408275574445724, 
                0.22976140677928925, 
                0.13817797601222992, 
                -0.027804585173726082, 
                0.2135601043701172, 
                0.07386726886034012, 
                -0.056492581963539124, 
                -0.1205204427242279, 
                -0.009701497852802277, 
                0.16268913447856903, 
                0.02509811706840992, 
                -0.12953980267047882, 
                -0.43525728583335876, 
                -0.7966223955154419
            ]
        }, 
        "Node_30": {
            "bias": -0.09871150553226471, 
            "weights": [
                0.005067015998065472, 
                -0.044663429260253906, 
                0.010726634413003922, 
                -0.16253498196601868, 
                -0.36007827520370483, 
                -0.03218686208128929, 
                0.08005538582801819, 
                0.3136768639087677, 
                -0.4416634738445282, 
                -0.019208306446671486, 
                -0.04507848620414734, 
                -0.13474255800247192, 
                0.48483946919441223, 
                0.05124952271580696, 
                -0.17060869932174683, 
                0.14520366489887238, 
                0.16011065244674683, 
                -0.05869441106915474
            ]
        }, 
        "Node_44": {
            "bias": 0.4415752589702606, 
            "weights": [
                0.9102678894996643, 
                0.004585798364132643, 
                0.013161244802176952, 
                -0.07173239439725876, 
                0.09182796627283096, 
                -0.027246229350566864, 
                0.1459837704896927, 
                -0.28770408034324646, 
                -0.00418122811242938, 
                -0.008219538256525993, 
                -0.10337884724140167, 
                -0.022888021543622017, 
                0.003758746664971113, 
                -0.353601336479187, 
                -0.20432661473751068, 
                -0.03112378530204296, 
                0.18011152744293213, 
                0.09426330775022507
            ]
        }, 
        "Node_33": {
            "bias": 0.14165547490119934, 
            "weights": [
                0.5642404556274414, 
                -0.09058116376399994, 
                -0.014994699507951736, 
                -0.08491616696119308, 
                0.06855548918247223, 
                -0.12896005809307098, 
                -0.3166532516479492, 
                -0.42361578345298767, 
                0.1669781357049942, 
                -0.021574003621935844, 
                -0.17234355211257935, 
                0.09415051341056824, 
                0.1302192360162735, 
                -0.22194623947143555, 
                -0.3261875510215759, 
                -0.1327022761106491, 
                -0.19057655334472656, 
                0.042290132492780685
            ]
        }, 
        "Node_28": {
            "bias": 0.3395882546901703, 
            "weights": [
                0.46860477328300476, 
                0.01078194472938776, 
                -0.06031106784939766, 
                -0.06399806588888168, 
                0.12445323169231415, 
                -0.0009711062302812934, 
                0.09329923242330551, 
                -0.2570711076259613, 
                -0.05384519323706627, 
                -0.16991017758846283, 
                -0.4819575250148773, 
                0.39430227875709534, 
                -0.21983402967453003, 
                0.0476410947740078, 
                -0.052739448845386505, 
                0.14638198912143707, 
                0.057400453835725784, 
                -0.1123962253332138
            ]
        }, 
        "Node_29": {
            "bias": 0.2562207579612732, 
            "weights": [
                -0.05476279929280281, 
                -0.08438768982887268, 
                -0.047276172786951065, 
                0.337092787027359, 
                -0.4018871784210205, 
                0.07054070383310318, 
                0.19520092010498047, 
                0.08027858287096024, 
                -0.009363413788378239, 
                0.236138716340065, 
                -0.20534542202949524, 
                0.36061522364616394, 
                -0.07536481320858002, 
                -0.3644114136695862, 
                -0.1377909630537033, 
                -0.21603213250637054, 
                0.1302356719970703, 
                0.26176583766937256
            ]
        }, 
        "Node_32": {
            "bias": -0.31041333079338074, 
            "weights": [
                -0.7765255570411682, 
                -0.053052160888910294, 
                -0.11983825266361237, 
                0.024589577689766884, 
                0.11166313290596008, 
                -0.23731333017349243, 
                -0.1149703711271286, 
                0.11839140951633453, 
                -0.5254525542259216, 
                0.040577612817287445, 
                0.1178302988409996, 
                -0.03801204264163971, 
                0.060432106256484985, 
                -0.11811427772045135, 
                0.18831785023212433, 
                -0.11132904142141342, 
                -0.13795849680900574, 
                -0.10942813009023666
            ]
        }, 
        "Node_46": {
            "bias": 0.32317158579826355, 
            "weights": [
                0.07386305183172226, 
                0.04848509281873703, 
                0.1560453325510025, 
                0.07218136638402939, 
                -0.026210086420178413, 
                -0.2514055371284485, 
                -0.056334808468818665, 
                0.4847099781036377, 
                0.7946403622627258, 
                -0.3503415584564209, 
                -0.13607262074947357, 
                -0.028110545128583908, 
                0.06219968944787979, 
                0.05824514105916023, 
                0.06623993813991547, 
                0.07002154737710953, 
                0.18012093007564545, 
                -0.3710888922214508
            ]
        }, 
        "Node_35": {
            "bias": -0.3921705186367035, 
            "weights": [
                -0.713324248790741, 
                0.018332799896597862, 
                0.05275866389274597, 
                -0.033557865768671036, 
                0.07474395632743835, 
                -0.07021528482437134, 
                0.024453600868582726, 
                -0.03835530951619148, 
                -0.6476109027862549, 
                -0.004227237310260534, 
                -0.017603831365704536, 
                -0.036391064524650574, 
                -0.019390685483813286, 
                -0.14272573590278625, 
                -0.14113076031208038, 
                0.07158730179071426, 
                -0.19969262182712555, 
                -0.0330636091530323
            ]
        }, 
        "Node_47": {
            "bias": -0.10454093664884567, 
            "weights": [
                -0.7547625303268433, 
                -0.012983943335711956, 
                -0.09924934059381485, 
                0.013521019369363785, 
                -0.010551516897976398, 
                -0.28907036781311035, 
                -0.019651224836707115, 
                0.06707502156496048, 
                -0.6023625135421753, 
                0.1844465583562851, 
                0.032785311341285706, 
                0.0670110210776329, 
                -0.05618623271584511, 
                -0.19760160148143768, 
                -0.25125330686569214, 
                0.30198121070861816, 
                0.04311206564307213, 
                0.21797426044940948
            ]
        }, 
        "Node_34": {
            "bias": 0.2903285026550293, 
            "weights": [
                0.1088188886642456, 
                0.08386659622192383, 
                -0.10764645040035248, 
                0.05184660479426384, 
                -0.07793332636356354, 
                -0.2406298667192459, 
                0.2966751456260681, 
