{
    "Layer_1": {
        "Node_19": {
            "bias": 0.2869926393032074, 
            "weights": [
                -0.012999646365642548, 
                0.061081815510988235, 
                0.06725579500198364, 
                -0.03837595507502556, 
                -0.07719185948371887, 
                0.10704342275857925, 
                0.024151094257831573, 
                0.1875077188014984, 
                0.07956712692975998, 
                0.023282311856746674, 
                0.22984281182289124, 
                0.02653573267161846, 
                -0.013434301130473614, 
                0.16761189699172974, 
                0.120707668364048, 
                -0.047439154237508774, 
                0.06627845764160156, 
                0.1446981430053711, 
                0.13047771155834198, 
                0.02866464853286743, 
                0.11355852335691452, 
                -0.05384379252791405, 
                -0.07009780406951904, 
                -0.18277600407600403, 
                0.05754238739609718, 
                0.04242343455553055, 
                0.1807820200920105, 
                -0.03338782489299774, 
                -0.047939494252204895, 
                -0.040714338421821594, 
                -0.08082215487957001, 
                -0.09778603911399841, 
                0.04197119548916817, 
                0.21491265296936035, 
                0.12550656497478485, 
                -0.115666463971138, 
                0.16202884912490845, 
                -0.023521583527326584, 
                -0.08407887071371078, 
                -0.06274431198835373, 
                -0.05062559247016907, 
                -0.15692520141601562, 
                -0.0440971776843071, 
                0.08546090126037598, 
                0.04055066406726837, 
                -0.02316078543663025, 
                0.13529770076274872, 
                -0.00963776558637619, 
                0.14176075160503387, 
                -0.11369998008012772, 
                -0.03539988771080971, 
                0.08931023627519608, 
                0.04123009741306305, 
                -0.17222508788108826, 
                0.027564719319343567, 
                0.0661553367972374, 
                0.038787830621004105, 
                0.06991249322891235, 
                0.0971933975815773, 
                -0.08145992457866669, 
                0.07044675201177597, 
                -0.2208593636751175, 
                0.10444270074367523, 
                -0.13500575721263885, 
                0.10072314739227295, 
                0.07331448793411255, 
                -0.03797489404678345, 
                -0.14608216285705566, 
                -0.21107697486877441, 
                -0.10829497873783112, 
                -0.2173742800951004, 
                0.06133360415697098, 
                -0.1528293937444687, 
                -0.1140526682138443, 
                -0.04652613028883934, 
                -0.0604948028922081, 
                0.1997281014919281, 
                0.1020587757229805, 
                0.1460505574941635, 
                0.09284181147813797, 
                0.05329975485801697, 
                0.12481366097927094, 
                -0.10235465317964554, 
                -0.055600039660930634, 
                -0.07077949494123459, 
                -0.0030164511408656836, 
                0.004728301428258419, 
                0.07201387733221054, 
                0.0612771175801754, 
                0.09836845099925995, 
                0.21084977686405182, 
                -0.09620492160320282, 
                0.10780416429042816, 
                -0.033049553632736206, 
                0.09098542481660843, 
                0.1438852995634079, 
                -0.24054908752441406, 
                0.07633740454912186, 
                0.16496148705482483, 
                -0.13731613755226135, 
                0.1023135706782341, 
                0.007646765559911728, 
                -0.04285914823412895, 
                0.1140766441822052, 
                -0.0454905740916729, 
                -0.1651771068572998, 
                0.6026612520217896, 
                -0.0929616242647171, 
                -0.14138273894786835, 
                -0.09433158487081528, 
                0.05184609442949295, 
                -0.03588785231113434, 
                -0.057969994843006134, 
                -0.14476032555103302, 
                0.11408178508281708, 
                -0.13313648104667664, 
                0.030309757217764854, 
                0.09823501855134964, 
                -0.026007872074842453, 
                -0.10966873168945312, 
                0.052516285330057144, 
                -0.04909312352538109, 
                0.026754049584269524, 
                0.16587215662002563, 
                -0.06799893081188202, 
                -0.031386468559503555, 
                0.027044909074902534, 
                -0.06147225573658943, 
                0.0815948098897934, 
                -0.09835631400346756, 
                -0.12021521478891373, 
                -0.13864542543888092, 
                0.11893771588802338, 
                -0.11014383286237717, 
                -0.05452615022659302, 
                -0.024091409519314766, 
                -0.049447186291217804, 
                -0.058448340743780136, 
                -0.1807347536087036, 
                -0.13484874367713928, 
                0.1642584651708603, 
                -0.037875697016716, 
                -0.07374440133571625, 
                -0.4089130163192749, 
                -0.18111158907413483, 
                0.03627832978963852, 
                -0.006874824874103069, 
                0.02556559070944786, 
                -0.008610619232058525, 
                -0.08256030827760696
            ]
        }, 
        "Node_18": {
            "bias": -0.011483471840620041, 
            "weights": [
                -0.03393034264445305, 
                0.06965731084346771, 
                0.11308188736438751, 
                0.0013755197869613767, 
                -0.07850287109613419, 
                0.06194177269935608, 
                0.10733729600906372, 
                -0.12339611351490021, 
                -0.16278964281082153, 
                0.10664902627468109, 
                -0.12168212980031967, 
                0.08922843635082245, 
                -0.15603691339492798, 
                -0.009458092972636223, 
                0.07459937036037445, 
                -0.05288558825850487, 
                -0.009665010496973991, 
                -0.15054528415203094, 
                -0.007358485832810402, 
                0.08623805642127991, 
                -0.00026521371910348535, 
                0.026928944513201714, 
                0.010535006411373615, 
                -0.0374751053750515, 
                0.09565271437168121, 
                0.11921150237321854, 
                -0.11045342683792114, 
                0.043448738753795624, 
                0.023045308887958527, 
                -0.1662556231021881, 
                -0.07176878303289413, 
                0.0865897536277771, 
                -0.02861182391643524, 
                -0.07076139003038406, 
                -0.14075514674186707, 
                -0.11048277467489243, 
                0.09546724706888199, 
                0.10917706042528152, 
                0.023233288899064064, 
                0.010811845771968365, 
                -0.1251666247844696, 
                0.1281287521123886, 
                0.13007698953151703, 
                0.11285190284252167, 
                -0.16044217348098755, 
                -0.06703879684209824, 
                0.11438117176294327, 
                -0.16903728246688843, 
                -0.04907046630978584, 
                -0.1137474775314331, 
                0.048277366906404495, 
                0.00876783486455679, 
                -0.010279275476932526, 
                0.09957794845104218, 
                -0.08280184119939804, 
                0.11466414481401443, 
                -0.12572389841079712, 
                -0.10056045651435852, 
                0.11761969327926636, 
                0.028337985277175903, 
                -0.05463286489248276, 
                -0.08174874633550644, 
                0.1131911426782608, 
                -0.1637512743473053, 
                0.016287636011838913, 
                -0.1038302332162857, 
                -0.021743332967162132, 
                0.0027390385512262583, 
                -0.15472151339054108, 
                -0.00017720161122269928, 
                -0.07871764898300171, 
                -0.126664936542511, 
                -0.09696346521377563, 
                -0.0026147214230149984, 
                0.13953706622123718, 
                -0.1345706284046173, 
                -0.07289782911539078, 
                -0.05387386679649353, 
                -0.0002330326387891546, 
                -0.07631256431341171, 
                -0.030820509418845177, 
                -0.17154471576213837, 
                -0.13129745423793793, 
                0.09093092381954193, 
                -0.12883548438549042, 
                -0.08237239718437195, 
                0.04012368619441986, 
                -0.03306059166789055, 
                -0.11486348509788513, 
                -0.07467610388994217, 
                0.05513305217027664, 
                0.008451406843960285, 
                -0.023857420310378075, 
                -0.11083623021841049, 
                -0.020235789939761162, 
                -0.1315118968486786, 
                -0.07948298007249832, 
                0.020373785868287086, 
                -0.0211962778121233, 
                0.030754845589399338, 
                0.0056001124903559685, 
                0.04699157923460007, 
                0.005867654457688332, 
                -0.0644676461815834, 
                0.0035600364208221436, 
                -0.07996974140405655, 
                -0.08106697350740433, 
                0.11781859397888184, 
                0.05403555557131767, 
                -0.026848474517464638, 
                0.051657386124134064, 
                0.02197834476828575, 
                0.1224997416138649, 
                -0.08334948867559433, 
                0.06837678700685501, 
                -0.1210937350988388, 
                0.1259268820285797, 
                0.11839383095502853, 
                -0.06784132868051529, 
                0.083058200776577, 
                0.10690702497959137, 
                -0.0933723896741867, 
                0.08529463410377502, 
                -0.027723735198378563, 
                -0.09239210933446884, 
                -0.05733190104365349, 
                -0.052493009716272354, 
                -0.017104800790548325, 
                -0.10739082098007202, 
                -0.01999456062912941, 
                -0.06010501831769943, 
                -0.028825465589761734, 
                -0.08103840053081512, 
                0.010374468751251698, 
                0.09637908637523651, 
                -0.09675606340169907, 
                -0.1760239154100418, 
                -0.03302590921521187, 
                -0.0934848040342331, 
                -0.012693706899881363, 
                0.09638728201389313, 
                -0.03412260487675667, 
                0.00322604738175869, 
                0.0443120077252388, 
                -0.04918213188648224, 
                -0.011477840133011341, 
                0.09133787453174591, 
                -0.07744023948907852, 
                -0.0861443430185318, 
                -0.016882244497537613
            ]
        }, 
        "Node_17": {
            "bias": 0.15099361538887024, 
            "weights": [
                -0.035142913460731506, 
                -0.11613279581069946, 
                0.13881352543830872, 
                -0.1332527995109558, 
                0.24638403952121735, 
                -0.048343535512685776, 
                -0.1440296322107315, 
                -0.16683152318000793, 
                -0.03268684446811676, 
                -0.0875386968255043, 
                0.02623913437128067, 
                -0.02997228503227234, 
                0.17397312819957733, 
                0.026160938665270805, 
                -0.024101760238409042, 
                -0.022294452413916588, 
                0.13176345825195312, 
                -0.06580302864313126, 
                -0.1650771051645279, 
                0.06758400797843933, 
                -0.23334826529026031, 
                -0.163166344165802, 
                -0.07367116957902908, 
                -0.15322795510292053, 
                -0.14321769773960114, 
                0.02790118008852005, 
                0.2717585861682892, 
                0.1055719256401062, 
                0.012523109093308449, 
                -0.05208410322666168, 
                -0.04235861450433731, 
                -0.20045989751815796, 
                0.15974122285842896, 
                0.07323335856199265, 
                -0.03724915534257889, 
                -0.09632924199104309, 
                0.08074048906564713, 
                -0.059665583074092865, 
                0.05874121934175491, 
                0.0741473063826561, 
                -0.13517139852046967, 
                -0.06347548961639404, 
                -0.1533631533384323, 
                0.25878384709358215, 
                0.042155586183071136, 
                0.000668517139274627, 
                0.10501030832529068, 
                -0.004250455182045698, 
                0.06427931040525436, 
                -0.07080534100532532, 
                0.05502844601869583, 
                0.007186129689216614, 
                -0.16384655237197876, 
                -0.061119284480810165, 
                -0.11854718625545502, 
                -0.05337917432188988, 
                -0.07461478561162949, 
                -0.06841813027858734, 
                -0.20862576365470886, 
                0.09065039455890656, 
                -0.04637569934129715, 
                -0.29262882471084595, 
                0.07765291631221771, 
                -0.09920448809862137, 
                -0.01662757620215416, 
                -0.027473367750644684, 
                -0.24856041371822357, 
                -0.010968578979372978, 
                0.10789191722869873, 
                -0.09400177001953125, 
                -0.034961238503456116, 
                -0.034659575670957565, 
                -0.2107442021369934, 
                -0.12291647493839264, 
                0.0022329988423734903, 
                -0.010886157862842083, 
                -0.019681069999933243, 
                0.1296321302652359, 
                -0.10870209336280823, 
                0.14530473947525024, 
                -0.06574799865484238, 
                0.06718399375677109, 
                -0.224466472864151, 
                0.14197678864002228, 
                0.014562671072781086, 
                0.10499399155378342, 
                -0.03694876283407211, 
                -0.09108385443687439, 
                0.0754673108458519, 
                -0.25190863013267517, 
                -0.2234821319580078, 
                0.06077388674020767, 
                0.057362671941518784, 
                -0.07784468680620193, 
                -0.14873865246772766, 
                0.025002239271998405, 
                0.12587133049964905, 
                -0.21280282735824585, 
                -0.2281394749879837, 
                -0.07083568722009659, 
                -0.14168617129325867, 
                0.11523554474115372, 
                0.048085957765579224, 
                0.038082901388406754, 
                0.14386475086212158, 
                0.0703805461525917, 
                -0.0850127562880516, 
                -0.10819658637046814, 
                0.03762317821383476, 
                -0.11395116150379181, 
                -0.022381002083420753, 
                -0.02609751932322979, 
                -0.050579071044921875, 
                -0.04856330528855324, 
                -0.15276409685611725, 
                -0.30928751826286316, 
                0.022509057074785233, 
                -0.09224674105644226, 
                -0.12485355883836746, 
                -0.18072621524333954, 
                -0.09697773307561874, 
                -0.09478788822889328, 
                -0.003440421773120761, 
                -0.08384159207344055, 
                -0.07360664755105972, 
                0.02686220034956932, 
                -0.044446274638175964, 
                0.021290907636284828, 
                0.04423799738287926, 
                -0.043986767530441284, 
                0.15728934109210968, 
                -0.010036678053438663, 
                -0.10906003415584564, 
                0.2566816806793213, 
                0.0917108878493309, 
                0.09089944511651993, 
                -0.0796632170677185, 
                -0.061956752091646194, 
                -0.08812178671360016, 
                0.04724128544330597, 
                0.034432344138622284, 
                -0.06551654636859894, 
                -0.2294243723154068, 
                0.2511803209781647, 
                -0.11000066250562668, 
                -0.5701771378517151, 
                -0.0835825651884079, 
                0.1122225746512413, 
                -0.2157067060470581, 
                0.07405415177345276
            ]
        }, 
        "Node_16": {
            "bias": 0.22742688655853271, 
            "weights": [
                -0.10521016269922256, 
                0.10496480762958527, 
                -0.02026444673538208, 
                0.13587023317813873, 
                0.027073759585618973, 
                -0.12058554589748383, 
                -0.005171819590032101, 
                0.11381947994232178, 
                -0.03288467228412628, 
                -0.2549701929092407, 
                -0.09371796995401382, 
                -0.11781386286020279, 
                0.15076418220996857, 
                -0.03464305400848389, 
                0.026004265993833542, 
                0.040048278868198395, 
                0.02658902294933796, 
                -0.010651892051100731, 
                -0.41177788376808167, 
                0.15313933789730072, 
                -0.18242023885250092, 
                -0.07975741475820541, 
                0.006748649291694164, 
                -0.026510758325457573, 
                -0.03550536185503006, 
                0.11303027719259262, 
                -0.10182274878025055, 
                -0.00595924723893404, 
                -0.0061807092279195786, 
                -0.16837053000926971, 
                0.09310457110404968, 
                -0.06296132504940033, 
                -0.21446451544761658, 
                0.026270359754562378, 
                -0.13970398902893066, 
                -0.13133443892002106, 
                -0.08518829196691513, 
                0.1189301386475563, 
                0.021901573985815048, 
                0.05653539299964905, 
                -0.1746554970741272, 
                0.0728655755519867, 
                -0.065245620906353, 
                0.07418416440486908, 
                0.03264296054840088, 
                0.030050013214349747, 
                0.037118591368198395, 
                0.027964003384113312, 
                -0.035434626042842865, 
                0.008082916960120201, 
                0.06574822217226028, 
                0.133149191737175, 
                0.10700363665819168, 
                0.07188878953456879, 
                -0.1707082986831665, 
                0.036765117198228836, 
                -0.02493288367986679, 
                -0.1909080594778061, 
                -0.21916306018829346, 
                -0.10365313291549683, 
                -0.21579894423484802, 
                -0.2283564954996109, 
                -0.05685859173536301, 
                0.18020521104335785, 
                0.08951763808727264, 
                0.020431971177458763, 
                0.13121140003204346, 
                0.03944682329893112, 
                -0.29384565353393555, 
                -0.06824137270450592, 
                0.047868385910987854, 
                0.029146557673811913, 
                -0.022386975586414337, 
                -0.17654316127300262, 
                -0.1550503373146057, 
                0.0060880426317453384, 
                -0.04076800495386124, 
                -0.2266097068786621, 
                0.02941589243710041, 
                -0.11569038033485413, 
                -0.000126639919471927, 
                0.06458044797182083, 
                -0.04052065685391426, 
                -0.06077660247683525, 
                0.08344154059886932, 
                -0.07390955835580826, 
                -0.09479424357414246, 
                -0.0755249634385109, 
                0.10698758810758591, 
                -0.04034421592950821, 
                -0.19525039196014404, 
                -0.007487176451832056, 
                -0.07871735095977783, 
                0.0048782420344650745, 
                -0.1917162537574768, 
                0.021213889122009277, 
                0.08523386716842651, 
                0.09071522206068039, 
                -0.007392942439764738, 
                0.2102988213300705, 
                -0.04102605581283569, 
                -0.08648721128702164, 
                0.07505854219198227, 
                0.02514486387372017, 
                -0.2110510766506195, 
                -0.10227777063846588, 
                -0.12824973464012146, 
                -0.12248962372541428, 
                -0.0884966030716896, 
                -0.03987278416752815, 
                -0.22514067590236664, 
                0.05686023458838463, 
                0.060449011623859406, 
                0.2390744835138321, 
                -0.010908884927630424, 
                0.11425623297691345, 
                0.002198000205680728, 
                -0.15686218440532684, 
                0.138764888048172, 
                -0.14551015198230743, 
                0.09312468022108078, 
                -0.27551472187042236, 
                0.19976164400577545, 
                -0.20133428275585175, 
                0.1287727802991867, 
                0.18510474264621735, 
                0.03647748380899429, 
                0.10341915488243103, 
                -0.18116363883018494, 
                0.008222628384828568, 
                0.277750700712204, 
                -0.03517552465200424, 
                -0.07264289259910583, 
                0.0620611347258091, 
                0.13415952026844025, 
                -0.17764510214328766, 
                -0.11832305788993835, 
                -0.13186858594417572, 
                -0.12035559117794037, 
                0.04957976192235947, 
                0.08773660659790039, 
                0.025416338816285133, 
                -0.18541477620601654, 
                0.004415803588926792, 
                -0.18389584124088287, 
                0.038343824446201324, 
                -0.1818254590034485, 
                -0.07976402342319489, 
                0.028653085231781006, 
                -0.03358645737171173
            ]
        }, 
        "Node_15": {
            "bias": -0.01993483491241932, 
            "weights": [
                0.1121089980006218, 
                0.06722383201122284, 
                -0.14086125791072845, 
                0.002451892476528883, 
                0.08520101755857468, 
                0.05722285434603691, 
                -0.008937669917941093, 
                0.013074846006929874, 
                0.09119410067796707, 
                0.11633437871932983, 
                0.009889468550682068, 
                -0.0010553320171311498, 
                -0.12211272865533829, 
                0.10015039145946503, 
                0.09956151992082596, 
                0.03958817943930626, 
                0.041361209005117416, 
                -0.12741154432296753, 
                0.08423561602830887, 
                0.0778302401304245, 
                0.055990979075431824, 
                0.06745303422212601, 
                0.07722984999418259, 
                0.06687742471694946, 
                -0.126646026968956, 
                0.1527918130159378, 
                -0.11155848205089569, 
                0.07613430917263031, 
                -0.11206776648759842, 
                -0.060472406446933746, 
                0.054136551916599274, 
                -0.0496436171233654, 
                -0.11433843523263931, 
                -8.552895451430231e-05, 
                -0.003419354557991028, 
                0.09894020110368729, 
                -0.022386515513062477, 
                -0.03566676005721092, 
                -0.13695015013217926, 
                -0.05797630548477173, 
                -0.012306020595133305, 
                0.11149299889802933, 
                -0.14589819312095642, 
                -0.07881120592355728, 
                -0.08166176825761795, 
                -0.10900762677192688, 
                -0.12538546323776245, 
                0.11028246581554413, 
                -0.10401313006877899, 
                0.07001280039548874, 
                -0.015541867353022099, 
                -0.11877123266458511, 
                -0.04827195033431053, 
                0.038588445633649826, 
                -0.027203360572457314, 
                0.09773534536361694, 
                0.013075512833893299, 
                0.13175520300865173, 
                0.044197674840688705, 
                0.07446513324975967, 
                -0.052704136818647385, 
                0.15522079169750214, 
                0.0004003793001174927, 
                -0.13059964776039124, 
                0.051350187510252, 
                -0.14953690767288208, 
                0.07352270931005478, 
                -0.15253297984600067, 
                0.01233575027436018, 
                -0.0406336709856987, 
                -0.09564093500375748, 
                -0.038897983729839325, 
                -0.08856210112571716, 
                -0.1208672821521759, 
                0.033394284546375275, 
                0.14058484137058258, 
                -0.10257413238286972, 
                0.1074751764535904, 
                -0.010379180312156677, 
                -0.11638904362916946, 
                -0.1584930419921875, 
                -0.09892953932285309, 
                0.008291084319353104, 
                0.06244247406721115, 
                0.02208836004137993, 
                -0.10483252257108688, 
                0.019400442019104958, 
                -0.08241162449121475, 
                0.011131348088383675, 
                -0.05831589177250862, 
                0.02958770841360092, 
                -0.025793131440877914, 
                -0.020425911992788315, 
                0.12913914024829865, 
                -0.09301285445690155, 
                -0.021182479336857796, 
                0.014751334674656391, 
                0.10306794941425323, 
                0.051139090210199356, 
                0.15149641036987305, 
                -0.05006260424852371, 
                -0.1481323540210724, 
                -0.07377367466688156, 
                0.05919727683067322, 
                -0.04753846302628517, 
                -0.10212545841932297, 
                -0.06312308460474014, 
                0.026156608015298843, 
                0.11552255600690842, 
                -0.07333999872207642, 
                -0.0021094961557537317, 
                0.04497719928622246, 
                0.08447383344173431, 
                -0.06724634766578674, 
                -0.07770709693431854, 
                0.05130918323993683, 
                -0.0738007128238678, 
                -0.0827394500374794, 
                0.08833009749650955, 
                0.15369242429733276, 
                -0.10376667231321335, 
                0.1062014177441597, 
                -0.07937240600585938, 
                0.050863929092884064, 
                -0.08931244164705276, 
                -0.03582531586289406, 
                0.13583186268806458, 
                0.04701755568385124, 
                0.012360844761133194, 
                0.04562602564692497, 
                -0.13540394604206085, 
                -0.16679726541042328, 
                0.13535796105861664, 
                0.07619552314281464, 
                -0.10941226035356522, 
                0.0803118348121643, 
                -0.08063498139381409, 
                0.014073303900659084, 
                0.0025314269587397575, 
                -0.15122747421264648, 
                0.010145691223442554, 
                -0.11568968743085861, 
                -0.11246739327907562, 
                -0.1231270581483841, 
                0.10837472230195999, 
                -0.15160533785820007, 
                0.1083269938826561, 
                -0.15627677738666534, 
                0.06218109652400017, 
                0.01269651297479868
            ]
        }, 
        "Node_14": {
            "bias": -0.001574365422129631, 
            "weights": [
                -0.1842016577720642, 
                -0.13118059933185577, 
                -0.11073638498783112, 
                0.10185353457927704, 
                -0.09329140186309814, 
                -0.023122655227780342, 
                -0.02609906904399395, 
                0.07573501765727997, 
                0.012934720143675804, 
                0.006824439857155085, 
                -0.028608402237296104, 
                0.15265074372291565, 
                0.1367538869380951, 
                -0.16473565995693207, 
                0.06026171147823334, 
                -0.16347044706344604, 
                0.09883973747491837, 
                -0.11960086971521378, 
                0.08178833872079849, 
                0.1077725738286972, 
                -0.0748647078871727, 
                0.11210700124502182, 
                -0.02908381260931492, 
                -0.09266047179698944, 
                -0.11925116181373596, 
                -0.015770897269248962, 
                0.026217631995677948, 
                0.11258605867624283, 
                0.06952591240406036, 
                0.05077982321381569, 
                -0.08671876043081284, 
                -0.0986635833978653, 
                -0.13769617676734924, 
                -0.0543975904583931, 
                -0.040433235466480255, 
                0.03409987688064575, 
                0.07887919247150421, 
                -0.10243506729602814, 
                -0.19812043011188507, 
                -0.09754479676485062, 
                -0.10377980023622513, 
                0.08915204554796219, 
                -0.12649963796138763, 
                -0.15521647036075592, 
                0.05548227205872536, 
                -0.1860343962907791, 
                -0.10410335659980774, 
                -0.05184418708086014, 
                -0.09474239498376846, 
                -0.12676896154880524, 
                0.03711248189210892, 
                -0.08660456538200378, 
                0.054972074925899506, 
                -0.05737001448869705, 
                0.04385417699813843, 
                -0.1449810117483139, 
                0.10361534357070923, 
                -0.11925620585680008, 
                -0.13657869398593903, 
                0.0819067656993866, 
                -0.03508803993463516, 
                -0.0893406942486763, 
                0.0840688943862915, 
                0.014753075316548347, 
                0.011529249139130116, 
                -0.10520916432142258, 
                -0.10823062807321548, 
                -0.048203565180301666, 
                0.13907521963119507, 
                -0.1513221561908722, 
                0.020571572706103325, 
                -0.09575972706079483, 
                0.1190558671951294, 
                -0.10625278204679489, 
                -0.12541407346725464, 
                -0.00034877657890319824, 
                0.04666478559374809, 
                0.09177294373512268, 
                -0.04902029037475586, 
                -0.023069260641932487, 
                -0.02104341611266136, 
                0.06817357987165451, 
                0.05956421047449112, 
                0.10781598091125488, 
                -0.07261621206998825, 
                -0.0029416903853416443, 
                0.05002604052424431, 
                0.018299996852874756, 
                -0.003905876539647579, 
                0.12127173691987991, 
                -0.1791044920682907, 
                -0.07903651148080826, 
                0.07869528234004974, 
                -0.017207244411110878, 
                -0.14406488835811615, 
                -0.05634723976254463, 
                -0.18431082367897034, 
                -0.14243671298027039, 
                -0.025892019271850586, 
                0.11306343972682953, 
                0.09988444298505783, 
                0.0580567941069603, 
                -0.15745866298675537, 
                -0.0589788481593132, 
                -0.14035330712795258, 
                -0.044154807925224304, 
                -0.0688268318772316, 
                0.07902653515338898, 
                0.04013769328594208, 
                -0.1582574099302292, 
                -0.08361301571130753, 
                0.022882891818881035, 
                0.11139124631881714, 
                0.12783899903297424, 
                0.028806209564208984, 
                0.0743224248290062, 
                -0.01795380562543869, 
                -0.051857855170965195, 
                0.012773157097399235, 
                0.07314281910657883, 
                -0.008191458880901337, 
                -0.02245103009045124, 
                0.050443969666957855, 
                -0.09342613816261292, 
                -0.05353446677327156, 
                -0.18143901228904724, 
                0.0945228785276413, 
                0.05286441370844841, 
                0.05674523115158081, 
                -0.029562802985310555, 
                0.08896637707948685, 
                0.05811283364892006, 
                -0.006810784339904785, 
                -0.14394532144069672, 
                -0.09864570945501328, 
                0.00622741412371397, 
                -0.06250368058681488, 
                0.03498470410704613, 
                -0.1773957759141922, 
                0.031225696206092834, 
                -0.13770365715026855, 
                -0.1434641033411026, 
                0.03434261679649353, 
                -0.1928895264863968, 
                0.09858359396457672, 
                -0.026720190420746803, 
                0.10272042453289032, 
                -0.04270468279719353, 
                0.032966941595077515, 
                -0.11621509492397308
            ]
        }, 
        "Node_13": {
            "bias": 0.08066898584365845, 
            "weights": [
                -0.3903701901435852, 
                0.02599334716796875, 
                0.06736556440591812, 
                -0.04226767271757126, 
                -0.06636328250169754, 
                -0.0034508616663515568, 
                -0.16565316915512085, 
                -0.1592947244644165, 
                -0.03672497719526291, 
                0.06355708837509155, 
                0.06143870949745178, 
                -0.15957379341125488, 
                -0.010537855327129364, 
                -0.22761982679367065, 
                -0.10089021176099777, 
                -0.02538340911269188, 
                -0.11048291623592377, 
                0.11634040623903275, 
                0.035501137375831604, 
                -0.15121129155158997, 
                0.03820577636361122, 
                0.03988959267735481, 
                -0.07986804842948914, 
                -0.23166795074939728, 
                -0.23467756807804108, 
                0.03125235438346863, 
                -0.1196407601237297, 
                -0.02780531905591488, 
                -0.1486477553844452, 
                0.00518812844529748, 
                -0.05062493681907654, 
                0.05085830017924309, 
                0.10344892740249634, 
                -0.3098413348197937, 
                0.02656415104866028, 
                -0.0007683646399527788, 
                0.06514573097229004, 
                -0.034492481499910355, 
                0.030075693503022194, 
                0.08323553949594498, 
                -0.23680534958839417, 
                0.05665712058544159, 
                0.08673883229494095, 
                0.13299544155597687, 
                -0.17240586876869202, 
                -0.013850865885615349, 
                -0.29570719599723816, 
                -0.2099718302488327, 
                0.1361970752477646, 
                -0.10990782827138901, 
                -0.06319262087345123, 
                0.13465379178524017, 
                -0.2579517066478729, 
                0.1304425150156021, 
                -0.11514637619256973, 
                -0.22452421486377716, 
                -0.21587786078453064, 
                -0.10707221925258636, 
                0.10161656141281128, 
                -0.27368906140327454, 
                -0.060038160532712936, 
                -0.05768876522779465, 
                0.09732241928577423, 
                0.11991763859987259, 
                -0.013229873031377792, 
                -0.06713632494211197, 
                -0.30168116092681885, 
                0.10214626789093018, 
                0.3011845052242279, 
                0.009655104018747807, 
                -0.002418838907033205, 
                -0.0008821469382382929, 
                0.12602567672729492, 
                0.008307427167892456, 
                -0.5479794144630432, 
                -0.03547283634543419, 
                0.054532185196876526, 
                0.09863966703414917, 
                0.05588367581367493, 
                0.04841078072786331, 
                0.09961507469415665, 
                0.16883230209350586, 
                -0.06693786382675171, 
                0.022139085456728935, 
                -0.0268655177205801, 
                0.13567213714122772, 
                0.015539790503680706, 
                0.09154175221920013, 
                -0.08138302713632584, 
                -0.06322915107011795, 
                -0.06351501494646072, 
                -0.3456520736217499, 
                0.03022511675953865, 
                -0.12020044773817062, 
                -0.31921932101249695, 
                -0.07107897847890854, 
                -0.030457720160484314, 
                0.08954914659261703, 
                -0.021128570660948753, 
                -0.22234900295734406, 
                -0.05510421842336655, 
                -0.2370651513338089, 
                -0.046222586184740067, 
                -0.10907581448554993, 
                0.08207918703556061, 
                0.006694578565657139, 
                0.19238029420375824, 
                0.08269702643156052, 
                -0.023279523476958275, 
                -0.10725922137498856, 
                -0.11223214119672775, 
                0.09261953085660934, 
                -0.16370849311351776, 
                -0.09255282580852509, 
                0.09829768538475037, 
                -0.15263983607292175, 
                0.03144195303320885, 
                -0.12755277752876282, 
                -0.033228084444999695, 
                0.06489503383636475, 
                0.033122047781944275, 
                0.04035716876387596, 
                0.29219841957092285, 
                -0.028014281764626503, 
                -0.3385207951068878, 
                0.11665843427181244, 
                0.04765307903289795, 
                -0.14688396453857422, 
                0.08290658891201019, 
                -0.16035881638526917, 
                -0.1315648853778839, 
                -0.22998157143592834, 
                0.0702887624502182, 
                -0.3440319299697876, 
                -0.15321484208106995, 
                0.02790679596364498, 
                -0.07648177444934845, 
                0.11413170397281647, 
                0.030359914526343346, 
                0.08333428204059601, 
                -0.13855448365211487, 
                0.15362395346164703, 
                -0.275689035654068, 
                -0.060375288128852844, 
                -0.3887838125228882, 
                -0.03549545258283615, 
                0.3418978452682495, 
                0.16210342943668365, 
                -0.24727265536785126, 
                0.035307627171278
            ]
        }, 
        "Node_12": {
            "bias": 0.012015541084110737, 
            "weights": [
                -0.06505677849054337, 
                -0.03996604308485985, 
                0.06391303986310959, 
                -0.04046734794974327, 
                0.15220847725868225, 
                -0.12086961418390274, 
                -0.06427984684705734, 
                -0.11555449664592743, 
                0.08982215076684952, 
                -0.022067535668611526, 
                0.011892924085259438, 
                0.11819356679916382, 
                -0.01859195902943611, 
                -0.0524769127368927, 
                0.05249171704053879, 
                -0.05106005817651749, 
                0.05183236673474312, 
                0.06281425803899765, 
                -0.15671037137508392, 
                0.14982186257839203, 
                -0.012977657839655876, 
                0.0675000250339508, 
                0.050127461552619934, 
                -0.10023017972707748, 
                0.2340651899576187, 
                0.15075942873954773, 
                -0.061737559735774994, 
                -0.01266796886920929, 
                0.0761210024356842, 
                -0.029807819053530693, 
                0.023649483919143677, 
                -0.057940348982810974, 
                0.09415968507528305, 
                -0.10696038603782654, 
                0.017618969082832336, 
                -0.005734059493988752, 
                0.06675441563129425, 
                0.02357449010014534, 
                0.10209564864635468, 
                0.07632793486118317, 
                -0.16467037796974182, 
                -0.16988134384155273, 
                0.18738339841365814, 
                0.04257451370358467, 
                -0.09577502310276031, 
                0.03794980049133301, 
                0.11013863235712051, 
                0.11009062826633453, 
                -0.1423635184764862, 
                -0.07260769605636597, 
                -0.023557567968964577, 
                -0.11483307182788849, 
                0.054067522287368774, 
                0.00888174120336771, 
                0.11183043569326401, 
                0.07344628125429153, 
                -0.07956607639789581, 
                -0.08567255735397339, 
                0.1216467022895813, 
                0.04876154661178589, 
                0.02238261140882969, 
                0.05595553666353226, 
                0.022936850786209106, 
                0.012587839737534523, 
                0.05064389109611511, 
                -0.1072503849864006, 
                0.22414946556091309, 
                -0.08923087269067764, 
                -0.1752987951040268, 
                0.14859417080879211, 
                -0.030873820185661316, 
                -0.1526135504245758, 
                0.18337148427963257, 
                0.053539473563432693, 
                -0.14181214570999146, 
                -0.10389305651187897, 
                0.20245908200740814, 
                -0.2272222340106964, 
                0.027245931327342987, 
                -0.03444594889879227, 
                -0.1795269250869751, 
                0.10478557646274567, 
                0.01375615131109953, 
                -0.10373654216527939, 
                -0.0783480703830719, 
                -0.1405881941318512, 
                -0.05220084264874458, 
                -0.15715035796165466, 
                0.14281673729419708, 
                0.2143835872411728, 
                -0.0031266463920474052, 
                0.01883670873939991, 
                0.03110041841864586, 
                -0.1354733407497406, 
                -0.12169656157493591, 
                0.17183424532413483, 
                0.1498369723558426, 
                0.11119285225868225, 
                0.08529490977525711, 
                0.010594087652862072, 
                0.021951358765363693, 
                0.014309813268482685, 
                0.13542668521404266, 
                0.1526389867067337, 
                0.04864243417978287, 
                -0.04205302894115448, 
                -0.3383956849575043, 
                -0.08097090572118759, 
                0.0209343321621418, 
                0.21967487037181854, 
                -0.13201655447483063, 
                -0.2211838662624359, 
                -0.019376270473003387, 
                -0.0012756899232044816, 
                0.10913535207509995, 
                -0.12194952368736267, 
                -0.16104280948638916, 
                -0.07338009774684906, 
                -0.003252800554037094, 
                -0.12930601835250854, 
                -0.03725608438253403, 
                0.0930759459733963, 
                -0.18441559374332428, 
                -0.05240848287940025, 
                -0.057537566870450974, 
                -0.12340373545885086, 
                -0.15006567537784576, 
                -0.13303780555725098, 
                -0.18469080328941345, 
                0.029977215453982353, 
                0.08242224901914597, 
                0.04860491305589676, 
                -0.050494760274887085, 
                0.04529956728219986, 
                -0.14707301557064056, 
                0.008822913281619549, 
                -0.20677198469638824, 
                -0.05498504638671875, 
                -0.09384563565254211, 
                -0.029829513281583786, 
                -0.05069616064429283, 
                -0.005242163315415382, 
                -0.23115907609462738, 
                -0.08414138108491898, 
                -0.22956150770187378, 
                -0.10765736550092697, 
                0.014489839784801006, 
                0.05878400057554245, 
                0.09761101007461548, 
                0.1831151843070984
            ]
        }, 
        "Node_11": {
            "bias": 0.18303357064723969, 
            "weights": [
                0.1795530468225479, 
                -0.1008414700627327, 
                -0.0752846971154213, 
                -0.058489132672548294, 
                -0.028110383078455925, 
                -0.041888363659381866, 
                -0.07414793223142624, 
                0.07895618677139282, 
                0.14074157178401947, 
                0.03434188663959503, 
                0.15437161922454834, 
                -0.14369989931583405, 
                -0.3298630714416504, 
                -0.0184578076004982, 
                -0.013537821359932423, 
                -0.10082071274518967, 
                -0.06997143477201462, 
                -0.014936779625713825, 
                -0.007478605955839157, 
                -0.1111605316400528, 
                0.14844684302806854, 
                0.039316434413194656, 
                0.11484257876873016, 
                -0.03599731624126434, 
                0.020283864811062813, 
                -0.11621399968862534, 
                -0.16871613264083862, 
                0.06427549570798874, 
                -0.08335385471582413, 
                -0.22973231971263885, 
                -0.01863078773021698, 
                0.06287368386983871, 
                -0.12181711941957474, 
                -0.047103654593229294, 
                0.050654470920562744, 
                0.061232130974531174, 
                0.13767798244953156, 
                0.14013691246509552, 
                0.045070748776197433, 
                0.039094895124435425, 
                -0.11671958118677139, 
                -0.03879249095916748, 
                -0.17517796158790588, 
                0.15757165849208832, 
                -0.03807269036769867, 
                -0.08451847732067108, 
                0.10653457790613174, 
                -0.03582071140408516, 
                -0.2453235387802124, 
                -0.21298760175704956, 
                -0.23334522545337677, 
                -0.13030670583248138, 
                0.018101736903190613, 
                0.011786781251430511, 
                0.02760380692780018, 
                0.0675668865442276, 
                -0.009805810637772083, 
                -0.07972651720046997, 
                -0.14562548696994781, 
                -0.21802078187465668, 
                -0.17134033143520355, 
                0.17758357524871826, 
                0.012498512864112854, 
                0.06856998056173325, 
                0.05022617429494858, 
                0.04819606617093086, 
                0.09914395958185196, 
                -0.2691771388053894, 
                -0.0455050989985466, 
                -0.4821101129055023, 
                -0.23221059143543243, 
                -0.06068621575832367, 
                -0.050167541950941086, 
                0.050109878182411194, 
                -0.0044904062524437904, 
                -0.041326045989990234, 
                -0.09460507333278656, 
                0.10592591762542725, 
                -0.03212462738156319, 
                0.06789689511060715, 
                -0.00832697656005621, 
                0.1110754907131195, 
                0.002603490836918354, 
                0.13903605937957764, 
                -0.0031331328209489584, 
                -0.19204755127429962, 
                0.014038925059139729, 
                0.002729022642597556, 
                -0.12290772795677185, 
                0.03457768261432648, 
                -0.08272329717874527, 
                -0.20818501710891724, 
                -0.04419022053480148, 
                -0.03875263035297394, 
                0.08637268096208572, 
                0.14866557717323303, 
                -0.13581015169620514, 
                0.017604220658540726, 
                -0.07716190814971924, 
                -0.033786751329898834, 
                0.08477648347616196, 
                -0.0020292100962251425, 
                0.08854714781045914, 
                0.05263325944542885, 
                0.2619270384311676, 
                -0.08929844945669174, 
                0.26464933156967163, 
                0.024151140823960304, 
                -0.25288698077201843, 
                -0.13490517437458038, 
                0.15935657918453217, 
                -0.15437684953212738, 
                -0.04810211807489395, 
                -0.18405336141586304, 
                -0.12679661810398102, 
                -0.15662050247192383, 
                -0.07752316445112228, 
                0.055937618017196655, 
                -0.013188592158257961, 
                0.02742086909711361, 
                0.04807202145457268, 
                -0.26021236181259155, 
                -0.07271047681570053, 
                0.1819896697998047, 
                0.0043686144053936005, 
                0.14463770389556885, 
                0.04129474610090256, 
                -0.08700897544622421, 
                0.06555573642253876, 
                0.003411718178540468, 
                -0.23794078826904297, 
                -0.08052489161491394, 
                0.06721238791942596, 
                -0.1699034422636032, 
                -0.10270050168037415, 
                0.12019754201173782, 
                -0.1504601389169693, 
                0.02741358056664467, 
                -0.1424310952425003, 
                -0.01417164783924818, 
                -0.13955794274806976, 
                -0.014962203800678253, 
                0.09917264431715012, 
                0.24612705409526825, 
                -0.1782999038696289, 
                -0.17962512373924255, 
                -0.07813910394906998, 
                0.04678451269865036, 
                -0.19944386184215546, 
                -0.03218892961740494
            ]
        }, 
        "Node_10": {
            "bias": -0.018000151962041855, 
            "weights": [
                0.05141640082001686, 
                -0.04157055914402008, 
                0.09983522444963455, 
                0.016854766756296158, 
                -0.17491130530834198, 
                0.12922711670398712, 
                0.06791505962610245, 
                0.056256070733070374, 
                -0.06931044906377792, 
                -0.12628856301307678, 
                -0.19714777171611786, 
                0.028545450419187546, 
                -0.04802773892879486, 
                0.07268600910902023, 
                -0.09036669880151749, 
                -0.06613864749670029, 
                -0.05809415876865387, 
                -0.13666708767414093, 
                -0.09825634956359863, 
                0.13061462342739105, 
                0.007977800443768501, 
                0.027744309976696968, 
                -0.13421088457107544, 
                0.003998351749032736, 
                0.047349896281957626, 
                -0.0690600574016571, 
                0.013617298565804958, 
                -0.07132215797901154, 
                -0.03046444244682789, 
                0.01613384112715721, 
                0.11488956958055496, 
                -0.1127750426530838, 
                0.11593836545944214, 
                -0.011055714450776577, 
                -0.014366194605827332, 
                -0.14075593650341034, 
                -0.12368660420179367, 
                0.07107508927583694, 
                0.08696524053812027, 
                0.008524102158844471, 
                -0.011042243801057339, 
                0.029596231877803802, 
                -0.00014992004435043782, 
                0.08840374648571014, 
                -0.037913206964731216, 
                -0.142314612865448, 
                0.05379553139209747, 
                0.13096435368061066, 
                0.12144710123538971, 
                0.03891842067241669, 
                -0.07058870047330856, 
                0.10314925014972687, 
                -0.11218501627445221, 
                0.138963982462883, 
                -0.0321950726211071, 
                0.04615696892142296, 
                -0.016289938241243362, 
                0.02258520945906639, 
                0.008418097160756588, 
                -0.14406299591064453, 
                0.02497898042201996, 
                -0.07447383552789688, 
                -0.04144013673067093, 
                0.11649189889431, 
                -0.056278083473443985, 
                -0.04637424275279045, 
                -0.09420280158519745, 
                0.015354993753135204, 
                -0.12368296831846237, 
                -0.11468037217855453, 
                0.06899238377809525, 
                -0.00984919536858797, 
                -0.14172400534152985, 
                0.07812660187482834, 
                0.0729883685708046, 
                -0.13820312917232513, 
                -0.05845117196440697, 
                0.05348021164536476, 
                -0.07173667848110199, 
                0.11359935253858566, 
                -0.05371609702706337, 
                -0.10129094868898392, 
                0.0689106285572052, 
                0.07642346620559692, 
                0.156324103474617, 
                0.14067058265209198, 
                0.022808263078331947, 
                0.10859555006027222, 
                0.07624534517526627, 
                0.12374811619520187, 
                0.09525103121995926, 
                0.10754790902137756, 
                -0.020404772832989693, 
                -0.0306836050003767, 
                0.06723496317863464, 
                -0.17791710793972015, 
                0.027187803760170937, 
                -0.10501483082771301, 
                -0.0008183277095668018, 
                0.10005239397287369, 
                -0.1708381474018097, 
                -0.15263384580612183, 
                0.0072382246144115925, 
                0.051832281053066254, 
                -0.07586489617824554, 
                0.10754203796386719, 
                -0.09466952830553055, 
                -0.1451861411333084, 
                -0.008231067098677158, 
                -0.12523534893989563, 
                -0.13185222446918488, 
                -0.060749348253011703, 
                -0.1131921038031578, 
                -0.13696111738681793, 
                -0.17485164105892181, 
                0.09463337063789368, 
                -0.14152280986309052, 
                -0.061977095901966095, 
                -0.08562691509723663, 
                -0.17340713739395142, 
                -0.01012540515512228, 
                0.04010210931301117, 
                0.02152181789278984, 
                -0.13390818238258362, 
                -0.06810709834098816, 
                -0.03316878154873848, 
                -0.03766752779483795, 
                -0.13453739881515503, 
                0.06772565841674805, 
                0.03872808441519737, 
                -0.011676778085529804, 
                -0.15964101254940033, 
                -0.014611229300498962, 
                -0.11045525223016739, 
                -0.11466896533966064, 
                -0.11876434087753296, 
                0.010818751528859138, 
                0.10912985354661942, 
                0.02296743541955948, 
                0.12086518108844757, 
                -0.17107464373111725, 
                0.028780242428183556, 
                -0.06512589752674103, 
                0.15163712203502655, 
                0.019541887566447258, 
                -0.01643391139805317, 
                0.024221407249569893, 
                -0.13879385590553284, 
                -0.0009018048876896501, 
                -0.15618427097797394
            ]
        }, 
        "Node_97": {
            "bias": -0.02254520170390606, 
            "weights": [
                0.0017916803481057286, 
                0.013169780373573303, 
                0.14908964931964874, 
                -0.0168355330824852, 
                0.06863905489444733, 
                -0.11196466535329819, 
                -0.006948441732674837, 
                0.10499990731477737, 
                -0.12343614548444748, 
                -0.06852486729621887, 
                -0.05031917244195938, 
                -0.12927697598934174, 
                -0.007212446071207523, 
                -0.18461596965789795, 
                0.008481265045702457, 
                0.05039241537451744, 
                -0.10333860665559769, 
                -0.14646321535110474, 
                0.05142206698656082, 
                -0.007711097598075867, 
                -0.14238989353179932, 
                -0.009640456177294254, 
                -0.05699272081255913, 
                0.018743541091680527, 
                -0.1249251440167427, 
                0.05381865054368973, 
                -0.03475794196128845, 
                0.05286799743771553, 
                -0.11607585102319717, 
                0.09660879522562027, 
                -0.032183196395635605, 
                0.010975761339068413, 
                -0.15516836941242218, 
                0.1262686848640442, 
                0.019322991371154785, 
                0.05871864780783653, 
                0.06604363769292831, 
                0.07267143577337265, 
                0.08010289072990417, 
                -0.0024303647223860025, 
                -0.05321521311998367, 
                -0.011771930381655693, 
                0.1552276909351349, 
                -0.057028062641620636, 
                0.01958700455725193, 
                -0.1551104485988617, 
                0.12360519170761108, 
                -0.013168412260711193, 
                -0.03204825520515442, 
                0.020232131704688072, 
                -0.08080870658159256, 
                -0.028809621930122375, 
                0.04894883185625076, 
                0.0701557993888855, 
                0.12804190814495087, 
                0.1307530403137207, 
                0.052446361631155014, 
                -0.041537296026945114, 
                -0.15033595263957977, 
                -0.08338740468025208, 
                -0.09597015380859375, 
                -0.19370773434638977, 
                -0.13172686100006104, 
                0.12445580959320068, 
                -0.1709626019001007, 
                -0.173881396651268, 
                0.07272716611623764, 
                0.03744243457913399, 
                -0.1861610859632492, 
                -0.17608585953712463, 
                -0.04150449112057686, 
                -0.08746115118265152, 
                -0.04030803218483925, 
                -0.2084098607301712, 
                0.02295025996863842, 
                0.12615089118480682, 
                -0.13864977657794952, 
                0.12021810561418533, 
                -0.03950629383325577, 
                0.04800017550587654, 
                -0.052916549146175385, 
                -0.1067039892077446, 
                -0.0951116681098938, 
                0.08774375915527344, 
                -0.09870004653930664, 
                -0.09146032482385635, 
                0.07519964128732681, 
                -0.09255695343017578, 
                -0.18678031861782074, 
                -0.19204109907150269, 
                0.040954411029815674, 
                -0.1771036833524704, 
                0.011729025281965733, 
                -0.15653614699840546, 
                0.06771963834762573, 
                -0.06585963070392609, 
                0.021318266168236732, 
                0.03591526299715042, 
                0.08914729207754135, 
                0.06411796808242798, 
                -0.12105303257703781, 
                -0.10168024897575378, 
                0.044164616614580154, 
                0.08971673250198364, 
                0.06648791581392288, 
                0.11645755171775818, 
                -0.028319833800196648, 
                -0.08890484273433685, 
                0.004391528200358152, 
                -0.1457158476114273, 
                0.13747942447662354, 
                0.006849648896604776, 
                0.07740689069032669, 
                0.10938376933336258, 
                -0.13365313410758972, 
                0.01665469817817211, 
                0.08104115724563599, 
                -0.18766409158706665, 
                -0.07220875471830368, 
                -0.07316698133945465, 
                -0.029009481891989708, 
                -0.08151744306087494, 
                0.04380863904953003, 
                0.09171538054943085, 
                0.09962332248687744, 
                0.05641006678342819, 
                -0.02282850630581379, 
                0.04427215829491615, 
                0.11244328320026398, 
                -0.08846602588891983, 
                -0.18299803137779236, 
                0.05196373537182808, 
                -0.13928255438804626, 
                -0.06337414681911469, 
                -0.16917702555656433, 
                0.08339720219373703, 
                0.11487837135791779, 
                0.048839036375284195, 
                0.09607348591089249, 
                0.07016244530677795, 
                -0.041300639510154724, 
                -0.1065901443362236, 
                -0.23877084255218506, 
                0.04830973222851753, 
                0.08588511496782303, 
                -0.042662590742111206, 
                0.09730420261621475, 
                -0.15625351667404175, 
                -0.047996193170547485, 
                -0.019263936206698418
            ]
        }, 
        "Node_96": {
            "bias": -0.023480547592043877, 
            "weights": [
                0.07822201400995255, 
                0.00476605212315917, 
                -0.08598226308822632, 
                0.05568081513047218, 
                0.024479977786540985, 
                -0.16132038831710815, 
                -0.11352378129959106, 
                -0.17943152785301208, 
                -0.003654409432783723, 
                -0.06540205329656601, 
                -0.004336472600698471, 
                0.05705760046839714, 
                -0.010117125697433949, 
                -0.0932326391339302, 
                0.09577567130327225, 
                -0.16838614642620087, 
                0.13358792662620544, 
                -0.1106920912861824, 
                0.09224198758602142, 
                -0.02378500998020172, 
                -0.10421077907085419, 
                -0.013629557564854622, 
                -0.024116333574056625, 
                -0.052160970866680145, 
                -0.06592580676078796, 
                -0.09534341096878052, 
                -0.020555280148983, 
                0.026718268170952797, 
                -0.06914988905191422, 
                0.07627465575933456, 
                0.05354136601090431, 
                -0.025409739464521408, 
                0.09768073260784149, 
                0.0723491981625557, 
                0.0637500137090683, 
                0.08767480403184891, 
                -0.008836842142045498, 
                -0.04049735888838768, 
                -0.02111172117292881, 
                -0.07463465631008148, 
                -0.056477103382349014, 
                0.05210458114743233, 
                -0.0681111291050911, 
                -0.14888539910316467, 
                -0.12893348932266235, 
                -0.06856638193130493, 
                0.06472887843847275, 
                0.03703422471880913, 
                0.030166028067469597, 
                -0.054552026093006134, 
                0.12578840553760529, 
                0.024360209703445435, 
                -0.0702098160982132, 
                -0.054998863488435745, 
                0.009371117688715458, 
                0.07980984449386597, 
                -0.09413979202508926, 
                -0.04122336581349373, 
                0.06092940643429756, 
                -0.07593853026628494, 
                0.10093037039041519, 
                -0.11525343358516693, 
                -0.15266072750091553, 
                0.06446884572505951, 
                -0.02742350473999977, 
                -0.13409873843193054, 
                0.03683068975806236, 
                0.030121082440018654, 
                0.08422039449214935, 
                -0.0893465206027031, 
                0.059224266558885574, 
                0.13056766986846924, 
                0.05440450459718704, 
                -0.14991523325443268, 
                -0.20821695029735565, 
                -0.13279570639133453, 
                -0.1130511537194252, 
                -0.021081821992993355, 
                0.0020235925912857056, 
                -0.15442536771297455, 
                -0.09901964664459229, 
                0.017671504989266396, 
                0.08877286314964294, 
                0.06209322065114975, 
                -0.03515683859586716, 
                -0.1555546224117279, 
                0.020583469420671463, 
                -0.11658860743045807, 
                0.016777388751506805, 
                -0.034005120396614075, 
                -0.09310922771692276, 
                -0.02346411533653736, 
                0.0015880779828876257, 
                -0.06344758719205856, 
                0.014635570347309113, 
                0.008384139277040958, 
                -0.0021027352195233107, 
                0.030296124517917633, 
                0.07519825547933578, 
                -0.11651753634214401, 
                0.08935361355543137, 
                0.04734449461102486, 
                -0.072369284927845, 
                -0.009395763278007507, 
                -0.133235365152359, 
                -0.04355679824948311, 
                0.015559748746454716, 
                -0.00566738611087203, 
                -0.05831902101635933, 
                0.027906278148293495, 
                0.006713050417602062, 
                0.11323361843824387, 
                -0.005022633355110884, 
                0.043490707874298096, 
                -0.16795824468135834, 
                -0.017462123185396194, 
                0.05090773478150368, 
                0.00997722614556551, 
                -0.11278345435857773, 
                -0.05625990405678749, 
                -0.08283545076847076, 
                0.13945989310741425, 
                0.09428603202104568, 
                0.05318758264183998, 
                -0.1442156583070755, 
                0.010467219166457653, 
                0.09049717336893082, 
                -0.01773906499147415, 
                -0.12110987305641174, 
                0.07947434484958649, 
                -0.03542601317167282, 
                0.05937615782022476, 
                -0.04256574809551239, 
                -0.03780614584684372, 
                -0.007948135957121849, 
                0.11698593944311142, 
                -0.09521962702274323, 
                0.0102377412840724, 
                0.04232867807149887, 
                0.14521487057209015, 
                -0.009465874172747135, 
                -0.026141099631786346, 
                -0.09325563162565231, 
                0.008230840787291527, 
                -0.1315830498933792, 
                0.13298802077770233, 
                -0.08796942234039307, 
                -0.08490262180566788, 
                -0.10947507619857788, 
                -0.07438895106315613
            ]
        }, 
        "Node_95": {
            "bias": -0.04493638500571251, 
            "weights": [
                -0.02151166833937168, 
                -0.008376332931220531, 
                0.21502888202667236, 
                -0.3692401051521301, 
                -0.2633671164512634, 
                0.03970818221569061, 
                0.15927743911743164, 
                -0.2763173282146454, 
                -0.015540010295808315, 
                -0.19680985808372498, 
                0.03544740378856659, 
                0.23102335631847382, 
                0.060606978833675385, 
                -0.40710878372192383, 
                -0.28056061267852783, 
                -0.10988134145736694, 
                0.0628398135304451, 
                0.0018329505110159516, 
                -0.2652561068534851, 
                0.03472301363945007, 
                0.04340768977999687, 
                -0.3162199556827545, 
                -0.08405517041683197, 
                0.05254450812935829, 
                -0.11647657305002213, 
                0.12729981541633606, 
                0.08680246025323868, 
                0.06362329423427582, 
                0.048281796276569366, 
                0.0753500834107399, 
                0.0030794022604823112, 
                -0.052575044333934784, 
                -0.27881911396980286, 
                0.19466985762119293, 
                -0.11046499758958817, 
                0.12637832760810852, 
                0.10577723383903503, 
                -0.08409598469734192, 
                -0.07719922065734863, 
                -0.010907627642154694, 
                -0.11985166370868683, 
                0.05921725928783417, 
                0.03838707506656647, 
                0.08700978010892868, 
                -0.018571849912405014, 
                0.15223608911037445, 
                -0.11111374199390411, 
                0.08570756763219833, 
                0.020166488364338875, 
                -0.1512243151664734, 
                -0.037910979241132736, 
                -0.029308948665857315, 
                -0.46229463815689087, 
                -0.014241411350667477, 
                0.002018821192905307, 
                -0.04325840622186661, 
                -0.06630979478359222, 
                -0.1306130290031433, 
                0.004998605232685804, 
                -0.024768708273768425, 
                -0.025575678795576096, 
                -0.2972566485404968, 
                0.07249404489994049, 
                -0.23673804104328156, 
                0.09864190220832825, 
                0.0536465123295784, 
                0.33068403601646423, 
                0.04014227166771889, 
                -0.012168634682893753, 
                -0.22224080562591553, 
                -0.13835573196411133, 
                0.1344764530658722, 
                0.13393709063529968, 
                -0.16640833020210266, 
                0.06110936775803566, 
                -0.11532129347324371, 
                0.13262273371219635, 
                -0.1369875967502594, 
                -0.06602056324481964, 
                -0.04344993457198143, 
                0.2271939069032669, 
                0.08589311689138412, 
                0.09652958810329437, 
                0.09389340877532959, 
                0.07380393147468567, 
                -0.05174458026885986, 
                -0.03754730895161629, 
                -0.030453214421868324, 
                0.013902264647185802, 
                0.07947161048650742, 
                -0.01785220578312874, 
                -0.2658062279224396, 
                -0.07108534872531891, 
                0.1268974095582962, 
                0.009556155651807785, 
                -0.15476635098457336, 
                -0.1386222392320633, 
                -0.07561352103948593, 
                0.004167742095887661, 
                -0.09977959841489792, 
                -0.26864418387413025, 
                -0.02429322898387909, 
                0.13158497214317322, 
                0.0953865647315979, 
                0.12528589367866516, 
                -0.15879935026168823, 
                -0.009877336211502552, 
                0.07022502273321152, 
                0.055791135877370834, 
                -0.19840167462825775, 
                -0.15276043117046356, 
                0.01978488080203533, 
                -0.16730225086212158, 
                -0.1769600212574005, 
                0.0910620391368866, 
                -0.1383042335510254, 
                0.032929301261901855, 
                -0.12355700880289078, 
                -0.02147706411778927, 
                0.04730696231126785, 
                0.1480005383491516, 
                0.06267506629228592, 
                0.2797609865665436, 
                -0.15007762610912323, 
                -0.13153696060180664, 
                -0.08832231163978577, 
                -0.03538563475012779, 
                -0.14919833838939667, 
                -0.09887129068374634, 
                -0.08790262788534164, 
                0.1087745949625969, 
                0.11061714589595795, 
                0.15025322139263153, 
                -0.12425776571035385, 
                -0.09643953293561935, 
                0.020321037620306015, 
                0.05118179693818092, 
                -0.15206032991409302, 
                -0.05098600685596466, 
                0.04736447334289551, 
                0.03849609196186066, 
                -0.04496275633573532, 
                -0.21405227482318878, 
                0.006218925584107637, 
                -0.3500426113605499, 
                0.528302788734436, 
                0.22262614965438843, 
                0.06773263961076736, 
                0.15417012572288513, 
                0.036371633410453796
            ]
        }, 
        "Node_94": {
            "bias": -0.19430948793888092, 
            "weights": [
                -0.09123104810714722, 
                -0.023004591464996338, 
                -0.1634019911289215, 
                0.1274944245815277, 
                0.004524675663560629, 
                -0.12946733832359314, 
                -0.03196224570274353, 
                0.10899312794208527, 
                -0.0016132702585309744, 
                0.1485709398984909, 
                0.24505919218063354, 
                -0.12366555631160736, 
                -0.000658421078696847, 
                0.01949692703783512, 
                0.00936189480125904, 
                -0.16047139465808868, 
                0.037105973809957504, 
                0.09452454000711441, 
                0.17248256504535675, 
                -0.1103004515171051, 
                -0.031229082494974136, 
                -0.08100175112485886, 
                -0.055232465267181396, 
                -0.006004977039992809, 
                -0.14399704337120056, 
                -0.07244652509689331, 
                -0.05202841758728027, 
                0.09960367530584335, 
                -0.09162572026252747, 
                -0.13799650967121124, 
                -0.029405556619167328, 
                -0.08418941497802734, 
                0.21651721000671387, 
                0.035569366067647934, 
                -0.046953633427619934, 
                -0.034110162407159805, 
                0.11203157156705856, 
                -0.20527616143226624, 
                -0.07980562001466751, 
                -0.09417165815830231, 
                -0.11774687469005585, 
                -0.08250290155410767, 
                0.2057468295097351, 
                -0.030428290367126465, 
                -0.013957984745502472, 
                -0.20979264378547668, 
                -0.1166473999619484, 
                -0.07112716883420944, 
                0.03079243376851082, 
                0.03710275888442993, 
                0.04797152429819107, 
                0.150913804769516, 
                -0.0638461485505104, 
                0.04389861226081848, 
                -0.12606941163539886, 
                0.006646438967436552, 
                0.023227913305163383, 
                -0.0400870144367218, 
                0.012105481699109077, 
                -0.1169682964682579, 
                0.04256339743733406, 
                -0.11022976040840149, 
                0.0029679983854293823, 
                -0.008200353942811489, 
                -0.2232755869626999, 
                0.10310009866952896, 
                0.12418671697378159, 
                -0.07773314416408539, 
                0.07785402983427048, 
                -0.01864464022219181, 
                0.07333241403102875, 
                0.04949763044714928, 
                -0.06583288311958313, 
                0.09137129038572311, 
                0.18614962697029114, 
                0.15254418551921844, 
                -0.2996678054332733, 
                0.15145032107830048, 
                -0.06698110699653625, 
                0.07964340597391129, 
                -0.13400383293628693, 
                0.2793210446834564, 
                -0.04267367720603943, 
                0.10116535425186157, 
                0.12162311375141144, 
                -0.08582866936922073, 
                0.14805585145950317, 
                -0.03655991703271866, 
                0.036346230655908585, 
                0.03668192774057388, 
                0.039442602545022964, 
                -0.11885906010866165, 
                -0.040305595844984055, 
                -0.05023398995399475, 
                0.08821752667427063, 
                -0.01074908021837473, 
                -0.07321981340646744, 
                -0.11114505678415298, 
                0.11752758920192719, 
                0.1445242464542389, 
                0.03788071125745773, 
                -0.007914600893855095, 
                -0.018979277461767197, 
                0.16410376131534576, 
                0.006084922235459089, 
                -0.08634711802005768, 
                0.44505420327186584, 
                -0.07502792030572891, 
                0.1687811315059662, 
                0.08541499823331833, 
                0.06486429274082184, 
                0.266408771276474, 
                -0.06478741765022278, 
                0.1507052630186081, 
                -0.06603942066431046, 
                -0.03320719674229622, 
                0.11899271607398987, 
                0.13219903409481049, 
                0.04950593784451485, 
                -0.17722058296203613, 
                -0.0486462339758873, 
                0.06378327310085297, 
                -0.05873047187924385, 
                0.03184857219457626, 
                -0.08763857185840607, 
                -0.03464491292834282, 
                -0.08335725218057632, 
                0.012473677285015583, 
                0.014653775840997696, 
                -0.11026663333177567, 
                -0.11343073844909668, 
                -0.17333389818668365, 
                0.09484162926673889, 
                0.1220347136259079, 
                0.13890472054481506, 
                -0.07819589972496033, 
                -0.0028888618107885122, 
                0.24033509194850922, 
                -0.8210851550102234, 
                0.022118916735053062, 
                0.0015719910152256489, 
                -0.035721924155950546, 
                0.08181193470954895, 
                -0.24341824650764465, 
                -0.08885259181261063, 
                0.0984920784831047, 
                0.1922413557767868, 
                -0.10600145161151886, 
                0.028194788843393326, 
                0.10166902840137482
            ]
        }, 
        "Node_93": {
            "bias": -0.01718614064157009, 
            "weights": [
                -0.12077745050191879, 
                0.10732783377170563, 
                0.04375694692134857, 
                -0.004399354103952646, 
                -0.061291806399822235, 
                0.03998887166380882, 
                -0.15400652587413788, 
                0.12618549168109894, 
                0.08642777800559998, 
                0.033883143216371536, 
                -0.15414714813232422, 
                0.0864797830581665, 
                -0.07381796091794968, 
                0.00776228541508317, 
                -0.09506978839635849, 
                -0.15056532621383667, 
                0.04709582030773163, 
                -0.11485695093870163, 
                0.020081503316760063, 
                0.06737498939037323, 
                0.1051824539899826, 
                -0.1020955741405487, 
                0.0839296355843544, 
                -0.1623915433883667, 
                0.015669051557779312, 
                -0.09790784120559692, 
                -0.11511731147766113, 
                0.14650525152683258, 
                -0.08597029000520706, 
                -0.10235355794429779, 
                0.1471533626317978, 
                -0.1685752421617508, 
                -0.08208560943603516, 
                0.12467309832572937, 
                0.11173863708972931, 
                -0.140656977891922, 
                0.11696621030569077, 
                -0.20032915472984314, 
                -0.15457716584205627, 
                -0.045434482395648956, 
                -0.12697093188762665, 
                -0.08678416162729263, 
                -0.03745873644948006, 
                -0.19199280440807343, 
                -0.15093684196472168, 
                0.018807651475071907, 
                -0.07601673901081085, 
                -0.1662990003824234, 
                -0.028283026069402695, 
                0.058915164321660995, 
                -0.0328853540122509, 
                0.013741910457611084, 
                0.0828498899936676, 
                0.04201057553291321, 
                -0.17720910906791687, 
                -0.024326128885149956, 
                0.0463670939207077, 
                0.05751841142773628, 
                -0.13078324496746063, 
                0.12109635770320892, 
                0.06072090566158295, 
                -0.08158396929502487, 
                -0.057652004063129425, 
                -0.06332433968782425, 
                -0.19351869821548462, 
                -0.08947914093732834, 
                0.05112707242369652, 
                0.007460159249603748, 
                0.011071163229644299, 
                0.12399902939796448, 
                -0.0018934723921120167, 
                -0.1714647263288498, 
                -0.08840881288051605, 
                0.03958301991224289, 
                0.012861019931733608, 
                -0.08753922581672668, 
                -0.14044487476348877, 
                -0.07279625535011292, 
                0.03883233666419983, 
                -0.08131927251815796, 
                0.09261172264814377, 
                -0.10809909552335739, 
                0.000606813351623714, 
                0.014498353004455566, 
                0.014229428954422474, 
                0.06796517223119736, 
                -0.001181179890409112, 
                -0.09820462763309479, 
                -0.0784342959523201, 
                -0.12245134264230728, 
                -0.1379770189523697, 
                0.04871899262070656, 
                -0.1472386121749878, 
                -0.05628475174307823, 
                -0.08279687166213989, 
                0.09623444825410843, 
                -0.020528454333543777, 
                0.09103920310735703, 
                -0.0457974411547184, 
                0.05674314498901367, 
                0.12269017845392227, 
                0.04923441261053085, 
                0.05800113081932068, 
                0.050886765122413635, 
                0.047571539878845215, 
                -0.1524597704410553, 
                -0.07346538454294205, 
                -0.15187384188175201, 
                -0.009555727243423462, 
                -0.16871938109397888, 
                -0.09941506385803223, 
                -0.022181877866387367, 
                -0.07342510670423508, 
                0.08054690808057785, 
                0.10086933523416519, 
                0.040768638253211975, 
                0.14923600852489471, 
                -0.06334007531404495, 
                -0.10164313018321991, 
                0.12217821180820465, 
                -0.1494871824979782, 
                -0.1672341376543045, 
                0.11725660413503647, 
                -0.016724133864045143, 
                -0.039965368807315826, 
                0.07081782072782516, 
                -0.12993162870407104, 
                -0.03876747190952301, 
                0.06153375655412674, 
                0.032517850399017334, 
                -0.07133583724498749, 
                -0.15629614889621735, 
                0.006442651152610779, 
                0.11732868105173111, 
                -0.10528068989515305, 
                -0.09770524501800537, 
                0.1520359367132187, 
                -0.016990480944514275, 
                -0.1440066695213318, 
                -0.06577108800411224, 
                0.018638402223587036, 
                0.08648397028446198, 
                -0.05803836137056351, 
                -0.028701715171337128, 
                -0.18079067766666412, 
                0.026580268517136574, 
                -0.12202434986829758, 
                -0.13495472073554993, 
                -0.0644715279340744, 
                -0.14376874268054962
            ]
        }, 
        "Node_92": {
            "bias": -0.021010685712099075, 
            "weights": [
                -0.06181210279464722, 
                0.12841102480888367, 
                -0.09860570728778839, 
                -0.020827753469347954, 
                -0.16008317470550537, 
                -0.16196389496326447, 
                0.05545280501246452, 
                -0.053211510181427, 
                -0.025199325755238533, 
                -0.0007255048840306699, 
                0.015892649069428444, 
                -0.20655396580696106, 
                0.026514817029237747, 
                0.14282070100307465, 
                0.044686127454042435, 
                -0.10661980509757996, 
                -0.1430811583995819, 
                0.09717747569084167, 
                0.03213265910744667, 
                0.0400221049785614, 
                0.05925825983285904, 
                -0.16558438539505005, 
                0.02754928730428219, 
                -0.03984813019633293, 
                0.08581873774528503, 
                -0.041143208742141724, 
                0.11365988105535507, 
                0.0946403443813324, 
                -0.07410592585802078, 
                -0.029381603002548218, 
                0.08449222892522812, 
                -0.15344011783599854, 
                -0.09027918428182602, 
                0.02152683213353157, 
                -0.12321972846984863, 
                -0.1025109514594078, 
                0.056007348001003265, 
                0.09280084073543549, 
                -0.11826810240745544, 
                0.10633525252342224, 
                0.07036323100328445, 
                0.12095534801483154, 
                0.027345111593604088, 
                0.12052983045578003, 
                -0.10938241332769394, 
                -0.14442716538906097, 
                0.07762777805328369, 
                0.09472526609897614, 
                0.07056377828121185, 
                -0.10807312279939651, 
                -0.09397363662719727, 
                0.1368585079908371, 
                0.059486422687768936, 
                0.14030741155147552, 
                -0.11647693812847137, 
                -0.1370442509651184, 
                -0.12977923452854156, 
                0.04349726811051369, 
                -0.09428548067808151, 
                -0.006888109724968672, 
                -0.13959887623786926, 
                0.07629493623971939, 
                -0.016066670417785645, 
                0.0418609119951725, 
                -0.04363904893398285, 
                -0.04948155954480171, 
                0.043484099209308624, 
                0.03078709915280342, 
                -0.07472892850637436, 
                0.014887950383126736, 
                -0.022825807332992554, 
                0.05382175371050835, 
                -0.14694559574127197, 
                0.04892927408218384, 
                -0.08364062756299973, 
                0.0652470588684082, 
                -0.034502215683460236, 
                0.03015013597905636, 
                0.1375989466905594, 
                0.06309270113706589, 
                -0.11340942978858948, 
                -0.09136764705181122, 
                0.06840972602367401, 
                0.11538243293762207, 
                -0.11572122573852539, 
                0.11473610252141953, 
                -0.14196932315826416, 
                -0.12369954586029053, 
                0.03137301281094551, 
                -0.02649221196770668, 
                0.02170431613922119, 
                0.038625724613666534, 
                -0.032851915806531906, 
                -0.10263542830944061, 
                -0.14790256321430206, 
                -0.2147463709115982, 
                -0.12237703055143356, 
                -0.17894424498081207, 
                -0.11590660363435745, 
                -0.03973200544714928, 
                0.06361236423254013, 
                -0.15254028141498566, 
                0.044254936277866364, 
                -0.01731845736503601, 
                0.04337663948535919, 
                0.0174145195633173, 
                -0.03381367400288582, 
                -0.08536260575056076, 
                -0.17310427129268646, 
                0.07041565328836441, 
                0.05332709848880768, 
                0.019737550988793373, 
                -0.10594017803668976, 
                -0.008608019910752773, 
                0.05739155411720276, 
                -0.15770593285560608, 
                0.03458617255091667, 
                -0.00906899943947792, 
                0.1023099347949028, 
                -0.03992593288421631, 
                -0.009690198116004467, 
                -0.09791713207960129, 
                0.1717986911535263, 
                -0.017285652458667755, 
                -0.02529815398156643, 
                -0.09800989180803299, 
                0.08946053683757782, 
                0.08016560971736908, 
                0.07436740398406982, 
                -0.10461929440498352, 
                -0.16194720566272736, 
                -0.012987136840820312, 
                -0.1297236829996109, 
                -0.030353350564837456, 
                -0.08085813373327255, 
                -0.027128005400300026, 
                -0.008800245821475983, 
                -0.02123599499464035, 
                -0.15693506598472595, 
                -0.07091792672872543, 
                -0.07553497701883316, 
                -0.11514242738485336, 
                0.011523188091814518, 
                0.1315954327583313, 
                -0.12430505454540253, 
                -0.1311437040567398, 
                0.05014815926551819, 
                -0.0780777558684349, 
                0.15584687888622284, 
                -0.03212717920541763
            ]
        }, 
        "Node_91": {
            "bias": -0.004791012033820152, 
            "weights": [
                0.1161937266588211, 
                0.13842172920703888, 
                -0.11428388953208923, 
                -0.02681666612625122, 
                -0.16293394565582275, 
                -0.057840388268232346, 
                -0.15142157673835754, 
                -0.014613064005970955, 
                -0.1259564757347107, 
                -0.09384455531835556, 
                -0.036841947585344315, 
                0.006076198071241379, 
                -0.06293941289186478, 
                -0.013369747437536716, 
                -0.0391085185110569, 
                0.09288224577903748, 
                0.08391048014163971, 
                -0.12442293018102646, 
                0.1049150750041008, 
                -0.07110407948493958, 
                -0.06815067678689957, 
                -0.1641201376914978, 
                -0.13732115924358368, 
                -0.039777543395757675, 
                0.08143967390060425, 
                0.09809963405132294, 
                -0.09586282074451447, 
                -0.1336131989955902, 
                -0.0027274431195110083, 
                -0.1481107771396637, 
                -0.0024155527353286743, 
                -0.058976009488105774, 
                0.010944648645818233, 
                0.026005566120147705, 
                -0.14639629423618317, 
                0.14840464293956757, 
                -0.026251543313264847, 
                0.11735718697309494, 
                0.07910653948783875, 
                -0.08819043636322021, 
                -0.08260531723499298, 
                -0.03031679429113865, 
                -0.12893636524677277, 
                -0.13480699062347412, 
                0.11721852421760559, 
                -0.036371491849422455, 
                0.09802700579166412, 
                -0.0351707823574543, 
                -0.0003158247855026275, 
                0.05869077146053314, 
                0.08847557753324509, 
                0.10662682354450226, 
                0.08671844750642776, 
                -0.15383870899677277, 
                0.11820103228092194, 
                -0.04834167659282684, 
                0.08662933856248856, 
                -0.02965705469250679, 
                -0.14154605567455292, 
                -0.019422128796577454, 
                -0.138019859790802, 
                -0.0722745731472969, 
                0.04608279466629028, 
                -0.12408100813627243, 
                -0.1587672382593155, 
                0.058463357388973236, 
                -0.03294886276125908, 
                -0.1683475226163864, 
                -0.12820108234882355, 
                0.02000059001147747, 
                -0.034179411828517914, 
                -0.08523856848478317, 
                0.09312738478183746, 
                -0.0023940897081047297, 
                -0.12878143787384033, 
                -0.09960921108722687, 
                -0.043412040919065475, 
                0.12496928125619888, 
                0.12686119973659515, 
                -0.03804337978363037, 
                -0.04315592348575592, 
                0.11128731817007065, 
                -0.061627097427845, 
                -0.1548149436712265, 
                -0.12446847558021545, 
                0.0009331405162811279, 
                0.07791952043771744, 
                -0.05819006264209747, 
                -0.08737794309854507, 
                0.07412523031234741, 
                0.09653288125991821, 
                -0.06469786167144775, 
                -0.10446139425039291, 
                0.038291480392217636, 
                0.011459734290838242, 
                -0.052733756601810455, 
                -0.07961001247167587, 
                0.015264755114912987, 
                -0.018182946369051933, 
                -0.11783674359321594, 
                -0.10363644361495972, 
                -0.008231484331190586, 
                0.013485468924045563, 
                -0.14965789020061493, 
                0.12718670070171356, 
                -0.11185412853956223, 
                0.13119320571422577, 
                -0.043557509779930115, 
                0.08051899820566177, 
                0.07379333674907684, 
                0.09503526985645294, 
                -0.10259237885475159, 
                -0.007011407054960728, 
                -0.1280204802751541, 
                0.033549435436725616, 
                0.07423682510852814, 
                -0.024174585938453674, 
                -0.17741526663303375, 
                0.028459347784519196, 
                -0.037535879760980606, 
                0.005380466114729643, 
                -0.043842338025569916, 
                0.020383790135383606, 
                0.00967959314584732, 
                -0.14477016031742096, 
                -0.045042481273412704, 
                -0.14194196462631226, 
                -0.018856167793273926, 
                0.02418169379234314, 
                0.04700500890612602, 
                0.10985764861106873, 
                0.06366914510726929, 
                -0.05502314865589142, 
                -0.09457328170537949, 
                -0.12223413586616516, 
                -0.09536492824554443, 
                0.039520327001810074, 
