{
    "Layer_1": {
        "Node_19": {
            "bias": -0.041378218680620193, 
            "weights": [
                -0.046302806586027145, 
                0.09461051225662231, 
                -0.08101387321949005, 
                -0.11775753647089005, 
                -0.16139982640743256, 
                0.09704098105430603, 
                -0.0008743282523937523, 
                0.05329331383109093, 
                0.02377150021493435, 
                0.1094522625207901, 
                -0.13271674513816833, 
                0.1404896080493927, 
                -0.1122652143239975, 
                -0.0024984776973724365, 
                -0.035982366651296616, 
                -0.06399840861558914, 
                -0.03068654239177704, 
                -0.2195112556219101, 
                0.1342630535364151, 
                -0.096836157143116, 
                -0.10124297440052032, 
                0.0009438129491172731, 
                -0.11465911567211151, 
                -0.08928930759429932, 
                -0.1684168130159378, 
                -0.14719024300575256, 
                0.035708408802747726, 
                -0.016365379095077515, 
                -0.0026025560218840837, 
                0.019164789468050003, 
                -0.07882717251777649, 
                -0.05640502646565437, 
                0.13034948706626892, 
                -0.1291278749704361, 
                -0.033109523355960846, 
                -0.16393540799617767, 
                -0.1442684680223465, 
                -0.06708935648202896, 
                -0.11225143820047379, 
                0.10817524790763855, 
                -0.031535301357507706, 
                -0.11749884486198425, 
                -0.04632358253002167, 
                -0.013164865784347057, 
                -0.005325509235262871, 
                0.07024835795164108, 
                -0.1290000081062317, 
                -0.02941814251244068, 
                -0.0735163539648056, 
                -0.020938295871019363, 
                -0.08482550084590912, 
                -0.11150863766670227, 
                -0.1313747763633728, 
                -0.0976947695016861, 
                0.010882294736802578, 
                -0.15078727900981903, 
                0.008070811629295349, 
                -0.02009495347738266, 
                0.0729084387421608, 
                0.020284056663513184, 
                -0.03169632703065872, 
                0.08892049640417099, 
                -0.001959445420652628, 
                -0.07645075768232346, 
                0.10933774709701538, 
                -0.19788329303264618, 
                -0.18386949598789215, 
                0.09321916848421097, 
                0.06782645732164383, 
                -0.009108537808060646, 
                -0.09412311762571335, 
                -0.06228085234761238, 
                0.03135016933083534, 
                0.08494342118501663, 
                -0.11244604736566544, 
                0.072715163230896, 
                0.008420459926128387, 
                -0.020925499498844147, 
                -0.10342086106538773, 
                -0.09345114231109619, 
                -0.03192342817783356, 
                -0.08284289389848709, 
                0.06244679167866707, 
                -0.003628849983215332, 
                0.11835186928510666, 
                -0.07411495596170425, 
                -0.07818625122308731, 
                -0.12438801676034927, 
                -0.013844817876815796, 
                0.013550471514463425, 
                0.07038485258817673, 
                0.08971063792705536, 
                -0.10950387269258499, 
                0.11254660040140152, 
                0.04292779415845871, 
                0.1487501710653305, 
                0.05608802288770676, 
                0.13356196880340576, 
                0.05923251807689667, 
                0.13353131711483002, 
                0.024300917983055115, 
                0.0006945431232452393, 
                -0.05260327830910683, 
                0.1247880756855011, 
                -0.12806855142116547, 
                0.04141755402088165, 
                0.01724640280008316, 
                -0.0728827491402626, 
                0.09708718210458755, 
                0.03718516230583191, 
                -0.04220539703965187, 
                0.05241863429546356, 
                -0.1522538661956787, 
                0.05899154022336006, 
                0.0016542717348784208, 
                -0.14065705239772797, 
                0.019891873002052307, 
                0.08802208304405212, 
                -0.07042434066534042, 
                -0.14705710113048553, 
                0.1163899302482605, 
                -0.02594102919101715, 
                -0.03132227063179016, 
                -0.024338198825716972, 
                0.156962051987648, 
                -0.03995432332158089, 
                -0.131899893283844, 
                0.05638466402888298, 
                -0.11192911118268967, 
                0.026560617610812187, 
                -0.09497106820344925, 
                -0.10646109282970428, 
                -0.03379641845822334, 
                -0.1726371794939041, 
                -0.0833352580666542, 
                -0.1367911845445633, 
                0.08582117408514023, 
                -0.1099127009510994, 
                -0.05368480086326599, 
                -0.007732726167887449, 
                0.0616300068795681, 
                -0.05304838344454765, 
                -0.2092752754688263, 
                -0.16177482903003693, 
                0.020787756890058517, 
                0.0916648656129837, 
                -0.09368200600147247, 
                0.08127529174089432, 
                -0.03429054096341133, 
                -0.10874291509389877
            ]
        }, 
        "Node_18": {
            "bias": 0.5861206650733948, 
            "weights": [
                -0.22729170322418213, 
                -0.0015118569135665894, 
                0.11415089666843414, 
                -0.02361728623509407, 
                0.04971747472882271, 
                -0.1293763518333435, 
                -0.05215267464518547, 
                -0.10411649197340012, 
                0.24924854934215546, 
                0.042276713997125626, 
                -0.30486899614334106, 
                -0.21241118013858795, 
                0.08598721027374268, 
                0.1416405290365219, 
                0.10519412159919739, 
                0.18705826997756958, 
                0.0637289434671402, 
                0.26927807927131653, 
                0.06604644656181335, 
                -0.24922020733356476, 
                0.0022495745215564966, 
                -0.027944689616560936, 
                0.0346033051609993, 
                -0.05904167518019676, 
                -0.1493469625711441, 
                -0.11623240262269974, 
                0.18986620008945465, 
                0.06560549139976501, 
                0.34349367022514343, 
                0.14224880933761597, 
                0.09946887195110321, 
                0.02052886225283146, 
                -0.1394861787557602, 
                -0.017279058694839478, 
                -0.1532522439956665, 
                0.041058361530303955, 
                0.022990066558122635, 
                0.07282570004463196, 
                0.08028371632099152, 
                0.08519988507032394, 
                -0.27343615889549255, 
                -0.03581960126757622, 
                0.06736442446708679, 
                -0.21570652723312378, 
                -0.14873914420604706, 
                -0.03294824808835983, 
                -0.07836038619279861, 
                -0.1570986807346344, 
                0.0137226153165102, 
                0.02662793919444084, 
                0.06271384656429291, 
                -0.09176547080278397, 
                -0.15635359287261963, 
                0.009159276261925697, 
                0.1141616553068161, 
                0.2631443738937378, 
                -0.22928044199943542, 
                -0.3835738003253937, 
                -0.07528285682201385, 
                -0.1240064948797226, 
                0.19990189373493195, 
                -0.17939014732837677, 
                -0.2099483609199524, 
                -0.06637857854366302, 
                -0.021416448056697845, 
                0.017224416136741638, 
                0.09708251059055328, 
                -0.1653079241514206, 
                -0.11607562005519867, 
                0.015207026153802872, 
                0.07212383300065994, 
                0.1449332982301712, 
                0.01538199931383133, 
                -0.07716502994298935, 
                -0.06425107270479202, 
                -0.0335070937871933, 
                -0.0468844473361969, 
                -0.017990408465266228, 
                0.07300765067338943, 
                -0.08121595531702042, 
                -0.28162381052970886, 
                0.09457340836524963, 
                0.09109659492969513, 
                -0.14413776993751526, 
                0.10233597457408905, 
                0.07187499850988388, 
                0.20802856981754303, 
                -0.009811478666961193, 
                -0.18308241665363312, 
                -0.2584937810897827, 
                -0.11276492476463318, 
                0.19498895108699799, 
                0.11818176507949829, 
                -0.13844145834445953, 
                0.11301981657743454, 
                -0.3950130045413971, 
                0.0741550624370575, 
                0.2028191089630127, 
                -0.0813717246055603, 
                0.14481808245182037, 
                -0.13938091695308685, 
                0.01314600370824337, 
                0.09983385354280472, 
                -0.05210167169570923, 
                0.18687787652015686, 
                -0.21743418276309967, 
                -0.241596519947052, 
                0.03802639618515968, 
                -0.19398628175258636, 
                -0.09764494746923447, 
                0.17185372114181519, 
                -0.1530638039112091, 
                0.12475632131099701, 
                0.024695489555597305, 
                0.13945579528808594, 
                -0.018910454586148262, 
                -0.2472630739212036, 
                0.04632656276226044, 
                0.1054292693734169, 
                -0.14500463008880615, 
                -0.09032230079174042, 
                -0.023816857486963272, 
                0.15283995866775513, 
                -0.02308986522257328, 
                0.06209464743733406, 
                0.08374771475791931, 
                -0.1644493192434311, 
                -0.07390282303094864, 
                -0.08891793340444565, 
                -0.1664428561925888, 
                -0.028974220156669617, 
                -0.002510124584659934, 
                -0.16047745943069458, 
                -0.08459638804197311, 
                -0.17980913817882538, 
                0.018766166642308235, 
                0.06752888113260269, 
                0.09467557817697525, 
                -0.028474394232034683, 
                -0.06859444081783295, 
                -0.07048548012971878, 
                -0.08490019291639328, 
                0.04974661022424698, 
                -0.01989249885082245, 
                0.1306619793176651, 
                0.05019231513142586, 
                -0.04735708609223366, 
                0.05576435476541519, 
                -0.03620677441358566, 
                -0.15013885498046875
            ]
        }, 
        "Node_17": {
            "bias": -0.04771599546074867, 
            "weights": [
                0.12209532409906387, 
                0.09064692258834839, 
                -0.125627338886261, 
                -0.08103381842374802, 
                -0.1226067766547203, 
                -0.13486213982105255, 
                0.11561591923236847, 
                -0.019808022305369377, 
                0.07751838117837906, 
                -0.10538409650325775, 
                0.007137821055948734, 
                0.09210816770792007, 
                -0.11777404695749283, 
                -0.047879092395305634, 
                -0.044381313025951385, 
                0.07185207307338715, 
                -0.1294923722743988, 
                -0.014843553304672241, 
                0.14863143861293793, 
                -0.10026387125253677, 
                -0.019805772230029106, 
                -0.037278953939676285, 
                0.03979964554309845, 
                0.03287423774600029, 
                -0.1117812767624855, 
                -0.12607455253601074, 
                -0.15327806770801544, 
                0.08504044264554977, 
                -0.08716485649347305, 
                0.10473905503749847, 
                0.018521830439567566, 
                0.07922164350748062, 
                -0.06023034080862999, 
                -0.0393345020711422, 
                -0.03569380193948746, 
                0.04426828399300575, 
                0.09265687316656113, 
                0.09224368631839752, 
                -0.1810225397348404, 
                -0.025399737060070038, 
                -0.0018228687113150954, 
                0.06241585686802864, 
                -0.13802164793014526, 
                -0.08428096771240234, 
                -0.018068207427859306, 
                0.10002695024013519, 
                0.14222078025341034, 
                0.12735934555530548, 
                -0.024716148152947426, 
                -0.12724636495113373, 
                -0.1457642912864685, 
                -0.013003090396523476, 
                -0.21123802661895752, 
                -0.05075828731060028, 
                -0.06275501847267151, 
                0.001776563934981823, 
                -0.23581349849700928, 
                0.050143104046583176, 
                -0.11547697335481644, 
                -0.10565268993377686, 
                0.07768960297107697, 
                -0.23461662232875824, 
                -0.18564966320991516, 
                0.039812054485082626, 
                0.0652538612484932, 
                -0.011099881492555141, 
                -0.12398990243673325, 
                -0.062152083963155746, 
                -0.09008625894784927, 
                -0.10190024226903915, 
                0.10148816555738449, 
                0.03045850247144699, 
                -0.02943294309079647, 
                0.0633229985833168, 
                0.128403902053833, 
                0.1017383486032486, 
                -0.07482802867889404, 
                -0.02774888649582863, 
                -0.0738392025232315, 
                0.015064716339111328, 
                0.049276530742645264, 
                -0.1414480209350586, 
                -0.07262225449085236, 
                -0.17594026029109955, 
                -0.08165764808654785, 
                -0.007890371605753899, 
                0.05140555649995804, 
                -0.21226724982261658, 
                -0.09788364917039871, 
                -0.042729053646326065, 
                -0.043147217482328415, 
                0.037095800042152405, 
                -0.07215142995119095, 
                -0.16491609811782837, 
                0.048746898770332336, 
                0.08465907722711563, 
                -0.18461845815181732, 
                -0.12107376754283905, 
                -0.05320480465888977, 
                -0.15314503014087677, 
                0.06768465042114258, 
                -0.1090695708990097, 
                -0.0877513736486435, 
                -0.03171855956315994, 
                0.13453252613544464, 
                0.003565847873687744, 
                0.04171404242515564, 
                0.04975447058677673, 
                -0.15784688293933868, 
                0.06139009818434715, 
                -0.08034945279359818, 
                -0.09050466120243073, 
                -0.17107757925987244, 
                -0.0089805219322443, 
                0.15584200620651245, 
                -0.0035135054495185614, 
                -0.006444297265261412, 
                -0.015050060115754604, 
                0.05822717025876045, 
                0.11275438964366913, 
                -0.1416855752468109, 
                0.11938458681106567, 
                0.01273484155535698, 
                -0.17401164770126343, 
                -0.01426597498357296, 
                0.005406780168414116, 
                0.02697070688009262, 
                -0.11664882302284241, 
                -0.037670500576496124, 
                0.11283733695745468, 
                -0.06635385751724243, 
                -0.1374145746231079, 
                -0.07229815423488617, 
                -0.03365151211619377, 
                -0.14819934964179993, 
                -0.022146422415971756, 
                -0.09791490435600281, 
                0.023331092670559883, 
                -0.18379095196723938, 
                -0.010740495286881924, 
                0.08188953995704651, 
                -0.08151198923587799, 
                -0.17512673139572144, 
                0.08647261559963226, 
                -0.16137896478176117, 
                0.09183674305677414, 
                0.09223580360412598, 
                0.0004640244587790221, 
                -0.016405723989009857, 
                -0.112840935587883
            ]
        }, 
        "Node_16": {
            "bias": 1.2164852619171143, 
            "weights": [
                0.12270136922597885, 
                -0.12708190083503723, 
                -0.043941691517829895, 
                0.0797741711139679, 
                0.020544391125440598, 
                -0.008668939583003521, 
                -0.18177556991577148, 
                0.03535439074039459, 
                -0.37036874890327454, 
                0.09412498772144318, 
                -0.05609659105539322, 
                0.1538340002298355, 
                -0.08042910695075989, 
                -0.023433968424797058, 
                0.2357456535100937, 
                0.2881806790828705, 
                0.24379616975784302, 
                -0.1937452256679535, 
                0.1218373030424118, 
                -0.15899664163589478, 
                -0.0803954005241394, 
                0.15987150371074677, 
                -0.028883345425128937, 
                -0.1435626745223999, 
                -0.04839278757572174, 
                0.029839711263775826, 
                -0.05817166343331337, 
                -0.03602439537644386, 
                -0.07588662952184677, 
                0.15228165686130524, 
                0.10947908461093903, 
                -0.12358682602643967, 
                -0.18242594599723816, 
                0.19698621332645416, 
                0.061096325516700745, 
                0.3106410801410675, 
                -0.009257015772163868, 
                0.1681285798549652, 
                -0.19938525557518005, 
                -0.013716021552681923, 
                0.21540844440460205, 
                0.1719456911087036, 
                0.01029728353023529, 
                0.006045567337423563, 
                -0.13348063826560974, 
                0.06869369000196457, 
                0.14501748979091644, 
                0.009194549173116684, 
                0.08240416646003723, 
                0.05780824273824692, 
                0.22797168791294098, 
                0.12689301371574402, 
                -0.28247371315956116, 
                -0.10868363827466965, 
                -0.04900786653161049, 
                -0.13677117228507996, 
                0.008549093268811703, 
                0.18499769270420074, 
                -0.08458168804645538, 
                -0.07802028208971024, 
                -0.09974301606416702, 
                -0.03137488663196564, 
                -0.013008921407163143, 
                -0.3134593367576599, 
                -0.24180838465690613, 
                -0.12242167443037033, 
                0.04221490025520325, 
                0.31143248081207275, 
                0.24620595574378967, 
                0.13959886133670807, 
                -0.16413459181785583, 
                -0.23441557586193085, 
                -0.14171375334262848, 
                0.06365349143743515, 
                -0.012384166941046715, 
                0.25944942235946655, 
                0.07039973884820938, 
                0.029445258900523186, 
                -0.06774614751338959, 
                -0.07548630982637405, 
                -0.08767306804656982, 
                0.06540650129318237, 
                0.164078027009964, 
                -0.24633848667144775, 
                -0.002180501352995634, 
                0.07494361698627472, 
                -0.05482103303074837, 
                -0.12204982340335846, 
                -0.09730277955532074, 
                -0.2650611102581024, 
                0.04745684564113617, 
                -0.1928015947341919, 
                -0.06228351965546608, 
                0.1231558695435524, 
                -0.15678894519805908, 
                0.13455456495285034, 
                -0.21052438020706177, 
                0.14461925625801086, 
                0.10968826711177826, 
                0.12559880316257477, 
                0.003514027688652277, 
                -1.0852502584457397, 
                -0.09589292854070663, 
                0.0944066271185875, 
                0.08725655823945999, 
                -0.14702078700065613, 
                0.1406347155570984, 
                -0.2654208242893219, 
                -0.006957778241485357, 
                -0.17521508038043976, 
                0.03155369684100151, 
                -0.004542285576462746, 
                -0.02811160869896412, 
                -0.3400825262069702, 
                0.04611917585134506, 
                0.06462030857801437, 
                -0.05558393895626068, 
                -0.14148513972759247, 
                -0.22608575224876404, 
                -0.14196109771728516, 
                -0.021809738129377365, 
                0.10870500653982162, 
                -0.13896489143371582, 
                0.18667063117027283, 
                -0.05792846530675888, 
                0.04815494641661644, 
                0.0900849774479866, 
                -0.036620061844587326, 
                -0.032109037041664124, 
                -0.20760050415992737, 
                -0.04093962907791138, 
                -0.09694492071866989, 
                0.22879134118556976, 
                -0.010853513143956661, 
                0.020342804491519928, 
                0.12405513972043991, 
                0.013096541166305542, 
                -0.013323742896318436, 
                0.18892636895179749, 
                -0.07271049916744232, 
                -0.23864497244358063, 
                0.07021845132112503, 
                0.27673035860061646, 
                0.32547232508659363, 
                0.14038819074630737, 
                -0.03271859511733055, 
                0.20937074720859528, 
                0.05704791098833084, 
                -0.024424858391284943, 
                0.2717990577220917
            ]
        }, 
        "Node_15": {
            "bias": -0.032078471034765244, 
            "weights": [
                0.006475077010691166, 
                -0.0013566464185714722, 
                -0.0647319108247757, 
                -0.03687284514307976, 
                -0.03449321165680885, 
                0.08355225622653961, 
                -0.021694134920835495, 
                -0.003538821591064334, 
                0.05827493593096733, 
                -0.015413903631269932, 
                0.008131058886647224, 
                -0.006577153690159321, 
                -0.169218510389328, 
                -0.1389143168926239, 
                0.08601545542478561, 
                0.04308860003948212, 
                0.10649488121271133, 
                -0.1723932921886444, 
                0.14440672099590302, 
                0.02756440080702305, 
                -0.1355803906917572, 
                0.10729825496673584, 
                -0.09699293971061707, 
                0.00047978758811950684, 
                -0.09265822172164917, 
                0.08125090599060059, 
                -0.08288242667913437, 
                -0.018015181645751, 
                -0.21459995210170746, 
                0.024472922086715698, 
                -0.11850503832101822, 
                -0.12145999073982239, 
                0.040121570229530334, 
                0.03322417289018631, 
                0.0254029780626297, 
                0.09736836701631546, 
                -0.08970633149147034, 
                -0.12555921077728271, 
                0.036549944430589676, 
                0.019972993060946465, 
                0.05077367275953293, 
                0.07659119367599487, 
                0.11070163547992706, 
                -0.04543024301528931, 
                -0.17616261541843414, 
                -0.02116195671260357, 
                -0.15284329652786255, 
                -0.12073611468076706, 
                0.01842183992266655, 
                -0.00706495251506567, 
                -0.03094184771180153, 
                -0.030313586816191673, 
                0.10459749400615692, 
                0.051971692591905594, 
                -0.020243853330612183, 
                0.019797218963503838, 
                -0.10444480180740356, 
                -0.1274929791688919, 
                -0.09219712018966675, 
                0.11361922323703766, 
                -0.009837939403951168, 
                -0.019026819616556168, 
                -0.07219725847244263, 
                0.08767815679311752, 
                -0.06272579729557037, 
                -0.10258900374174118, 
                0.09438099712133408, 
                -0.09433557838201523, 
                0.0025829090736806393, 
                -0.11153575032949448, 
                -0.09265574812889099, 
                -0.1137445718050003, 
                0.05356959253549576, 
                -0.045128051191568375, 
                0.14654120802879333, 
                -0.06344453990459442, 
                -0.1543842852115631, 
                0.07601633667945862, 
                -0.03876997157931328, 
                -5.990266799926758e-05, 
                -0.06534720212221146, 
                -0.028701061382889748, 
                0.031703881919384, 
                -0.08096212148666382, 
                0.021738998591899872, 
                0.049050744622945786, 
                0.08392743766307831, 
                -0.1442810744047165, 
                0.09350702166557312, 
                -0.1430400162935257, 
                0.03845464810729027, 
                -0.10221897065639496, 
                0.1302705556154251, 
                0.0026106713339686394, 
                0.08524387329816818, 
                0.046918269246816635, 
                -0.002163141267374158, 
                0.09441587328910828, 
                -0.12403272092342377, 
                0.14238272607326508, 
                -0.1699969619512558, 
                0.04830189049243927, 
                -0.1277780532836914, 
                -0.14955075085163116, 
                -0.09806812554597855, 
                -0.05187530815601349, 
                -0.2052699625492096, 
                -0.057427119463682175, 
                -0.1467130035161972, 
                -0.05456070601940155, 
                0.00609925901517272, 
                0.09055978059768677, 
                -0.07946812361478806, 
                0.07273640483617783, 
                0.043099723756313324, 
                -0.16417202353477478, 
                0.0829390436410904, 
                -0.04747910052537918, 
                0.031161442399024963, 
                -0.08690264075994492, 
                0.11974025517702103, 
                0.04855409637093544, 
                -0.11470476537942886, 
                -0.14253978431224823, 
                0.031015073880553246, 
                0.009350908920168877, 
                -0.15997682511806488, 
                0.12809626758098602, 
                0.053172849118709564, 
                -0.16190075874328613, 
                0.012424804270267487, 
                0.06341758370399475, 
                -0.10870056599378586, 
                0.011451464146375656, 
                -0.15830731391906738, 
                0.06500225514173508, 
                -0.10317137092351913, 
                -0.0998140498995781, 
                -0.16789323091506958, 
                0.14693331718444824, 
                0.11864706128835678, 
                -0.177083358168602, 
                -0.0906762033700943, 
                0.06927602738142014, 
                -0.0008256901055574417, 
                -0.2075374573469162, 
                -0.11956285685300827, 
                -0.12177760899066925, 
                -0.14018455147743225, 
                -0.12426386028528214
            ]
        }, 
        "Node_14": {
            "bias": -1.2202168703079224, 
            "weights": [
                -0.03278328850865364, 
                -0.1496877372264862, 
                -0.08715404570102692, 
                0.0020172458607703447, 
                -0.20001067221164703, 
                0.08714092522859573, 
                0.10655119270086288, 
                -0.011214742437005043, 
                0.018846478313207626, 
                -0.1359383910894394, 
                0.12383322417736053, 
                -0.14049352705478668, 
                -0.07489887624979019, 
                0.10672028362751007, 
                -0.1279705911874771, 
                -0.011571572162210941, 
                0.0025307899340987206, 
                0.4156055450439453, 
                -0.07959115505218506, 
                0.03524085506796837, 
                0.12080205231904984, 
                -0.1566084623336792, 
                -0.12189130485057831, 
                -0.03087245486676693, 
                0.2136138379573822, 
                0.009518376551568508, 
                -0.14320164918899536, 
                -0.14262981712818146, 
                -0.16501304507255554, 
                -0.1133301854133606, 
                -0.009656459093093872, 
                -0.0905388593673706, 
                0.006161992903798819, 
                -0.13482047617435455, 
                -0.10783395916223526, 
                -0.029443813487887383, 
                -0.07433254271745682, 
                0.05367250740528107, 
                0.05096016079187393, 
                0.020436331629753113, 
                -0.038885921239852905, 
                -0.04403722658753395, 
                -0.13836075365543365, 
                -0.051703501492738724, 
                -0.022886833176016808, 
                -0.01977601647377014, 
                -0.039640963077545166, 
                -0.19246473908424377, 
                0.024611946195364, 
                -0.025503000244498253, 
                0.04464146867394447, 
                -0.1046486645936966, 
                -0.053460851311683655, 
                -0.045379266142845154, 
                0.1976478099822998, 
                0.11635833233594894, 
                -0.12145831435918808, 
                0.1553245186805725, 
                0.09116010367870331, 
                -0.06735286116600037, 
                -0.08225345611572266, 
                0.03471062332391739, 
                -0.012491447851061821, 
                0.09884188324213028, 
                0.052593640983104706, 
                -0.13353265821933746, 
                0.015421133488416672, 
                -0.03986460343003273, 
                0.027445169165730476, 
                -0.09945987164974213, 
                0.04527054727077484, 
                -0.10659416764974594, 
                0.12173332273960114, 
                0.0906573086977005, 
                -0.01718786545097828, 
                0.005587514955550432, 
                -0.09960054606199265, 
                -0.06560124456882477, 
                -0.0343816913664341, 
                -0.01917429268360138, 
                0.19630467891693115, 
                0.15573608875274658, 
                -0.06068146601319313, 
                0.48350194096565247, 
                -0.025204908102750778, 
                -0.2969789206981659, 
                0.04095103219151497, 
                0.03930061683058739, 
                0.061165232211351395, 
                -0.13883087038993835, 
                0.02381855808198452, 
                0.01981722004711628, 
                -0.12377489358186722, 
                0.09139670431613922, 
                0.15773853659629822, 
                -0.3339092433452606, 
                0.10409374535083771, 
                0.03296513482928276, 
                -0.022604526951909065, 
                -0.1350499987602234, 
                0.045930415391922, 
                0.5115174651145935, 
                0.013126542791724205, 
                0.029880337417125702, 
                -0.18197572231292725, 
                -0.035100553184747696, 
                0.11054658144712448, 
                0.31080538034439087, 
                -0.029427476227283478, 
                0.004132936708629131, 
                0.10561099648475647, 
                -0.11888138949871063, 
                0.01390460692346096, 
                -0.012929482385516167, 
                0.06794042885303497, 
                0.025510752573609352, 
                -0.0645032599568367, 
                0.06501494348049164, 
                -0.1049446389079094, 
                -0.09108563512563705, 
                -0.057071905583143234, 
                0.10352328419685364, 
                0.14081023633480072, 
                -0.16156308352947235, 
                0.057175084948539734, 
                0.13515721261501312, 
                -0.09696830064058304, 
                0.08128844946622849, 
                -0.03932571038603783, 
                -0.021356355398893356, 
                0.05263907089829445, 
                0.1358664184808731, 
                -0.0675751343369484, 
                0.16903208196163177, 
                -0.05107742175459862, 
                0.13775227963924408, 
                -0.08898212015628815, 
                0.04899793118238449, 
                0.15338417887687683, 
                -0.0575716532766819, 
                0.17447881400585175, 
                0.025993695482611656, 
                -0.49904048442840576, 
                -0.13142792880535126, 
                -0.1789601892232895, 
                0.029354451224207878, 
                -0.10750684142112732, 
                -0.10676459968090057, 
                0.10231169313192368, 
                0.09709495306015015
            ]
        }, 
        "Node_13": {
            "bias": -0.0557340607047081, 
            "weights": [
                0.0033799291122704744, 
                0.00243261456489563, 
                -0.02425784431397915, 
                -0.11388415098190308, 
                -0.1668979972600937, 
                0.09323053061962128, 
                -0.15534472465515137, 
                -0.02848725952208042, 
                -0.11797010153532028, 
                -0.024541398510336876, 
                0.027773573994636536, 
                0.10561373084783554, 
                -0.03933310881257057, 
                0.047800227999687195, 
                0.05146816000342369, 
                0.06598594039678574, 
                0.0461384654045105, 
                0.011609729379415512, 
                -0.035229481756687164, 
                0.01750018820166588, 
                -0.1657906472682953, 
                -0.08268890529870987, 
                0.12041517347097397, 
                0.09670890122652054, 
                0.10899043828248978, 
                -0.00037515925941988826, 
                0.02749524638056755, 
                0.034285034984350204, 
                -0.100141242146492, 
                0.01896434649825096, 
                0.09070290625095367, 
                -0.15241244435310364, 
                0.05543946474790573, 
                0.037922367453575134, 
                -0.02869182825088501, 
                -0.06332355737686157, 
                -0.048090096563100815, 
                -0.13010485470294952, 
                0.010206114500761032, 
                0.09039817750453949, 
                -0.06366337090730667, 
                -0.0831691175699234, 
                -0.037112973630428314, 
                0.09848745912313461, 
                -0.22437463700771332, 
                0.0084992665797472, 
                0.03932154178619385, 
                -0.06455143541097641, 
                0.11015273630619049, 
                -0.1329033374786377, 
                -0.15710878372192383, 
                0.06687194854021072, 
                0.1134720891714096, 
                -0.1411127746105194, 
                -0.0978008508682251, 
                0.0598965585231781, 
                -0.07119708508253098, 
                0.13051828742027283, 
                -0.031018126755952835, 
                0.1382700353860855, 
                -0.17417031526565552, 
                -0.07405001670122147, 
                -0.1002003401517868, 
                -0.1819969117641449, 
                0.08807507157325745, 
                -0.025666221976280212, 
                -0.0011857441859319806, 
                0.1500113159418106, 
                -0.14682969450950623, 
                0.1299101561307907, 
                0.06898289918899536, 
                0.053166039288043976, 
                -0.0780717134475708, 
                -0.040044113993644714, 
                -0.04881001636385918, 
                -0.16247153282165527, 
                0.08214348554611206, 
                0.07439660280942917, 
                -0.02722197398543358, 
                0.056306108832359314, 
                -0.13554255664348602, 
                -0.21690019965171814, 
                0.09839834272861481, 
                0.13848550617694855, 
                -0.08991822600364685, 
                -0.06395698338747025, 
                -0.1744418740272522, 
                -0.08633449673652649, 
                -0.12660348415374756, 
                -0.12350815534591675, 
                0.07095262408256531, 
                -0.07303214818239212, 
                0.06229386106133461, 
                -0.09336806833744049, 
                -0.04728149250149727, 
                0.0637320727109909, 
                0.07578276842832565, 
                0.0765426754951477, 
                -0.007581740617752075, 
                -0.06022538244724274, 
                -0.18275365233421326, 
                -0.004551991820335388, 
                -0.047366779297590256, 
                -0.024972114711999893, 
                -0.10408744215965271, 
                0.11836560815572739, 
                0.0021264527458697557, 
                -0.13183178007602692, 
                -0.02567928470671177, 
                -0.20039349794387817, 
                -0.1253736913204193, 
                -0.09440861642360687, 
                0.01507298182696104, 
                -0.08064231276512146, 
                -0.07076973468065262, 
                0.03848985582590103, 
                -0.12947401404380798, 
                0.01991485245525837, 
                -0.06877879798412323, 
                0.01444999873638153, 
                0.08864888548851013, 
                -0.07668139785528183, 
                0.10843272507190704, 
                -0.14391553401947021, 
                0.018276318907737732, 
                0.0814354345202446, 
                -0.02270527184009552, 
                -0.043854791671037674, 
                -0.09252821654081345, 
                -0.1048046201467514, 
                -0.06950845569372177, 
                -0.11297900229692459, 
                -0.15243716537952423, 
                -0.005059617105871439, 
                0.0064189317636191845, 
                -0.05876988545060158, 
                0.15021519362926483, 
                -0.069780133664608, 
                -0.00458323722705245, 
                -0.12387533485889435, 
                -0.03204161673784256, 
                0.052259255200624466, 
                -0.043633703142404556, 
                0.15784196555614471, 
                -0.12181376665830612, 
                -0.1511935144662857, 
                -0.16109025478363037, 
                -0.1499090939760208, 
                0.020616641268134117, 
                -0.06870675832033157
            ]
        }, 
        "Node_12": {
            "bias": -0.5248963832855225, 
            "weights": [
                -0.006702198181301355, 
                -0.11725421249866486, 
                -0.5231497883796692, 
                -0.23335421085357666, 
                -0.060601405799388885, 
                0.05773843824863434, 
                0.11090068519115448, 
                0.03231262043118477, 
                -0.10873498022556305, 
                -0.0014029155718162656, 
                -0.1908595710992813, 
                -0.21306322515010834, 
                0.20609788596630096, 
                -0.08979710191488266, 
                -0.22172760963439941, 
                -0.12224088609218597, 
                0.11788393557071686, 
                -0.2338910698890686, 
                -0.08821196854114532, 
                0.1799791157245636, 
                0.14191077649593353, 
                0.07825609296560287, 
                -0.06070314347743988, 
                0.003606180427595973, 
                0.001146774971857667, 
                0.10489369928836823, 
                0.10745066404342651, 
                -0.26034310460090637, 
                0.16656622290611267, 
                0.03484221547842026, 
                0.1457381397485733, 
                0.07744398713111877, 
                0.22249016165733337, 
                -0.010055534541606903, 
                -0.11805903911590576, 
                -0.14625400304794312, 
                0.19199608266353607, 
                0.10030672699213028, 
                -0.24122165143489838, 
                0.038707535713911057, 
                0.2853589951992035, 
                -0.047399554401636124, 
                -0.07654060423374176, 
                -0.040885310620069504, 
                0.04636765643954277, 
                0.1312476396560669, 
                0.08041056990623474, 
                -0.021426470950245857, 
                0.09903555363416672, 
                -0.03978639096021652, 
                0.03997361287474632, 
                0.07711747288703918, 
                0.09436162561178207, 
                0.010735781863331795, 
                -0.009107960388064384, 
                -0.17002344131469727, 
                -0.19964145123958588, 
                -0.03944256901741028, 
                -0.18723587691783905, 
                0.1222040206193924, 
                -0.261910080909729, 
                -0.16152746975421906, 
                -0.08508329838514328, 
                -0.2111748605966568, 
                0.15160542726516724, 
                -0.05645366385579109, 
                -0.023728424683213234, 
                -0.09542433172464371, 
                -0.04960084706544876, 
                -0.043729037046432495, 
                -0.04122849553823471, 
                0.20114289224147797, 
                -0.2108125537633896, 
                -0.16027620434761047, 
                -0.1966051608324051, 
                0.04527593031525612, 
                -0.17485575377941132, 
                -0.23651111125946045, 
                -0.39217236638069153, 
                -0.007320314645767212, 
                0.03619242459535599, 
                0.0006080823950469494, 
                -0.04798194393515587, 
                0.20099130272865295, 
                0.1036301851272583, 
                -0.3280089795589447, 
                0.12417362630367279, 
                -0.15789462625980377, 
                0.06321587413549423, 
                -0.04062098264694214, 
                0.0047930083237588406, 
                0.05302085727453232, 
                -0.1030711755156517, 
                0.09552855044603348, 
                0.06077355518937111, 
                -0.26876187324523926, 
                -0.09160946309566498, 
                0.11827536672353745, 
                0.07955604046583176, 
                0.13441167771816254, 
                0.007076676934957504, 
                0.07779032737016678, 
                0.27397581934928894, 
                -0.22148030996322632, 
                -0.1079169288277626, 
                0.12077006697654724, 
                -0.11331217736005783, 
                0.06687662750482559, 
                -0.3600597679615021, 
                0.23605060577392578, 
                -0.07920798659324646, 
                0.007959376089274883, 
                -0.20893484354019165, 
                -0.04001015052199364, 
                -0.2567805051803589, 
                -0.09154012799263, 
                0.059028420597314835, 
                0.1633099615573883, 
                -0.11540666967630386, 
                0.12614797055721283, 
                0.21425557136535645, 
                -0.03605739772319794, 
                -0.17237675189971924, 
                -0.12734711170196533, 
                -0.3611465394496918, 
                0.13706077635288239, 
                -0.09128564596176147, 
                0.10990160703659058, 
                -0.004560610745102167, 
                0.11426420509815216, 
                -0.22057421505451202, 
                -0.02748500369489193, 
                -0.4056101441383362, 
                -0.24430853128433228, 
                -0.09674804657697678, 
                -0.08539386093616486, 
                0.17020535469055176, 
                -0.0032849563285708427, 
                -0.1183549091219902, 
                0.04177264869213104, 
                0.14420342445373535, 
                -0.1441962867975235, 
                -0.5036149621009827, 
                -0.04831704497337341, 
                -0.010288380086421967, 
                -0.1859360933303833, 
                0.29998740553855896, 
                -0.10145453363656998, 
                0.10110682994127274, 
                -0.14133362472057343
            ]
        }, 
        "Node_11": {
            "bias": 1.353088140487671, 
            "weights": [
                0.08642584085464478, 
                0.11410422623157501, 
                -0.08359778672456741, 
                -0.15317712724208832, 
                0.14568497240543365, 
                0.08538177609443665, 
                -0.09733785688877106, 
                0.15075132250785828, 
                0.36221981048583984, 
                -0.010840597562491894, 
                0.08838707953691483, 
                0.16188491880893707, 
                -0.08639360964298248, 
                -0.0804390087723732, 
                -0.032905612140893936, 
                0.14620651304721832, 
                0.26028355956077576, 
                -0.12801826000213623, 
                -0.15486283600330353, 
                0.23535892367362976, 
                -0.21437714993953705, 
                -0.040642641484737396, 
                -0.1409965604543686, 
                0.03661052882671356, 
                -0.024730028584599495, 
                -0.023191556334495544, 
                -0.04278956726193428, 
                -0.10221938043832779, 
                -0.15808241069316864, 
                -0.38566920161247253, 
                0.14177905023097992, 
                -0.1550767719745636, 
                -0.06898975372314453, 
                -0.09767240285873413, 
                0.08336637914180756, 
                0.024446075782179832, 
                0.03850371390581131, 
                0.05736221373081207, 
                -0.21347486972808838, 
                -0.04666336253285408, 
                -0.21004235744476318, 
                0.0837409570813179, 
                0.06286773085594177, 
                -0.08026911318302155, 
                -0.025059189647436142, 
                -0.1903296262025833, 
                0.07823336124420166, 
                0.04074746370315552, 
                0.08104926347732544, 
                0.06858271360397339, 
                0.0975094884634018, 
                -0.028883693739771843, 
                -0.05538029968738556, 
                0.17317402362823486, 
                -0.08118385076522827, 
                0.14504392445087433, 
                -0.1309375911951065, 
                -0.2734624147415161, 
                -0.0015076234703883529, 
                -0.06486158818006516, 
                0.07090950757265091, 
                0.09255286306142807, 
                0.09536045789718628, 
                0.06741052865982056, 
                -0.2243933230638504, 
                -0.019618051126599312, 
                0.10046844929456711, 
                0.04949593544006348, 
                0.3339535593986511, 
                0.050182368606328964, 
                -0.25325337052345276, 
                0.07947864383459091, 
                -0.032979004085063934, 
                0.1187988743185997, 
                0.02875101938843727, 
                0.03310340270400047, 
                0.08754807710647583, 
                0.1742429882287979, 
                0.13367022573947906, 
                0.09651742875576019, 
                -0.1277627795934677, 
                0.1269000619649887, 
                0.042082030326128006, 
                0.21088404953479767, 
                -0.0027457145042717457, 
                0.1079588234424591, 
                0.08336886763572693, 
                0.09125036001205444, 
                -0.13560034334659576, 
                0.08718027174472809, 
                0.08941596746444702, 
                0.046999454498291016, 
                -0.05394362658262253, 
                -0.09928581863641739, 
                -0.20600678026676178, 
                -0.24736443161964417, 
                -0.035016272217035294, 
                0.021862441673874855, 
                -0.12758173048496246, 
                -0.02221369743347168, 
                -0.07419201731681824, 
                0.1437877118587494, 
                -0.02899591438472271, 
                0.13854709267616272, 
                0.21479398012161255, 
                0.15358369052410126, 
                -0.03189504146575928, 
                0.21115660667419434, 
                -0.10429392009973526, 
                -0.24969658255577087, 
                0.19603651762008667, 
                0.0644223541021347, 
                0.04500283673405647, 
                -0.06247464939951897, 
                -0.021728742867708206, 
                0.07258396595716476, 
                -0.08962506055831909, 
                -0.07702654600143433, 
                0.020433370023965836, 
                -0.1535576730966568, 
                -0.3636356294155121, 
                0.14972586929798126, 
                0.10150556266307831, 
                0.2477886974811554, 
                -0.15402652323246002, 
                -0.026665732264518738, 
                0.07576412707567215, 
                0.08359277248382568, 
                -0.04019753262400627, 
                -0.01352783851325512, 
                0.1471463292837143, 
                0.15411528944969177, 
                -0.3019728660583496, 
                0.04200201854109764, 
                -0.05150577425956726, 
                0.09031748026609421, 
                0.08637506514787674, 
                0.08705027401447296, 
                0.22584040462970734, 
                0.16340510547161102, 
                -0.09028460085391998, 
                0.06537314504384995, 
                0.11077675968408585, 
                0.011533938348293304, 
                -0.00021893891971558332, 
                0.06812579184770584, 
                -0.048177480697631836, 
                0.15010400116443634, 
                -0.4128701686859131, 
                -0.013484467752277851
            ]
        }, 
        "Node_10": {
            "bias": 0.25634869933128357, 
            "weights": [
                -0.17290323972702026, 
                0.11490596830844879, 
                -0.06952131539583206, 
                -0.1726282835006714, 
                0.20549051463603973, 
                0.07954742759466171, 
                -0.017608419060707092, 
                0.11292513459920883, 
                -0.3582924008369446, 
                -0.10296821594238281, 
                -0.43339967727661133, 
                0.058426275849342346, 
                -0.0677269697189331, 
                -0.11052937805652618, 
                0.17623364925384521, 
                -0.10241502523422241, 
                0.06514585763216019, 
                0.2723136246204376, 
                0.08897258341312408, 
                0.07530191540718079, 
                0.049588512629270554, 
                -0.2570626437664032, 
                -0.03678227961063385, 
                -0.06240752711892128, 
                0.07155731320381165, 
                0.10332012176513672, 
                0.08996058255434036, 
                0.1011972576379776, 
                0.13987065851688385, 
                0.0752778947353363, 
                0.1265406757593155, 
                -0.032577406615018845, 
                0.04918917268514633, 
                0.09368546307086945, 
                0.028414666652679443, 
                -0.030562033876776695, 
                -0.09018643200397491, 
                0.12014731764793396, 
                0.04627908766269684, 
                -0.027294794097542763, 
                -0.0962151437997818, 
                0.08931884169578552, 
                -0.141048863530159, 
                0.16033263504505157, 
                -0.11784953624010086, 
                -0.03565794974565506, 
                -0.12420889735221863, 
                0.13981404900550842, 
                0.07551287114620209, 
                -0.05007845535874367, 
                -0.11238714307546616, 
                0.10544836521148682, 
                0.0006615228485316038, 
                -0.3253976106643677, 
                0.13130034506320953, 
                0.03841260448098183, 
                -0.23569226264953613, 
                -0.07956204563379288, 
                0.00822033267468214, 
                0.010404512286186218, 
                0.12992246448993683, 
                0.21227794885635376, 
                -0.08951979875564575, 
                -0.06367465108633041, 
                -0.09741666167974472, 
                -0.23646917939186096, 
                -0.11830362677574158, 
                0.10016423463821411, 
                -0.017887024208903313, 
                -0.01404881663620472, 
                0.22709304094314575, 
                -0.19063957035541534, 
                0.11300471425056458, 
                -0.07723801583051682, 
                -0.18746402859687805, 
                -0.12034378200769424, 
                -0.2778695821762085, 
                0.06544364988803864, 
                0.01648484729230404, 
                0.06851153075695038, 
                -0.05857708677649498, 
                -0.0948185920715332, 
                -0.07927844673395157, 
                -0.0379767119884491, 
                -0.15241290628910065, 
                0.06729666888713837, 
                -0.33874616026878357, 
                -0.10074632614850998, 
                0.11355693638324738, 
                -0.06396632641553879, 
                0.21169374883174896, 
                0.05616406351327896, 
                -0.019086437299847603, 
                -0.1203722134232521, 
                -0.0897316038608551, 
                -0.07020702958106995, 
                0.12437804043292999, 
                -0.19976624846458435, 
                -0.05011742562055588, 
                -0.11895687133073807, 
                0.03328932449221611, 
                -0.13807551562786102, 
                0.046344220638275146, 
                -0.06930243968963623, 
                0.15296496450901031, 
                -0.07777012139558792, 
                -0.44656506180763245, 
                -0.015658894553780556, 
                0.24285632371902466, 
                -0.08047499507665634, 
                0.046187903732061386, 
                -0.07748644053936005, 
                0.071828693151474, 
                0.1234215721487999, 
                0.008166259154677391, 
                0.02048628218472004, 
                -0.10243071615695953, 
                0.0532960370182991, 
                -0.11366578936576843, 
                0.14453639090061188, 
                -0.24811604619026184, 
                -0.0957891047000885, 
                0.06656833738088608, 
                -0.2376859188079834, 
                -0.23348189890384674, 
                -0.24614474177360535, 
                0.01103992946445942, 
                -0.06025749817490578, 
                -0.24965354800224304, 
                0.03642158582806587, 
                0.025911647826433182, 
                -0.24463485181331635, 
                -0.276578813791275, 
                0.051563430577516556, 
                0.04207216203212738, 
                0.039906490594148636, 
                -0.023530196398496628, 
                0.021754996851086617, 
                -0.08255477249622345, 
                -0.06330310553312302, 
                -0.2585007846355438, 
                -0.10042040050029755, 
                -0.18771106004714966, 
                -0.010467919521033764, 
                0.22963808476924896, 
                -0.05307663232088089, 
                -0.0475425086915493, 
                0.058316849172115326, 
                -0.22916767001152039, 
                0.0632389634847641
            ]
        }, 
        "Node_97": {
            "bias": 0.05843818560242653, 
            "weights": [
                -0.3371138274669647, 
                0.04599703848361969, 
                -0.17149896919727325, 
                -0.07827389240264893, 
                0.10524742305278778, 
                0.24009303748607635, 
                -0.14928625524044037, 
                -0.2503882050514221, 
                -0.12372089177370071, 
                0.06188545748591423, 
                -0.3716118633747101, 
                -0.3666776716709137, 
                -0.04621681943535805, 
                -0.06049682945013046, 
                0.18144261837005615, 
                -0.3824934661388397, 
                -0.006951833143830299, 
                0.045347169041633606, 
                -0.10541234910488129, 
                -0.09953123331069946, 
                -0.17292174696922302, 
                -0.05311477929353714, 
                -0.10961849987506866, 
                -0.13499704003334045, 
                0.03811706602573395, 
                -0.031106989830732346, 
                -0.15862959623336792, 
                -0.34127774834632874, 
                0.11741136014461517, 
                -0.4933341145515442, 
                0.026075199246406555, 
                -0.23763224482536316, 
                -0.5125514268875122, 
                0.04827700927853584, 
                0.013038069009780884, 
                0.05972880870103836, 
                0.12846475839614868, 
                -0.3736197352409363, 
                0.17710427939891815, 
                -0.10733191668987274, 
                0.05607486143708229, 
                0.03994995355606079, 
                -0.06573411822319031, 
                -0.13779881596565247, 
                0.03493586555123329, 
                -0.09616825729608536, 
                0.11715324223041534, 
                -0.1531679928302765, 
                -0.2770567536354065, 
                -0.05816882848739624, 
                -0.10172005742788315, 
                -0.10476362705230713, 
                -0.3991526663303375, 
                -0.21469642221927643, 
                -0.2978121042251587, 
                -0.13228128850460052, 
                -0.38017067313194275, 
                -0.1029999852180481, 
                -0.8173385262489319, 
                0.04344990849494934, 
                -0.2398827075958252, 
                0.006736586336046457, 
                0.14078128337860107, 
                -0.33223944902420044, 
                0.028243137523531914, 
                -0.5687745809555054, 
                0.04552539810538292, 
                0.25317591428756714, 
                -0.010746133513748646, 
                -0.4008602797985077, 
                0.2632978558540344, 
                0.12692533433437347, 
                -0.15828731656074524, 
                -0.3685420751571655, 
                0.06553451716899872, 
                0.017331043258309364, 
                -0.0778396725654602, 
                0.22290749847888947, 
                -0.01479173731058836, 
                0.08493508398532867, 
                0.23195379972457886, 
                -0.36292850971221924, 
                0.048982009291648865, 
                0.03721427917480469, 
                -0.2816447913646698, 
                -0.5117414593696594, 
                -0.1623220592737198, 
                0.21534621715545654, 
                0.005060800351202488, 
                -0.10803786665201187, 
                -0.2071169763803482, 
                0.019792672246694565, 
                -0.01973833329975605, 
                -0.02460414543747902, 
                0.0780302882194519, 
                0.1585952788591385, 
                -0.3964347243309021, 
                0.09261130541563034, 
                -0.12960290908813477, 
                0.07558555901050568, 
                0.03147917613387108, 
                -0.1194387674331665, 
                0.1491994559764862, 
                0.48415037989616394, 
                -0.3196670413017273, 
                0.06430090963840485, 
                -0.004988155327737331, 
                -0.07189105451107025, 
                0.07592297345399857, 
                0.02766229212284088, 
                0.17201870679855347, 
                0.31915587186813354, 
                0.007714093662798405, 
                0.1151396855711937, 
                -0.16428492963314056, 
                -0.042954254895448685, 
                -0.10701391100883484, 
                0.09717679023742676, 
                -0.09998216480016708, 
                -0.04168834537267685, 
                -0.582908034324646, 
                0.06416656821966171, 
                -0.16798655688762665, 
                0.07440268993377686, 
                0.194921612739563, 
                -0.0094977505505085, 
                0.06436824798583984, 
                -0.08408423513174057, 
                0.0017709461972117424, 
                -0.4136320948600769, 
                -0.0030539697036147118, 
                -0.061485059559345245, 
                0.3601284921169281, 
                -0.7290719747543335, 
                -0.03225985914468765, 
                -0.2812935709953308, 
                0.08930125087499619, 
                -0.058152925223112106, 
                0.07212162762880325, 
                -0.15501919388771057, 
                0.1307104080915451, 
                -0.20764216780662537, 
                0.1565987765789032, 
                -0.013008961454033852, 
                -0.045831501483917236, 
                -0.035938531160354614, 
                0.15271306037902832, 
                0.0008458883385173976, 
                -0.03947535529732704, 
                0.1344064623117447
            ]
        }, 
        "Node_96": {
            "bias": 0.35712650418281555, 
            "weights": [
                -0.019871855154633522, 
                -0.14467231929302216, 
                0.1825638711452484, 
                -0.20721188187599182, 
                0.11209180951118469, 
                0.10601714998483658, 
                0.009907491505146027, 
                0.019121363759040833, 
                -0.08492803573608398, 
                -0.12545350193977356, 
                -0.09593265503644943, 
                -0.1465422660112381, 
                -0.10125236958265305, 
                0.12665806710720062, 
                -0.02450440637767315, 
                -0.03597976639866829, 
                0.34741073846817017, 
                -0.08306239545345306, 
                0.13150371611118317, 
                0.1002081111073494, 
                -0.06280030310153961, 
                -0.10866928100585938, 
                -0.10312066972255707, 
                0.3595362901687622, 
                0.0983428955078125, 
                -0.03219478577375412, 
                -0.10577273368835449, 
                0.008477364666759968, 
                -0.0007476441096514463, 
                0.05050560459494591, 
                0.14977841079235077, 
                0.023424483835697174, 
                -0.07051405310630798, 
                0.0086497962474823, 
                0.08868540823459625, 
                0.14937113225460052, 
                -0.025044413283467293, 
                -0.04044711962342262, 
                0.06677667051553726, 
                0.06327245384454727, 
                -0.04012952372431755, 
                0.03427915275096893, 
                0.11077989637851715, 
                0.021999303251504898, 
                -0.13208290934562683, 
                0.0722503811120987, 
                -0.1054835245013237, 
                -0.034326158463954926, 
                0.07224153727293015, 
                -0.16999977827072144, 
                -0.15361972153186798, 
                0.1109955906867981, 
                0.022233746945858, 
                -0.15882709622383118, 
                0.10842162370681763, 
                -0.27258917689323425, 
                0.07852309942245483, 
                0.2563449442386627, 
                -0.2456543892621994, 
                0.0039726197719573975, 
                -0.055561237037181854, 
                0.09361879527568817, 
                -0.12933684885501862, 
                -0.016198910772800446, 
                0.3704836070537567, 
                -0.1056753396987915, 
                -0.08166728168725967, 
                -0.22189050912857056, 
                0.27320510149002075, 
                -0.01387760415673256, 
                -0.039477765560150146, 
                0.10849440097808838, 
                0.057476241141557693, 
                0.05045624077320099, 
                0.12100087851285934, 
                0.08018849790096283, 
                0.00672247214242816, 
                0.06803188472986221, 
                0.1391477882862091, 
                0.11573286354541779, 
                -0.16193440556526184, 
                -0.24591900408267975, 
                -0.052176084369421005, 
                -0.11300487071275711, 
                -0.18568570911884308, 
                -0.34009477496147156, 
                -0.2314099818468094, 
                0.027758652344346046, 
                0.10286352783441544, 
                0.15435518324375153, 
                0.06207745149731636, 
                -0.05284406617283821, 
                0.030284130945801735, 
                0.08377905935049057, 
                -0.05770333856344223, 
                -0.020755337551236153, 
                -0.028116730973124504, 
                0.024883005768060684, 
                0.15181735157966614, 
                0.08999279141426086, 
                -0.06555895507335663, 
                -0.041213274002075195, 
                0.03222085162997246, 
                0.03690014034509659, 
                0.05612361431121826, 
                -0.05955228582024574, 
                0.26417481899261475, 
                -0.03497399389743805, 
                0.25482305884361267, 
                -0.024575768038630486, 
                -0.03828059509396553, 
                0.18066972494125366, 
                -0.009027999825775623, 
                -0.03614472597837448, 
                0.17070633172988892, 
                0.18631237745285034, 
                -0.028402583673596382, 
                -0.002950473688542843, 
                0.06363382190465927, 
                0.08512932062149048, 
                0.025295628234744072, 
                0.13897402584552765, 
                -0.21970915794372559, 
                -0.09203111380338669, 
                0.034184906631708145, 
                -0.18273389339447021, 
                0.060328684747219086, 
                0.03053876757621765, 
                0.15564070641994476, 
                -0.1378479152917862, 
                0.06235610321164131, 
                -0.0031555714085698128, 
                0.07189596444368362, 
                0.045888159424066544, 
                0.013719763606786728, 
                0.0012410329654812813, 
                0.0968579575419426, 
                -0.22788743674755096, 
                0.11196388304233551, 
                0.05041997879743576, 
                0.03898560255765915, 
                0.07853841781616211, 
                0.4260048270225525, 
                0.3406815826892853, 
                0.12873758375644684, 
                0.07900168746709824, 
                -0.08207577466964722, 
                -0.14437636733055115, 
                -0.02686413750052452, 
                -0.06697646528482437
            ]
        }, 
        "Node_95": {
            "bias": -1.0640316009521484, 
            "weights": [
                -0.06651226431131363, 
                -0.04267999529838562, 
                0.057372819632291794, 
                -0.17384453117847443, 
                0.02078871615231037, 
                0.04795494303107262, 
                -0.014245644211769104, 
                -0.018724525347352028, 
                -0.013141445815563202, 
                -0.004696012940257788, 
                -0.05846649408340454, 
                -0.1697552502155304, 
                0.12300752848386765, 
                0.14439775049686432, 
                0.21947243809700012, 
                -0.07085884362459183, 
                -0.11667239665985107, 
                0.5188653469085693, 
                -0.13143636286258698, 
                -0.16504164040088654, 
                -0.05171765387058258, 
                -0.08179090172052383, 
                0.10877033323049545, 
                0.1692991405725479, 
                -0.049342457205057144, 
                0.08704856783151627, 
                0.1653793603181839, 
                0.14914628863334656, 
                0.07333310693502426, 
                0.06932482123374939, 
                -0.0704742893576622, 
                0.06351743638515472, 
                0.09405015408992767, 
                -0.09174549579620361, 
                0.12901394069194794, 
                0.15074822306632996, 
                -0.07033416628837585, 
                0.09798320382833481, 
                0.1031009629368782, 
                0.011982093565165997, 
                0.04706168547272682, 
                -0.10322211682796478, 
                -0.00457414984703064, 
                0.21821418404579163, 
                -0.14261676371097565, 
                0.04584689065814018, 
                -0.024463877081871033, 
                0.07444795966148376, 
                -0.1561579406261444, 
                0.099624864757061, 
                -0.1802695244550705, 
                -0.16071364283561707, 
                -0.0127855334430933, 
                -0.04531675949692726, 
                0.059949059039354324, 
                -0.052185773849487305, 
                0.19370688498020172, 
                -0.02418113499879837, 
                0.020085595548152924, 
                0.06793411076068878, 
                0.11737468093633652, 
                0.26645582914352417, 
                -0.0015130732208490372, 
                -0.14376230537891388, 
                -0.020289447158575058, 
                0.12513130903244019, 
                0.38083121180534363, 
                -0.0230499766767025, 
                -0.12409288436174393, 
                0.10745948553085327, 
                0.190878227353096, 
                0.03297671675682068, 
                -0.0924418568611145, 
                0.044900257140398026, 
                0.022394560277462006, 
                -0.10634234547615051, 
                -0.12127844244241714, 
                -0.1836264282464981, 
                -0.008007346652448177, 
                -0.049223512411117554, 
                -0.3292185664176941, 
                0.014598463661968708, 
                -0.040423568338155746, 
                0.0436222217977047, 
                -0.11932682991027832, 
                0.001327228150330484, 
                -0.21120187640190125, 
                -0.04194291681051254, 
                -0.06502329558134079, 
                -0.1268189549446106, 
                -0.10663256794214249, 
                0.03253065422177315, 
                0.08463139086961746, 
                0.11914371699094772, 
                0.13258421421051025, 
                0.13674508035182953, 
                0.10488925874233246, 
                -0.032983940094709396, 
                0.08393663167953491, 
                0.007547497749328613, 
                0.1444167196750641, 
                -0.23647475242614746, 
                0.0026229489594697952, 
                -0.06054242327809334, 
                0.15657716989517212, 
                -0.23931002616882324, 
                -0.17173920571804047, 
                0.20407529175281525, 
                0.1049732193350792, 
                0.050303660333156586, 
                -0.03063245490193367, 
                0.13259531557559967, 
                0.11564657092094421, 
                0.34288811683654785, 
                -0.175209641456604, 
                -0.12562520802021027, 
                0.07524364441633224, 
                -0.09032532572746277, 
                -0.05489103123545647, 
                0.10959748923778534, 
                -0.038862068206071854, 
                0.04247426614165306, 
                0.07787460833787918, 
                -0.24607139825820923, 
                -0.14676891267299652, 
                -0.01167985238134861, 
                -0.03794218599796295, 
                -0.03737971559166908, 
                0.027362851426005363, 
                0.008933858945965767, 
                0.09393806010484695, 
                0.062053944915533066, 
                0.07898318022489548, 
                -0.0670260339975357, 
                0.00019052138668484986, 
                -0.1322004646062851, 
                -0.05757038667798042, 
                0.06573355942964554, 
                0.1550491899251938, 
                -0.1207023561000824, 
                -0.044889550656080246, 
                0.017229069024324417, 
                -0.28136277198791504, 
                -0.24468691647052765, 
                0.04715040698647499, 
                -0.14751289784908295, 
                0.06386329978704453, 
                -0.0012360893888399005, 
                -0.017319174483418465, 
                -0.005113516468554735
            ]
        }, 
        "Node_94": {
            "bias": -0.007384969387203455, 
            "weights": [
                0.012311676517128944, 
                0.09903843700885773, 
                -0.07105202227830887, 
                0.08106473833322525, 
                -0.06212493032217026, 
                -0.035658083856105804, 
                0.024334711953997612, 
                0.03779468685388565, 
                -0.14653456211090088, 
                0.012964965775609016, 
                -0.047614794224500656, 
                -0.014783168211579323, 
                -0.17123277485370636, 
                -0.046658992767333984, 
                -0.03606116771697998, 
                0.10784445703029633, 
                0.01176917552947998, 
                0.04956148564815521, 
                0.01761382818222046, 
                0.0972243994474411, 
                -0.08650866150856018, 
                -0.1350579410791397, 
                0.015742823481559753, 
                0.10461534559726715, 
                -0.061719585210084915, 
                0.06133883073925972, 
                -0.037193238735198975, 
                -0.15522466599941254, 
                -0.13992592692375183, 
                0.04341032728552818, 
                0.1413591057062149, 
                0.05706886947154999, 
                0.12619897723197937, 
                -0.04591112583875656, 
                -0.13613423705101013, 
                -0.14946390688419342, 
                -0.14881864190101624, 
                0.04234933853149414, 
                0.04661545529961586, 
                0.07075097411870956, 
                0.03327701613306999, 
                -0.0465937964618206, 
                -0.055191054940223694, 
                -0.021015740931034088, 
                -0.033720728009939194, 
                0.011066853068768978, 
                -0.012746453285217285, 
                -0.13335320353507996, 
                -0.10009218752384186, 
                -0.07803723961114883, 
                -0.030169358476996422, 
                0.03237627446651459, 
                -0.1394452452659607, 
                -0.11733852326869965, 
                -0.04741192236542702, 
                -0.1388990581035614, 
                0.10657747089862823, 
                0.06878762692213058, 
                -0.05495426803827286, 
                0.08117365837097168, 
                0.0960896834731102, 
                -0.17981263995170593, 
                -0.09981522709131241, 
                -0.11964066326618195, 
                -0.032777585089206696, 
                -0.05405005067586899, 
                0.020655425265431404, 
                -0.006190624553710222, 
                0.029314490035176277, 
                0.072540782392025, 
                0.06800664216279984, 
                -0.14982803165912628, 
                0.053660184144973755, 
                -0.06060413271188736, 
                0.008865177631378174, 
                0.03614196553826332, 
                -0.029341235756874084, 
                0.07075618207454681, 
                -0.1875266283750534, 
                0.14732514321804047, 
                -0.022070348262786865, 
                -0.09303335845470428, 
                0.02471317909657955, 
                0.09167730808258057, 
                -0.0535302497446537, 
                -0.10312458872795105, 
                -0.04309869930148125, 
                -0.07933500409126282, 
                0.013107268139719963, 
                0.07367873936891556, 
                -0.07391643524169922, 
                -0.13179101049900055, 
                -0.07804890722036362, 
                0.09386827796697617, 
                0.03878246620297432, 
                0.01080411672592163, 
                -0.048043061047792435, 
                -0.11618346720933914, 
                0.005672618746757507, 
                -0.04023052752017975, 
                -0.1046743094921112, 
                0.006109416484832764, 
                -0.13495220243930817, 
                0.027184046804904938, 
                -0.09040217101573944, 
                -0.10214678943157196, 
                0.013110863976180553, 
                0.10133908689022064, 
                -0.16816093027591705, 
                -0.11592813581228256, 
                -0.0996570736169815, 
                0.10284014046192169, 
                -0.02684047445654869, 
                0.07374217361211777, 
                -0.11689043045043945, 
                -0.11570537090301514, 
                0.09258674085140228, 
                -0.03875961899757385, 
                -0.10398751497268677, 
                0.06831812858581543, 
                0.02309425361454487, 
                -0.09370821714401245, 
                -0.08338025957345963, 
                -0.15950588881969452, 
                -0.057435423135757446, 
                0.011691142804920673, 
                -0.10583197325468063, 
                0.010367910377681255, 
                -0.15293319523334503, 
                -0.07527218014001846, 
                -0.10221591591835022, 
                0.03328358009457588, 
                -0.028124984353780746, 
                -0.060526926070451736, 
                0.014042392373085022, 
                0.04050843417644501, 
                -0.07435368001461029, 
                0.08355087786912918, 
                0.031663212925195694, 
                0.05291788652539253, 
                -0.15838277339935303, 
                -0.13431519269943237, 
                0.07554295659065247, 
                -0.06935130059719086, 
                0.10166259855031967, 
                -0.017698846757411957, 
                0.08912964165210724, 
                -0.026917390525341034, 
                0.028467176482081413, 
                -0.12862835824489594
            ]
        }, 
        "Node_93": {
            "bias": -0.2961021065711975, 
            "weights": [
                -0.31845203042030334, 
                -0.06736309081315994, 
                0.18007105588912964, 
                0.21878425776958466, 
                0.003755988785997033, 
                -0.07623627036809921, 
                -0.36410292983055115, 
                0.025333508849143982, 
                -0.17464354634284973, 
                -0.14326615631580353, 
                -0.09432408213615417, 
                0.01292849238961935, 
                -0.0632433071732521, 
                -0.04836328327655792, 
                0.028241479769349098, 
                -0.3771228790283203, 
                0.10360360890626907, 
                0.04996776953339577, 
                0.09385186433792114, 
                -0.03240014612674713, 
                0.04849991574883461, 
                0.015496976673603058, 
                0.005884513258934021, 
                0.3280358910560608, 
                -0.03559740260243416, 
                -0.12770475447177887, 
                0.18287602066993713, 
                -0.3041418492794037, 
                0.11101128160953522, 
                -0.048430249094963074, 
                -0.05904337018728256, 
                0.045548103749752045, 
                -0.27555233240127563, 
                -0.051569294184446335, 
                -0.08385688811540604, 
                -0.012698785401880741, 
                -0.02949788048863411, 
                0.45609769225120544, 
                -0.10689598321914673, 
                0.017912767827510834, 
                0.01078648492693901, 
                -0.16554801166057587, 
                0.06967759132385254, 
                0.00052697240607813, 
                -0.10205215960741043, 
                0.02732090651988983, 
                0.061869800090789795, 
                -0.2686607539653778, 
                -0.02462594211101532, 
                0.13439027965068817, 
                -0.17643091082572937, 
                -0.11421629041433334, 
                0.004714268259704113, 
                0.23440979421138763, 
                0.04109864681959152, 
                -0.09839615225791931, 
                -0.009109697304666042, 
                0.21943117678165436, 
                -0.03125518187880516, 
                -0.08319400250911713, 
                -0.22026726603507996, 
                -0.4152351915836334, 
                -0.11863851547241211, 
                -0.20412619411945343, 
                0.059292178601026535, 
                -0.2441948503255844, 
                -0.6068712472915649, 
                0.5732614398002625, 
                0.16688430309295654, 
                0.022401364520192146, 
                -0.029297981411218643, 
                0.300139844417572, 
                -0.19580619037151337, 
                -0.029155205935239792, 
                0.0027304142713546753, 
                -0.12021524459123611, 
                -0.06520035117864609, 
                0.10006147623062134, 
                -0.019174043089151382, 
                -0.06917744129896164, 
                0.07964208722114563, 
                -0.10465503484010696, 
                0.13602668046951294, 
                -0.11929900199174881, 
                0.2666948437690735, 
                0.12379495054483414, 
                -0.06422463804483414, 
                -0.07674987614154816, 
                -0.0314781628549099, 
                -0.061185065656900406, 
                -0.05043456703424454, 
                0.13809293508529663, 
                0.2066173106431961, 
                0.07247889786958694, 
                -0.1260889619588852, 
                0.011010002344846725, 
                0.12401963770389557, 
                -0.3551938235759735, 
                -0.019114971160888672, 
                0.040388017892837524, 
                0.02486353926360607, 
                -0.15113934874534607, 
                -0.012342165224254131, 
                -0.41228073835372925, 
                -0.0479460246860981, 
                0.10346699506044388, 
                -0.054594311863183975, 
                0.13939030468463898, 
                -0.3393825888633728, 
                0.025911148637533188, 
                0.06713429093360901, 
                0.012039386667311192, 
                -0.10045884549617767, 
                -0.011012333445250988, 
                0.29556724429130554, 
                -0.04271524026989937, 
                0.19593462347984314, 
                0.09986957162618637, 
                -0.1882716864347458, 
                -0.06748124957084656, 
                -0.023730237036943436, 
                0.1554383635520935, 
                0.12108121812343597, 
                0.1437046080827713, 
                -0.02507682703435421, 
                -0.06514811515808105, 
                0.0890951082110405, 
                -0.14454437792301178, 
                -0.023904629051685333, 
                -0.10139124095439911, 
                -0.0020248256623744965, 
                -0.04921784624457359, 
                0.2362445890903473, 
                0.17627476155757904, 
                -0.16106855869293213, 
                -0.1363389939069748, 
                -0.1045587882399559, 
                0.0465213879942894, 
                -0.09890758991241455, 
                -0.201681450009346, 
                -0.21831950545310974, 
                0.06946387141942978, 
                -0.02285589650273323, 
                -0.11622688174247742, 
                -0.10042599588632584, 
                0.07612244039773941, 
                -0.039492473006248474, 
                0.2247920036315918, 
                0.18334902822971344, 
                -0.04789576679468155
            ]
        }, 
        "Node_92": {
            "bias": -0.05003747716546059, 
            "weights": [
                -0.15777455270290375, 
                -0.15237684547901154, 
                -0.15565311908721924, 
                -0.0982278436422348, 
                -0.18378257751464844, 
                0.014738695695996284, 
                -0.140020951628685, 
                0.043260108679533005, 
                0.12048347294330597, 
                -0.05352776497602463, 
                -0.06494122743606567, 
                -0.07673496752977371, 
                0.05049294978380203, 
                0.12017105519771576, 
                -0.22967715561389923, 
                -0.11852317303419113, 
                -0.05142008140683174, 
                -0.2771986722946167, 
                -0.08366692811250687, 
                -0.06060902029275894, 
                -0.05959464609622955, 
                0.041401028633117676, 
                -0.15464365482330322, 
                0.24523095786571503, 
                -0.05578631907701492, 
                -0.09667973965406418, 
                0.018168743699789047, 
                -0.017733346670866013, 
                -0.001348806545138359, 
                -0.12033911049365997, 
                -0.024441272020339966, 
                -0.1297723352909088, 
                0.09379832446575165, 
                -0.1825302690267563, 
                -0.11647054553031921, 
                0.15122567117214203, 
                0.32327285408973694, 
                -0.05015259236097336, 
                -0.2219860851764679, 
                -0.05395796149969101, 
                -0.09150361269712448, 
                -0.26878079771995544, 
                0.1304958313703537, 
                -0.12329452484846115, 
                -0.017369762063026428, 
                -0.049058880656957626, 
                -0.06543586403131485, 
                -0.1534261554479599, 
                0.01042929571121931, 
                0.04395849257707596, 
                -0.09416832029819489, 
                -0.03531225025653839, 
                -0.15564924478530884, 
                -0.12955941259860992, 
                -0.0024165913928300142, 
                -0.2332005798816681, 
                0.11589045077562332, 
                -0.15951821208000183, 
                0.04919316619634628, 
                -0.045196451246738434, 
                0.06128157302737236, 
                -0.1391070932149887, 
                0.02569703571498394, 
                -0.0709618479013443, 
                -0.3902644217014313, 
                -0.17842724919319153, 
                0.11300402879714966, 
                0.07407836616039276, 
                0.03879414498806, 
                0.06275340914726257, 
                0.006864672992378473, 
                -0.06385136395692825, 
                -0.06632701307535172, 
                -0.017974140122532845, 
                -0.020367689430713654, 
                0.09113375842571259, 
                0.07987748086452484, 
                0.06008894369006157, 
                -0.07439678907394409, 
                0.02597278356552124, 
                -0.028468532487750053, 
                -0.290577232837677, 
                -0.005253594368696213, 
                -0.10378171503543854, 
                -0.016779357567429543, 
                -0.010559611022472382, 
                -0.03055790811777115, 
                0.2988351583480835, 
                -0.15282240509986877, 
                -0.08721636980772018, 
                0.08200117200613022, 
                -0.06459609419107437, 
                -0.02981344237923622, 
                -0.009914860129356384, 
                0.031951211392879486, 
                0.025428973138332367, 
                -0.13281825184822083, 
                -0.015638506039977074, 
                0.1017644852399826, 
                0.02463589608669281, 
                -0.19580703973770142, 
                -0.052224718034267426, 
                0.002121751895174384, 
                -0.016643337905406952, 
                0.0925350934267044, 
                -0.013713434338569641, 
                -0.24141433835029602, 
                -0.1479853093624115, 
                0.06900909543037415, 
                0.0725851058959961, 
                -0.1442861109972, 
                0.12794342637062073, 
                -0.154721200466156, 
                -0.10659526288509369, 
                -0.09368612617254257, 
                -0.14640258252620697, 
                0.24183110892772675, 
                -0.13763006031513214, 
                0.09129419922828674, 
                -0.07514391839504242, 
                -0.04096876084804535, 
                0.05689507722854614, 
                -0.2127230316400528, 
                0.035787295550107956, 
                0.07992564886808395, 
                -0.010574599727988243, 
                -0.12076088786125183, 
                -0.13773764669895172, 
                -0.058077577501535416, 
                0.0686430037021637, 
                0.07124121487140656, 
                0.11948598176240921, 
                -0.09999395906925201, 
                -0.09189193695783615, 
                0.029020028188824654, 
                -0.13146522641181946, 
                0.0932634174823761, 
                0.0012507019564509392, 
                -0.0003919882292393595, 
                0.07599449157714844, 
                0.014612159691751003, 
                -0.07956554740667343, 
                0.09274264425039291, 
                0.01667349599301815, 
                0.08537968248128891, 
                -0.1840638518333435, 
                0.05221211537718773, 
                -0.11684693396091461, 
                -0.176704540848732, 
                -0.048466894775629044
            ]
        }, 
        "Node_91": {
            "bias": -0.03703289106488228, 
            "weights": [
                0.09860629588365555, 
                -0.026115208864212036, 
                0.06091245263814926, 
                -0.1526469886302948, 
                0.04470140114426613, 
                -0.17565320432186127, 
                0.11603644490242004, 
                0.18759019672870636, 
                0.18238063156604767, 
                -0.012045356445014477, 
                -0.3071797788143158, 
                0.24963311851024628, 
                -0.2855883538722992, 
                0.03511121869087219, 
                -0.5644525289535522, 
                -0.016582360491156578, 
                0.11766011267900467, 
                -0.019682494923472404, 
                -0.08603664487600327, 
                0.006965364329516888, 
                -0.20725223422050476, 
                -0.0641435906291008, 
                -0.09883831441402435, 
                0.26133671402931213, 
                -0.028834737837314606, 
                0.16320419311523438, 
                -0.2608223855495453, 
                0.10101817548274994, 
                -0.09194208681583405, 
                0.23496846854686737, 
                0.14916442334651947, 
                0.02759387530386448, 
                -0.17579570412635803, 
                -0.0056007783859968185, 
                0.0796164870262146, 
                -0.02180035039782524, 
                0.18845322728157043, 
                0.17575348913669586, 
                0.07925762981176376, 
                -0.24242474138736725, 
                0.09197495132684708, 
                0.04127620905637741, 
                0.11911945044994354, 
                0.0022166562266647816, 
                -0.13768427073955536, 
                0.05129057541489601, 
                0.023094013333320618, 
                -0.2163294404745102, 
                -0.18737082183361053, 
                -0.016955021768808365, 
                0.18111751973628998, 
                -0.10416443645954132, 
                0.05812065303325653, 
                0.2297791689634323, 
                -0.004322940018028021, 
                0.01710674911737442, 
                -0.012552404776215553, 
                0.07345305383205414, 
                -0.14746582508087158, 
                0.05743815004825592, 
                -0.2308887541294098, 
                0.017431681975722313, 
                -0.016323089599609375, 
                0.09102729707956314, 
                -0.05428512021899223, 
                -0.11586809158325195, 
                -0.08146554976701736, 
                -0.29839634895324707, 
                0.0945584774017334, 
                -0.06482893973588943, 
                0.08644502609968185, 
                -0.20279929041862488, 
                -0.16819162666797638, 
                0.08892898261547089, 
                -0.09979276359081268, 
                -0.20425955951213837, 
                0.053481969982385635, 
                -0.19227327406406403, 
                -0.019101951271295547, 
                -0.030690163373947144, 
                -0.2338663786649704, 
                -0.06310462951660156, 
                -0.13648001849651337, 
                0.049707453697919846, 
                -0.04823770374059677, 
                -0.12165436893701553, 
                -0.19386374950408936, 
                -0.014777720905840397, 
                -0.24730147421360016, 
                0.015124508179724216, 
                -0.09396970272064209, 
                -0.12053769081830978, 
                -0.0032426936086267233, 
                0.10578089207410812, 
                0.12394407391548157, 
                -0.00547618605196476, 
                -0.262234091758728, 
                0.11923617124557495, 
                -0.1442517340183258, 
                0.05899365246295929, 
                -0.0569947212934494, 
                -0.006368890404701233, 
                0.0407702811062336, 
                0.05997702106833458, 
                0.1405813992023468, 
                0.05495394393801689, 
                0.014086377806961536, 
                -0.28318578004837036, 
                -0.27946218848228455, 
                -0.128644660115242, 
                -0.11204070597887039, 
                -0.07331471890211105, 
                -0.0017464484553784132, 
                -0.31435197591781616, 
                -0.018620092421770096, 
                -0.2666230797767639, 
                -0.01593019999563694, 
                0.15745365619659424, 
                0.07791639119386673, 
                -0.06569463014602661, 
                0.20085018873214722, 
                -0.122112937271595, 
                0.08671653270721436, 
                0.060335878282785416, 
                -0.1802801638841629, 
                -0.11794939637184143, 
                0.08949537575244904, 
                -0.11208565533161163, 
                -0.22404375672340393, 
                -0.1926409900188446, 
                0.1733645647764206, 
                0.11008694022893906, 
                0.10936529189348221, 
                -0.30157470703125, 
                0.03491577133536339, 
                -0.18235020339488983, 
                0.10265296697616577, 
                0.017042890191078186, 
                -0.042185138911008835, 
                -0.0969369113445282, 
                -0.32267114520072937, 
