{
    "Layer_1": {
        "Node_19": {
            "bias": 0.38644784688949585, 
            "weights": [
                -0.11144836992025375, 
                -0.2039303183555603, 
                0.2174735963344574, 
                0.32135021686553955, 
                -0.12647876143455505, 
                -0.04339020326733589, 
                0.19787593185901642, 
                -0.7631512880325317, 
                0.04177296161651611, 
                -0.15248903632164001, 
                0.058538153767585754, 
                0.10033466666936874, 
                0.05777018889784813, 
                0.2200697809457779, 
                0.10801289975643158, 
                -0.05685429647564888, 
                -0.16460555791854858, 
                0.006464327685534954, 
                -0.14058026671409607, 
                0.004605232737958431, 
                -0.10290234535932541, 
                0.06512824445962906, 
                0.11885477602481842, 
                -0.7162755131721497, 
                0.045581310987472534, 
                -0.31200551986694336, 
                0.08374212682247162, 
                -0.06604961305856705, 
                0.12489771842956543, 
                0.07549256086349487, 
                0.07512587308883667, 
                0.0051412759348750114, 
                -0.00025031506083905697, 
                -0.11226498335599899, 
                -0.019027989357709885, 
                0.005654060281813145, 
                -0.024645939469337463, 
                -0.050926730036735535, 
                0.10578165203332901, 
                -0.07598672062158585, 
                0.057358287274837494, 
                0.06352376937866211, 
                0.0649951845407486, 
                -0.3272179365158081, 
                0.15384314954280853, 
                -0.040013715624809265, 
                -0.14445723593235016, 
                -0.11910106986761093, 
                -0.11785636842250824, 
                -0.1066804751753807, 
                0.00225632730871439, 
                0.1306537240743637, 
                -0.8697842955589294, 
                -0.1477745771408081, 
                0.12054280191659927, 
                -0.03909123316407204, 
                -0.03905234858393669, 
                0.05892220512032509, 
                -0.10609982907772064, 
                0.19557473063468933, 
                -0.04154585674405098, 
                -0.09958316385746002, 
                0.0843922346830368, 
                -0.09949130564928055, 
                0.1248617172241211, 
                0.0958586186170578, 
                -0.03479467332363129, 
                -0.022679584100842476, 
                0.06657315045595169, 
                0.030015230178833008, 
                -0.5347651839256287, 
                -0.184937983751297, 
                -0.2864067554473877, 
                -0.008638511411845684, 
                0.16724394261837006, 
                0.15839993953704834, 
                -0.0715499073266983, 
                0.08921723812818527, 
                -0.01752176508307457, 
                -0.18353171646595, 
                0.11142712086439133, 
                -0.16947415471076965, 
                0.13473500311374664, 
                0.14800985157489777, 
                0.07848528772592545, 
                0.025176730006933212, 
                -0.37158921360969543, 
                0.021625353023409843, 
                0.046421561390161514, 
                -0.10392589867115021, 
                -0.07104779779911041, 
                -0.3568336069583893, 
                0.0640796571969986, 
                0.05177207291126251, 
                -0.0030702317599207163, 
                -0.0033832802437245846, 
                0.03820687159895897, 
                -0.09306206554174423, 
                0.033534955233335495, 
                -0.07233872264623642, 
                0.12319307029247284, 
                -0.05326933413743973, 
                -0.015199457295238972, 
                0.1495686024427414, 
                -0.0014954045182093978, 
                -0.10300809144973755, 
                -0.060918696224689484, 
                0.06208547204732895, 
                -0.37034544348716736, 
                0.21150673925876617, 
                -0.15884707868099213, 
                0.04257121682167053, 
                -0.11834942549467087, 
                0.019272373989224434, 
                -0.10974244773387909, 
                -0.05064770206809044, 
                -0.0004518975911196321, 
                0.05349734053015709, 
                -0.019412487745285034, 
                -0.07455912977457047, 
                -0.1255684196949005, 
                -0.020060855895280838, 
                0.0950879454612732, 
                0.13902369141578674, 
                0.160464346408844, 
                0.06584573537111282, 
                0.1688404679298401, 
                0.08956211060285568, 
                -0.20491303503513336, 
                -0.07212428748607635, 
                0.04577383026480675, 
                0.03822086378931999, 
                -0.17476525902748108, 
                0.06372276693582535, 
                -0.14386485517024994, 
                -0.41307058930397034, 
                -0.26979392766952515, 
                -0.007471680641174316, 
                0.010134372860193253, 
                -0.36832427978515625, 
                0.013491599820554256, 
                0.024374650791287422, 
                0.1679246872663498, 
                0.14288243651390076, 
                0.008652806282043457, 
                -0.13400675356388092, 
                0.07498793303966522, 
                -0.1727702021598816, 
                0.06227320432662964, 
                -0.12529709935188293
            ]
        }, 
        "Node_18": {
            "bias": -0.016341688111424446, 
            "weights": [
                -0.03619913384318352, 
                -0.013510085642337799, 
                -0.04989311844110489, 
                0.04034002125263214, 
                -0.11229980736970901, 
                -0.03929843381047249, 
                -0.10614865273237228, 
                0.024835599586367607, 
                0.010577871464192867, 
                -0.13208256661891937, 
                -0.05925048887729645, 
                -0.11977706104516983, 
                0.07982635498046875, 
                0.03208734095096588, 
                0.013310059905052185, 
                -0.09424033761024475, 
                0.08517386019229889, 
                0.04584365338087082, 
                -0.09374283254146576, 
                0.06308816373348236, 
                -0.17304499447345734, 
                0.1528497189283371, 
                -0.11425197869539261, 
                0.05737727880477905, 
                -0.05052290856838226, 
                -0.15315991640090942, 
                -0.03152565658092499, 
                -0.04407674819231033, 
                -0.16204217076301575, 
                0.06066307798027992, 
                -0.02028273418545723, 
                -0.09577801078557968, 
                0.056954722851514816, 
                -0.0068116337060928345, 
                0.10522875189781189, 
                -0.10358133912086487, 
                0.030890166759490967, 
                -0.14302203059196472, 
                -0.14256435632705688, 
                -0.16570064425468445, 
                -0.12232782691717148, 
                -0.02851187251508236, 
                -0.05781736969947815, 
                -0.15626433491706848, 
                0.0701739564538002, 
                -0.08413046598434448, 
                -0.15747793018817902, 
                -0.17234419286251068, 
                0.043198492377996445, 
                -0.19377310574054718, 
                0.04004300758242607, 
                0.003373265266418457, 
                -0.06914059817790985, 
                0.099838986992836, 
                -0.02299083210527897, 
                -0.00425235228613019, 
                0.08507949113845825, 
                -0.1747329980134964, 
                -0.040568262338638306, 
                -0.0869063064455986, 
                -0.11711069196462631, 
                0.11873184889554977, 
                0.08978185057640076, 
                -0.008809189312160015, 
                -0.07629427313804626, 
                -0.1219235509634018, 
                -0.16000612080097198, 
                -0.06055555120110512, 
                -0.00725460983812809, 
                -0.15317711234092712, 
                -0.056396398693323135, 
                0.06813043355941772, 
                0.031184149906039238, 
                -0.0345880463719368, 
                0.10416356474161148, 
                -0.18318933248519897, 
                -0.08771979063749313, 
                -0.06417449563741684, 
                -0.030863014981150627, 
                0.07843241840600967, 
                0.027716275304555893, 
                0.08708615601062775, 
                -0.031781964004039764, 
                -0.09506016969680786, 
                -0.09548608213663101, 
                -0.12342487275600433, 
                0.07188384234905243, 
                -0.0648006945848465, 
                -0.05908442661166191, 
                -0.15276148915290833, 
                0.08999372273683548, 
                0.08805612474679947, 
                0.002512887120246887, 
                0.05983394384384155, 
                0.03880178928375244, 
                -0.11176496744155884, 
                -0.07190248370170593, 
                -0.03797168657183647, 
                0.016848208382725716, 
                -0.027215473353862762, 
                -0.09523129463195801, 
                -0.0659945011138916, 
                -0.12916451692581177, 
                0.026370570063591003, 
                0.0451754555106163, 
                -0.12123410403728485, 
                0.08124598115682602, 
                -0.10069052129983902, 
                0.03111947327852249, 
                0.028156816959381104, 
                -0.1581166535615921, 
                -0.0031444765627384186, 
                -0.1635122001171112, 
                -0.0004045016539748758, 
                0.01028530765324831, 
                -0.03622851520776749, 
                0.12381823360919952, 
                -0.14975757896900177, 
                -0.18928280472755432, 
                -0.0023568938486278057, 
                -0.005416623316705227, 
                -0.08605368435382843, 
                -0.13212719559669495, 
                0.07612574100494385, 
                0.0229325108230114, 
                -0.09312582015991211, 
                0.07583047449588776, 
                -0.0800107941031456, 
                0.1057758629322052, 
                -0.07322294265031815, 
                0.09776056557893753, 
                0.047588005661964417, 
                0.08618427813053131, 
                -0.13833309710025787, 
                -0.08767880499362946, 
                0.12975578010082245, 
                -0.06957851350307465, 
                -0.06340739130973816, 
                -0.1974770873785019, 
                0.06717642396688461, 
                -0.09245061874389648, 
                0.004512505605816841, 
                -0.10771902650594711, 
                0.10219617187976837, 
                0.13342784345149994, 
                -0.04871867597103119, 
                -0.02423514798283577, 
                -0.021229492500424385, 
                -0.05923610180616379, 
                0.08459467440843582
            ]
        }, 
        "Node_17": {
            "bias": -0.5579566955566406, 
            "weights": [
                0.01835869997739792, 
                0.058259762823581696, 
                0.0015164872165769339, 
                -0.13401205837726593, 
                -0.10728250443935394, 
                -0.07657518982887268, 
                0.10860834270715714, 
                -0.1299976408481598, 
                0.04597426578402519, 
                0.15011055767536163, 
                0.18812617659568787, 
                0.03714640811085701, 
                -0.1699124574661255, 
                -0.11823258548974991, 
                0.15242627263069153, 
                -0.05830945074558258, 
                0.18882086873054504, 
                0.06420093774795532, 
                0.032588839530944824, 
                -0.13816030323505402, 
                0.17667464911937714, 
                0.10233605653047562, 
                -0.2814489006996155, 
                -0.21825434267520905, 
                0.06264720112085342, 
                -0.24148350954055786, 
                0.007068471517413855, 
                0.1024557426571846, 
                0.21969746053218842, 
                0.08036744594573975, 
                -0.0567203089594841, 
                -0.1814315915107727, 
                -0.08251761645078659, 
                0.05768081545829773, 
                0.05237994343042374, 
                0.13187751173973083, 
                -0.0552372932434082, 
                0.020554790273308754, 
                -0.04958243668079376, 
                0.05524348095059395, 
                0.09187610447406769, 
                -0.11688491702079773, 
                -0.008347812108695507, 
                -0.196739062666893, 
                -0.13137589395046234, 
                0.16825507581233978, 
                0.20192739367485046, 
                -0.031849492341279984, 
                0.10418631881475449, 
                -0.08198529481887817, 
                -0.23264653980731964, 
                0.11040197312831879, 
                -0.4748719036579132, 
                0.09529097378253937, 
                0.05335384979844093, 
                0.014828006736934185, 
                0.07550407201051712, 
                6.709908484481275e-05, 
                0.023556288331747055, 
                -0.05392124503850937, 
                0.08267594128847122, 
                -0.040181733667850494, 
                0.1053079217672348, 
                0.02796141430735588, 
                -0.44871798157691956, 
                -0.011140854097902775, 
                -0.02139129675924778, 
                0.04522233083844185, 
                -0.056043025106191635, 
                0.187808096408844, 
                0.3799777030944824, 
                -0.0014264099299907684, 
                0.014339093118906021, 
                0.06807630509138107, 
                -0.11433401703834534, 
                0.04821303114295006, 
                -0.004860019776970148, 
                -0.026697900146245956, 
                -0.015985483303666115, 
                0.19018274545669556, 
                -0.044464755803346634, 
                -0.04414483532309532, 
                0.039688266813755035, 
                -0.07144178450107574, 
                0.14705459773540497, 
                0.10817522555589676, 
                0.09886647015810013, 
                0.0675632506608963, 
                0.02226291410624981, 
                -0.05450298637151718, 
                0.006149375345557928, 
                -0.2725085914134979, 
                0.06221665441989899, 
                -0.06263772398233414, 
                0.0751490667462349, 
                -0.0626668781042099, 
                0.0016342643648386002, 
                0.15140828490257263, 
                0.1346120685338974, 
                0.3250006139278412, 
                0.0889711081981659, 
                -0.3446073532104492, 
                -0.10841501504182816, 
                0.05708992853760719, 
                -0.13337300717830658, 
                0.001766890287399292, 
                0.19887897372245789, 
                0.093161441385746, 
                0.09765272587537766, 
                0.006466148421168327, 
                -0.01592700555920601, 
                -0.17391352355480194, 
                0.0034412143286317587, 
                0.07377593219280243, 
                0.2897745370864868, 
                0.1990937441587448, 
                0.1388143002986908, 
                -0.22392992675304413, 
                0.08940114825963974, 
                0.09569576382637024, 
                0.056841105222702026, 
                -0.045874468982219696, 
                -0.01125161163508892, 
                -0.04816782474517822, 
                0.05894177034497261, 
                -0.07824404537677765, 
                0.12080737203359604, 
                -0.07783576101064682, 
                -0.0544126033782959, 
                -0.07558750361204147, 
                -0.2960534989833832, 
                -0.16465651988983154, 
                -0.12831149995326996, 
                -0.13205823302268982, 
                -0.19275256991386414, 
                0.06954798102378845, 
                -0.009733092039823532, 
                -0.04494640231132507, 
                -0.20299947261810303, 
                -0.10419511795043945, 
                -0.06587487459182739, 
                -0.019729236140847206, 
                0.06072987616062164, 
                -0.04899149015545845, 
                0.05741254985332489, 
                0.08896154910326004, 
                0.019018001854419708, 
                -0.09898687154054642, 
                0.06988130509853363, 
                0.1183106079697609
            ]
        }, 
        "Node_16": {
            "bias": -0.7634294629096985, 
            "weights": [
                -0.12005217373371124, 
                0.24697214365005493, 
                -0.04475131630897522, 
                -0.2186148315668106, 
                -0.00994504801928997, 
                -0.2311113327741623, 
                0.05623702332377434, 
                -0.2235405147075653, 
                0.08166776597499847, 
                0.0412394218146801, 
                -0.07956840097904205, 
                0.106797955930233, 
                -0.10008469969034195, 
                0.1460506021976471, 
                0.019238263368606567, 
                -0.0009478043648414314, 
                -0.019898774102330208, 
                0.03772527351975441, 
                0.08588345348834991, 
                0.009525518864393234, 
                0.007712753023952246, 
                -0.0653458908200264, 
                -0.07293105870485306, 
                -0.2764934003353119, 
                -0.14024735987186432, 
                -0.08133603632450104, 
                0.022568177431821823, 
                -0.14301200211048126, 
                0.029690947383642197, 
                0.02386118285357952, 
                -0.06059075519442558, 
                -0.31316065788269043, 
                -0.07570389658212662, 
                0.1239592581987381, 
                -0.07169276475906372, 
                -0.08707064390182495, 
                0.007581512443721294, 
                0.019152767956256866, 
                -0.0705619528889656, 
                0.10613858699798584, 
                0.05476135015487671, 
                -0.29687365889549255, 
                0.1271418035030365, 
                0.08805211633443832, 
                0.23890458047389984, 
                -0.12322521954774857, 
                -0.08558238297700882, 
                -0.12777893245220184, 
                -0.08553056418895721, 
                -0.01343864668160677, 
                -0.19298779964447021, 
                -0.08648315817117691, 
                -0.013172522187232971, 
                0.06964404881000519, 
                -0.0015622470527887344, 
                -0.04761509224772453, 
                -0.14354963600635529, 
                -0.018606340512633324, 
                -0.09406334906816483, 
                -0.16057950258255005, 
                0.22704826295375824, 
                -0.11046700924634933, 
                -0.03604322299361229, 
                0.2017691731452942, 
                0.23623397946357727, 
                -0.09776834398508072, 
                -0.06747841835021973, 
                0.08331474661827087, 
                -0.10453684628009796, 
                -0.092856764793396, 
                -0.06339039653539658, 
                0.23292380571365356, 
                0.04734336584806442, 
                -0.11006410419940948, 
                -0.13064105808734894, 
                0.050238873809576035, 
                -0.19917435944080353, 
                0.09610281884670258, 
                -0.2271955907344818, 
                0.06638620048761368, 
                -0.11929100006818771, 
                -0.016864698380231857, 
                -0.039825573563575745, 
                0.021662279963493347, 
                -0.13599583506584167, 
                -0.20959118008613586, 
                -0.028632396832108498, 
                0.10133079439401627, 
                -0.08432503044605255, 
                -0.17966537177562714, 
                0.11397793889045715, 
                0.027390077710151672, 
                0.08705182373523712, 
                -0.08758705854415894, 
                -0.1019977405667305, 
                -0.11686348915100098, 
                0.010003821924328804, 
                0.16021741926670074, 
                0.09667804092168808, 
                0.09449219703674316, 
                -0.09642069786787033, 
                -0.1355210393667221, 
                0.012244016863405704, 
                0.17824190855026245, 
                -0.30139273405075073, 
                0.07238034904003143, 
                0.13286828994750977, 
                -0.16870735585689545, 
                0.12622424960136414, 
                0.08336153626441956, 
                -0.012836434878408909, 
                -0.1601710468530655, 
                0.13725751638412476, 
                0.030817203223705292, 
                0.1964428722858429, 
                -0.04078483581542969, 
                0.24793477356433868, 
                -0.21661990880966187, 
                -0.048704102635383606, 
                -0.18732747435569763, 
                -0.08949678391218185, 
                0.24116544425487518, 
                0.06148364394903183, 
                0.09814996272325516, 
                -0.24487538635730743, 
                0.028243113309144974, 
                0.03316669166088104, 
                -0.23405195772647858, 
                0.04432690516114235, 
                0.1070406511425972, 
                0.08055321872234344, 
                -0.0028697417583316565, 
                -0.2872840166091919, 
                -0.4032847583293915, 
                0.04036816954612732, 
                -0.09729386121034622, 
                0.060792263597249985, 
                0.06925851106643677, 
                -0.08343208581209183, 
                -0.2222401201725006, 
                -0.05084676668047905, 
                0.12444286048412323, 
                -0.007339114788919687, 
                0.012144980020821095, 
                -0.1375243067741394, 
                -0.03741348162293434, 
                -0.11448777467012405, 
                0.05236769840121269, 
                -0.05753830075263977, 
                0.1133657693862915
            ]
        }, 
        "Node_15": {
            "bias": 0.011614932678639889, 
            "weights": [
                0.06353697925806046, 
                0.12832805514335632, 
                -0.20024405419826508, 
                -0.06911273300647736, 
                -0.19978266954421997, 
                -0.015499616973102093, 
                0.018474480137228966, 
                -0.17217904329299927, 
                -0.09373802691698074, 
                -0.1295541226863861, 
                -0.12035387754440308, 
                -0.1885310560464859, 
                -0.1355619579553604, 
                0.027014372870326042, 
                -0.042345669120550156, 
                -0.06589744240045547, 
                -0.06880804896354675, 
                -0.12144908308982849, 
                -0.17387013137340546, 
                -0.029809625819325447, 
                0.12232112884521484, 
                0.059843845665454865, 
                -0.15115143358707428, 
                0.13364049792289734, 
                -0.1630984991788864, 
                -0.012232241220772266, 
                -0.11561977118253708, 
                -0.006332894321531057, 
                -0.092902772128582, 
                0.0139241898432374, 
                0.17448900640010834, 
                -0.0734919086098671, 
                -0.08340706676244736, 
                -0.05056065320968628, 
                -0.13807916641235352, 
                0.059388723224401474, 
                0.06908077746629715, 
                0.010109934024512768, 
                -0.10875621438026428, 
                0.10519971698522568, 
                -0.02460201270878315, 
                -0.044923458248376846, 
                -0.21143409609794617, 
                -0.09305619448423386, 
                -0.11122182011604309, 
                -0.09838061779737473, 
                -0.04988928139209747, 
                -0.01352609321475029, 
                -0.14538626372814178, 
                0.025845635682344437, 
                -0.047441933304071426, 
                0.08427713811397552, 
                -0.0738929808139801, 
                -0.14152811467647552, 
                -0.055204570293426514, 
                0.08097586035728455, 
                0.09744035452604294, 
                -0.15812230110168457, 
                0.04382368177175522, 
                -0.01325113233178854, 
                0.01416937168687582, 
                -0.09532003849744797, 
                0.07798371464014053, 
                0.07294310629367828, 
                0.0009585892548784614, 
                0.06455729156732559, 
                -0.1924450546503067, 
                -0.009384547360241413, 
                -0.14326977729797363, 
                -0.03258831426501274, 
                -0.07760560512542725, 
                0.014723319560289383, 
                -0.10562046617269516, 
                -0.10745257139205933, 
                -0.12568208575248718, 
                0.07638707011938095, 
                -0.0767965316772461, 
                -0.07090514153242111, 
                -0.07916843146085739, 
                0.07658784091472626, 
                -0.20190192759037018, 
                -0.015028330497443676, 
                -0.11176680773496628, 
                0.10613001883029938, 
                -0.07387421280145645, 
                0.03205500543117523, 
                -0.07349438965320587, 
                -0.12544937431812286, 
                0.06827889382839203, 
                0.04273936524987221, 
                -0.09750931710004807, 
                -0.09554758667945862, 
                0.0009579211473464966, 
                0.12511907517910004, 
                -0.03277304768562317, 
                -0.04342157766222954, 
                0.13856960833072662, 
                0.008191467262804508, 
                0.07064423710107803, 
                0.08848913758993149, 
                -0.10034230351448059, 
                -0.16636957228183746, 
                0.033316511660814285, 
                -0.13680453598499298, 
                0.09265855699777603, 
                -0.15000194311141968, 
                0.07135490328073502, 
                -0.08484941720962524, 
                -0.023529335856437683, 
                0.09457547217607498, 
                0.00685277720913291, 
                -0.13726253807544708, 
                -0.09075905382633209, 
                -0.1553991436958313, 
                -0.039730194956064224, 
                -0.004722729790955782, 
                -0.02784692496061325, 
                0.08601239323616028, 
                -0.14298342168331146, 
                -0.048363927751779556, 
                -0.06811431795358658, 
                -0.09494117647409439, 
                0.12238088995218277, 
                -0.08823692798614502, 
                0.09044517576694489, 
                0.010495447553694248, 
                -0.15380237996578217, 
                -0.06511731445789337, 
                -0.016463393345475197, 
                0.017415327951312065, 
                -0.037778839468955994, 
                0.022267069667577744, 
                0.03998956084251404, 
                -0.047891031950712204, 
                -0.07401018589735031, 
                0.10017728805541992, 
                -0.011385757476091385, 
                -0.15058401226997375, 
                0.011065756902098656, 
                -0.1040249839425087, 
                -0.15020132064819336, 
                -0.03780241310596466, 
                0.037859536707401276, 
                0.061380237340927124, 
                0.06515873968601227, 
                -0.022791199386119843, 
                0.06468772143125534, 
                0.0934370830655098, 
                -0.11791824549436569, 
                0.10940048098564148
            ]
        }, 
        "Node_14": {
            "bias": -1.2143113613128662, 
            "weights": [
                -0.008975167758762836, 
                0.12444844841957092, 
                -0.031580887734889984, 
                -0.07329217344522476, 
                -0.06333229690790176, 
                0.020240504294633865, 
                0.13435183465480804, 
                -0.10581821948289871, 
                -0.11636663973331451, 
                -0.05710425600409508, 
                -0.13280948996543884, 
                0.11603571474552155, 
                0.08747907727956772, 
                0.03730643168091774, 
                -0.026175906881690025, 
                -0.012247562408447266, 
                0.0962631031870842, 
                -0.05038682743906975, 
                0.008379057049751282, 
                0.015747280791401863, 
                -0.1311444491147995, 
                -0.1126251146197319, 
                -0.16268210113048553, 
                -0.0787154957652092, 
                -0.021533889696002007, 
                -0.133017897605896, 
                0.15726996958255768, 
                0.05152839422225952, 
                0.0158635713160038, 
                -0.151159405708313, 
                -0.033886175602674484, 
                0.07112292945384979, 
                0.048608578741550446, 
                0.04968908429145813, 
                0.01639411598443985, 
                0.010118549689650536, 
                -0.010840889997780323, 
                0.10540637373924255, 
                0.14816704392433167, 
                -0.08892715722322464, 
                0.1569214016199112, 
                0.16985340416431427, 
                0.028241656720638275, 
                0.09197697788476944, 
                0.2104954719543457, 
                -0.06294398754835129, 
                0.1755722612142563, 
                0.01792757958173752, 
                -0.1411115974187851, 
                0.12698666751384735, 
                -0.295547753572464, 
                0.030149057507514954, 
                -0.24788479506969452, 
                0.1526084840297699, 
                -0.06623989343643188, 
                -0.04481276497244835, 
                0.04817226156592369, 
                -0.043411482125520706, 
                0.05329006910324097, 
                -0.01871480792760849, 
                0.11902204155921936, 
                0.03295009210705757, 
                0.11293007433414459, 
                0.009658219292759895, 
                -0.02100728265941143, 
                -0.0009704214753583074, 
                -0.1033850684762001, 
                -0.0508536733686924, 
                -0.08132565021514893, 
                0.010039184242486954, 
                -0.0992494523525238, 
                0.01815141923725605, 
                0.05641162022948265, 
                0.07352961599826813, 
                -0.05623164027929306, 
                -0.01426825113594532, 
                -0.05207579955458641, 
                -0.10085461288690567, 
                0.08414600789546967, 
                0.15079447627067566, 
                0.0245542973279953, 
                0.038334380835294724, 
                0.07230690121650696, 
                0.025232955813407898, 
                -0.005883702076971531, 
                0.017317408695816994, 
                -0.22283533215522766, 
                -0.10281956940889359, 
                0.04892122372984886, 
                -0.1047079786658287, 
                0.13008993864059448, 
                0.08386198431253433, 
                -0.1427556872367859, 
                0.0904647558927536, 
                0.04999391362071037, 
                0.034454889595508575, 
                -0.02412949874997139, 
                0.2638404667377472, 
                0.13906314969062805, 
                0.10145583003759384, 
                0.01984293758869171, 
                -0.0012817236129194498, 
                0.09936169534921646, 
                -0.4536997079849243, 
                -0.10679049789905548, 
                0.11136679351329803, 
                -0.021581389009952545, 
                0.12895067036151886, 
                0.0976497009396553, 
                -0.6441915035247803, 
                0.03998362645506859, 
                0.010907286778092384, 
                -0.06726715713739395, 
                -0.25946545600891113, 
                0.16881293058395386, 
                0.14563648402690887, 
                0.09161965548992157, 
                -0.09320955723524094, 
                -0.02146262116730213, 
                -0.02220776118338108, 
                -0.07937585562467575, 
                -0.033309292048215866, 
                0.04293874651193619, 
                -0.05992146581411362, 
                -0.08454301208257675, 
                0.03013955056667328, 
                -0.1325773149728775, 
                0.05822344496846199, 
                -0.08740947395563126, 
                0.19243384897708893, 
                0.12672385573387146, 
                0.10285431146621704, 
                -0.150762140750885, 
                -0.09287650883197784, 
                0.1054588258266449, 
                -0.0627213791012764, 
                -0.12543660402297974, 
                0.07769709825515747, 
                0.11945689469575882, 
                -0.22333559393882751, 
                0.1523340940475464, 
                -0.2736667990684509, 
                -0.2470354288816452, 
                0.011267751455307007, 
                -0.021909266710281372, 
                0.19867704808712006, 
                -0.05859110876917839, 
                -0.010568691417574883, 
                -0.04883046820759773, 
                0.0795983076095581
            ]
        }, 
        "Node_13": {
            "bias": -1.1476739645004272, 
            "weights": [
                -0.0186997652053833, 
                -0.2913243770599365, 
                0.0031881132163107395, 
                -0.19809529185295105, 
                0.27126628160476685, 
                -0.09598811715841293, 
                0.049936991184949875, 
                -0.03978161886334419, 
                0.08676499873399734, 
                0.12112785875797272, 
                -0.059192899614572525, 
                -0.10233943909406662, 
                -0.18343651294708252, 
                -0.39483919739723206, 
                0.0014008325524628162, 
                0.05142294988036156, 
                -0.02186380885541439, 
                -0.0744122564792633, 
                0.08238202333450317, 
                -0.0005795548786409199, 
                -0.2513628900051117, 
                0.07687374204397202, 
                0.054551251232624054, 
                -0.16086776554584503, 
                0.15004491806030273, 
                -0.5213054418563843, 
                -0.0779867023229599, 
                -0.07887082546949387, 
                -0.044420380145311356, 
                0.10555844753980637, 
                -0.16331811249256134, 
                -0.060751765966415405, 
                0.05645717307925224, 
                0.1055353432893753, 
                -0.1381605565547943, 
                -0.07587727904319763, 
                0.01726563274860382, 
                0.1296018660068512, 
                -0.005535440519452095, 
                -0.15880045294761658, 
                -0.17022305727005005, 
                -0.05206002667546272, 
                0.07626218348741531, 
                -0.06729880720376968, 
                -0.36709651350975037, 
                0.087051622569561, 
                0.187677800655365, 
                0.07350774854421616, 
                -0.07615270465612411, 
                0.08689352124929428, 
                -0.3097775876522064, 
                0.064395010471344, 
                0.09980706870555878, 
                0.12097884714603424, 
                -0.005462045315653086, 
                -0.08609505742788315, 
                -0.14956703782081604, 
                0.022789090871810913, 
                -0.06861723214387894, 
                -0.0041912393644452095, 
                -0.14372599124908447, 
                0.23224550485610962, 
                -0.11571227759122849, 
                -0.1505795270204544, 
                0.3882187306880951, 
                -0.17187413573265076, 
                -0.15842486917972565, 
                0.002507723867893219, 
                -0.07498777657747269, 
                0.0977814793586731, 
                0.2306259572505951, 
                -0.20855337381362915, 
                -0.0011827476555481553, 
                0.49917152523994446, 
                -0.09282858669757843, 
                -0.06864838302135468, 
                0.036844491958618164, 
                0.01445656269788742, 
                0.20785164833068848, 
                0.10684586316347122, 
                0.1308007836341858, 
                0.13280938565731049, 
                -0.02153456024825573, 
                -0.01834331452846527, 
                -0.030025973916053772, 
                -0.13361063599586487, 
                0.08252308517694473, 
                0.0824107751250267, 
                -0.010994848795235157, 
                0.028754908591508865, 
                0.19664788246154785, 
                -0.021803440526127815, 
                -0.002050921320915222, 
                0.05632631480693817, 
                -0.1389925330877304, 
                0.034795697778463364, 
                0.08355458825826645, 
                0.08247557282447815, 
                -0.026758823543787003, 
                0.16864438354969025, 
                -0.024320170283317566, 
                -0.21992337703704834, 
                0.05317658931016922, 
                0.28059446811676025, 
                -0.10920608043670654, 
                -0.14002607762813568, 
                0.035123780369758606, 
                -0.043320029973983765, 
                -0.2606991231441498, 
                0.3075849115848541, 
                0.1615706831216812, 
                -0.03916313499212265, 
                -0.09846722334623337, 
                -0.14816372096538544, 
                -0.14335978031158447, 
                -0.038538917899131775, 
                -0.05615623667836189, 
                0.05629004165530205, 
                -0.07290729880332947, 
                -0.25144481658935547, 
                0.21788080036640167, 
                0.16344115138053894, 
                -0.18365180492401123, 
                0.055976126343011856, 
                -0.10147051513195038, 
                -0.24395358562469482, 
                -0.061132922768592834, 
                -0.038696564733982086, 
                0.09079182147979736, 
                -0.1177532821893692, 
                0.09817252308130264, 
                0.024956298992037773, 
                -0.014769144356250763, 
                -0.10301251709461212, 
                0.10929855704307556, 
                0.005212356802076101, 
                0.11583203077316284, 
                -0.13185177743434906, 
                -0.17541852593421936, 
                -0.21339184045791626, 
                0.11522039026021957, 
                0.235689178109169, 
                -0.3327960968017578, 
                -0.1666480004787445, 
                0.05831918120384216, 
                0.2309262901544571, 
                -0.03267476335167885, 
                0.10878683626651764, 
                -0.11691395938396454, 
                -0.005239070393145084
            ]
        }, 
        "Node_12": {
            "bias": -0.058082833886146545, 
            "weights": [
                0.1431802362203598, 
                -0.13367511332035065, 
                -0.06938760727643967, 
                0.11110948026180267, 
                0.02782280184328556, 
                -0.1275944709777832, 
                -0.10763300210237503, 
                0.0031910911202430725, 
                0.033054523169994354, 
                -0.09500215202569962, 
                -0.14130084216594696, 
                0.053393661975860596, 
                -0.010122732259333134, 
                0.11207034438848495, 
                -0.06046389043331146, 
                -0.16430091857910156, 
                -0.15446729958057404, 
                0.14021402597427368, 
                -0.04014996811747551, 
                -0.10202296078205109, 
                -0.11787913739681244, 
                -0.049393340945243835, 
                -0.12277227640151978, 
                -0.17222481966018677, 
                0.09673266112804413, 
                -0.03342761844396591, 
                -0.12304399162530899, 
                -0.021164892241358757, 
                -0.1799336075782776, 
                0.020601414144039154, 
                -0.07387962192296982, 
                0.25883522629737854, 
                0.033075302839279175, 
                -0.12345179170370102, 
                0.050594259053468704, 
                -0.20889784395694733, 
                -0.14839980006217957, 
                0.05299263447523117, 
                0.10419495403766632, 
                0.0062235333025455475, 
                -0.14172105491161346, 
                -0.20365722477436066, 
                -0.06431464850902557, 
                -0.023962074890732765, 
                0.004302849993109703, 
                -0.11916913092136383, 
                -0.043538324534893036, 
                0.13153672218322754, 
                0.07048849761486053, 
                -0.19677795469760895, 
                0.017834646627306938, 
                0.12060470879077911, 
                -0.023309221491217613, 
                0.11326368153095245, 
                0.13924634456634521, 
                -0.16834574937820435, 
                -0.06651967018842697, 
                -0.040786612778902054, 
                -0.09674236923456192, 
                -0.0499732568860054, 
                -0.10986733436584473, 
                0.0800941064953804, 
                -0.061125192791223526, 
                -0.11406334489583969, 
                0.12188895791769028, 
                -0.06395374238491058, 
                0.04033998027443886, 
                -0.15492641925811768, 
                -0.1523854285478592, 
                0.024969594553112984, 
                -0.2272043526172638, 
                -0.015359780751168728, 
                0.0918036550283432, 
                0.13457581400871277, 
                0.057146456092596054, 
                0.13569337129592896, 
                -0.09450595825910568, 
                -0.083941750228405, 
                -0.11682403832674026, 
                0.01578134298324585, 
                0.08708804845809937, 
                -0.02713349275290966, 
                -0.16816934943199158, 
                0.1129070371389389, 
                -0.09213344752788544, 
                0.007449404802173376, 
                0.14747095108032227, 
                -0.10211077332496643, 
                -0.0945376455783844, 
                -0.06243361160159111, 
                0.09997743368148804, 
                -0.049962349236011505, 
                0.041684359312057495, 
                -0.13494066894054413, 
                -0.027949370443820953, 
                -0.07547777891159058, 
                -0.05870141461491585, 
                0.03783915936946869, 
                0.0400334931910038, 
                -0.06844496726989746, 
                -0.07336819916963577, 
                -0.011359420605003834, 
                0.03790414333343506, 
                0.08327799290418625, 
                -0.03425302729010582, 
                0.04314929246902466, 
                0.10955219715833664, 
                -0.14601856470108032, 
                -0.13581112027168274, 
                -0.13425183296203613, 
                -0.03625205531716347, 
                -0.05611322447657585, 
                -0.14250916242599487, 
                -0.0004027948889415711, 
                0.017803261056542397, 
                -0.11139312386512756, 
                0.13716387748718262, 
                -0.0985979288816452, 
                -0.024785887449979782, 
                0.08608327060937881, 
                -0.014338496141135693, 
                -0.10733243077993393, 
                0.012545622885227203, 
                0.027245623990893364, 
                -0.06922484934329987, 
                -0.06129279360175133, 
                0.07846272736787796, 
                0.019107511267066002, 
                -0.17661161720752716, 
                -0.052747953683137894, 
                0.021298879757523537, 
                -0.0303844902664423, 
                0.007850541733205318, 
                -0.10153069347143173, 
                0.07322579622268677, 
                -0.1236661970615387, 
                0.12022915482521057, 
                0.13455818593502045, 
                -0.1882631629705429, 
                -0.0188958328217268, 
                0.013891497626900673, 
                -0.13308003544807434, 
                0.039759181439876556, 
                -0.06403884291648865, 
                0.026592552661895752, 
                -0.11351015418767929, 
                -0.03105643391609192, 
                0.1051836609840393, 
                0.06553276628255844, 
                -0.14896337687969208
            ]
        }, 
        "Node_11": {
            "bias": -0.4013828933238983, 
            "weights": [
                0.0376969613134861, 
                0.12507806718349457, 
                0.03322241082787514, 
                0.0762128159403801, 
                -0.1665065437555313, 
                0.007529899477958679, 
                0.07531987130641937, 
                -0.03553245961666107, 
                0.02342371642589569, 
                -0.11991770565509796, 
                -0.09485802054405212, 
                -0.1155785322189331, 
                0.09039758145809174, 
                0.4197334945201874, 
                0.036371711641550064, 
                -0.04898225516080856, 
                -0.04564076289534569, 
                0.04574176296591759, 
                -0.2371140867471695, 
                -0.01364914234727621, 
                -0.33760693669319153, 
                -0.07359578460454941, 
                -0.18543919920921326, 
                -0.009932586923241615, 
                -0.4290330708026886, 
                0.12974831461906433, 
                0.06385933607816696, 
                -0.2008192241191864, 
                0.07375819236040115, 
                0.04765356332063675, 
                -0.38144224882125854, 
                0.11775423586368561, 
                -0.14346198737621307, 
                -0.10083527863025665, 
                0.2406865805387497, 
                0.038318485021591187, 
                0.19646796584129333, 
                -0.049445122480392456, 
                0.07054342329502106, 
                -0.07211091369390488, 
                -0.10152146965265274, 
                -0.13912618160247803, 
                -0.02775353193283081, 
                -0.4380909502506256, 
                0.24378350377082825, 
                0.3435717225074768, 
                -0.14950072765350342, 
                -0.04071855917572975, 
                0.05875537917017937, 
                0.03907502815127373, 
                -0.23215606808662415, 
                -0.11411646008491516, 
                -0.06400341540575027, 
                0.13907507061958313, 
                0.02222977764904499, 
                -0.04220518469810486, 
                0.2429434359073639, 
                -0.1564449667930603, 
                0.048428937792778015, 
                -0.0900145024061203, 
                -0.04526645690202713, 
                0.12823480367660522, 
                -0.14085990190505981, 
                -0.10946229845285416, 
                0.07559797912836075, 
                -0.050998054444789886, 
                -0.18127013742923737, 
                -0.04618186131119728, 
                -0.15931543707847595, 
                -0.331248939037323, 
                -0.3953993320465088, 
                -0.25747984647750854, 
                0.13698847591876984, 
                0.17727608978748322, 
                -0.041409820318222046, 
                -0.0025288581382483244, 
                -0.2068241834640503, 
                -0.01043827086687088, 
                -0.012071630917489529, 
                0.040476854890584946, 
                -0.2101200819015503, 
                0.0832570418715477, 
                -0.002033054828643799, 
                -0.07214954495429993, 
                -0.13777343928813934, 
                -0.03672155737876892, 
                -0.3579184412956238, 
                -0.25399050116539, 
                -0.1176685243844986, 
                -0.23070651292800903, 
                0.05432628095149994, 
                0.18010470271110535, 
                0.010778158903121948, 
                -0.10374411195516586, 
                -0.07886068522930145, 
                -0.018342433497309685, 
                0.04680420830845833, 
                0.13858209550380707, 
                -0.08859656006097794, 
                -0.1122480109333992, 
                0.14577530324459076, 
                -0.27357515692710876, 
                -0.012698839418590069, 
                0.03148035705089569, 
                -0.1421269178390503, 
                -0.08596096187829971, 
                0.03762815520167351, 
                0.07828976958990097, 
                0.11162560433149338, 
                0.03476473689079285, 
                0.0958719402551651, 
                -0.24439390003681183, 
                0.002976932330057025, 
                -0.10015008598566055, 
                -0.3437866270542145, 
                0.06448452919721603, 
                0.05416468158364296, 
                -0.15382303297519684, 
                -0.16933149099349976, 
                -0.1054445132613182, 
                -0.3445896506309509, 
                0.12072078138589859, 
                -0.01949174515902996, 
                0.02612949348986149, 
                -0.0827229768037796, 
                0.07508882880210876, 
                -0.4010359048843384, 
                -0.16465772688388824, 
                -0.3216080963611603, 
                0.1432715654373169, 
                0.43736010789871216, 
                -0.04488491266965866, 
                -0.05070827528834343, 
                -0.21729940176010132, 
                -0.20592044293880463, 
                -0.35888418555259705, 
                -0.1667386293411255, 
                0.07042232155799866, 
                0.013724582269787788, 
                -0.06864562630653381, 
                0.020078858360648155, 
                -0.01758805848658085, 
                0.18663451075553894, 
                0.140314519405365, 
                -0.041156284511089325, 
                0.14254748821258545, 
                0.028065403923392296, 
                0.01282989140599966, 
                0.08255594968795776, 
                0.14713746309280396
            ]
        }, 
        "Node_10": {
            "bias": -0.1345866322517395, 
            "weights": [
                -0.12625616788864136, 
                -0.0038316978607326746, 
                0.05422252044081688, 
                -0.040589839220047, 
                -0.0019306695321574807, 
                -0.0833812803030014, 
                0.1141485944390297, 
                0.07863844186067581, 
                0.021463967859745026, 
                0.009236818179488182, 
                -0.04270781949162483, 
                0.11264916509389877, 
                -0.14172127842903137, 
                0.013274532742798328, 
                -0.05435607209801674, 
                0.04104539006948471, 
                -0.02566022053360939, 
                0.020844317972660065, 
                0.018193939700722694, 
                0.1445145606994629, 
                0.0665709525346756, 
                -0.0023720262106508017, 
                -0.03329424560070038, 
                -0.13850463926792145, 
                0.08751163631677628, 
                0.07055020332336426, 
                -0.10074415057897568, 
                -0.12953101098537445, 
                -0.09741230309009552, 
                -0.10231508314609528, 
                0.06439568847417831, 
                -0.018075715750455856, 
                -0.016055503860116005, 
                0.014306098222732544, 
                -0.1711784154176712, 
                0.04778122529387474, 
                -0.10748433321714401, 
                0.028067484498023987, 
                0.0500880591571331, 
                0.007630939595401287, 
                -0.06038094684481621, 
                0.025881538167595863, 
                0.0642130970954895, 
                0.08929093927145004, 
                -0.03318506106734276, 
                -0.08046582341194153, 
                0.15992341935634613, 
                0.07166046649217606, 
                0.12089855968952179, 
                -0.18341827392578125, 
                -0.15528389811515808, 
                -0.032706551253795624, 
                -0.037915460765361786, 
                0.12151028960943222, 
                0.0369630828499794, 
                -0.13154888153076172, 
                0.1869039088487625, 
                -0.13864833116531372, 
                -0.1234731450676918, 
                0.03497745469212532, 
                0.09102416038513184, 
                -0.10188978165388107, 
                -0.1053892970085144, 
                0.11315088719129562, 
                0.035236407071352005, 
                -0.051447514444589615, 
                0.07591752707958221, 
                0.08168071508407593, 
                -0.13774673640727997, 
                -0.0230136476457119, 
                -0.350602388381958, 
                -0.03799233213067055, 
                0.006070906296372414, 
                -0.12084686011075974, 
                -0.14567050337791443, 
                -0.07715383172035217, 
                0.031521521508693695, 
                0.056300655007362366, 
                -0.04592582955956459, 
                -0.1784418225288391, 
                -0.09679203480482101, 
                0.016070334240794182, 
                0.09481965005397797, 
                0.1455552726984024, 
                0.05387195572257042, 
                -0.17055724561214447, 
                -0.12468282133340836, 
                -0.10308948159217834, 
                0.10487529635429382, 
                -0.11798465996980667, 
                -0.08468156307935715, 
                0.0906759575009346, 
                -0.10689838230609894, 
                0.10642324388027191, 
                -0.1605750322341919, 
                -0.07409342378377914, 
                0.09219781309366226, 
                -0.16686022281646729, 
                -0.05617378279566765, 
                -0.002628450747579336, 
                -0.017026811838150024, 
                0.2638344466686249, 
                0.09815756976604462, 
                -0.006973997689783573, 
                -0.11965498328208923, 
                -0.12740978598594666, 
                -0.08863513171672821, 
                -0.16594037413597107, 
                -0.16264261305332184, 
                -0.07902064919471741, 
                0.047399405390024185, 
                -0.058882638812065125, 
                0.027067597955465317, 
                0.09801313281059265, 
                -0.06558431684970856, 
                0.020580491051077843, 
                -0.03302101418375969, 
                -0.18057389557361603, 
                0.036123476922512054, 
                -0.1667536199092865, 
                -0.17899779975414276, 
                0.054360419511795044, 
                -0.11211787909269333, 
                -0.08914469927549362, 
                0.07207901775836945, 
                -0.05540608987212181, 
                0.1326218843460083, 
                -0.14606140553951263, 
                -0.009623376652598381, 
                -0.02708735689520836, 
                0.03071063756942749, 
                -0.05194264277815819, 
                -0.2272983342409134, 
                -0.017781514674425125, 
                -0.13143546879291534, 
                0.11722522974014282, 
                -0.14911648631095886, 
                0.05188398063182831, 
                -0.1338212788105011, 
                0.06940782070159912, 
                -0.01668737269937992, 
                -0.054150860756635666, 
                0.1419198215007782, 
                0.08196574449539185, 
                -0.052505023777484894, 
                0.12565629184246063, 
                -0.11452554166316986, 
                -0.10347370058298111, 
                0.05184277892112732, 
                -0.10814926028251648
            ]
        }, 
        "Node_97": {
            "bias": -0.0017421767115592957, 
            "weights": [
                -0.12620291113853455, 
                -0.12745697796344757, 
                0.011458620429039001, 
                0.03421825170516968, 
                -0.06087075173854828, 
                -0.10516360402107239, 
                -0.10167944431304932, 
                -0.05544785410165787, 
                0.020243501290678978, 
                -0.08592052012681961, 
                0.053381092846393585, 
                -0.1438663899898529, 
                0.0020193459931761026, 
                -0.009459658525884151, 
                -0.08449687063694, 
                0.07996702194213867, 
                -0.06114428862929344, 
                0.006077135913074017, 
                -0.1431235820055008, 
                -0.13736172020435333, 
                0.09287674725055695, 
                -0.021459773182868958, 
                -0.09529998153448105, 
                0.07183024287223816, 
                -0.11260399222373962, 
                -0.06997735798358917, 
                -0.08270835876464844, 
                0.13651621341705322, 
                0.010838971473276615, 
                0.038845598697662354, 
                0.05179672688245773, 
                0.04580800235271454, 
                0.03531277924776077, 
                0.007532984018325806, 
                0.011402475647628307, 
                0.08143575489521027, 
                -0.10063383728265762, 
                -0.003394719213247299, 
                -0.09566324949264526, 
                -0.16591334342956543, 
                -0.0049314843490719795, 
                -0.07760131359100342, 
                0.008190345019102097, 
                0.07531991600990295, 
                0.05949057266116142, 
                0.0833057314157486, 
                0.150810107588768, 
                0.07815392315387726, 
                0.14898322522640228, 
                -0.1396569460630417, 
                -0.07121723145246506, 
                -0.013067752122879028, 
                0.02210158109664917, 
                -0.07367653399705887, 
                0.10312821716070175, 
                -0.04715768247842789, 
                -0.13283859193325043, 
                0.10728719830513, 
                -0.003210701048374176, 
                -0.09574815630912781, 
                -0.06831147521734238, 
                -0.039870623499155045, 
                0.014428585767745972, 
                0.025702930986881256, 
                -0.005702316761016846, 
                -0.030488599091768265, 
                0.08421490341424942, 
                -0.09711766988039017, 
                -0.0774400383234024, 
                -0.12441667169332504, 
                0.0545337088406086, 
                0.13747277855873108, 
                0.10315262526273727, 
                -0.0052163065411150455, 
                0.031665023416280746, 
                -0.12294524908065796, 
                0.02119726501405239, 
                -0.09633994102478027, 
                -0.01672111637890339, 
                0.14937631785869598, 
                -0.1107458844780922, 
                -0.0508173406124115, 
                -0.1419343799352646, 
                -0.00868995487689972, 
                -0.006157857831567526, 
                -0.10367254912853241, 
                0.09519181400537491, 
                -0.04704374447464943, 
                -0.13732273876667023, 
                -0.14705808460712433, 
                0.005929532926529646, 
                0.0010756460251286626, 
                0.07555054128170013, 
                -0.10726204514503479, 
                0.13208213448524475, 
                -0.025393664836883545, 
                0.11985902488231659, 
                0.06663225591182709, 
                -0.042922139167785645, 
                -0.11525197327136993, 
                0.06658647954463959, 
                0.023463591933250427, 
                0.10329042375087738, 
                -0.11842100322246552, 
                0.00897880457341671, 
                -0.0668940469622612, 
                -0.08560705929994583, 
                -0.07392657548189163, 
                -0.11773952841758728, 
                0.0133690619841218, 
                -0.11228581517934799, 
                0.03553779423236847, 
                -0.01161913014948368, 
                0.14432498812675476, 
                0.0472588911652565, 
                0.008465692400932312, 
                -0.04411087930202484, 
                -0.15309064090251923, 
                -0.005668771918863058, 
                0.04014308750629425, 
                -0.019093569368124008, 
                0.12300951778888702, 
                -0.08087996393442154, 
                -0.027258023619651794, 
                0.03708931431174278, 
                0.09692375361919403, 
                0.08599918335676193, 
                0.0981326550245285, 
                0.04316450282931328, 
                -0.05095329508185387, 
                -0.013444987125694752, 
                -0.12328443676233292, 
                0.06623233109712601, 
                -0.13861849904060364, 
                0.06631119549274445, 
                0.13185887038707733, 
                -0.025541355833411217, 
                0.1265760213136673, 
                -0.1722489595413208, 
                -0.1419788897037506, 
                -0.11904274672269821, 
                0.01506243646144867, 
                -0.12296067178249359, 
                -0.08059081435203552, 
                0.04593139886856079, 
                0.0885944813489914, 
                -0.009089060127735138, 
                0.022186744958162308, 
                -0.05243949592113495, 
                -0.003704384434968233
            ]
        }, 
        "Node_96": {
            "bias": -0.03454957529902458, 
            "weights": [
                0.0453534834086895, 
                0.03823944926261902, 
                0.07516555488109589, 
                -0.020293667912483215, 
                -0.061878398060798645, 
                -0.21395403146743774, 
                0.01760263182222843, 
                -0.07005177438259125, 
                -0.0738067626953125, 
                -0.15383124351501465, 
                -0.06980662047863007, 
                -0.11239148676395416, 
                -0.03010788932442665, 
                -0.07179352641105652, 
                -0.12918981909751892, 
                -0.14918765425682068, 
                0.022021593526005745, 
                0.10967858880758286, 
                0.04540969431400299, 
                -0.11164408922195435, 
                0.09210765361785889, 
                -0.1882966011762619, 
                -0.08470705151557922, 
                -0.16652396321296692, 
                -0.1395265758037567, 
                -0.06999046355485916, 
                0.0680253729224205, 
                0.13788163661956787, 
                0.019525857642292976, 
                -0.09615771472454071, 
                -0.008856184780597687, 
                0.12915699183940887, 
                -0.034739408642053604, 
                -0.10209116339683533, 
                -0.06375913321971893, 
                -0.20750273764133453, 
                -0.07260488718748093, 
                0.07213573902845383, 
                -0.10154728591442108, 
                0.10115542262792587, 
                -0.14827404916286469, 
                0.04566344618797302, 
                0.04158105328679085, 
                -0.09144081920385361, 
                -0.14083534479141235, 
                -0.1596526950597763, 
                -0.08113890141248703, 
                -0.17887595295906067, 
                -0.09940902888774872, 
                -0.01437261700630188, 
                0.04892541095614433, 
                0.0858660340309143, 
                -0.14270560443401337, 
                -0.005920231342315674, 
                0.09519074112176895, 
                -0.0400921106338501, 
                0.11485753953456879, 
                -0.05328765884041786, 
                -0.15247005224227905, 
                -0.21490073204040527, 
                -0.0729614868760109, 
                8.279858593596146e-05, 
                0.09799791872501373, 
                -0.20337171852588654, 
                0.091303251683712, 
                -0.18573670089244843, 
                -0.005552384536713362, 
                -0.07734059542417526, 
                0.07867272943258286, 
                -0.03950212150812149, 
                -0.0978943333029747, 
                -0.13956788182258606, 
                0.035199206322431564, 
                0.05701063200831413, 
                -0.10710039734840393, 
                0.10368874669075012, 
                -0.20329977571964264, 
                -0.06328333914279938, 
                0.04252391308546066, 
                -0.02040991000831127, 
                -0.07407797127962112, 
                -0.12390676885843277, 
                -0.039555829018354416, 
                0.0006478875875473022, 
                0.12698312103748322, 
                -0.012939654290676117, 
                -0.12580233812332153, 
                0.09103808552026749, 
                0.08572815358638763, 
                0.041453976184129715, 
                -0.12109412252902985, 
                0.018138621002435684, 
                -0.1129770278930664, 
                -0.011396944522857666, 
                -0.004775180947035551, 
                0.019473249092698097, 
                -0.0005585849285125732, 
                -0.23604637384414673, 
                -0.08515011519193649, 
                0.144023135304451, 
                -0.002867862582206726, 
                -0.05178298056125641, 
                -0.09562236815690994, 
                -0.09406119585037231, 
                -0.12974496185779572, 
                -0.053039923310279846, 
                0.08915864676237106, 
                -0.07142627239227295, 
                -0.008829552680253983, 
                0.0718965157866478, 
                -0.02491186186671257, 
                -0.024671506136655807, 
                -0.10992808640003204, 
                -0.03114495426416397, 
                0.03461630642414093, 
                -0.11170606315135956, 
                -0.047860752791166306, 
                -0.006957595236599445, 
                0.10466168075799942, 
                -0.021707724779844284, 
                -0.08467698842287064, 
                -0.03517243266105652, 
                -0.13816393911838531, 
                0.07573923468589783, 
                0.026852989569306374, 
                0.011487054638564587, 
                0.027976641431450844, 
                -0.1378609538078308, 
                -0.06796091794967651, 
                0.0074071562848985195, 
                -0.1727863848209381, 
                -0.05846148356795311, 
                0.08351263403892517, 
                -0.05718283727765083, 
                0.06581393629312515, 
                -0.01894955337047577, 
                -0.12729273736476898, 
                -0.093368299305439, 
                -0.01485398504883051, 
                1.773115036485251e-05, 
                -0.10251978039741516, 
                -0.11645690351724625, 
                0.039633363485336304, 
                -0.005550503730773926, 
                -0.02524426579475403, 
                0.07684914767742157, 
                0.01744285598397255, 
                0.024809779599308968, 
                -0.015727713704109192, 
                -0.1001667007803917
            ]
        }, 
        "Node_95": {
            "bias": -0.028152719140052795, 
            "weights": [
                -0.14932647347450256, 
                0.07559051364660263, 
                -0.001491650938987732, 
                0.12140528857707977, 
                -0.07343684881925583, 
                0.08257778733968735, 
                0.015528949908912182, 
                0.00492902984842658, 
                -0.12995661795139313, 
                -0.09779495745897293, 
                0.017563089728355408, 
                -0.1850210428237915, 
                0.08370694518089294, 
                0.10652430355548859, 
                -0.07386822998523712, 
                -0.0376613549888134, 
                -0.09372899681329727, 
                0.16508173942565918, 
                -0.17343592643737793, 
                0.14285258948802948, 
                -0.15051254630088806, 
                -0.15185746550559998, 
                -0.04628882557153702, 
                0.11970257014036179, 
                -0.18104419112205505, 
                0.04215778782963753, 
                -0.05275967717170715, 
                0.1359073668718338, 
                0.05558411777019501, 
                0.06481581926345825, 
                -0.01318255066871643, 
                -0.022152772173285484, 
                -0.15171074867248535, 
                0.03741087019443512, 
                -0.09050785005092621, 
                0.032441817224025726, 
                -0.06457210332155228, 
                -0.21005117893218994, 
                -0.20880663394927979, 
                0.05726519227027893, 
                -0.10576798021793365, 
                -0.17977264523506165, 
                -0.16803063452243805, 
                0.06197788566350937, 
                -0.16558489203453064, 
                0.09942591935396194, 
                -0.07711943238973618, 
                -0.05003214254975319, 
                -0.14945276081562042, 
                -0.22816210985183716, 
                -0.19447392225265503, 
                0.02475382387638092, 
                -0.06844448298215866, 
                0.0994187742471695, 
                -0.09178490936756134, 
                -0.1259423792362213, 
                -0.0032702265307307243, 
                0.07943182438611984, 
                -0.08947126567363739, 
                -0.14288152754306793, 
                -0.040110450237989426, 
                -0.161311537027359, 
                0.015950098633766174, 
                -0.14653044939041138, 
                -0.07139077037572861, 
                0.10108822584152222, 
                -0.06340748816728592, 
                0.03976152837276459, 
                -0.015902824699878693, 
                -0.09503912180662155, 
                -0.005153924226760864, 
                0.08474767208099365, 
                -0.09674928337335587, 
                0.14405940473079681, 
                0.042767152190208435, 
                0.06950758397579193, 
                -0.06854867190122604, 
                -0.0033678263425827026, 
                -0.05573093891143799, 
                -0.046169135719537735, 
                -0.16434097290039062, 
                -0.02234007604420185, 
                -0.0188980083912611, 
                -0.01372632384300232, 
                0.14128024876117706, 
                -0.05976875126361847, 
                -0.019034601747989655, 
                -0.14274729788303375, 
                0.05968073010444641, 
                0.01688316836953163, 
                -0.006479926872998476, 
                -0.14008156955242157, 
                0.14038391411304474, 
                0.0348525196313858, 
                -0.0633731260895729, 
                0.11311860382556915, 
                -0.0012231916189193726, 
                -0.05432908609509468, 
                -0.07821989804506302, 
                0.06661622226238251, 
                0.028836503624916077, 
                -0.09214156866073608, 
                -0.1539471596479416, 
                0.06798325479030609, 
                -0.10810171067714691, 
                -0.1498575359582901, 
                -0.11376697570085526, 
                -0.22006560862064362, 
                -0.10896933078765869, 
                -0.07661832123994827, 
                -0.17186987400054932, 
                0.07130837440490723, 
                0.08059652149677277, 
                -0.09662491828203201, 
                -0.04769508168101311, 
                -0.11738312244415283, 
                -0.10055360198020935, 
                0.058706529438495636, 
                -0.06675887107849121, 
                -0.03418268263339996, 
                -0.18457891047000885, 
                -0.07604136317968369, 
                0.10932248830795288, 
                0.11535568535327911, 
                -0.0013653188943862915, 
                -0.10329721122980118, 
                -0.001673034392297268, 
                0.014285876415669918, 
                0.06681760400533676, 
                -0.11113341897726059, 
                0.006564718205481768, 
                0.07126621156930923, 
                -0.03874088078737259, 
                -0.14703254401683807, 
                0.07190543413162231, 
                -0.1093723401427269, 
                -0.009212344884872437, 
                -0.15113994479179382, 
                -0.019717516377568245, 
                -0.0929897204041481, 
                0.02549677900969982, 
                0.1003851592540741, 
                -0.1607052981853485, 
                -0.12071146070957184, 
                -0.022079214453697205, 
                0.1144520565867424, 
                -0.033671785145998, 
                -0.10235127061605453, 
                -0.05666951835155487, 
                -0.12411578744649887
            ]
        }, 
        "Node_94": {
            "bias": -0.0004509335558395833, 
            "weights": [
                0.04862293601036072, 
                0.10009567439556122, 
                0.1376733034849167, 
                -0.05508586764335632, 
                -0.01881558448076248, 
                -0.15245835483074188, 
                -0.09781284630298615, 
                -0.019152119755744934, 
                -0.11656465381383896, 
                0.02542756497859955, 
                -0.1243181824684143, 
                -0.04123798757791519, 
                0.13556809723377228, 
                0.10704769194126129, 
                -0.11801686137914658, 
                0.06001543998718262, 
                0.04162607342004776, 
                0.020094066858291626, 
                0.08489222824573517, 
                0.03230011463165283, 
                -0.14085014164447784, 
                0.0068210698664188385, 
                0.050548240542411804, 
                0.05886445939540863, 
                0.010711923241615295, 
                -0.054824285209178925, 
                -0.01666399836540222, 
                0.003436163067817688, 
                -0.02560383640229702, 
                0.12575702369213104, 
                0.02874615602195263, 
                -0.00449351966381073, 
                0.05388200655579567, 
                0.09957616031169891, 
                -0.06005289405584335, 
                0.08233701437711716, 
                -0.010407358407974243, 
                -0.14077290892601013, 
                -0.1168316900730133, 
                -0.0564926341176033, 
                0.023880569264292717, 
                0.017143405973911285, 
                -0.12224134802818298, 
                0.029960647225379944, 
                0.09308633208274841, 
                -0.06343498080968857, 
                -0.03113061934709549, 
                -0.1509343832731247, 
                -0.03946877270936966, 
                -0.10990621894598007, 
                -0.1205313429236412, 
                -0.1372344046831131, 
                -0.1228572428226471, 
                -0.09596318006515503, 
                -0.037914205342531204, 
                -0.059717100113630295, 
                -0.09039067476987839, 
                -0.12769080698490143, 
                -0.049368780106306076, 
                0.016941215842962265, 
                0.10028290748596191, 
                -0.11525236070156097, 
                0.08548139035701752, 
                -0.029673799872398376, 
                -0.08493747562170029, 
                0.11570364236831665, 
                -0.0412476509809494, 
                0.0573451854288578, 
                -0.14489597082138062, 
                0.014835536479949951, 
                0.01038922369480133, 
                -0.11661633849143982, 
                -0.06902012974023819, 
                -0.0032419562339782715, 
                -0.1545204371213913, 
                -0.011082842946052551, 
                0.08820699155330658, 
                -0.0077807544730603695, 
                -0.06939910352230072, 
                -0.047768913209438324, 
                -0.10746324807405472, 
                -0.1404196172952652, 
                -0.15619824826717377, 
                -0.033172495663166046, 
                0.11095164716243744, 
                -0.08887838572263718, 
                0.06041373312473297, 
                -0.009705742821097374, 
                0.037220727652311325, 
                -0.1351809799671173, 
                -0.04027976840734482, 
                0.022899359464645386, 
                0.14993558824062347, 
                -0.08098861575126648, 
                0.024925177916884422, 
                0.10313625633716583, 
                0.15076245367527008, 
                -0.04762453958392143, 
                -0.03630416840314865, 
                0.1525215059518814, 
                0.1247863620519638, 
                -0.06017020344734192, 
                -0.10193976759910583, 
                -0.03953283280134201, 
                -0.14769229292869568, 
                0.14304722845554352, 
                -0.06078749895095825, 
                -0.14869046211242676, 
                -0.13450103998184204, 
                -0.11004761606454849, 
                0.033974919468164444, 
                -0.13762998580932617, 
                -0.04295000433921814, 
                0.05162636563181877, 
                -0.07479743659496307, 
                0.02621304988861084, 
                -0.03867265582084656, 
                0.01418749988079071, 
                -0.09712178260087967, 
                -0.0988307073712349, 
                -0.09665341675281525, 
                -0.08215393126010895, 
                -0.037892792373895645, 
                0.03224778175354004, 
                0.06496009230613708, 
                -0.04328370839357376, 
                0.0958673506975174, 
                -0.1423662304878235, 
                0.024531064555048943, 
                -0.12731267511844635, 
                -0.05217282474040985, 
                -0.033839862793684006, 
                -0.03551414608955383, 
                0.15278546512126923, 
                0.06501808762550354, 
                0.1026337593793869, 
                0.1302044838666916, 
                -0.032734811305999756, 
                -0.0653928741812706, 
                -0.07448016852140427, 
                -0.09593775868415833, 
                -0.02628558874130249, 
                0.12805059552192688, 
                0.010179758071899414, 
                0.07659108936786652, 
                0.08668649196624756, 
                0.06036943569779396, 
                -0.14039549231529236, 
                0.13320337235927582, 
                0.060086145997047424
            ]
        }, 
        "Node_93": {
            "bias": -0.01005045510828495, 
            "weights": [
                0.06236929073929787, 
                -0.00795220397412777, 
                0.09824003279209137, 
                0.02794189751148224, 
                0.004176151007413864, 
                -0.11917094886302948, 
                -0.1737460196018219, 
                -0.058754075318574905, 
                -0.09446454793214798, 
                -0.15104860067367554, 
                -0.20723070204257965, 
                0.09399839490652084, 
                0.07584793865680695, 
                0.07036295533180237, 
                0.11740671098232269, 
                -0.12057680636644363, 
                0.09558506309986115, 
                -0.0893145203590393, 
                -0.17787212133407593, 
                -0.02873915433883667, 
                0.09322015941143036, 
                0.019420230761170387, 
                0.0760144516825676, 
                0.1377040445804596, 
                -0.1521308422088623, 
                -0.15384609997272491, 
                0.05026189610362053, 
                0.12475205212831497, 
                -0.12225538492202759, 
                0.1428750902414322, 
                0.0411553680896759, 
                0.14210717380046844, 
                -0.09178554266691208, 
                -0.04494902491569519, 
                0.13509762287139893, 
                0.05097127705812454, 
                0.05175304040312767, 
                -0.13941510021686554, 
                0.0963989794254303, 
                0.12069302052259445, 
                -0.09179846942424774, 
                -0.12346965074539185, 
                0.07886295020580292, 
                -0.10168183594942093, 
                -0.03156581521034241, 
                -0.16293010115623474, 
                -0.0014609990175813437, 
                -0.13584527373313904, 
                -0.037711359560489655, 
                -0.07669875025749207, 
                0.09937773644924164, 
                0.12891937792301178, 
                -0.1400355100631714, 
                0.0574367493391037, 
                -0.06044828146696091, 
                -0.13417832553386688, 
                -0.19674146175384521, 
                -0.06035462021827698, 
                -0.1408332884311676, 
                -0.07784236967563629, 
                -0.12421295791864395, 
                -0.06858915090560913, 
                -0.02355615794658661, 
                -0.07676982879638672, 
                -0.08380310237407684, 
                -0.1412210911512375, 
                0.13013942539691925, 
                -0.08831838518381119, 
                -0.0758383646607399, 
                0.0846502035856247, 
                0.059186067432165146, 
                -0.06911679357290268, 
                -0.01792478747665882, 
                -0.060345135629177094, 
                0.03823355585336685, 
                0.07782785594463348, 
                -0.14932553470134735, 
                0.028854399919509888, 
                0.006207896862179041, 
                -0.09416699409484863, 
                -0.05446198210120201, 
                -0.005968127399682999, 
                0.012338471598923206, 
                -0.12239561975002289, 
                -0.09095250070095062, 
                -0.021048028022050858, 
                -0.006428014487028122, 
                0.00917984452098608, 
                0.06473053991794586, 
                0.1359768807888031, 
                -0.14607441425323486, 
                0.035479988902807236, 
                0.1384817212820053, 
                -0.11553496867418289, 
                -0.09413367509841919, 
                -0.12510943412780762, 
                0.08332998305559158, 
                -0.043428149074316025, 
                0.08951695263385773, 
                -0.048236407339572906, 
                -0.09346421808004379, 
                0.10746122896671295, 
                -0.09349465370178223, 
                -0.15191030502319336, 
                -0.05582916736602783, 
                -0.03968919813632965, 
                -0.14364637434482574, 
                -0.02001352608203888, 
                -0.015174145810306072, 
                -0.13205717504024506, 
                0.11584024876356125, 
                0.01520015113055706, 
                -0.0683106780052185, 
                0.002619874896481633, 
                -0.0612008199095726, 
                -0.06961911916732788, 
                0.08962324261665344, 
                -0.1341528743505478, 
                0.041511181741952896, 
                -0.1605808436870575, 
                0.024168740957975388, 
                -0.13809995353221893, 
                -0.05480640381574631, 
                0.02821706235408783, 
                0.11377967894077301, 
                -0.05617941915988922, 
                0.10653288662433624, 
                0.07201799750328064, 
                0.029282281175255775, 
                -0.18404345214366913, 
                -0.05637931078672409, 
                0.00649257330223918, 
                0.10193686932325363, 
                0.07209913432598114, 
                0.04463783651590347, 
                -0.12578542530536652, 
                0.03555859252810478, 
                -0.08166782557964325, 
                -0.09430340677499771, 
                -0.13049110770225525, 
                0.047766413539648056, 
                0.05167343094944954, 
                -0.028028300032019615, 
                0.09228421747684479, 
                -0.07566766440868378, 
                -0.09429063647985458, 
                -0.009195202961564064, 
                0.009423923678696156, 
                -0.04657086730003357, 
                -0.06235587224364281
            ]
        }, 
        "Node_92": {
            "bias": -0.3416662812232971, 
            "weights": [
                0.06692411750555038, 
                -0.013665856793522835, 
                0.07062406837940216, 
                0.14075970649719238, 
                -0.0029270662926137447, 
                -0.179897278547287, 
                0.1886633187532425, 
                -0.12738275527954102, 
                0.058880820870399475, 
                -0.061497483402490616, 
                0.03583136573433876, 
                0.09748151153326035, 
                -0.09937599301338196, 
                0.29484590888023376, 
                0.04727853834629059, 
                -0.16151537001132965, 
                0.276509553194046, 
                -0.32662323117256165, 
                0.05834410712122917, 
                -0.08558525890111923, 
                -0.07720621675252914, 
                0.14976423978805542, 
                -0.05973569303750992, 
                -0.05122242495417595, 
                -0.17667698860168457, 
                -0.16517244279384613, 
                0.17193906009197235, 
                -0.09672887623310089, 
                -0.22108528017997742, 
                0.033343493938446045, 
                -0.09364327043294907, 
                0.2688632905483246, 
                0.01091703213751316, 
                -0.09146123379468918, 
                -0.2318795919418335, 
                -0.13060396909713745, 
                0.13645443320274353, 
                -0.038233108818531036, 
                -0.24708688259124756, 
                -0.06742752343416214, 
                -0.11164302378892899, 
                0.2074202299118042, 
                0.18173499405384064, 
                -0.1244325265288353, 
                0.15823997557163239, 
                -0.12788577377796173, 
                0.1448826938867569, 
                -0.14460451900959015, 
                -0.17038850486278534, 
                -0.13684144616127014, 
                -0.44691091775894165, 
                -0.11886116862297058, 
                -0.14467620849609375, 
                0.008502140641212463, 
                -0.17997798323631287, 
                -0.13324031233787537, 
                0.18760472536087036, 
                -0.0346188023686409, 
                -0.05460052937269211, 
                0.0036869754549115896, 
                -0.14577318727970123, 
                0.11286982148885727, 
                -0.07092394679784775, 
                -0.3784838914871216, 
                0.054543208330869675, 
                0.11196956783533096, 
                -0.3825334310531616, 
                0.22664281725883484, 
                -0.7083743810653687, 
                0.03913641348481178, 
                0.024069497361779213, 
                0.07992219179868698, 
                -0.03893272951245308, 
                0.6333159804344177, 
                -0.001559259369969368, 
                -0.18903014063835144, 
                -0.11509489268064499, 
                0.10956215858459473, 
                0.09195197373628616, 
                0.12798462808132172, 
                -0.020660219714045525, 
                0.14231953024864197, 
                -0.14457407593727112, 
                -0.01726047694683075, 
                -0.14329147338867188, 
                -0.20630958676338196, 
                -0.6415036916732788, 
                0.23334647715091705, 
                -0.018695982173085213, 
                0.007822065614163876, 
                -0.0792488381266594, 
                -0.3945375978946686, 
                -0.02661190927028656, 
                -0.10205530375242233, 
                -0.1368429809808731, 
                -0.025125276297330856, 
                -0.10416661947965622, 
                0.15534043312072754, 
                -0.012560499832034111, 
                -0.007240267004817724, 
                -0.047717608511447906, 
                0.18728724122047424, 
                -0.0433046817779541, 
                -0.10566671192646027, 
                -0.03805827721953392, 
                -0.1443827748298645, 
                0.06857619434595108, 
                0.0858495905995369, 
                -0.09843933582305908, 
                0.11823436617851257, 
                -0.05590213090181351, 
                0.053617287427186966, 
                -0.12055277079343796, 
                -0.34065836668014526, 
                -0.20791004598140717, 
                -0.08379651606082916, 
                0.10167721658945084, 
                -0.4354695975780487, 
                0.13862550258636475, 
                -0.5248398780822754, 
                -0.2603577673435211, 
                -0.19125808775424957, 
                0.2622973620891571, 
                0.11651243269443512, 
                -0.12905608117580414, 
                -0.004329756833612919, 
                0.028239665552973747, 
                -0.04654612019658089, 
                0.025620535016059875, 
                -0.05732369422912598, 
                -0.2579924762248993, 
                0.06983231008052826, 
                -0.30890005826950073, 
                0.02000751532614231, 
                -0.059682391583919525, 
                0.12633714079856873, 
                -0.06270276010036469, 
                -0.11839202046394348, 
                -0.26145249605178833, 
                -0.36796486377716064, 
                -0.38138002157211304, 
                -0.1378931999206543, 
                -0.36160343885421753, 
                -0.02343410812318325, 
                -0.025629505515098572, 
                0.10044270753860474, 
                0.052548911422491074, 
                0.07653623074293137, 
                -0.031845975667238235, 
                0.16916070878505707
            ]
        }, 
        "Node_91": {
            "bias": -0.1569170206785202, 
            "weights": [
                -0.20921409130096436, 
                0.043692998588085175, 
                0.011033054441213608, 
                0.044915419071912766, 
                -0.015646127983927727, 
                -0.07109872996807098, 
                -0.08513253182172775, 
                0.01121368445456028, 
                0.10232904553413391, 
                -0.0018427515169605613, 
                0.004098353907465935, 
                -0.032863352447748184, 
                0.027999751269817352, 
                -0.08162444829940796, 
                -0.07412730157375336, 
                -0.16295799612998962, 
                -0.23256146907806396, 
                -0.03884878754615784, 
                -0.11277102679014206, 
                0.12427479773759842, 
                0.21132899820804596, 
                -0.17357777059078217, 
                0.04439392685890198, 
                0.00755899166688323, 
                -0.09824085980653763, 
                -0.10849138349294662, 
                -0.40192294120788574, 
                -0.1382586508989334, 
                0.28049471974372864, 
                -0.15754163265228271, 
                0.12526462972164154, 
                -0.045419298112392426, 
                -0.040674515068531036, 
                0.06761051714420319, 
                -0.16666506230831146, 
                -0.14736142754554749, 
                -0.006239027716219425, 
                -0.1134580448269844, 
                -0.02429589256644249, 
                0.0009870484936982393, 
                -0.015558748506009579, 
                -0.08213658630847931, 
                0.08171010762453079, 
                -0.04698760434985161, 
                -0.2391086369752884, 
                0.056394629180431366, 
                -0.053028371185064316, 
                -0.16020788252353668, 
                -0.15104015171527863, 
                -0.11857739835977554, 
                -0.12283521890640259, 
                0.11993370950222015, 
                0.21472549438476562, 
                -0.08957260847091675, 
                -0.04911310225725174, 
                -0.08487027138471603, 
                -0.14664742350578308, 
                -0.07396245747804642, 
                0.07128528505563736, 
                -0.07342013716697693, 
                0.058815982192754745, 
                0.01115538738667965, 
                0.10706917941570282, 
                0.0886373445391655, 
                0.11272810399532318, 
                0.12540435791015625, 
                0.009222537279129028, 
                -0.07757500559091568, 
                -0.11318742483854294, 
                -0.17997075617313385, 
                -0.14777261018753052, 
                -0.029530497267842293, 
                0.16838081181049347, 
                -0.20451870560646057, 
                -0.06348444521427155, 
                -0.015001041814684868, 
                0.053842972964048386, 
                0.07476455718278885, 
                -0.1635587066411972, 
                -0.16819439828395844, 
                0.11092162132263184, 
                -0.15867727994918823, 
                0.04897788166999817, 
                -0.00305938720703125, 
                -0.20938315987586975, 
                0.2649003863334656, 
                -0.22141414880752563, 
                0.06526357680559158, 
                0.14661990106105804, 
                -0.3518062233924866, 
                -0.14697253704071045, 
                0.1188168078660965, 
                -0.08082277327775955, 
                0.0304412841796875, 
                -0.042718302458524704, 
                -0.16500575840473175, 
                -0.045397572219371796, 
                -0.19648976624011993, 
                -0.3215573728084564, 
                0.04999134689569473, 
                -0.06547334790229797, 
                -0.14950396120548248, 
                0.09859398007392883, 
                -0.1289677768945694, 
                -0.022154532372951508, 
                -0.030009664595127106, 
                0.26428771018981934, 
                -0.04295487701892853, 
                -0.16692210733890533, 
                -0.055693332105875015, 
                0.04158506542444229, 
                -0.11245594918727875, 
                0.08584929257631302, 
                0.08774839341640472, 
                0.3501777648925781, 
                0.007882854901254177, 
                -0.024411862716078758, 
                -0.3048856854438782, 
                -0.07234760373830795, 
                0.1141602098941803, 
                -0.12556371092796326, 
                0.029271338135004044, 
                0.005241844337433577, 
                0.044300444424152374, 
                0.0976790338754654, 
                -0.09938960522413254, 
                -0.126020610332489, 
                0.12709766626358032, 
                -0.09557417035102844, 
                0.006326878909021616, 
                0.199173241853714, 
                -0.05490566045045853, 
                -0.0032916120253503323, 
                -0.01599309779703617, 
                0.06672437489032745, 
                -0.3211158215999603, 
                -0.02229008823633194, 
                0.12401853501796722, 
