{
    "Layer_1": {
        "Node_19": {
            "bias": -0.014190392568707466, 
            "weights": [
                0.02902800962328911, 
                -0.14017075300216675, 
                -0.03773849457502365, 
                -0.04006321355700493, 
                0.05309514328837395, 
                -0.1399989277124405, 
                0.06922885775566101, 
                0.017603252083063126, 
                0.029622741043567657, 
                0.009221458807587624, 
                -0.1659781038761139, 
                0.09911145269870758, 
                -0.10058911144733429, 
                -0.09812310338020325, 
                0.14679378271102905, 
                0.06997665762901306, 
                0.10745348036289215, 
                0.011710786260664463, 
                -0.011360949836671352, 
                0.06434668600559235, 
                -0.10872095078229904, 
                0.08140747249126434, 
                0.042010754346847534, 
                -0.09100451320409775, 
                0.06734705716371536, 
                -0.13127927482128143, 
                0.09055045247077942, 
                0.08450858294963837, 
                -0.08735541999340057, 
                0.06143943592905998, 
                -0.006544172763824463, 
                -0.126241996884346, 
                -0.08023397624492645, 
                0.07260147482156754, 
                -0.0975356176495552, 
                0.09610840678215027, 
                0.12763726711273193, 
                0.1298840194940567, 
                0.11273277550935745, 
                0.10804779827594757, 
                -0.08967261016368866, 
                0.14155317842960358, 
                0.12427273392677307, 
                0.1015784740447998, 
                -0.05401831865310669, 
                -0.0656035989522934, 
                0.08712823688983917, 
                -0.1416931450366974, 
                -0.09248101711273193, 
                -0.11429169028997421, 
                -0.03611251711845398, 
                0.09930571168661118, 
                0.14911144971847534, 
                -0.020448528230190277, 
                -0.111679807305336, 
                -0.09144620597362518, 
                -0.010274764150381088, 
                -0.1434401124715805, 
                -0.17288629710674286, 
                0.11329153925180435, 
                -0.10771079361438751, 
                -0.09872858226299286, 
                -0.09158576279878616, 
                0.08980131894350052, 
                0.13185563683509827, 
                0.012189812026917934, 
                0.10036711394786835, 
                -0.1201673373579979, 
                -0.055672820657491684, 
                -0.034942422062158585, 
                -0.009817976504564285, 
                -0.02874147891998291, 
                -0.07127804309129715, 
                -0.0700620487332344, 
                -0.005263165105134249, 
                -0.13530884683132172, 
                -0.11987952142953873, 
                -0.10283321142196655, 
                -0.06933896988630295, 
                0.11391207575798035, 
                -0.12362541258335114, 
                -0.11641815304756165, 
                -0.07865191996097565, 
                0.11805861443281174, 
                -0.05938725173473358, 
                0.07398416846990585, 
                0.12422479689121246, 
                -0.15698081254959106, 
                0.08125020563602448, 
                -0.14094272255897522, 
                -0.030983081087470055, 
                0.07573455572128296, 
                -0.050719842314720154, 
                0.14254678785800934, 
                0.02433447539806366, 
                -0.08519388735294342, 
                -0.107865110039711, 
                0.06845450401306152, 
                -0.06530521810054779, 
                -0.14766813814640045, 
                0.03540933132171631, 
                -0.051379308104515076, 
                -0.03402305766940117, 
                0.02057872898876667, 
                0.08384204655885696, 
                -0.07529029995203018, 
                -0.028026387095451355, 
                -0.1751958727836609, 
                0.03744511306285858, 
                0.13668939471244812, 
                -0.1536911129951477, 
                0.0006626693066209555, 
                -0.04174510017037392, 
                -0.08804404735565186, 
                -0.08633331209421158, 
                -0.14262185990810394, 
                -0.16001765429973602, 
                0.11399683356285095, 
                -0.024098515510559082, 
                0.1107916608452797, 
                -0.04451410472393036, 
                0.08772701025009155, 
                0.11875367164611816, 
                0.13935121893882751, 
                0.059229448437690735, 
                -0.13654197752475739, 
                0.1180410087108612, 
                -0.08813357353210449, 
                0.05220898985862732, 
                -0.06860803812742233, 
                -0.06054991856217384, 
                -0.11421303451061249, 
                0.0786433219909668, 
                0.11582597345113754, 
                -0.1482841521501541, 
                -0.015653451904654503, 
                0.002670533722266555, 
                -0.012773149646818638, 
                -0.16893619298934937, 
                -0.056088510900735855, 
                0.10132972151041031, 
                0.025754891335964203, 
                -0.13864962756633759, 
                -0.00037198426434770226, 
                -0.037025753408670425, 
                -0.0004963610554113984, 
                -0.09388464689254761, 
                -0.1039554551243782, 
                -0.050808049738407135, 
                -0.10287149995565414
            ]
        }, 
        "Node_18": {
            "bias": -0.0657862052321434, 
            "weights": [
                0.09172020107507706, 
                -0.1952403038740158, 
                -0.2140844613313675, 
                -0.13615082204341888, 
                -0.2783886194229126, 
                0.2582390308380127, 
                0.11451410502195358, 
                -0.165118008852005, 
                0.06661459803581238, 
                -0.05750878155231476, 
                -0.027277132496237755, 
                -0.1023300290107727, 
                0.0761064812541008, 
                0.11973435431718826, 
                0.06617123633623123, 
                -0.06700555980205536, 
                0.09229539334774017, 
                -0.15676599740982056, 
                -0.2364925593137741, 
                -0.0686165913939476, 
                -0.026709385216236115, 
                -0.28246405720710754, 
                -0.033799681812524796, 
                0.07562565803527832, 
                0.11395286023616791, 
                -0.029314348474144936, 
                -0.0012507840292528272, 
                0.02205195091664791, 
                -0.1328067183494568, 
                -0.034532129764556885, 
                -0.04929862543940544, 
                0.023516323417425156, 
                0.080656997859478, 
                0.017521768808364868, 
                -0.1335470825433731, 
                -0.10982617735862732, 
                -0.15979903936386108, 
                0.0812874287366867, 
                0.07634613662958145, 
                0.18754732608795166, 
                -0.09424612671136856, 
                -0.06653429567813873, 
                -0.013086531311273575, 
                -0.030019422993063927, 
                -0.27974963188171387, 
                -0.2804013192653656, 
                0.07055408507585526, 
                0.11840267479419708, 
                -0.12584392726421356, 
                -0.1520402729511261, 
                0.11778351664543152, 
                0.007681099232286215, 
                -0.07852675765752792, 
                -0.07834368944168091, 
                -0.12953858077526093, 
                -0.10281766206026077, 
                -0.005440255161374807, 
                -0.14037097990512848, 
                -0.1333632618188858, 
                -0.06327106803655624, 
                -0.18987774848937988, 
                0.10794816166162491, 
                -0.12631109356880188, 
                -0.06967499852180481, 
                -0.15986712276935577, 
                0.07633000612258911, 
                -0.018854185938835144, 
                -0.19843517243862152, 
                -0.15633395314216614, 
                0.1418222188949585, 
                -0.18725676834583282, 
                -0.19960032403469086, 
                -0.17284652590751648, 
                0.07581627368927002, 
                -0.3367980420589447, 
                0.1491854339838028, 
                0.041744500398635864, 
                -0.051537659019231796, 
                -0.10885220766067505, 
                -0.09701698273420334, 
                0.0026096676010638475, 
                -0.09561430662870407, 
                -0.1379014402627945, 
                0.09649695456027985, 
                -0.02818378061056137, 
                -0.09646329283714294, 
                -0.06377977132797241, 
                0.11411712318658829, 
                -0.07078584283590317, 
                0.11793237924575806, 
                0.19840072095394135, 
                -0.1573958396911621, 
                0.09999555349349976, 
                -0.007461845874786377, 
                -0.04540955647826195, 
                0.03357630968093872, 
                0.08418696373701096, 
                -0.13118977844715118, 
                0.0006207904079928994, 
                -0.040132977068424225, 
                0.08798657357692719, 
                -0.05350549891591072, 
                0.07561005651950836, 
                -0.1509004831314087, 
                -0.24065262079238892, 
                0.014662785455584526, 
                -0.09860918670892715, 
                0.18510589003562927, 
                -0.01453082263469696, 
                -0.03930533304810524, 
                -0.2739361524581909, 
                0.05360407009720802, 
                -0.04505934193730354, 
                -0.1728706657886505, 
                -0.06401456147432327, 
                0.09639761596918106, 
                -0.011279557831585407, 
                -0.017454667016863823, 
                0.11359060555696487, 
                -0.08209222555160522, 
                -0.012543931603431702, 
                -0.07694124430418015, 
                -0.04255294054746628, 
                0.024837158620357513, 
                -0.02985648810863495, 
                0.008850112557411194, 
                -0.07923882454633713, 
                -0.0312521755695343, 
                -0.018049277365207672, 
                -0.039563994854688644, 
                0.034128595143556595, 
                -0.09358549118041992, 
                -0.39610207080841064, 
                -0.13345257937908173, 
                0.10578222572803497, 
                0.11023767292499542, 
                -0.12866505980491638, 
                -0.014637376181781292, 
                -0.06658975780010223, 
                -0.1375974863767624, 
                0.04956948757171631, 
                -0.17408613860607147, 
                -0.025199897587299347, 
                0.04694144427776337, 
                0.016981832683086395, 
                -0.10712996870279312, 
                -0.7204516530036926, 
                -0.003841372672468424, 
                0.04882122576236725, 
                0.010847614146769047
            ]
        }, 
        "Node_17": {
            "bias": -0.4392395615577698, 
            "weights": [
                -0.06006322428584099, 
                -0.07704849541187286, 
                -0.001095352927222848, 
                0.1455996036529541, 
                -0.01851492188870907, 
                -0.0032133846543729305, 
                -0.269596666097641, 
                -0.1431390792131424, 
                -0.15730831027030945, 
                -0.11622124910354614, 
                -0.1290348619222641, 
                -0.01704476773738861, 
                -0.08685667812824249, 
                -0.11779192090034485, 
                -0.15219756960868835, 
                -0.01621069200336933, 
                -0.08292156457901001, 
                -0.02920476347208023, 
                -0.012281372211873531, 
                0.2220863252878189, 
                0.02502402849495411, 
                0.05875494331121445, 
                0.20777826011180878, 
                -0.00302764680236578, 
                -0.1360863447189331, 
                0.0867740660905838, 
                0.042564891278743744, 
                -0.08850566297769547, 
                0.022407710552215576, 
                0.02608698233962059, 
                0.0006301263929344714, 
                0.03670736029744148, 
                -0.18879470229148865, 
                -0.0032466743141412735, 
                -0.1642264574766159, 
                -0.055319782346487045, 
                -0.0460880808532238, 
                -0.13215667009353638, 
                0.12019209563732147, 
                0.029453789815306664, 
                -0.02767777070403099, 
                -0.0651293471455574, 
                -0.2092774659395218, 
                -0.002861338434740901, 
                0.04282120615243912, 
                0.23644699156284332, 
                -0.032621487975120544, 
                -0.15691044926643372, 
                -0.2958362400531769, 
                0.14731423556804657, 
                0.033723145723342896, 
                0.09019198268651962, 
                -0.10662715137004852, 
                -0.00035726247006095946, 
                -0.1805158406496048, 
                -0.160707026720047, 
                -0.15574099123477936, 
                0.009486610069870949, 
                0.12288634479045868, 
                0.023993125185370445, 
                -0.06721130013465881, 
                -0.22130104899406433, 
                -0.28129342198371887, 
                -0.047859665006399155, 
                -0.20102058351039886, 
                0.041315462440252304, 
                -0.09569060057401657, 
                -0.0420098714530468, 
                -0.04866701737046242, 
                0.08335861563682556, 
                0.1720389872789383, 
                0.05151035636663437, 
                0.07706297934055328, 
                0.0642147809267044, 
                0.033117491751909256, 
                -0.17801295220851898, 
                -0.07068228721618652, 
                -0.11885875463485718, 
                0.056604500859975815, 
                0.006264744326472282, 
                -0.15170271694660187, 
                0.11875554919242859, 
                -0.133369579911232, 
                0.009700510650873184, 
                0.13424916565418243, 
                -0.37979739904403687, 
                -0.19882948696613312, 
                -0.20282544195652008, 
                -0.09849665313959122, 
                -0.10633176565170288, 
                -0.0011862030951306224, 
                0.1099165827035904, 
                0.0426613949239254, 
                -0.06943246722221375, 
                0.13808491826057434, 
                0.06983186304569244, 
                -0.021619589999318123, 
                -0.15304788947105408, 
                -0.040252432227134705, 
                0.07527492195367813, 
                0.12607558071613312, 
                0.09071815013885498, 
                0.14260533452033997, 
                -0.09852611273527145, 
                0.02212909236550331, 
                -0.03702631965279579, 
                0.001941137365065515, 
                -0.12928761541843414, 
                0.07931823283433914, 
                -0.013200698420405388, 
                0.15516814589500427, 
                -0.08030389994382858, 
                0.049568869173526764, 
                -0.1540295034646988, 
                -0.13971398770809174, 
                0.024943647906184196, 
                0.0787845253944397, 
                -0.04457287862896919, 
                0.051056891679763794, 
                0.1283198595046997, 
                -0.1633652001619339, 
                0.21311473846435547, 
                -0.07253751158714294, 
                -0.25848299264907837, 
                -0.03628934919834137, 
                0.0788113921880722, 
                -0.14728742837905884, 
                -0.015165992081165314, 
                -0.058923203498125076, 
                0.0057521481066942215, 
                0.03795254975557327, 
                -0.05902671813964844, 
                -0.12443345785140991, 
                0.12000065296888351, 
                -0.07147417217493057, 
                0.15423551201820374, 
                0.06097321957349777, 
                -0.18342198431491852, 
                -0.3267804682254791, 
                -0.22097481787204742, 
                0.032651953399181366, 
                -0.05818561837077141, 
                0.04971197247505188, 
                0.07170931994915009, 
                -0.10179579257965088, 
                0.06615292280912399, 
                -0.43471869826316833, 
                0.0735320895910263, 
                -0.03148863837122917, 
                0.0373125858604908
            ]
        }, 
        "Node_16": {
            "bias": -0.0007785542984493077, 
            "weights": [
                -0.05670619383454323, 
                -0.14915385842323303, 
                -0.10742254555225372, 
                -0.010878024622797966, 
                -0.005120761692523956, 
                -0.14127139747142792, 
                0.0641109049320221, 
                -0.07613030821084976, 
                0.0016306648030877113, 
                0.14681263267993927, 
                0.01835855096578598, 
                -0.14405183494091034, 
                -0.12879711389541626, 
                -0.016071923077106476, 
                0.03710363805294037, 
                0.06736930459737778, 
                0.0215151309967041, 
                -0.03954903036355972, 
                0.08251693844795227, 
                -0.1499224454164505, 
                0.01096312701702118, 
                -0.04977363348007202, 
                0.018576383590698242, 
                -0.08350016176700592, 
                -0.047518230974674225, 
                0.02138359844684601, 
                0.11896341294050217, 
                0.08823232352733612, 
                -0.0370229035615921, 
                -0.12418094277381897, 
                0.07211257517337799, 
                0.09651672095060349, 
                -0.09916719049215317, 
                -0.09013386815786362, 
                -0.09628449380397797, 
                -0.11888070404529572, 
                0.0647573247551918, 
                0.13117052614688873, 
                0.11782906949520111, 
                0.038254350423812866, 
                -0.11771657317876816, 
                -0.08342164009809494, 
                -0.008872836828231812, 
                -0.1478026658296585, 
                -0.12128302454948425, 
                0.09394935518503189, 
                0.0013990849256515503, 
                0.0424828827381134, 
                0.13406632840633392, 
                0.07249248027801514, 
                0.11064928770065308, 
                -0.03755572438240051, 
                0.04645441472530365, 
                -0.06151491776108742, 
                -0.017394237220287323, 
                0.10652532428503036, 
                0.10007940977811813, 
                0.12326449155807495, 
                -0.0713939443230629, 
                -0.10570356994867325, 
                -0.08772268146276474, 
                -0.048982322216033936, 
                0.07171065360307693, 
                -0.0024556899443268776, 
                -0.09380905330181122, 
                -0.14418843388557434, 
                0.010590597987174988, 
                -0.009497535414993763, 
                -0.1707100123167038, 
                0.11908713728189468, 
                0.033423688262701035, 
                0.13539299368858337, 
                0.08457119017839432, 
                0.05098947882652283, 
                0.12301921844482422, 
                -0.08364886045455933, 
                -0.15923680365085602, 
                -0.14714281260967255, 
                -0.015995724126696587, 
                -0.14034539461135864, 
                0.04563073441386223, 
                -0.01859317533671856, 
                -0.07340449839830399, 
                -0.10995583981275558, 
                -0.12807942926883698, 
                -0.06239232048392296, 
                -0.008909910917282104, 
                0.08192500472068787, 
                0.08354189991950989, 
                0.03888128325343132, 
                -0.09344439953565598, 
                -0.0805772989988327, 
                0.010912507772445679, 
                0.0693105161190033, 
                -0.08817368745803833, 
                0.10687889158725739, 
                0.007753589190542698, 
                0.05818657577037811, 
                0.026534274220466614, 
                -0.007356171030551195, 
                -0.15812404453754425, 
                -0.026843324303627014, 
                0.09092850983142853, 
                0.06164482235908508, 
                0.03421288728713989, 
                0.03637382388114929, 
                -0.14285634458065033, 
                -0.00022588252613786608, 
                -0.02307063154876232, 
                -0.013808815740048885, 
                0.07002805918455124, 
                0.027375489473342896, 
                -0.08556564152240753, 
                0.0478522852063179, 
                0.002306265290826559, 
                -0.11247609555721283, 
                0.04738856106996536, 
                -0.09753851592540741, 
                0.030003011226654053, 
                -0.048414215445518494, 
                -0.07790222018957138, 
                -0.03301383554935455, 
                -0.09510569274425507, 
                0.0843413919210434, 
                -0.13917312026023865, 
                0.008579075336456299, 
                0.05249430239200592, 
                0.034964900463819504, 
                -0.15601791441440582, 
                0.07336154580116272, 
                -0.07579614967107773, 
                -0.06438969075679779, 
                -0.01980210840702057, 
                0.03801652044057846, 
                -0.05002318695187569, 
                -0.08669555932283401, 
                -0.15146616101264954, 
                -0.06857223808765411, 
                -0.15507063269615173, 
                -0.015436552464962006, 
                0.062248338013887405, 
                -0.14441122114658356, 
                -0.00349503755569458, 
                -0.13092927634716034, 
                0.10011203587055206, 
                -0.019892554730176926, 
                -0.14890539646148682, 
                0.08953601121902466, 
                -0.09823518991470337, 
                0.080443374812603
            ]
        }, 
        "Node_15": {
            "bias": 0.8653457164764404, 
            "weights": [
                0.04866940155625343, 
                -0.12334472686052322, 
                0.09848108142614365, 
                -0.08871051669120789, 
                0.0490376353263855, 
                0.013824897818267345, 
                -0.10142900049686432, 
                0.19957110285758972, 
                0.1370767205953598, 
                -0.037667881697416306, 
                -0.10913929343223572, 
                -0.04744114726781845, 
                -0.03166595846414566, 
                0.12613502144813538, 
                0.04638276621699333, 
                0.12218750268220901, 
                0.04009319841861725, 
                -0.14846082031726837, 
                -0.10523854941129684, 
                -0.08414904028177261, 
                -0.03746083006262779, 
                0.08415760099887848, 
                0.2798651158809662, 
                -0.04683992639183998, 
                0.024423036724328995, 
                0.1560983955860138, 
                -0.02314719744026661, 
                -0.051807090640068054, 
                0.14337560534477234, 
                -0.046925757080316544, 
                0.06645891815423965, 
                0.016122901812195778, 
                -0.060986604541540146, 
                0.10074678063392639, 
                0.11419348418712616, 
                -0.181589275598526, 
                -0.11901026219129562, 
                -0.19349676370620728, 
                0.0654420256614685, 
                0.21666552126407623, 
                0.06500410288572311, 
                -0.06410364806652069, 
                0.0570162758231163, 
                0.1031188815832138, 
                0.030489463359117508, 
                -0.24412009119987488, 
                0.13758957386016846, 
                0.07935959845781326, 
                0.2522808611392975, 
                0.09543833136558533, 
                0.10344033688306808, 
                -0.002503156429156661, 
                -0.11104004085063934, 
                -0.10714457184076309, 
                -0.010832509025931358, 
                0.17534281313419342, 
                -0.0763322040438652, 
                0.09229817241430283, 
                0.0300119761377573, 
                -0.1461172103881836, 
                0.18739087879657745, 
                0.19599196314811707, 
                -0.022906744852662086, 
                -0.04430529102683067, 
                0.2035110890865326, 
                -0.1411750763654709, 
                0.03846469148993492, 
                0.22686265408992767, 
                0.0199340358376503, 
                -0.16707387566566467, 
                -0.0792434811592102, 
                0.45222383737564087, 
                -0.12113071978092194, 
                0.15874963998794556, 
                0.06666543334722519, 
                -0.05388680845499039, 
                -0.0012667971896007657, 
                0.19352073967456818, 
                -0.12566697597503662, 
                -0.11978527903556824, 
                -0.053911950439214706, 
                0.13493746519088745, 
                0.17059092223644257, 
                -0.16128283739089966, 
                -0.036857232451438904, 
                -0.11335092037916183, 
                -0.042606864124536514, 
                -0.1100178062915802, 
                0.11707902699708939, 
                -0.04448352009057999, 
                0.04814799875020981, 
                -0.06549172103404999, 
                -0.08478216081857681, 
                0.022568944841623306, 
                0.014141851104795933, 
                -0.0832149088382721, 
                -0.06228137016296387, 
                -0.061928823590278625, 
                0.03615954518318176, 
                -0.11174890398979187, 
                -0.09098990261554718, 
                0.011526063084602356, 
                -0.10728021711111069, 
                0.015666063874959946, 
                0.010399261489510536, 
                0.06676936149597168, 
                0.11895966529846191, 
                -0.07830426841974258, 
                0.1737503558397293, 
                -0.09614478796720505, 
                0.07938805222511292, 
                -0.12793272733688354, 
                0.09641633927822113, 
                -0.03453758358955383, 
                0.045857544988393784, 
                -0.010376406833529472, 
                -0.05762636289000511, 
                0.08851119875907898, 
                0.12719999253749847, 
                0.04839212819933891, 
                -0.032961320132017136, 
                0.007797177415341139, 
                -0.06661728024482727, 
                0.1403820961713791, 
                -0.11748498678207397, 
                0.14872698485851288, 
                -0.10651470720767975, 
                0.05998363718390465, 
                0.06588786840438843, 
                0.03906409069895744, 
                0.04959940165281296, 
                0.05428292229771614, 
                0.1353343278169632, 
                -0.10933957993984222, 
                -0.11082737892866135, 
                -0.05759498476982117, 
                -0.17793108522891998, 
                0.09766951203346252, 
                -0.004980366211384535, 
                0.19751395285129547, 
                -0.17828641831874847, 
                -0.006090244743973017, 
                0.0908752977848053, 
                0.11766409873962402, 
                0.028727827593684196, 
                -0.07062546163797379, 
                -0.12216949462890625, 
                0.07207318395376205, 
                -0.023386582732200623, 
                0.0340583436191082
            ]
        }, 
        "Node_14": {
            "bias": -0.22324544191360474, 
            "weights": [
                -0.12198778241872787, 
                -0.004151129629462957, 
                0.10721620172262192, 
                0.1884075552225113, 
                0.11114078760147095, 
                -0.21398302912712097, 
                0.009917780756950378, 
                0.06448005884885788, 
                0.05350009724497795, 
                -0.07236550003290176, 
                -0.17105868458747864, 
                0.05259004235267639, 
                0.11977297812700272, 
                -0.09025593101978302, 
                -0.0072164833545684814, 
                -0.05948324128985405, 
                0.041247814893722534, 
                -0.16360296308994293, 
                -0.10638205707073212, 
                -0.02210291288793087, 
                0.11287714540958405, 
                -0.18218928575515747, 
                0.23958657681941986, 
                0.061845242977142334, 
                0.1771690994501114, 
                -0.25403696298599243, 
                -0.002935834228992462, 
                0.04088743031024933, 
                0.034341223537921906, 
                0.1421053260564804, 
                -0.02174675278365612, 
                0.047984108328819275, 
                0.27032965421676636, 
                0.10067879408597946, 
                -0.13931676745414734, 
                0.024050425738096237, 
                0.012986692599952221, 
                0.06617815047502518, 
                0.044299401342868805, 
                0.12111896276473999, 
                -0.002467794343829155, 
                -0.1410045474767685, 
                -0.28561946749687195, 
                -0.020000601187348366, 
                -0.07785507291555405, 
                0.018620537593960762, 
                -0.0018828577594831586, 
                0.1592540293931961, 
                0.01591900922358036, 
                -0.004112782888114452, 
                -0.08919945359230042, 
                -0.12211168557405472, 
                0.08838112652301788, 
                -0.14956742525100708, 
                0.05634237825870514, 
                0.06768541783094406, 
                -0.10982976853847504, 
                0.014230834320187569, 
                -0.04249374195933342, 
                0.16639827191829681, 
                0.5852082371711731, 
                0.0874028429389, 
                0.025280853733420372, 
                -0.10267499834299088, 
                -0.10905476659536362, 
                -0.11035003513097763, 
                0.022315138950943947, 
                0.02943790704011917, 
                0.06812645494937897, 
                -0.15767976641654968, 
                -0.0925808772444725, 
                -0.032983358949422836, 
                -0.13000108301639557, 
                -0.0375162735581398, 
                -0.04268636181950569, 
                0.19910046458244324, 
                -0.1542665660381317, 
                -0.23022903501987457, 
                0.06718924641609192, 
                0.0036726200487464666, 
                0.07472287118434906, 
                0.08812166005373001, 
                -0.11363770067691803, 
                0.04143592342734337, 
                -0.2166246920824051, 
                0.04606405645608902, 
                -0.1483764499425888, 
                -0.038656603544950485, 
                0.12296303361654282, 
                0.02520175091922283, 
                -0.2464822381734848, 
                -0.13219855725765228, 
                0.14220356941223145, 
                0.0736670047044754, 
                -0.023164283484220505, 
                0.003320366144180298, 
                -0.14186309278011322, 
                0.11055727303028107, 
                0.08496163785457611, 
                -0.05368971824645996, 
                0.03628835827112198, 
                -0.06589215248823166, 
                0.0148025406524539, 
                0.057099588215351105, 
                -0.23061467707157135, 
                0.015523485839366913, 
                0.02738618664443493, 
                -0.05449249595403671, 
                0.02175658568739891, 
                -0.0332488939166069, 
                0.02786174602806568, 
                0.13033822178840637, 
                -0.019615884870290756, 
                -0.08694812655448914, 
                -0.2010122537612915, 
                0.004971640184521675, 
                -0.12147697061300278, 
                -0.05766957253217697, 
                0.059938542544841766, 
                0.08048858493566513, 
                -0.2411099523305893, 
                -0.019038349390029907, 
                -0.15624766051769257, 
                0.16851374506950378, 
                -0.11122632026672363, 
                0.023044461384415627, 
                0.00552579527720809, 
                0.011831264942884445, 
                -0.06455802917480469, 
                0.034506719559431076, 
                -0.1351735144853592, 
                0.06426471471786499, 
                -0.1591213047504425, 
                0.1418481320142746, 
                -0.08132995665073395, 
                0.13102640211582184, 
                0.0024781150277704, 
                -0.10710805654525757, 
                0.06913682073354721, 
                -0.1207350566983223, 
                0.1196548193693161, 
                -0.12549127638339996, 
                0.004567692056298256, 
                0.013822576962411404, 
                -0.10775649547576904, 
                -0.14928625524044037, 
                0.20314648747444153, 
                -0.15910007059574127, 
                -0.1093980222940445, 
                -0.11421635746955872
            ]
        }, 
        "Node_13": {
            "bias": -0.05054956302046776, 
            "weights": [
                -0.022252429276704788, 
                -0.005407621618360281, 
                -0.011462857946753502, 
                0.07686010003089905, 
                0.05243749916553497, 
                0.042937710881233215, 
                0.06401286274194717, 
                -0.13657136261463165, 
                -0.024512456730008125, 
                0.07390810549259186, 
                0.1015109196305275, 
                -0.035679467022418976, 
                -0.07695487886667252, 
                0.03711720556020737, 
                -0.03427904099225998, 
                0.04413360357284546, 
                0.09556026756763458, 
                -0.03353726863861084, 
                -0.03300749510526657, 
                0.06926379352807999, 
                -0.013975337147712708, 
                -0.10312389582395554, 
                0.08803796768188477, 
                -0.06399185210466385, 
                0.09949305653572083, 
                0.05284746363759041, 
                -0.1587480753660202, 
                -0.011433156207203865, 
                -0.07321102172136307, 
                0.04156310856342316, 
                -0.20792771875858307, 
                -0.15308721363544464, 
                -0.013306193985044956, 
                -0.014395692385733128, 
                0.026326024904847145, 
                -0.11380508542060852, 
                -0.18359684944152832, 
                -0.10596849024295807, 
                0.050792817026376724, 
                -0.047808729112148285, 
                -0.10801777243614197, 
                -0.09279552102088928, 
                0.09319310635328293, 
                -0.0690554678440094, 
                0.015206887386739254, 
                -0.09654412418603897, 
                -0.016415491700172424, 
                -0.08816175162792206, 
                0.12663908302783966, 
                -0.11930745840072632, 
                -0.11674211919307709, 
                -0.03149602934718132, 
                0.045561667531728745, 
                0.17252236604690552, 
                0.16233955323696136, 
                -0.13512353599071503, 
                -0.12474256008863449, 
                -0.07020105421543121, 
                -0.1786603331565857, 
                -0.10126537829637527, 
                0.10079336166381836, 
                -0.024858728051185608, 
                -0.012351196259260178, 
                -0.193526491522789, 
                0.1327543556690216, 
                0.04186364263296127, 
                0.1305873543024063, 
                -0.13799430429935455, 
                0.015214771963655949, 
                -0.05227256566286087, 
                0.058695029467344284, 
                0.07810506224632263, 
                -0.07891833782196045, 
                0.04647060111165047, 
                -0.10368268936872482, 
                -0.18307170271873474, 
                -0.12027853727340698, 
                0.11644738167524338, 
                0.06535866111516953, 
                -0.04445527121424675, 
                0.08935382962226868, 
                -0.1311980038881302, 
                0.12686996161937714, 
                -0.06117083504796028, 
                0.10303760319948196, 
                0.14334256947040558, 
                -0.07751759886741638, 
                -0.09458988904953003, 
                0.18136873841285706, 
                0.03020734339952469, 
                -0.15084359049797058, 
                -0.1164998784661293, 
                0.10633822530508041, 
                -0.08099988102912903, 
                -0.16053283214569092, 
                -0.06328040361404419, 
                0.11795986443758011, 
                0.007072478532791138, 
                -0.11811134219169617, 
                0.0017688097432255745, 
                0.019178850576281548, 
                -0.1376020610332489, 
                -0.01672428473830223, 
                -0.1099342331290245, 
                0.0205023642629385, 
                -0.03952036425471306, 
                -0.09939847886562347, 
                -0.17726531624794006, 
                0.11990301311016083, 
                0.03883182257413864, 
                0.024875765666365623, 
                0.07603242993354797, 
                -0.08153361827135086, 
                -0.1072443276643753, 
                -0.07040227204561234, 
                -0.10946312546730042, 
                -0.02649657242000103, 
                -0.1828201413154602, 
                -0.06679213792085648, 
                -0.1054668128490448, 
                0.060868021100759506, 
                0.10208683460950851, 
                -0.056011151522397995, 
                0.12022361904382706, 
                0.011506229639053345, 
                0.0030369218438863754, 
                0.06124439463019371, 
                0.028117559850215912, 
                -0.082879938185215, 
                -0.114814892411232, 
                -0.05394689366221428, 
                -0.10838163644075394, 
                0.047955602407455444, 
                0.04587998986244202, 
                -0.21932071447372437, 
                0.019567416980862617, 
                0.034440215677022934, 
                -0.01532004028558731, 
                0.017191695049405098, 
                -0.0670461654663086, 
                -0.018102558329701424, 
                0.09947820752859116, 
                -0.15243759751319885, 
                -0.19936151802539825, 
                -0.06337931752204895, 
                -0.06735671311616898, 
                -0.029147515073418617, 
                -0.09363354742527008, 
                -0.00833160150796175, 
                -0.09621506184339523
            ]
        }, 
        "Node_12": {
            "bias": -0.25691109895706177, 
            "weights": [
                -0.06569167226552963, 
                0.09566859155893326, 
                -0.23286448419094086, 
                -0.008367801085114479, 
                -0.0008836269262246788, 
                -0.09635841846466064, 
                -0.15692389011383057, 
                -0.11893938481807709, 
                -0.3402721881866455, 
                0.08271832019090652, 
                -0.01772419363260269, 
                0.06443287432193756, 
                0.006320614833384752, 
                -0.08486440032720566, 
                0.09833908081054688, 
                -0.09366908669471741, 
                0.01659533381462097, 
                0.11605224758386612, 
                0.03073703497648239, 
                -0.07080026715993881, 
                0.1505586802959442, 
                -0.05769195407629013, 
                -0.08736279606819153, 
                -0.007101457100361586, 
                0.07229126989841461, 
                -0.1809081882238388, 
                -0.07569612562656403, 
                -0.07667424529790878, 
                -0.028579097241163254, 
                0.009810413233935833, 
                -0.011432778090238571, 
                0.1064373031258583, 
                -0.1481044590473175, 
                0.03450848534703255, 
                0.10762819647789001, 
                -0.09387964755296707, 
                0.19546303153038025, 
                0.032689936459064484, 
                -0.004409018438309431, 
                0.06333418190479279, 
                0.14024648070335388, 
                -0.028864283114671707, 
                0.006465660873800516, 
                -0.16995884478092194, 
                -0.044897209852933884, 
                0.35529953241348267, 
                0.11527665704488754, 
                -0.0012347364099696279, 
                -0.1248202696442604, 
                -0.08557527512311935, 
                0.05632949620485306, 
                0.05789933726191521, 
                -0.025558311492204666, 
                0.31531351804733276, 
                -0.12413036823272705, 
                0.15591347217559814, 
                -0.07083969563245773, 
                -0.14662455022335052, 
                -0.03853503242135048, 
                -0.05836978554725647, 
                0.07616906613111496, 
                0.002441704273223877, 
                0.15302427113056183, 
                0.0588131844997406, 
                -0.14511620998382568, 
                -0.2072303295135498, 
                0.06655579060316086, 
                0.3378901481628418, 
                0.0422356016933918, 
                0.021172937005758286, 
                0.1320219784975052, 
                0.08555594086647034, 
                -0.0590093657374382, 
                -0.4069764316082001, 
                -0.08192673325538635, 
                -0.10753524303436279, 
                0.06241420656442642, 
                -0.35278502106666565, 
                -0.10110310465097427, 
                -0.03499413654208183, 
                -0.13669508695602417, 
                -0.14305585622787476, 
                0.026897747069597244, 
                -0.32367804646492004, 
                -0.08070362359285355, 
                -0.08255156874656677, 
                0.019673511385917664, 
                0.17655722796916962, 
                0.06464692950248718, 
                0.0556202307343483, 
                0.09810023009777069, 
                0.07796691358089447, 
                -0.3763362765312195, 
                0.13886955380439758, 
                0.1487317532300949, 
                -0.13405683636665344, 
                0.06577155739068985, 
                -0.04291911423206329, 
                0.02966376021504402, 
                -0.05407921224832535, 
                -0.0007343122852034867, 
                0.011887154541909695, 
                -0.0433073416352272, 
                0.13774198293685913, 
                -0.04580816626548767, 
                -0.031401313841342926, 
                0.17220811545848846, 
                0.20559464395046234, 
                0.06837037950754166, 
                -0.5067290663719177, 
                0.020890401676297188, 
                -0.047051820904016495, 
                -0.0005125633906573057, 
                -0.030734948813915253, 
                -0.16047413647174835, 
                0.05754595622420311, 
                -0.17496110498905182, 
                0.0349666103720665, 
                -0.02193087339401245, 
                0.12917490303516388, 
                0.200966939330101, 
                -0.11895642429590225, 
                0.08407551795244217, 
                -0.28738704323768616, 
                -0.1064143031835556, 
                -0.128773033618927, 
                -0.24701346457004547, 
                -0.1499132663011551, 
                0.03963260352611542, 
                -0.09766136854887009, 
                -0.04136885330080986, 
                -0.02970573678612709, 
                -0.01768866926431656, 
                0.024994367733597755, 
                -0.038229215890169144, 
                0.10856270790100098, 
                -0.07471327483654022, 
                0.10379084199666977, 
                -0.03104466199874878, 
                -0.21429279446601868, 
                0.014897006563842297, 
                -0.11181951314210892, 
                -0.003299411851912737, 
                -0.01176431868225336, 
                -0.08484967797994614, 
                -0.10619916766881943, 
                0.3032299876213074, 
                -0.05859949812293053, 
                -0.15782292187213898, 
                0.02021455578505993
            ]
        }, 
        "Node_11": {
            "bias": -0.004120544530451298, 
            "weights": [
                -0.11174983531236649, 
                0.039847180247306824, 
                -0.054381683468818665, 
                -0.1578473597764969, 
                -0.02100932039320469, 
                0.06531436741352081, 
                -0.06121249124407768, 
                -0.05657075345516205, 
                0.06037692725658417, 
                -0.02812179923057556, 
                -0.051339443773031235, 
                -0.09873814880847931, 
                -0.14432114362716675, 
                0.057564545422792435, 
                -0.11870917677879333, 
                -0.007729485630989075, 
                0.1093144565820694, 
                -0.11851434409618378, 
                -0.14878661930561066, 
                0.11579784750938416, 
                0.14158062636852264, 
                0.10861440002918243, 
                -0.09722541272640228, 
                -0.10849036276340485, 
                -0.07541492581367493, 
                -0.10564611852169037, 
                -0.0848752036690712, 
                0.03631656616926193, 
                0.11126447468996048, 
                -0.06921446323394775, 
                0.09875893592834473, 
                0.06574109196662903, 
                -0.05966578796505928, 
                -0.031668178737163544, 
                -0.14757244288921356, 
                -0.08147981762886047, 
                0.05116133391857147, 
                0.03389163315296173, 
                -0.08241496980190277, 
                0.027961699292063713, 
                0.08751736581325531, 
                0.01592661440372467, 
                -0.10068774223327637, 
                -0.056735824793577194, 
                0.06780598312616348, 
                0.08943559974431992, 
                0.05575798451900482, 
                -0.05854736268520355, 
                0.14238132536411285, 
                -0.033471379429101944, 
                0.08874247968196869, 
                -0.11077603697776794, 
                -0.1167161762714386, 
                0.14465396106243134, 
                -0.09413014352321625, 
                0.08582619577646255, 
                -0.04967748001217842, 
                -0.07096687704324722, 
                -0.0303110983222723, 
                0.030216185376048088, 
                -0.061606619507074356, 
                -0.08160769194364548, 
                -0.1430530995130539, 
                -0.12690982222557068, 
                -0.09982132911682129, 
                -0.08453040570020676, 
                -0.05060095340013504, 
                -0.02011767029762268, 
                -0.004402867052704096, 
                0.08203969895839691, 
                -0.05310201644897461, 
                0.12212644517421722, 
                -0.0690438449382782, 
                0.028557389974594116, 
                0.04089910909533501, 
                -0.07178015261888504, 
                0.05772659182548523, 
                -0.0006037205457687378, 
                -0.06540215015411377, 
                -0.15129294991493225, 
                0.05833309888839722, 
                -0.14046970009803772, 
                0.06638048589229584, 
                -0.10399329662322998, 
                0.007681205868721008, 
                -0.08276207745075226, 
                0.05886688828468323, 
                -0.11777939647436142, 
                -0.08589014410972595, 
                -0.08982923626899719, 
                0.05487264692783356, 
                0.09812115132808685, 
                -0.09364189952611923, 
                0.06370246410369873, 
                -0.11173320561647415, 
                0.042673900723457336, 
                -0.03583041951060295, 
                -0.10175586491823196, 
                0.0420040637254715, 
                0.024548282846808434, 
                -0.1273234486579895, 
                -0.0479855015873909, 
                0.11509425938129425, 
                0.04280715063214302, 
                -0.05600009858608246, 
                0.13994835317134857, 
                -0.026221485808491707, 
                -0.15615937113761902, 
                0.014426440000534058, 
                0.06971803307533264, 
                -0.100016750395298, 
                -0.09993434697389603, 
                -0.18061436712741852, 
                -0.07988370954990387, 
                -0.07447271794080734, 
                -0.06905561685562134, 
                -0.04908880218863487, 
                -0.010693876072764397, 
                0.06343089044094086, 
                -0.0285312682390213, 
                -0.011016309261322021, 
                -0.11084441095590591, 
                -0.02982916124165058, 
                -0.1302679181098938, 
                -0.13565100729465485, 
                -0.021487504243850708, 
                -0.06890936940908432, 
                0.008180245757102966, 
                -0.08619505912065506, 
                -0.09264125674962997, 
                0.09484028071165085, 
                0.03501272574067116, 
                0.037322308868169785, 
                -0.10964621603488922, 
                0.05307546257972717, 
                0.03370732069015503, 
                0.10989805310964584, 
                0.061812859028577805, 
                0.11448810994625092, 
                -0.07000816613435745, 
                -0.07933725416660309, 
                -0.04985455423593521, 
                -0.0810329020023346, 
                0.01534003484994173, 
                -0.09387802332639694, 
                0.13765476644039154, 
                -0.12865030765533447, 
                -0.08974272012710571, 
                -0.01578870415687561, 
                0.09647414088249207
            ]
        }, 
        "Node_10": {
            "bias": 0.417579710483551, 
            "weights": [
                0.050713442265987396, 
                -0.03252231329679489, 
                -0.010592523030936718, 
                0.058218229562044144, 
                -0.30259227752685547, 
                -0.05597509443759918, 
                0.03811636194586754, 
                -0.10868567228317261, 
                -0.10055233538150787, 
                -0.11762159317731857, 
                0.05022474750876427, 
                0.014335021376609802, 
                0.11348196119070053, 
                0.054883092641830444, 
                -0.026306763291358948, 
                0.0706823319196701, 
                0.03320552408695221, 
                -0.11225368827581406, 
                -0.039283785969018936, 
                -0.07674042135477066, 
                -0.0370292142033577, 
                -0.10557626932859421, 
                -0.06880208104848862, 
                -0.12002568691968918, 
                -0.07747284322977066, 
                0.08058333396911621, 
                -0.005827296990901232, 
                0.06266862154006958, 
                0.09701678901910782, 
                0.032326649874448776, 
                -0.13006709516048431, 
                0.11328018456697464, 
                0.07244995981454849, 
                0.008600730448961258, 
                0.08677546679973602, 
                0.08256082981824875, 
                -0.08530431240797043, 
                -0.1203601136803627, 
                -0.1647273749113083, 
                -0.06086166948080063, 
                -0.11740190535783768, 
                0.03345651552081108, 
                -0.057874999940395355, 
                -0.1314404457807541, 
                -0.03456859663128853, 
                -0.11744164675474167, 
                -0.021304380148649216, 
                0.0662960633635521, 
                0.030212201178073883, 
                0.027571989223361015, 
                0.04599960148334503, 
                -0.08370538055896759, 
                -0.13381201028823853, 
                -0.010589553974568844, 
                -0.0157494954764843, 
                -0.16132062673568726, 
                -0.12307443469762802, 
                0.08041737973690033, 
                -0.12870840728282928, 
                -0.028381209820508957, 
                0.4927608072757721, 
                0.019836073741316795, 
                -0.19914720952510834, 
                -0.09677154570817947, 
                -0.13685078918933868, 
                0.0602605827152729, 
                -0.10664130747318268, 
                -0.07899467647075653, 
                -0.06359729915857315, 
                -0.14798866212368011, 
                -0.4289959669113159, 
                -0.14281155169010162, 
                -0.10792596638202667, 
                -0.0594048872590065, 
                -0.03307853639125824, 
                0.045737043023109436, 
                0.047025829553604126, 
                -0.038346465677022934, 
                -0.03064790926873684, 
                0.12482733279466629, 
                -0.15560218691825867, 
                0.09012829512357712, 
                0.02335137501358986, 
                0.04862215369939804, 
                -0.00015026796609163284, 
                0.0985775887966156, 
                -0.16263650357723236, 
                -0.0398658886551857, 
                -0.146457701921463, 
                0.028192954137921333, 
                -0.21692155301570892, 
                -0.012969686649739742, 
                -0.08304192870855331, 
                0.004601329565048218, 
                -0.13704343140125275, 
                -0.006483167409896851, 
                -0.28997746109962463, 
                0.04895089566707611, 
                -0.09160937368869781, 
                -0.09550376981496811, 
                0.09810855984687805, 
                -0.11208637058734894, 
                0.06107398867607117, 
                -0.04043830558657646, 
                -0.15208373963832855, 
                -0.11845330893993378, 
                -0.13616575300693512, 
                -0.005583412945270538, 
                -0.11098773777484894, 
                0.1393287181854248, 
                0.09695979952812195, 
                -0.06434295326471329, 
                -0.11509915441274643, 
                -0.19005264341831207, 
                -0.13268058001995087, 
                -0.055943600833415985, 
                0.059170883148908615, 
                -0.014396497048437595, 
                0.13323865830898285, 
                -0.1696103811264038, 
                0.12780070304870605, 
                0.0104061933234334, 
                -0.13459597527980804, 
                -0.0736602172255516, 
                -0.011917874217033386, 
                -0.10283008962869644, 
                -0.01009986363351345, 
                0.020955940708518028, 
                -0.2591990828514099, 
                -0.15898841619491577, 
                -0.021243322640657425, 
                0.00019610517483670264, 
                -0.08445762097835541, 
                -0.06481602042913437, 
                -0.11108922213315964, 
                0.029431451112031937, 
                -0.102840855717659, 
                -0.010825752280652523, 
                0.17290247976779938, 
                -0.13089948892593384, 
                0.012437770143151283, 
                -0.027204813435673714, 
                0.04057253152132034, 
                -0.009484338574111462, 
                0.041045092046260834, 
                0.004120885860174894, 
                -0.012328498996794224, 
                0.2054499387741089, 
                0.10916756838560104, 
                -0.21199925243854523
            ]
        }, 
        "Node_97": {
            "bias": 0.1929047554731369, 
            "weights": [
                0.09734552353620529, 
                0.07057707011699677, 
                -0.04890938103199005, 
                0.011491551995277405, 
                0.07773320376873016, 
                0.2395227998495102, 
                -0.24587371945381165, 
                -0.006596067454665899, 
                -0.2324998825788498, 
                -0.15445266664028168, 
                0.1025533601641655, 
                -0.07431282848119736, 
                -0.005209021270275116, 
                -0.1683666706085205, 
                -0.14948920905590057, 
                -0.01320229098200798, 
                0.0628683865070343, 
                0.030036989599466324, 
                0.09233938157558441, 
                0.18454109132289886, 
                0.005446624476462603, 
                0.2775305509567261, 
                0.003153073601424694, 
                -0.36255505681037903, 
                -0.23866254091262817, 
                0.06093907356262207, 
                -0.16344621777534485, 
                0.0071196299977600574, 
                -0.0355796255171299, 
                0.06619005650281906, 
                -0.04152610898017883, 
                0.030918164178729057, 
                -0.006433098576962948, 
                -0.09634368866682053, 
                0.12135049700737, 
                -0.06993746757507324, 
                -0.15652890503406525, 
                -0.028880510479211807, 
                -0.15932166576385498, 
                0.11493038386106491, 
                -0.2063538283109665, 
                -0.11686015129089355, 
                0.11046847701072693, 
                0.00034541680361144245, 
                0.10371828079223633, 
                0.23413026332855225, 
                -0.03349974751472473, 
                -0.07230468839406967, 
                0.07290591299533844, 
                0.012663123197853565, 
                0.0658133253455162, 
                0.23302438855171204, 
                -0.02530846931040287, 
                -0.235611230134964, 
                -0.1879928857088089, 
                -0.047572892159223557, 
                0.07448892295360565, 
                -0.259988009929657, 
                -0.1890343576669693, 
                0.01823040284216404, 
                -0.14767217636108398, 
                0.12658719718456268, 
                0.18492864072322845, 
                -0.2006276696920395, 
                -0.05359107628464699, 
                -0.05170223116874695, 
                -0.08262008428573608, 
                0.05103958025574684, 
                -0.20777033269405365, 
                0.10441078245639801, 
                -0.4257648289203644, 
                0.04095516726374626, 
                0.2363065630197525, 
                0.2509813606739044, 
                -0.3456454575061798, 
                -0.011484366841614246, 
                -0.3316444754600525, 
                -0.09963805973529816, 
                -0.1319979429244995, 
                -0.06877568364143372, 
                -0.25925374031066895, 
                0.014040294103324413, 
                0.13344940543174744, 
                -0.04430745542049408, 
                0.2555752396583557, 
                0.047766923904418945, 
                -0.11720853298902512, 
                0.08591671288013458, 
                0.07957842200994492, 
                -0.014286496676504612, 
                0.05819135159254074, 
                0.1542430818080902, 
                0.09958025813102722, 
                -0.09764544665813446, 
                0.001628273748792708, 
                0.006532847881317139, 
                0.23685842752456665, 
                -0.09507542848587036, 
                -0.06329107284545898, 
                -0.04072580859065056, 
                0.013146644458174706, 
                0.05479728430509567, 
                -0.39672020077705383, 
                0.2894836962223053, 
                0.19435006380081177, 
                0.061126161366701126, 
                -0.05943550541996956, 
                -0.09843289107084274, 
                -0.08782637864351273, 
                -0.4527609646320343, 
                -0.08668401837348938, 
                -0.08371879905462265, 
                0.005343949422240257, 
                -0.23894207179546356, 
                -0.5411895513534546, 
                -0.012844346463680267, 
                0.018480664119124413, 
                0.10820461064577103, 
                -0.13208992779254913, 
                -0.26186683773994446, 
                -0.15529602766036987, 
                0.014815780334174633, 
                0.1203281357884407, 
                0.09478526562452316, 
                -0.13470330834388733, 
                -0.061572205275297165, 
                -0.10830149799585342, 
                -0.10294925421476364, 
                0.3082122504711151, 
                0.06807278841733932, 
                0.1668623983860016, 
                -0.0066236164420843124, 
                -0.05443258583545685, 
                0.016255641356110573, 
                0.10125754773616791, 
                0.0685790553689003, 
                0.13830088078975677, 
                0.17941433191299438, 
                0.10450155287981033, 
                -0.09057759493589401, 
                -0.020516211166977882, 
                -0.13266697525978088, 
                -0.0976950153708458, 
                0.07870087772607803, 
                -0.2455698847770691, 
                0.14482727646827698, 
                0.0279381200671196, 
                0.13092027604579926, 
                0.013012816198170185, 
                -0.10199715942144394
            ]
        }, 
        "Node_96": {
            "bias": -0.06258269399404526, 
            "weights": [
                -0.19405242800712585, 
                0.017559194937348366, 
                -0.3661435544490814, 
                -0.28034141659736633, 
                -0.09659653902053833, 
                0.12951162457466125, 
                0.07212965935468674, 
                -0.020611459389328957, 
                -0.018956808373332024, 
                -0.03382137790322304, 
                0.018622757866978645, 
                -0.06149401515722275, 
                -0.0026237128768116236, 
                -0.008441710844635963, 
                -0.10812276601791382, 
                0.06882597506046295, 
                0.009270995855331421, 
                -0.021189125254750252, 
                0.2518428862094879, 
                -0.26462581753730774, 
                -0.032292772084474564, 
                0.017266880720853806, 
                -0.014931140467524529, 
                0.03973193094134331, 
                0.037164077162742615, 
                -0.16096077859401703, 
                -0.12699119746685028, 
                -0.16330687701702118, 
                -0.11306825280189514, 
                0.004873450379818678, 
                -0.10927433520555496, 
                -0.08740023523569107, 
                0.08804598450660706, 
                -0.10362248122692108, 
                -0.2415638267993927, 
                -0.10808935016393661, 
                -0.057863056659698486, 
                0.024620935320854187, 
                0.04806144908070564, 
                -0.07208283990621567, 
                0.04699638485908508, 
                -0.06648948788642883, 
                0.21531179547309875, 
                -0.1724637746810913, 
                -0.273458868265152, 
                0.10358873754739761, 
                0.07703804969787598, 
                -0.057223282754421234, 
                0.03465767577290535, 
                0.041296616196632385, 
                0.04207679629325867, 
                0.11942655593156815, 
                0.036945175379514694, 
                0.03839093819260597, 
                -0.0812702476978302, 
                0.025583382695913315, 
                0.004025894217193127, 
                0.028894523158669472, 
                0.06950031965970993, 
                0.10333503037691116, 
                0.05664457008242607, 
                0.043415263295173645, 
                -0.037615448236465454, 
                -0.050125956535339355, 
                -0.0848163291811943, 
                -0.26849204301834106, 
                0.00908331386744976, 
                0.016909552738070488, 
                -0.17824146151542664, 
                0.2125335931777954, 
                -0.026047348976135254, 
                0.031339116394519806, 
                -0.20314598083496094, 
                -0.139507457613945, 
                0.016783414408564568, 
                0.06365978717803955, 
                -0.2657490074634552, 
                -0.15045098960399628, 
                0.026343146339058876, 
                -0.3086299002170563, 
                0.18220700323581696, 
                -0.1118197962641716, 
                -0.1811273992061615, 
                -0.014994960278272629, 
                0.008853673003613949, 
                -0.058070242404937744, 
                -0.1164548397064209, 
                -0.07617301493883133, 
                -0.018126171082258224, 
                0.08355934917926788, 
                -0.1451568305492401, 
                0.019890710711479187, 
                0.03499619662761688, 
                0.011110693216323853, 
                -0.26504093408584595, 
                0.054792001843452454, 
                0.06436550617218018, 
                -0.10164129734039307, 
                0.10692180693149567, 
                0.0777033343911171, 
                -0.15658244490623474, 
                -0.22469083964824677, 
                -0.3068635165691376, 
                -0.13828276097774506, 
                -0.06362737715244293, 
                0.1257459968328476, 
                -0.01574120484292507, 
                0.1952630877494812, 
                -0.07065672427415848, 
                -0.1856016218662262, 
                0.05789748579263687, 
                -0.1807437688112259, 
                -0.1105523332953453, 
                -0.03769877925515175, 
                -0.018339890986680984, 
                -0.22321777045726776, 
                -0.09718800336122513, 
                0.09707513451576233, 
                -0.011638343334197998, 
                -0.07928470522165298, 
                -0.004151561297476292, 
                -0.043079737573862076, 
                -0.18997858464717865, 
                0.0165542159229517, 
                0.1253408044576645, 
                0.023019075393676758, 
                -0.10008459538221359, 
                0.03399812802672386, 
                0.00668986514210701, 
                0.09556379914283752, 
                -0.0768866166472435, 
                0.005799196660518646, 
                0.06411819159984589, 
                -0.0779624804854393, 
                -0.09501992911100388, 
                -0.2375139743089676, 
                -0.3150988817214966, 
                -0.08409439027309418, 
                -0.20286309719085693, 
                0.09868640452623367, 
                -0.1242661327123642, 
                -0.1323254406452179, 
                -0.004389062523841858, 
                -0.1938411146402359, 
                -0.06340111792087555, 
                -0.13574138283729553, 
                -0.11265114694833755, 
                -0.019547350704669952, 
                -0.02394906058907509, 
                -0.05070563778281212
            ]
        }, 
        "Node_95": {
            "bias": 0.8121514320373535, 
            "weights": [
                0.05109817907214165, 
                -0.12818080186843872, 
                -0.19135989248752594, 
                0.1604895442724228, 
                0.011884277686476707, 
                0.2818562090396881, 
                0.14600035548210144, 
                -0.09694043546915054, 
                -0.08418615162372589, 
                -0.16188877820968628, 
                0.12437247484922409, 
                0.008583113551139832, 
                0.14035744965076447, 
                -0.07775016874074936, 
                -0.2301216721534729, 
                0.07486707717180252, 
                -0.0655282735824585, 
                -0.07953808456659317, 
                -0.017811598256230354, 
                -0.09265311807394028, 
                -0.08512450754642487, 
                -0.023519407957792282, 
                -0.023463811725378036, 
                -0.02242884412407875, 
                0.08096352964639664, 
                -0.19858981668949127, 
                -0.017752250656485558, 
                0.029926400631666183, 
                -0.006672571878880262, 
                0.07672177255153656, 
                -0.19768907129764557, 
                -0.09863642603158951, 
                -0.05968296527862549, 
                -0.03625081852078438, 
                0.057634543627500534, 
                -0.06229284778237343, 
                -0.14877307415008545, 
                0.023753134533762932, 
                -0.09453940391540527, 
                0.021721819415688515, 
                -0.043840065598487854, 
                0.11884362250566483, 
                0.1252785176038742, 
                -0.21628843247890472, 
                0.04020499810576439, 
                0.0645701140165329, 
                0.022525686770677567, 
                -0.10112804919481277, 
                0.09620677679777145, 
                -0.11332172900438309, 
                -0.056617435067892075, 
                -0.2238878309726715, 
                -0.04735611379146576, 
                -0.08341242372989655, 
                -0.04097198322415352, 
                0.07327020168304443, 
                0.07390221208333969, 
                0.12427610158920288, 
                -0.06415514647960663, 
                0.05460628494620323, 
                0.25458642840385437, 
                0.1526470184326172, 
                -0.24029220640659332, 
                0.05933750048279762, 
                0.13176587224006653, 
                0.07262609153985977, 
                0.018838999792933464, 
                -0.1027301698923111, 
                -0.11811086535453796, 
                -0.013310451060533524, 
                -0.32534873485565186, 
                -0.02769303321838379, 
                0.04377402737736702, 
                0.1484113335609436, 
                -0.2826767563819885, 
                0.02598506398499012, 
                0.06196248158812523, 
                -0.15675075352191925, 
                -0.13382238149642944, 
                0.13103625178337097, 
                -0.012848295271396637, 
                0.11464108526706696, 
                0.19305764138698578, 
                0.07869300246238708, 
                0.014090681448578835, 
                0.05724941939115524, 
                -0.13506032526493073, 
                -0.16548749804496765, 
                0.04829566553235054, 
                -0.019098417833447456, 
                0.10707210749387741, 
                0.20576785504817963, 
                0.032857831567525864, 
                0.13375388085842133, 
                0.0982394814491272, 
                0.14685337245464325, 
                -0.28808385133743286, 
                0.11831571161746979, 
                -0.1317555159330368, 
                0.01224423386156559, 
                0.10166723281145096, 
                0.03794653341174126, 
                0.07966838032007217, 
                -0.013895212672650814, 
                -0.1962360292673111, 
                -0.0545499362051487, 
                -0.17158596217632294, 
                -0.12533260881900787, 
                -0.016900476068258286, 
                -0.025847842916846275, 
                -0.029716933146119118, 
                0.13937276601791382, 
                -0.013675608672201633, 
                -0.14605242013931274, 
                -0.005948251113295555, 
                0.046840839087963104, 
                -0.06423796713352203, 
                0.10205508768558502, 
                0.11782649159431458, 
                -0.019489189609885216, 
                0.0943661630153656, 
                -0.025032782927155495, 
                0.00921904668211937, 
                -0.13725155591964722, 
                0.11944665014743805, 
                0.012088233605027199, 
                0.13691489398479462, 
                -0.0105819683521986, 
                -0.2962725758552551, 
                -0.12935945391654968, 
                0.01545199565589428, 
                -0.043264079838991165, 
                0.14818140864372253, 
                -0.13327917456626892, 
                0.10217279940843582, 
                0.005676926113665104, 
                0.14509230852127075, 
                0.1198182925581932, 
                0.038678910583257675, 
                0.003227904438972473, 
                0.09483809024095535, 
                0.023940905928611755, 
                0.1064995676279068, 
                -0.1496267467737198, 
                0.1672085076570511, 
                -0.11691996455192566, 
                -0.34309422969818115, 
                0.011506453156471252, 
                -0.08286810666322708, 
                -0.10780389606952667
            ]
        }, 
        "Node_94": {
            "bias": -0.03574477508664131, 
            "weights": [
                -0.05627496913075447, 
                0.14371751248836517, 
                -0.1026817262172699, 
                -0.007116527762264013, 
                -0.15677261352539062, 
                0.07860032469034195, 
                -0.06833954155445099, 
                0.08373238146305084, 
                -0.042949575930833817, 
                0.10319803655147552, 
                0.02366838976740837, 
                0.07187271118164062, 
                -0.0938756912946701, 
                -0.17233043909072876, 
                -0.15934647619724274, 
                -0.12290997803211212, 
                0.12567149102687836, 
                -0.05913339927792549, 
                -0.12258998304605484, 
                -0.009719925932586193, 
                0.0935496985912323, 
                -0.14029298722743988, 
                0.028123756870627403, 
                -0.15981915593147278, 
                -0.13381853699684143, 
                -0.05878373980522156, 
                0.038868654519319534, 
                0.07623754441738129, 
                -0.021997833624482155, 
                -0.152255117893219, 
                0.05719516798853874, 
                -0.11033134162425995, 
                0.01714208349585533, 
                0.0047219060361385345, 
                0.11244264990091324, 
                0.019413132220506668, 
                -0.182474747300148, 
                -0.0061971694231033325, 
                -0.08726963400840759, 
                -0.06453078985214233, 
                -0.12333627790212631, 
                -0.11289340257644653, 
                -0.011809210292994976, 
                0.05375644564628601, 
                -0.10262773185968399, 
                0.03926210477948189, 
                -0.020408719778060913, 
                0.11070117354393005, 
                -0.16802816092967987, 
                0.11138404160737991, 
                -0.13476569950580597, 
                0.04262509196996689, 
                0.09546920657157898, 
                0.12414836883544922, 
                -0.18558333814144135, 
                0.02314900979399681, 
                -0.1373799741268158, 
                -0.0917743444442749, 
                0.1450720727443695, 
                -0.18190698325634003, 
                0.11635784804821014, 
                0.11522139608860016, 
                -0.07449033856391907, 
                0.048791639506816864, 
                -0.13035421073436737, 
                0.10254345089197159, 
                0.0703752338886261, 
                -0.07686533778905869, 
                -0.0721435546875, 
                0.021789923310279846, 
                -0.04090607911348343, 
                0.006938651204109192, 
                -0.032176606357097626, 
                -0.12214525789022446, 
                0.026189930737018585, 
                -0.10173117369413376, 
                -0.07023642212152481, 
                -0.08787350356578827, 
                0.08186793327331543, 
                -0.13512709736824036, 
                0.008848567493259907, 
                -0.03519931435585022, 
                -0.03236537426710129, 
                -0.15558484196662903, 
                0.04857073724269867, 
                -0.10475701093673706, 
                -0.05930640920996666, 
                0.11808321624994278, 
                -0.1464993804693222, 
                -0.17831102013587952, 
                0.0018961377209052444, 
                0.07117827236652374, 
                0.026802869513630867, 
                -0.06289128959178925, 
                0.1280330866575241, 
                -0.08564704656600952, 
                -0.1848236471414566, 
                0.1282336264848709, 
                0.06396213173866272, 
                -0.1785251647233963, 
                -0.19423168897628784, 
                -0.12530948221683502, 
                0.015970749780535698, 
                0.012467890046536922, 
                0.10673191398382187, 
                -0.04028870537877083, 
                -0.15597721934318542, 
                -0.027976080775260925, 
                0.053916290402412415, 
                -0.15715844929218292, 
                -0.07454975694417953, 
                0.053160909563302994, 
                0.07549694180488586, 
                0.03682170808315277, 
                -0.10029109567403793, 
                -0.11044461280107498, 
                0.13216006755828857, 
                -0.02493330091238022, 
                0.02864256501197815, 
                0.04901096969842911, 
                0.017626218497753143, 
                0.0364685095846653, 
                -0.08637117594480515, 
                -0.148548424243927, 
                0.08507461845874786, 
                -0.12929652631282806, 
                -0.1506205052137375, 
                0.05955856293439865, 
                -0.06252467632293701, 
                -0.17942088842391968, 
                -0.18928255140781403, 
                0.07520193606615067, 
                0.1058577448129654, 
                -0.17641758918762207, 
                0.09852126985788345, 
                -0.17669342458248138, 
                0.05433712527155876, 
                1.9438593881204724e-05, 
                0.05892502889037132, 
                0.08742262423038483, 
                -0.001836795243434608, 
                0.010025769472122192, 
                0.12467755377292633, 
                0.027165912091732025, 
                -0.14205782115459442, 
                -0.12578143179416656, 
                0.011893940158188343, 
                -0.15094347298145294, 
                0.09889277070760727, 
                -0.06656696647405624
            ]
        }, 
        "Node_93": {
            "bias": 0.4594632089138031, 
            "weights": [
                0.07574153691530228, 
                -0.0695023462176323, 
                0.15648189187049866, 
                0.133237823843956, 
                -0.08026066422462463, 
                -0.12397050857543945, 
                0.02073286846280098, 
                0.10128475725650787, 
                -0.06924693286418915, 
                -0.08214873820543289, 
                -0.08139695227146149, 
                0.09941543638706207, 
                0.10337850451469421, 
                0.18773528933525085, 
                -0.13050390779972076, 
                0.1144401803612709, 
                -0.13266317546367645, 
                -0.11582926660776138, 
                0.13653415441513062, 
                -0.13654538989067078, 
                0.012191100046038628, 
                -0.11044294387102127, 
                0.1210634708404541, 
                -0.024370811879634857, 
                -0.09559278190135956, 
                0.16893944144248962, 
                0.11613517999649048, 
                -0.001483508967794478, 
                -0.0511876605451107, 
                0.12191957235336304, 
                0.044558506458997726, 
                -0.08211188018321991, 
                0.05086105316877365, 
                0.05267815291881561, 
                0.011499023996293545, 
                -0.16495360434055328, 
                0.10630607604980469, 
                -0.10257595777511597, 
                -0.007817431353032589, 
                0.20978404581546783, 
                0.015298530459403992, 
                0.018643250688910484, 
                -0.09008427709341049, 
                0.0915198028087616, 
                -0.09755058586597443, 
                -0.09526573866605759, 
                -0.020677296444773674, 
                0.060388099402189255, 
                -0.1739712953567505, 
                -0.1440177708864212, 
                0.07621617615222931, 
                -0.026615584269165993, 
                -0.06031135469675064, 
                0.07215269654989243, 
                -0.07751676440238953, 
                0.07757236808538437, 
                -0.03832821175456047, 
                0.023475391790270805, 
                -0.019495930522680283, 
                -0.0840216800570488, 
                -0.2977187931537628, 
                0.10220476239919662, 
                -0.12017033249139786, 
                -0.15553326904773712, 
                -0.02088049054145813, 
                -0.05426335334777832, 
                -0.06035643070936203, 
                0.1686781942844391, 
                0.07348047941923141, 
                -0.07356755435466766, 
                -0.09008204936981201, 
                0.2529681622982025, 
                -0.001082072383724153, 
                -0.02779708430171013, 
                -0.4180828630924225, 
                0.03207772970199585, 
                0.05985444784164429, 
                0.08466492593288422, 
                -0.14752954244613647, 
                0.07358165085315704, 
                -0.09794973582029343, 
                -0.012817025184631348, 
                0.0077687641605734825, 
                -0.1833527833223343, 
                -0.003020431147888303, 
                0.0405452698469162, 
                -0.02337266132235527, 
                0.05317931994795799, 
                0.023207489401102066, 
                -0.002408933127298951, 
                -0.15383583307266235, 
                -0.22986365854740143, 
                -0.002051526913419366, 
                -0.1272406131029129, 
                0.054379653185606, 
                0.13980208337306976, 
                0.005888599902391434, 
                -0.007576614618301392, 
                0.14689834415912628, 
                -0.04526820778846741, 
                -0.13046075403690338, 
                0.037975504994392395, 
                -0.041083600372076035, 
                0.07733189314603806, 
                -0.09922699630260468, 
                -0.0051544359885156155, 
                0.08028168231248856, 
                0.07537665218114853, 
                -0.1555067002773285, 
                0.102413609623909, 
                0.055393707007169724, 
                0.05591554194688797, 
                0.1531256139278412, 
                -0.09150052070617676, 
                -0.03386327624320984, 
                0.12245488166809082, 
                -0.12521900236606598, 
                0.0772036761045456, 
                -0.12656496465206146, 
                -0.08841800689697266, 
                0.014380143024027348, 
                -0.147344708442688, 
                0.036980725824832916, 
                -0.032771483063697815, 
                0.0599077045917511, 
                -0.13547828793525696, 
                -0.07786403596401215, 
                -0.053752683103084564, 
                0.15793262422084808, 
                0.06613119691610336, 
                0.11398889124393463, 
                -0.10326386243104935, 
                -0.04030827805399895, 
                -0.1045774444937706, 
                -0.013383051380515099, 
                -0.05533071979880333, 
                0.04471369832754135, 
                0.08258236944675446, 
                0.12232313305139542, 
                0.08972365409135818, 
                -0.17723609507083893, 
                -0.062096040695905685, 
                0.09132499247789383, 
                -0.011192108504474163, 
                0.009037029929459095, 
                -0.11561402678489685, 
                -0.3632833957672119, 
                0.017782244831323624, 
                -0.10673405975103378, 
                0.14825552701950073
            ]
        }, 
        "Node_92": {
            "bias": 0.5582683086395264, 
            "weights": [
                0.040433917194604874, 
                0.028452446684241295, 
                0.16670098900794983, 
                -0.1880902200937271, 
                -0.11760393530130386, 
                -0.10731710493564606, 
                0.056446027010679245, 
                0.11206131428480148, 
                0.2147962599992752, 
                -0.11550217121839523, 
                0.06278936564922333, 
                0.09545789659023285, 
                0.12472230941057205, 
                0.14365196228027344, 
                0.04982239753007889, 
                -0.140242800116539, 
                -0.021786600351333618, 
                -0.04742223396897316, 
                -0.12235233932733536, 
                0.05799401178956032, 
                0.13402190804481506, 
                0.10473602265119553, 
                0.29061761498451233, 
                -0.04640313237905502, 
                -0.06018860638141632, 
                -0.31259241700172424, 
                0.1083332896232605, 
                -0.03676897659897804, 
                0.2077714055776596, 
                -0.1374007761478424, 
                0.062314558774232864, 
                0.03105504997074604, 
                -0.16006585955619812, 
                -0.049924518913030624, 
                0.05952806398272514, 
                -0.11317440867424011, 
                -0.009653419256210327, 
                0.13266712427139282, 
                -0.001996181672438979, 
                0.33465614914894104, 
                0.11428581923246384, 
                -0.16004370152950287, 
                -0.01326657272875309, 
                0.09245500713586807, 
                0.027510514482855797, 
                0.020252062007784843, 
                0.08701685070991516, 
                -0.07509682327508926, 
                0.1464470773935318, 
                0.22544211149215698, 
                -0.16143275797367096, 
                -0.07447155565023422, 
                -0.10930119454860687, 
                -0.15864138305187225, 
                -0.2335612177848816, 
                0.10605400800704956, 
                -0.088655985891819, 
                0.03446880355477333, 
                -0.045151568949222565, 
                -0.047611188143491745, 
                0.11046482622623444, 
                0.06005695089697838, 
                0.008987290784716606, 
                -0.14065350592136383, 
                0.01634623110294342, 
                0.12911701202392578, 
                0.0017338518518954515, 
                0.27613410353660583, 
                -0.14175908267498016, 
                -0.059937212616205215, 
                -0.047869451344013214, 
                -0.0056785717606544495, 
                -0.10503675043582916, 
                -0.21828748285770416, 
                -0.01274340134114027, 
                -0.3655422627925873, 
                0.18185360729694366, 
                -0.03868280351161957, 
                -0.19592124223709106, 
                0.009587084874510765, 
                -0.11877108365297318, 
                0.09691494703292847, 
                0.06961232423782349, 
                -0.11412465572357178, 
                -0.3205811679363251, 
                -0.39890095591545105, 
                -0.16374428570270538, 
                0.3949059545993805, 
                0.018010122701525688, 
                -0.21270272135734558, 
                -0.11687546968460083, 
                -0.1232987567782402, 
                -0.19714444875717163, 
                -0.050787877291440964, 
                0.1542138159275055, 
                -0.07413084805011749, 
                0.08309568464756012, 
                0.057738542556762695, 
                0.007217381615191698, 
                0.011873544193804264, 
                0.030991218984127045, 
                0.08352889865636826, 
                -0.05843718722462654, 
                -0.26281943917274475, 
                0.1814507395029068, 
                -0.023851722478866577, 
                -0.027850963175296783, 
                -0.15685006976127625, 
                -0.13398583233356476, 
                -0.01330309733748436, 
                -0.10718114674091339, 
                0.07041162997484207, 
                -0.11369673907756805, 
                -0.12926824390888214, 
                -0.05681368708610535, 
                -0.01298326812684536, 
                -0.007515114266425371, 
                -0.04208953678607941, 
                0.08637183159589767, 
                -0.01662602089345455, 
                0.0725589469075203, 
                -0.013750249519944191, 
                -0.13094086945056915, 
                -0.02117772586643696, 
                -0.012483581900596619, 
                -0.009624731726944447, 
                -0.05529945716261864, 
                -0.12665757536888123, 
                0.17071308195590973, 
                -0.010173377580940723, 
                0.046203866600990295, 
                0.04386112466454506, 
                -0.16413484513759613, 
                -0.17560303211212158, 
                -0.1718684881925583, 
                -0.11212053149938583, 
                0.2534908354282379, 
                -0.06491940468549728, 
                0.2587257921695709, 
                0.2287628948688507, 
                -0.002848775591701269, 
                0.019206088036298752, 
                0.0014511243207380176, 
                0.03779536113142967, 
                -0.11344628036022186, 
                0.002866335678845644, 
                0.0698721706867218, 
                0.1996808499097824, 
                -0.09855395555496216, 
                0.04483357071876526
            ]
        }, 
        "Node_91": {
            "bias": -0.8554264307022095, 
            "weights": [
                -0.0014192134840413928, 
                -0.020758377388119698, 
                0.10236217826604843, 
                -0.05408698320388794, 
                -0.05295876786112785, 
                0.03786001726984978, 
                -0.2081669270992279, 
                0.13774056732654572, 
                -0.09323225915431976, 
                -0.0024947570636868477, 
                0.017862774431705475, 
                -0.052938058972358704, 
                -0.003007015911862254, 
                -0.02113131433725357, 
                0.023836122825741768, 
                -0.00849376805126667, 
                0.015015706419944763, 
                -0.15318448841571808, 
                -0.09602478891611099, 
                0.001840327400714159, 
                0.05492338538169861, 
                -0.007546736393123865, 
                0.005850679706782103, 
                -0.008353839628398418, 
                -0.0383596308529377, 
                -0.13612055778503418, 
                0.08276965469121933, 
                -0.13483789563179016, 
                0.0022225354332476854, 
                0.045042745769023895, 
                -0.05762441083788872, 
                -0.09637772291898727, 
                0.12963134050369263, 
                -0.03394148126244545, 
                0.11783057451248169, 
                -0.08164022862911224, 
                -0.014936062507331371, 
                0.016940155997872353, 
                0.01108180359005928, 
                0.072768434882164, 
                -0.045078251510858536, 
                -0.05246921256184578, 
                -0.13594333827495575, 
                -0.051299355924129486, 
                -0.12950827181339264, 
                0.0956726148724556, 
                -0.02025817520916462, 
                0.2853984236717224, 
                -0.19621020555496216, 
                0.08599201589822769, 
                0.13316591084003448, 
                0.13800185918807983, 
                -0.012200634926557541, 
                -0.15299318730831146, 
                -0.19703181087970734, 
                0.15343256294727325, 
                0.16289058327674866, 
                -0.043716877698898315, 
                0.05517535284161568, 
                -0.11512844264507294, 
                -0.3098960220813751, 
                0.02964317984879017, 
                0.026647860184311867, 
                0.12526008486747742, 
                0.011629672721028328, 
                -0.04113204777240753, 
                0.11829410493373871, 
                -0.037698037922382355, 
                -0.011809502728283405, 
                0.033198609948158264, 
                0.00465767364948988, 
                -0.23272761702537537, 
                -0.07495994865894318, 
                -0.1840563863515854, 
                0.12416250258684158, 
                -0.1292829066514969, 
                0.14665336906909943, 
                -0.27150020003318787, 
                0.14147771894931793, 
                0.09542097896337509, 
                0.0979074016213417, 
                0.011538028717041016, 
                -0.1508348137140274, 
                -0.1409490406513214, 
                -0.20478548109531403, 
                -0.07765289396047592, 
                -0.14378340542316437, 
                0.1093355193734169, 
                0.07372249662876129, 
                -0.03496163338422775, 
                0.1142585277557373, 
                -0.03588765859603882, 
                -0.06209702417254448, 
                0.09150158613920212, 
                0.020951831713318825, 
                -0.015320464968681335, 
                0.1241648942232132, 
                -0.024033620953559875, 
                0.04076811671257019, 
                0.07800121605396271, 
                -0.06391454488039017, 
                0.013880664482712746, 
                0.09599754959344864, 
                -0.05781564489006996, 
                -0.363119900226593, 
                -0.13353030383586884, 
                0.06562792509794235, 
                0.14097294211387634, 
                0.09474524110555649, 
                0.000598069978877902, 
                0.012709984555840492, 
                -0.0478796549141407, 
                0.04545317590236664, 
                0.026656320318579674, 
                -0.2998751997947693, 
                -0.03905824199318886, 
                -0.03451935946941376, 
                0.04898563027381897, 
                0.12061333656311035, 
                -0.12159575521945953, 
                -0.04017871245741844, 
                0.06653537601232529, 
                -0.07883784919977188, 
                0.06262677907943726, 
                -0.08918190002441406, 
                0.0891217514872551, 
                -0.07219784706830978, 
                -0.21618418395519257, 
                0.09739971905946732, 
                -0.09192855656147003, 
                0.062090132385492325, 
                0.03620503842830658, 
                -0.10289103537797928, 
                -0.07793521136045456, 
                -0.12941372394561768, 
                0.02727619744837284, 
                -0.018280843272805214, 
                0.024126961827278137, 
