{
    "Layer_1": {
        "Node_19": {
            "bias": 0.1309671550989151, 
            "weights": [
                0.06411563605070114, 
                0.17240765690803528, 
                -0.3403668701648712, 
                -0.16231368482112885, 
                0.14633475244045258, 
                0.011565493419766426, 
                0.33905476331710815, 
                0.20888102054595947, 
                0.18526531755924225, 
                -0.21979601681232452, 
                0.1095280796289444, 
                -0.11540142446756363, 
                -0.0034350731875747442, 
                -0.29955968260765076, 
                -0.0731264129281044, 
                0.011042583733797073, 
                0.3028814494609833, 
                -0.32808175683021545, 
                0.5772781372070312, 
                -0.07302751392126083, 
                -0.019599072635173798, 
                0.4347340762615204, 
                -0.1651737242937088, 
                -0.4332196116447449, 
                -0.2547895014286041, 
                -0.4259438216686249, 
                -0.24110276997089386, 
                0.05450534075498581, 
                0.20265012979507446, 
                0.5518296957015991, 
                -0.16162019968032837, 
                0.39157968759536743, 
                0.12557019293308258, 
                0.039151567965745926, 
                0.3162112236022949, 
                -0.10535617172718048, 
                -0.36180126667022705, 
                0.01396868098527193, 
                0.2211534082889557, 
                0.14503170549869537, 
                0.16469335556030273, 
                -0.06882030516862869, 
                0.17966462671756744, 
                -0.3675842583179474, 
                -0.11191634833812714, 
                0.09741859138011932, 
                0.18917980790138245, 
                -0.026820078492164612, 
                0.054356127977371216, 
                -0.27224791049957275, 
                0.2697007656097412, 
                0.15036538243293762, 
                -0.1409027874469757, 
                0.11748462170362473, 
                0.3887409269809723, 
                -0.056910984218120575, 
                0.2782585322856903, 
                -0.46122416853904724, 
                -0.10477093607187271, 
                0.0280584879219532
            ]
        }, 
        "Node_18": {
            "bias": 0.08984075486660004, 
            "weights": [
                0.38577359914779663, 
                0.02044544368982315, 
                -0.5459612607955933, 
                0.21371151506900787, 
                0.1059870719909668, 
                -0.09188377857208252, 
                -0.1898474395275116, 
                -0.10344243049621582, 
                -0.09694742411375046, 
                -0.574029803276062, 
                -0.45710858702659607, 
                0.020810671150684357, 
                -0.1445612609386444, 
                0.46369433403015137, 
                -0.21728777885437012, 
                -0.2838422656059265, 
                0.1258557140827179, 
                -0.6731753349304199, 
                0.016499415040016174, 
                0.43271777033805847, 
                0.40478208661079407, 
                -0.21422892808914185, 
                0.254124253988266, 
                0.9866265654563904, 
                0.17102545499801636, 
                -0.026416685432195663, 
                0.44072380661964417, 
                0.2120637148618698, 
                -0.09349745512008667, 
                -0.10859639942646027, 
                -0.08642116189002991, 
                0.3143981099128723, 
                0.2598346471786499, 
                -0.2669198215007782, 
                -0.13473913073539734, 
                -0.1289028376340866, 
                0.12285364419221878, 
                0.08956491947174072, 
                0.047383688390254974, 
                -0.032913148403167725, 
                -0.21805952489376068, 
                -0.20177264511585236, 
                -0.01784442737698555, 
                -0.18374395370483398, 
                -0.04232882708311081, 
                0.3921337127685547, 
                0.28522545099258423, 
                0.39493101835250854, 
                0.10510524362325668, 
                0.39789488911628723, 
                -0.3000907003879547, 
                0.3079109787940979, 
                0.009493879973888397, 
                0.09650342166423798, 
                -0.1046452596783638, 
                -0.34669607877731323, 
                -0.2385593205690384, 
                0.8005000948905945, 
                0.47923901677131653, 
                -0.14362403750419617
            ]
        }, 
        "Node_17": {
            "bias": 0.4506506025791168, 
            "weights": [
                0.3565494418144226, 
                -0.10294459015130997, 
                -0.1656855195760727, 
                -0.29091954231262207, 
                0.5101011395454407, 
                0.2869369685649872, 
                0.5547756552696228, 
                -0.028405526652932167, 
                0.15115152299404144, 
                -0.25070974230766296, 
                -0.21804335713386536, 
                -0.32694166898727417, 
                0.02135910838842392, 
                -0.07642574608325958, 
                -0.10143682360649109, 
                -0.37183091044425964, 
                0.16375255584716797, 
                0.17377470433712006, 
                0.36537110805511475, 
                -0.05922064185142517, 
                -0.47982490062713623, 
                -0.1050712913274765, 
                0.0836762934923172, 
                -0.007404252886772156, 
                -0.1866551786661148, 
                -0.08979901671409607, 
                0.11425421386957169, 
                0.06429615616798401, 
                0.3212224841117859, 
                0.18748198449611664, 
                0.0895397961139679, 
                -0.018573710694909096, 
                0.11945716291666031, 
                -0.004843707662075758, 
                -0.08555705100297928, 
                -0.09123384952545166, 
                0.1311376988887787, 
                0.35872945189476013, 
                -0.062191203236579895, 
                0.2880670130252838, 
                0.3314972221851349, 
                0.20254679024219513, 
                -0.05710925906896591, 
                0.0917777344584465, 
                -0.33034881949424744, 
                0.10498124361038208, 
                -0.008521702140569687, 
                -0.11671553552150726, 
                -0.01950569823384285, 
                0.17665883898735046, 
                0.1768053025007248, 
                0.37248101830482483, 
                -0.007723545655608177, 
                0.012952328659594059, 
                0.008328570984303951, 
                0.13294488191604614, 
                0.028988318517804146, 
                -0.45936858654022217, 
                -0.43470606207847595, 
                0.1318356692790985
            ]
        }, 
        "Node_16": {
            "bias": -0.033131133764982224, 
            "weights": [
                0.04005449637770653, 
                0.432297021150589, 
                0.28657108545303345, 
                0.13122059404850006, 
                -0.013087376952171326, 
                -0.058761004358530045, 
                -0.3092793822288513, 
                0.06281674653291702, 
                0.12979164719581604, 
                -0.3980003893375397, 
                0.32243189215660095, 
                0.40065765380859375, 
                -0.08220300078392029, 
                0.10206300765275955, 
                0.25666916370391846, 
                -0.04430978745222092, 
                -0.1803484857082367, 
                0.16700753569602966, 
                0.013094102963805199, 
                0.08893776684999466, 
                -0.29808273911476135, 
                0.03771842643618584, 
                0.31384435296058655, 
                0.0657585933804512, 
                0.32335010170936584, 
                0.0923234149813652, 
                -0.2023078352212906, 
                -0.1934201866388321, 
                0.24625036120414734, 
                -0.06373695284128189, 
                -0.5249841809272766, 
                0.3470236659049988, 
                0.3687235116958618, 
                0.30576691031455994, 
                0.333140105009079, 
                0.044858451932668686, 
                -0.10159198939800262, 
                0.07705672830343246, 
                0.22556903958320618, 
                -0.06773445755243301, 
                0.11747360229492188, 
                0.26522961258888245, 
                -0.2871722877025604, 
                -0.02078627422451973, 
                -0.009689384140074253, 
                -0.11468583345413208, 
                0.22674167156219482, 
                0.022643066942691803, 
                0.5656007528305054, 
                -0.4157622754573822, 
                -0.8229787349700928, 
                -0.18032222986221313, 
                0.2600606679916382, 
                0.08748133480548859, 
                -0.070918507874012, 
                -0.08088251948356628, 
                0.040295809507369995, 
                0.3488471210002899, 
                0.1299583911895752, 
                -0.2124594748020172
            ]
        }, 
        "Node_15": {
            "bias": -0.1259595900774002, 
            "weights": [
                -0.5096883177757263, 
                0.3389754295349121, 
                0.04311062768101692, 
                0.08189205080270767, 
                -1.0943504571914673, 
                -0.49440327286720276, 
                -0.23481354117393494, 
                0.020047927275300026, 
                0.2197895050048828, 
                0.1250060498714447, 
                -0.007461261935532093, 
                0.19933654367923737, 
                -0.23567570745944977, 
                0.46838855743408203, 
                -0.0669182762503624, 
                0.332071989774704, 
                0.32882755994796753, 
                0.13379117846488953, 
                0.35475149750709534, 
                -0.1195489764213562, 
                -0.34395283460617065, 
                0.18615224957466125, 
                0.38792693614959717, 
                0.613544225692749, 
                0.5675197839736938, 
                -0.07103029638528824, 
                -0.10005414485931396, 
                -0.15750569105148315, 
                0.011479710228741169, 
                -0.28143784403800964, 
                0.04675455763936043, 
                -0.3894349932670593, 
                -0.08094637095928192, 
                -0.5107694864273071, 
                0.1246345117688179, 
                -0.249375119805336, 
                -0.3302645683288574, 
                -0.08457779139280319, 
                0.02779957838356495, 
                -0.307168573141098, 
                0.29047471284866333, 
                0.009678667411208153, 
                -1.0400822162628174, 
                0.11142044514417648, 
                -0.0124406348913908, 
                -0.28607797622680664, 
                -0.1349613070487976, 
                0.14672540128231049, 
                0.22644808888435364, 
                0.0853930339217186, 
                -0.5369884371757507, 
                -0.2739276587963104, 
                0.25191670656204224, 
                0.04292476177215576, 
                0.38144195079803467, 
                0.32226574420928955, 
                -0.1820896565914154, 
                0.31283196806907654, 
                -0.10584291815757751, 
                0.024720774963498116
            ]
        }, 
        "Node_14": {
            "bias": 0.06602886319160461, 
            "weights": [
                0.1699235588312149, 
                0.15927761793136597, 
                -0.5580924153327942, 
                0.05706467851996422, 
                0.19637197256088257, 
                -0.09846056997776031, 
                0.23830918967723846, 
                0.019262153655290604, 
                -0.1955787092447281, 
                0.19198428094387054, 
                0.04156620055437088, 
                -0.05480645224452019, 
                -0.30272310972213745, 
                -0.07464604824781418, 
                -0.3573850989341736, 
                -0.02583608590066433, 
                0.22192491590976715, 
                0.13229215145111084, 
                -0.22276046872138977, 
                0.06811846792697906, 
                -0.1621965914964676, 
                -0.094048872590065, 
                -0.0033598265144973993, 
                -0.23776943981647491, 
                0.15199190378189087, 
                0.14059723913669586, 
                -0.18290024995803833, 
                0.16263428330421448, 
                0.01439022645354271, 
                0.06555470824241638, 
                0.5454049110412598, 
                -0.019709447398781776, 
                -0.3612983822822571, 
                -0.3866312503814697, 
                -0.29090845584869385, 
                0.20881322026252747, 
                -0.15545804798603058, 
                0.032126534730196, 
                0.39761629700660706, 
                -0.24638821184635162, 
                0.09452374279499054, 
                -0.3404802083969116, 
                0.04639942944049835, 
                -0.2546311318874359, 
                0.1451983004808426, 
                0.333637535572052, 
                -0.11225663125514984, 
                0.156676784157753, 
                -0.9933688640594482, 
                -0.04898201301693916, 
                0.1938469111919403, 
                0.22181417047977448, 
                -0.21592655777931213, 
                0.020008452236652374, 
                0.33839744329452515, 
                -0.06127697974443436, 
                0.07405392825603485, 
                0.1029074415564537, 
                -0.03470594063401222, 
                0.3770415484905243
            ]
        }, 
        "Node_13": {
            "bias": -0.1960601955652237, 
            "weights": [
                0.09593404084444046, 
                0.49765753746032715, 
                0.14196600019931793, 
                0.13995829224586487, 
                -0.7540315389633179, 
                0.08403714001178741, 
                -0.11123936623334885, 
                0.12137187272310257, 
                0.16979193687438965, 
                0.12521612644195557, 
                0.28356802463531494, 
                0.08343523740768433, 
                -0.3220154643058777, 
                0.006630814168602228, 
                0.3685399889945984, 
                0.33131569623947144, 
                -0.29427167773246765, 
                0.1416029930114746, 
                -0.11839207261800766, 
                0.2694895267486572, 
                -0.6863474249839783, 
                -0.4239940047264099, 
                0.013563156127929688, 
                0.40926578640937805, 
                0.4720352292060852, 
                0.07585103809833527, 
                -0.028396418318152428, 
                -0.027868954464793205, 
                0.11550409346818924, 
                0.21064577996730804, 
                0.2549952268600464, 
                -0.18413974344730377, 
                -0.0676792562007904, 
                -0.11857426166534424, 
                0.014247204177081585, 
                0.3000200092792511, 
                0.16995376348495483, 
                0.2861773669719696, 
                0.033114634454250336, 
                -0.19224631786346436, 
                -0.05883055925369263, 
                -0.27885353565216064, 
                -0.3175385296344757, 
                0.007047414779663086, 
                0.45253926515579224, 
                -0.32063356041908264, 
                -0.06939331442117691, 
                0.05118263140320778, 
                0.11553368717432022, 
                0.4284074306488037, 
                0.30379894375801086, 
                0.07771137356758118, 
                -0.08643265813589096, 
                0.15319174528121948, 
                -0.0856085941195488, 
                0.1669294387102127, 
                0.161434143781662, 
                0.15270528197288513, 
                0.19310921430587769, 
                0.17262154817581177
            ]
        }, 
        "Node_12": {
            "bias": -0.006229371763765812, 
            "weights": [
                -0.38032376766204834, 
                0.14867207407951355, 
                -0.015006573870778084, 
                0.20127476751804352, 
                0.05246679112315178, 
                0.016361918300390244, 
                -0.3170602023601532, 
                -0.1316998153924942, 
                -0.23225915431976318, 
                -0.2737239599227905, 
                -0.07957281172275543, 
                -0.43380558490753174, 
                0.36865466833114624, 
                0.5492908954620361, 
                -0.16555587947368622, 
                0.053779277950525284, 
                0.3719423711299896, 
                -0.10668481886386871, 
                0.20362257957458496, 
                -0.17837108671665192, 
                0.16555815935134888, 
                0.11515581607818604, 
                -0.06189119815826416, 
                0.4525396525859833, 
                -0.1382092833518982, 
                -0.19222639501094818, 
                -0.23441824316978455, 
                0.06934905052185059, 
                -0.46228113770484924, 
                -1.1398630142211914, 
                0.05414486676454544, 
                -0.06487110257148743, 
                -0.20621854066848755, 
                -0.08344549685716629, 
                -0.3596109449863434, 
                -0.3306122124195099, 
                0.21770545840263367, 
                -0.379149854183197, 
                -0.5295355916023254, 
                0.4312821328639984, 
                0.21613174676895142, 
                -0.4807157516479492, 
                0.2817133665084839, 
                -0.004040761850774288, 
                0.21422594785690308, 
                -0.34235528111457825, 
                0.13716916739940643, 
                -0.540233850479126, 
                -0.44012266397476196, 
                0.06850510090589523, 
                -0.24149489402770996, 
                -0.2621626555919647, 
                0.41839662194252014, 
                0.09704561531543732, 
                0.17842969298362732, 
                0.5122225880622864, 
                0.46066662669181824, 
                0.054605770856142044, 
                -0.2660456597805023, 
                -0.177994966506958
            ]
        }, 
        "Node_11": {
            "bias": 0.05125238001346588, 
            "weights": [
                0.1554875522851944, 
                -0.04319048672914505, 
                0.033762428909540176, 
                0.4549981355667114, 
                0.03225952759385109, 
                0.32683518528938293, 
                -0.10324273258447647, 
                0.42986205220222473, 
                0.14134153723716736, 
                -0.39427751302719116, 
                0.26502689719200134, 
                -0.11567758768796921, 
                0.2937227189540863, 
                -0.2965310215950012, 
                -0.03368652984499931, 
                0.0520956888794899, 
                -0.10849962383508682, 
                0.47762635350227356, 
                0.050673723220825195, 
                -0.0027267606928944588, 
                -0.012994958087801933, 
                0.02040271833539009, 
                -0.34105512499809265, 
                0.18248194456100464, 
                -0.00679708831012249, 
                0.19016402959823608, 
                0.3428444266319275, 
                -0.28446346521377563, 
                0.23925018310546875, 
                -0.03540987893939018, 
                -0.10128592699766159, 
                0.18584270775318146, 
                0.21744976937770844, 
                0.2121097594499588, 
                -0.1480240672826767, 
                0.3739510774612427, 
                0.10687616467475891, 
                0.1285645216703415, 
                -0.236014261841774, 
                0.1727835088968277, 
                -0.31364914774894714, 
                -0.3723866939544678, 
                0.09025315940380096, 
                0.23731312155723572, 
                0.34069517254829407, 
                0.3276771605014801, 
                -0.19436034560203552, 
                0.2118750810623169, 
                0.1728154569864273, 
                -0.2616567611694336, 
                -0.12721222639083862, 
                -0.26072680950164795, 
                -0.21162986755371094, 
                0.3762359619140625, 
                0.39350011944770813, 
                0.14595624804496765, 
                -0.23097066581249237, 
                0.05914071202278137, 
                0.222489133477211, 
                -0.3682178258895874
            ]
        }, 
        "Node_10": {
            "bias": 0.18102234601974487, 
            "weights": [
                -0.16910554468631744, 
                0.03697286918759346, 
                0.22805245220661163, 
                -0.5882606506347656, 
                0.20153117179870605, 
                -0.038552701473236084, 
                0.39531147480010986, 
                0.12557576596736908, 
                0.2851170003414154, 
                -0.48626741766929626, 
                0.07001353055238724, 
                0.00684019410982728, 
                -0.6000957489013672, 
                0.2503066658973694, 
                0.15823903679847717, 
                -0.16879579424858093, 
                -0.04558854550123215, 
                -0.19333383440971375, 
                0.39843395352363586, 
                -0.28041115403175354, 
                0.42190971970558167, 
                -0.04490814357995987, 
                0.04661741852760315, 
                -0.2605813145637512, 
                0.29623982310295105, 
                0.014179591089487076, 
                0.14636757969856262, 
                -0.03219008818268776, 
                0.13614411652088165, 
                0.12759095430374146, 
                -0.05550605058670044, 
                0.25083351135253906, 
                0.14037001132965088, 
                0.29975590109825134, 
                0.017425861209630966, 
                0.2732851207256317, 
                0.05387786030769348, 
                0.1036238968372345, 
                0.11567060649394989, 
                0.15305370092391968, 
                -0.19550135731697083, 
                -0.15348908305168152, 
                -0.09375659376382828, 
                0.052124593406915665, 
                -0.9058839082717896, 
                -0.13181200623512268, 
                -0.08622346818447113, 
                0.1911066621541977, 
                -0.07455533742904663, 
                -0.11215426027774811, 
                0.19787107408046722, 
                0.07507582008838654, 
                0.1350155472755432, 
                0.024587716907262802, 
                0.11829593032598495, 
                -0.05767417326569557, 
                0.26613134145736694, 
                0.31297239661216736, 
                0.16541029512882233, 
                -0.2690551280975342
            ]
        }, 
        "Node_26": {
            "bias": -0.16729553043842316, 
            "weights": [
                0.0652254968881607, 
                0.09399374574422836, 
                0.5315348505973816, 
                0.43968263268470764, 
                -0.6893472671508789, 
                0.3176180422306061, 
                -0.32070717215538025, 
                0.13286735117435455, 
                0.0715516209602356, 
                0.33778369426727295, 
                0.33295193314552307, 
                0.17891570925712585, 
                -0.1346907764673233, 
                -0.01761816069483757, 
                0.37031984329223633, 
                0.07460502535104752, 
                -0.08539693802595139, 
                0.31871187686920166, 
                0.12940895557403564, 
                0.18928273022174835, 
                -0.3943554759025574, 
                -0.05787269398570061, 
                -0.057538822293281555, 
                -0.06081327423453331, 
                0.17095763981342316, 
                -0.002332190750166774, 
                0.2339579313993454, 
                0.09143634885549545, 
                -0.2849617898464203, 
                -0.05557255819439888, 
                0.0784805491566658, 
                -0.39236149191856384, 
                0.05309315398335457, 
                -0.1093224287033081, 
                -0.2617112696170807, 
                -0.08498967438936234, 
                -0.2850848436355591, 
                0.10660497099161148, 
                -0.09226568788290024, 
                -0.5677615404129028, 
                -0.10228218883275986, 
                -0.2261853814125061, 
                -0.2566324472427368, 
                -0.1763557642698288, 
                0.23648931086063385, 
                -0.19157741963863373, 
                0.2041255533695221, 
                -0.17435680329799652, 
                -0.1608608514070511, 
                -0.16548393666744232, 
                -1.6364214420318604, 
                0.06807780265808105, 
                0.0323881134390831, 
                0.21341747045516968, 
                -0.21271216869354248, 
                0.36541205644607544, 
                -0.3042295575141907, 
                0.15595807135105133, 
                -0.14053550362586975, 
                0.196574866771698
            ]
        }, 
        "Node_27": {
            "bias": -0.1266670972108841, 
            "weights": [
                0.3741828203201294, 
                0.12067432701587677, 
                0.1044887900352478, 
                -0.014929467812180519, 
                -0.2721352279186249, 
                0.32564327120780945, 
                0.03967050835490227, 
                -0.10235220193862915, 
                0.13436296582221985, 
                -0.10443463921546936, 
                0.2916219234466553, 
                0.13779737055301666, 
                0.3869911730289459, 
                0.3820655345916748, 
                -0.14862695336341858, 
                0.0024523725733160973, 
                -0.220742329955101, 
                0.04268265888094902, 
                0.2218964695930481, 
                0.019577080383896828, 
                0.629537045955658, 
                -0.2546449601650238, 
                0.34480640292167664, 
                0.097261443734169, 
                0.050664231181144714, 
                0.08008018881082535, 
                0.1793479323387146, 
                0.03938108682632446, 
                -0.32020267844200134, 
                -0.001025522593408823, 
                -0.13960391283035278, 
                -0.06867487728595734, 
                0.025313420221209526, 
                0.2868451178073883, 
                0.10334237664937973, 
                0.16220474243164062, 
                -0.1131492406129837, 
                0.06380052119493484, 
                -0.1028749868273735, 
                -0.11105619370937347, 
                0.1651681810617447, 
                -0.0632612481713295, 
                0.025946997106075287, 
                0.11670306324958801, 
                -0.07550333440303802, 
                -0.16190199553966522, 
                0.0314682275056839, 
                0.048871442675590515, 
                0.09380501508712769, 
                0.21655437350273132, 
                -0.2225808948278427, 
                -0.19897842407226562, 
                -0.09974521398544312, 
                -0.13894912600517273, 
                -0.012315998785197735, 
                -0.0812448039650917, 
                0.08203556388616562, 
                0.027957115322351456, 
                0.15976306796073914, 
                0.4263596832752228
            ]
        }, 
        "Node_24": {
            "bias": 0.2267601490020752, 
            "weights": [
                0.1589435487985611, 
                -0.2787059545516968, 
                0.045705679804086685, 
                -0.02803056128323078, 
                0.3710659146308899, 
                0.028428001329302788, 
                0.23962700366973877, 
                0.23216919600963593, 
                0.3368971645832062, 
                -0.2718178331851959, 
                0.0906284898519516, 
                -0.21733520925045013, 
                -0.31398290395736694, 
                -0.1932498812675476, 
                0.2871965765953064, 
                0.08189477771520615, 
                -0.036583755165338516, 
                0.09970925748348236, 
                0.3091147840023041, 
                -0.13920891284942627, 
                -0.02179332636296749, 
                -0.24599935114383698, 
                -0.3356190025806427, 
                0.0938059613108635, 
                -0.2815549671649933, 
                -0.28621524572372437, 
                0.17531660199165344, 
                -0.24093668162822723, 
                0.05968792364001274, 
                -0.06015412136912346, 
                -0.3544645607471466, 
                0.16369186341762543, 
                -0.019616279751062393, 
                0.2426476776599884, 
                -0.12375055253505707, 
                0.32470783591270447, 
                0.1591450721025467, 
                0.14219999313354492, 
                0.07242942601442337, 
                0.28976285457611084, 
                0.030826115980744362, 
                -0.13378828763961792, 
                0.08669717609882355, 
                0.3110233247280121, 
                -0.34063833951950073, 
                -0.067524753510952, 
                0.3652087450027466, 
                -0.16438627243041992, 
                -0.09540008008480072, 
                0.2649763226509094, 
                -0.0212787427008152, 
                0.21400229632854462, 
                0.12008323520421982, 
                -0.25738105177879333, 
                0.46771740913391113, 
                0.08631287515163422, 
                -0.3349848985671997, 
                0.03765197843313217, 
                -0.06089127063751221, 
                -0.049907371401786804
            ]
        }, 
        "Node_25": {
            "bias": 0.013922641053795815, 
            "weights": [
                0.28588876128196716, 
                -0.09969930350780487, 
                0.13438795506954193, 
                0.27466392517089844, 
                0.014814513735473156, 
                -0.07776497304439545, 
                0.15191666781902313, 
                0.3636319041252136, 
                -0.2747964560985565, 
                -0.6984581351280212, 
                -0.09663227200508118, 
                0.3423929810523987, 
                0.2870357036590576, 
                -0.2958083748817444, 
                0.29810234904289246, 
                0.032132215797901154, 
                -0.005062580108642578, 
                0.05261983349919319, 
                -0.5709644556045532, 
                -0.01885215938091278, 
                0.02330915629863739, 
                0.05099955201148987, 
                -0.1620984971523285, 
                -0.11995074898004532, 
                0.06508959829807281, 
                0.23717205226421356, 
                -0.11891317367553711, 
                -0.4926365315914154, 
                0.21282151341438293, 
                -0.21071545779705048, 
                0.19360968470573425, 
                0.18750277161598206, 
                0.061328355222940445, 
                0.31493765115737915, 
                -0.2287917286157608, 
                0.30823615193367004, 
                0.08101138472557068, 
                -0.1859268695116043, 
                0.14402538537979126, 
                0.19912444055080414, 
                0.17944765090942383, 
                0.39748576283454895, 
                -0.18561707437038422, 
                0.23671914637088776, 
                -0.30065569281578064, 
                -0.32457849383354187, 
                -0.009413721039891243, 
                -0.2490997612476349, 
                0.5239423513412476, 
                0.24624843895435333, 
                -0.04737917706370354, 
                0.10138094425201416, 
                -0.22458381950855255, 
                -0.1957419067621231, 
                -0.030915282666683197, 
                -0.5212876796722412, 
                -0.5963925123214722, 
                -0.24269548058509827, 
                0.4712037146091461, 
                0.08026431500911713
            ]
        }, 
        "Node_22": {
            "bias": -0.10924948751926422, 
            "weights": [
                0.005946450866758823, 
                0.17595256865024567, 
                0.31764841079711914, 
                -0.08375927060842514, 
                0.4721343517303467, 
                0.20556609332561493, 
                -0.13846732676029205, 
                -0.33243638277053833, 
                -0.008116628974676132, 
                0.21968606114387512, 
                0.05797802284359932, 
                0.023707937449216843, 
                0.9706496596336365, 
                -0.2807502746582031, 
                0.19859859347343445, 
                0.42816537618637085, 
                -0.11290587484836578, 
                -0.27181288599967957, 
                -0.02951142005622387, 
                0.3182068467140198, 
                -0.3267011344432831, 
                -0.26895347237586975, 
                0.16344672441482544, 
                -0.11534573137760162, 
                -0.08418698608875275, 
                0.06528451293706894, 
                -0.10078412294387817, 
                -0.1177758052945137, 
                0.056295689195394516, 
                0.21580807864665985, 
                0.4769938290119171, 
                -0.3762415647506714, 
                0.03848152607679367, 
                0.3021344244480133, 
                0.24490037560462952, 
                0.10694273561239243, 
                -0.5590227842330933, 
                -0.022771846503019333, 
                -0.470308393239975, 
                -0.16032250225543976, 
                0.14284852147102356, 
                -0.20452699065208435, 
                -0.17191798985004425, 
                -0.07529333233833313, 
                0.19733111560344696, 
                0.07378586381673813, 
                0.026635704562067986, 
                0.15945333242416382, 
                0.30142053961753845, 
                -0.2194289267063141, 
                0.04159391671419144, 
                -0.2722727060317993, 
                0.02019943855702877, 
                -0.023203061893582344, 
                -0.11025019735097885, 
                0.04054426774382591, 
                0.24349147081375122, 
                -0.345999538898468, 
                -0.1937827467918396, 
                0.17169217765331268
            ]
        }, 
        "Node_23": {
            "bias": 0.29706424474716187, 
            "weights": [
                -0.04239491745829582, 
                -0.08470870554447174, 
                0.1312541663646698, 
                -0.1796342432498932, 
                0.22355464100837708, 
                -0.03574823588132858, 
                0.10948853939771652, 
                -0.17707258462905884, 
                0.26760727167129517, 
                -0.5495474338531494, 
                0.16939610242843628, 
                -0.16801458597183228, 
                -0.33226239681243896, 
                -0.08499028533697128, 
                -0.1672109216451645, 
                -0.6241862773895264, 
                0.3753146827220917, 
                -0.22487711906433105, 
                -0.23554278910160065, 
                -0.4046701490879059, 
                -0.10140183568000793, 
                -0.1712244749069214, 
                -0.17324329912662506, 
                -0.40074580907821655, 
                0.34272289276123047, 
                -0.08611990511417389, 
                -0.25637707114219666, 
                -0.34869325160980225, 
                0.13608941435813904, 
                0.36744633316993713, 
                0.250383198261261, 
                0.1263127326965332, 
                0.04054025560617447, 
                0.18453888595104218, 
                0.04877259582281113, 
                -0.37610742449760437, 
                0.3083361089229584, 
                0.06805139780044556, 
                -0.34253349900245667, 
                0.06873524188995361, 
                -0.10188714414834976, 
                0.26356375217437744, 
                -0.1615745723247528, 
                0.1869235783815384, 
                -0.4994373917579651, 
                0.33423492312431335, 
                -0.08881605416536331, 
                -0.01777888834476471, 
                0.7382411360740662, 
                -0.3307800590991974, 
                0.16224442422389984, 
                -0.03355558216571808, 
                0.18275855481624603, 
                -0.5209782719612122, 
                -0.17710919678211212, 
                -0.41005614399909973, 
                0.2880372703075409, 
                -0.4176501929759979, 
                -0.22688141465187073, 
                -0.143501877784729
            ]
        }, 
        "Node_20": {
            "bias": 0.2203044593334198, 
            "weights": [
                -0.09483519196510315, 
                0.25001657009124756, 
                0.11569101363420486, 
                -0.17261415719985962, 
                -0.19976459443569183, 
                -0.05099774897098541, 
                -0.03349908068776131, 
                0.07687541097402573, 
                0.17398972809314728, 
                -0.13717935979366302, 
                0.018174394965171814, 
                0.25505343079566956, 
                -0.4541771113872528, 
                -0.08200746774673462, 
                0.06890617311000824, 
                -0.1857077181339264, 
                0.32029014825820923, 
                -0.3510267734527588, 
                0.15453600883483887, 
                -0.0766427144408226, 
                -0.4568902850151062, 
                0.01258054468780756, 
                -0.04089880362153053, 
                0.03679938241839409, 
                -0.1497434675693512, 
                -0.12688373029232025, 
                0.10392888635396957, 
                -0.41638582944869995, 
                0.004072674550116062, 
                -0.013814123347401619, 
                0.319208562374115, 
                0.06483953446149826, 
                0.08952415734529495, 
                -0.050355177372694016, 
                0.3512536287307739, 
                0.1087164655327797, 
                0.2316402643918991, 
                0.035198379307985306, 
                0.4066244959831238, 
                0.22423318028450012, 
                0.1248093917965889, 
                0.35086414217948914, 
                0.06271341443061829, 
                0.6014636754989624, 
                -0.04703612998127937, 
                0.2987324893474579, 
                0.09243562817573547, 
                -0.08455158025026321, 
                0.8364396095275879, 
                -0.29143625497817993, 
                -0.001812366652302444, 
                -0.14834676682949066, 
                0.003001838456839323, 
                0.15480104088783264, 
                0.2945875823497772, 
                0.09374737739562988, 
                -0.032107964158058167, 
                0.05468720570206642, 
                0.27123215794563293, 
                -0.6819223165512085
            ]
        }, 
        "Node_21": {
            "bias": 0.37182918190956116, 
            "weights": [
                0.20057813823223114, 
                -0.06904220581054688, 
                -0.2112949937582016, 
                -0.3286280333995819, 
                0.2412407547235489, 
                0.12282916158437729, 
                0.3796875476837158, 
                -0.09218379855155945, 
                0.20238518714904785, 
                0.27248966693878174, 
                -0.1594979166984558, 
                -0.34855911135673523, 
                -0.4973785877227783, 
                -0.22980470955371857, 
                -0.20328372716903687, 
                -0.12568989396095276, 
                -0.2051372230052948, 
                -0.3177737593650818, 
                0.027170836925506592, 
                0.029113344848155975, 
                0.41117534041404724, 
                -0.08351077139377594, 
                -0.03297147527337074, 
                -0.42221060395240784, 
                0.08916940540075302, 
                0.40373706817626953, 
                -0.30955442786216736, 
                0.09359695017337799, 
                -0.11012826859951019, 
                0.11997422575950623, 
                0.2799403667449951, 
                0.10451500862836838, 
                0.11555088311433792, 
                0.1767684668302536, 
                -0.014722186140716076, 
                0.4512659013271332, 
                -0.2074650377035141, 
                0.1157393753528595, 
                0.14631009101867676, 
                0.023549022153019905, 
                0.15979748964309692, 
                -0.10627885907888412, 
                -0.14277929067611694, 
                0.19547834992408752, 
                0.11257241666316986, 
                0.02466021478176117, 
                0.07243117690086365, 
                0.16133591532707214, 
                -0.40635624527931213, 
                -0.143265038728714, 
                -0.09717237204313278, 
                0.46707627177238464, 
                -0.26298144459724426, 
                -0.08566418290138245, 
                0.16771267354488373, 
                0.0030091828666627407, 
                0.022039689123630524, 
                -0.3917914032936096, 
                -0.06380389630794525, 
                0.27254804968833923
            ]
        }, 
        "Node_28": {
            "bias": -0.239282488822937, 
            "weights": [
                0.14209742844104767, 
                0.23696717619895935, 
                0.011092311702668667, 
                -0.39559879899024963, 
                0.1260608434677124, 
                0.17256933450698853, 
                0.05340250954031944, 
                -0.4878527820110321, 
                -0.1460268348455429, 
                -0.21009187400341034, 
                0.28315216302871704, 
                -0.3460266590118408, 
                0.88837730884552, 
                0.07345984131097794, 
                -0.4290240406990051, 
                0.21592336893081665, 
                -0.050286296755075455, 
                0.0955204963684082, 
                0.43292295932769775, 
                0.16782033443450928, 
                0.030635429546236992, 
                0.3123038709163666, 
                0.5184648633003235, 
                0.24191181361675262, 
                -0.15882065892219543, 
                0.004124861676245928, 
                -0.2893926203250885, 
                -0.5173271894454956, 
                0.009525074623525143, 
                -0.20581300556659698, 
                0.021123478189110756, 
                0.014819554053246975, 
                -0.017671426758170128, 
                0.188274547457695, 
                0.17440541088581085, 
                -0.2866397798061371, 
                -0.5354971289634705, 
                0.17941029369831085, 
                -1.07136869430542, 
                0.03805311396718025, 
                0.2013527750968933, 
                0.2883579432964325, 
                -0.09482762962579727, 
                0.08525751531124115, 
                -0.011104140430688858, 
                -0.281984806060791, 
                -0.1583467721939087, 
                0.26487037539482117, 
                0.22177064418792725, 
                -0.11999395489692688, 
                -0.05733126029372215, 
                0.187927708029747, 
                -0.2529512345790863, 
                0.13964544236660004, 
                0.3068782091140747, 
                -0.08635671436786652, 
                0.38213250041007996, 
                0.2807646691799164, 
                -0.05229909345507622, 
                0.024193422868847847
            ]
        }, 
        "Node_29": {
            "bias": -0.16409878432750702, 
            "weights": [
                -0.034536272287368774, 
                0.207261860370636, 
                0.3124394118785858, 
                -0.09984859824180603, 
                -0.34255534410476685, 
                -0.24646718800067902, 
                -0.3534821569919586, 
                0.2241026908159256, 
                0.2904793620109558, 
                0.20294269919395447, 
                0.2479058802127838, 
                0.008549642749130726, 
                0.38895249366760254, 
                -0.10913071781396866, 
                0.2512969970703125, 
                0.29985859990119934, 
                0.33006641268730164, 
                0.22856374084949493, 
                0.1694944053888321, 
                -0.08107970654964447, 
                -0.7514433264732361, 
                0.23944437503814697, 
                0.006621416658163071, 
                0.496151864528656, 
                0.3032027781009674, 
                0.19114363193511963, 
                0.1659035086631775, 
                -0.10997964441776276, 
                -0.4601813852787018, 
                -0.5834251046180725, 
                -0.16103465855121613, 
                0.12837976217269897, 
                -0.014226861298084259, 
                -0.014916084706783295, 
                -0.04375806078314781, 
                0.22776220738887787, 
                -0.35538166761398315, 
                0.18845950067043304, 
                0.06324199587106705, 
                -0.18728937208652496, 
                -0.19875849783420563, 
                0.19870947301387787, 
                -0.7236590385437012, 
                -0.03330039978027344, 
                -0.015296307392418385, 
                -0.732305645942688, 
                -0.1499638855457306, 
                -0.04110686853528023, 
                -0.09982423484325409, 
                0.1944517195224762, 
                -0.5727258920669556, 
                -0.7661282420158386, 
                0.19314247369766235, 
                0.12345678359270096, 
                -0.1220172718167305, 
                -0.3413812220096588, 
                0.043188851326704025, 
                0.39318445324897766, 
                0.07570524513721466, 
                -0.04880179464817047
            ]
        }, 
        "Node_9": {
            "bias": 0.07009061425924301, 
            "weights": [
                0.1908101588487625, 
                0.09223772585391998, 
                -0.25583890080451965, 
                -0.14087830483913422, 
                0.06527493894100189, 
                0.20962795615196228, 
                0.2655760645866394, 
                0.21163484454154968, 
                0.006009033415466547, 
                0.24430297315120697, 
                0.07333394140005112, 
                -0.006042285822331905, 
                0.3685033321380615, 
                0.1985657513141632, 
                -0.21888799965381622, 
                0.150599867105484, 
                -0.35111549496650696, 
                0.343095064163208, 
                0.23591984808444977, 
                0.15855593979358673, 
                -0.10897601395845413, 
                0.1302831768989563, 
                0.2128622829914093, 
                0.2810431718826294, 
                -0.060114018619060516, 
                0.35434553027153015, 
                0.15860241651535034, 
                0.09477365016937256, 
                0.016584444791078568, 
                0.22229979932308197, 
                0.06727217137813568, 
                -0.26183030009269714, 
                -0.24206985533237457, 
                -0.5426614284515381, 
                0.4364127814769745, 
                -0.5026248097419739, 
                0.323556125164032, 
                0.12686774134635925, 
                -0.01094086840748787, 
                -0.1966506391763687, 
                -0.2033340483903885, 
                0.2181275635957718, 
                -0.12872223556041718, 
                0.1772719919681549, 
                0.1957469880580902, 
                -0.02460929937660694, 
                -0.875203013420105, 
                0.16676172614097595, 
                -0.13761070370674133, 
                0.10738041251897812, 
                -0.27181005477905273, 
                -0.24359986186027527, 
                0.11479611694812775, 
                0.17077885568141937, 
                -0.17956602573394775, 
                0.23294709622859955, 
                0.28133633732795715, 
                0.1962648630142212, 
                0.15876495838165283, 
                -0.12315195798873901
            ]
        }, 
        "Node_8": {
            "bias": 0.43817752599716187, 
            "weights": [
                0.17058557271957397, 
                -0.26291337609291077, 
                -0.015257745049893856, 
                -0.1090049222111702, 
                0.3228936791419983, 
                0.21852938830852509, 
                0.32590577006340027, 
                0.15229123830795288, 
                -0.05804148688912392, 
                -0.18908220529556274, 
                -0.07611759752035141, 
                -0.1864667385816574, 
                0.2927965521812439, 
                -0.007999172434210777, 
                -0.23698702454566956, 
                -0.13310794532299042, 
                -0.24183540046215057, 
                -0.14962176978588104, 
                0.12387978285551071, 
                0.07731187343597412, 
                -0.5674020648002625, 
                0.19298246502876282, 
                0.16533774137496948, 
                -0.5730198621749878, 
                -0.025132112205028534, 
                -0.23981313407421112, 
                0.20647300779819489, 
                -0.1330251842737198, 
                0.28704819083213806, 
                0.38175883889198303, 
                -0.3121481239795685, 
                -0.35713908076286316, 
                0.020106101408600807, 
                0.30227985978126526, 
                -0.030440369620919228, 
                0.2226094901561737, 
                0.11865594983100891, 
                0.40150782465934753, 
                -0.06387068331241608, 
                0.20557719469070435, 
                -0.02880176715552807, 
                0.17206145823001862, 
                0.3037188649177551, 
                0.08452661335468292, 
                -0.17307424545288086, 
                0.17768995463848114, 
                0.06123971939086914, 
                0.026314182206988335, 
                0.3702911138534546, 
                -0.004504397977143526, 
                -0.06727222353219986, 
                0.10450230538845062, 
                0.0016786351334303617, 
                -0.10099495947360992, 
                0.30734413862228394, 
                0.05547907203435898, 
                0.26224324107170105, 
                0.09100527316331863, 
                -0.39434903860092163, 
                -0.11919326335191727
            ]
        }, 
        "Node_7": {
            "bias": 0.39724433422088623, 
            "weights": [
                -0.10608182102441788, 
                -0.23142525553703308, 
                -0.31722307205200195, 
                0.14533081650733948, 
                0.509174108505249, 
                -0.2042718380689621, 
                -0.09947902709245682, 
                0.09409504383802414, 
                -0.1470968872308731, 
                0.1012541875243187, 
                -0.260786235332489, 
                -0.09287643432617188, 
                0.0423131063580513, 
                0.06402745097875595, 
                0.17870235443115234, 
                -0.20951370894908905, 
                0.057156745344400406, 
                -0.18562714755535126, 
                0.12358453124761581, 
                0.285243421792984, 
                0.02952485717833042, 
                0.23488576710224152, 
                0.09235250949859619, 
                -0.07586217671632767, 
                -0.17211882770061493, 
                0.01609533280134201, 
                0.03795263171195984, 
                -0.38430115580558777, 
                0.4647018313407898, 
                0.174628347158432, 
                0.2911277711391449, 
                -0.10349876433610916, 
                0.010406509973108768, 
                0.03761373832821846, 
                0.2624182105064392, 
                0.03238131105899811, 
                0.189901202917099, 
                0.22721260786056519, 
                0.0629742294549942, 
                0.3930184841156006, 
                0.6869655251502991, 
                0.04670020937919617, 
                -0.24021053314208984, 
                -0.2767987549304962, 
                -0.15741553902626038, 
                -0.34957650303840637, 
                0.08201133459806442, 
                0.301202654838562, 
                0.7437736392021179, 
                0.014332184568047523, 
                0.25951123237609863, 
                0.24328778684139252, 
                0.1930234134197235, 
                0.020340479910373688, 
                -0.21196791529655457, 
                0.250596284866333, 
                0.20540949702262878, 
                -0.07235811650753021, 
                -0.30783507227897644, 
                -0.07278996706008911
            ]
        }, 
        "Node_6": {
            "bias": 0.37578997015953064, 
            "weights": [
                0.08680004626512527, 
                -0.13009093701839447, 
                -0.3918758034706116, 
                -0.1343909204006195, 
                0.16664350032806396, 
                0.15409575402736664, 
                0.5197513103485107, 
                -0.059706080704927444, 
                0.027521749958395958, 
                -0.009442197158932686, 
                -0.08878984302282333, 
                -0.04939776659011841, 
                -0.18657466769218445, 
                -0.18725019693374634, 
                -0.03381597623229027, 
                -0.06378395855426788, 
                -0.1858147382736206, 
                0.03583518788218498, 
                -0.2941119968891144, 
                0.11333931237459183, 
                0.05166226252913475, 
                0.4072663486003876, 
                -0.3172237277030945, 
                0.1678735315799713, 
                -0.1931009590625763, 
                -0.38322731852531433, 
                -0.09799157083034515, 
                -0.30392053723335266, 
                0.32938238978385925, 
                0.6577247381210327, 
                -0.2602487802505493, 
                -0.013646112754940987, 
                0.27716246247291565, 
                -0.023841187357902527, 
                0.21142931282520294, 
                0.1966066211462021, 
                0.33661577105522156, 
                0.23831146955490112, 
                -0.013925477862358093, 
                -0.2900732457637787, 
                0.12428422272205353, 
                0.19227050244808197, 
                0.0675894021987915, 
                0.10807482153177261, 
                0.2879573702812195, 
                0.3253364861011505, 
                -0.0971360057592392, 
                -0.2570066750049591, 
                0.09758883714675903, 
                0.022767996415495872, 
                -0.6719523668289185, 
                0.40110480785369873, 
                -0.5599903464317322, 
                -0.36011117696762085, 
                -0.11732956022024155, 
                -0.1855756640434265, 
                -0.270158588886261, 
                -1.283255696296692, 
                0.1630886197090149, 
                -0.22023801505565643
            ]
        }, 
        "Node_5": {
            "bias": -0.09281124174594879, 
            "weights": [
                -0.25663578510284424, 
                -0.021402806043624878, 
                0.19783742725849152, 
                0.17801959812641144, 
                -0.8295590281486511, 
                0.03604547679424286, 
                -0.0051651024259626865, 
                0.17472538352012634, 
                0.35006585717201233, 
                -0.014938512817025185, 
                0.3536450266838074, 
                0.16678273677825928, 
                -0.4672784209251404, 
                -0.13748027384281158, 
                0.1711561232805252, 
                -0.21070623397827148, 
                0.2835482656955719, 
                -0.43234407901763916, 
                0.21522730588912964, 
                -0.26164451241493225, 
                0.45843690633773804, 
                0.22551392018795013, 
                0.07732138782739639, 
                -0.131521537899971, 
                0.07717806845903397, 
                -0.5075917840003967, 
                -0.04057125002145767, 
                0.004779986571520567, 
                0.34254905581474304, 
                0.04319586604833603, 
                -0.1410546749830246, 
                0.13729700446128845, 
                0.1633620262145996, 
                -0.23452916741371155, 
                -0.14810483157634735, 
                -0.1443832963705063, 
                0.23084497451782227, 
                -0.038499753922224045, 
                0.024287797510623932, 
                -0.3824339807033539, 
                -0.02425515465438366, 
                -0.1684603989124298, 
                -0.09638578444719315, 
                0.10587567090988159, 
                -0.06159724295139313, 
                -0.002755152527242899, 
                -0.22274890542030334, 
                0.0043806531466543674, 
                -0.2703477740287781, 
                0.32206034660339355, 
                -0.04435419291257858, 
                -0.0906803086400032, 
                -0.16394974291324615, 
                -0.1058281734585762, 
                -0.16361530125141144, 
                -0.21089762449264526, 
                0.0352044552564621, 
                -0.7359350919723511, 
                0.29164624214172363, 
                0.2889184355735779
            ]
        }, 
        "Node_4": {
            "bias": 0.544711172580719, 
            "weights": [
                0.14539499580860138, 
                0.030283596366643906, 
                0.23694545030593872, 
                -0.043199606239795685, 
                0.6020545959472656, 
                0.12221921980381012, 
                0.49789902567863464, 
                0.013749309815466404, 
                -0.32059192657470703, 
                -0.232052743434906, 
                -0.5428131818771362, 
                -0.07201254367828369, 
                0.5220215320587158, 
                -0.20080071687698364, 
                -0.5134128332138062, 
                -0.29102998971939087, 
                -0.10417085140943527, 
                0.0695444643497467, 
                0.2552902102470398, 
                -0.11860258132219315, 
                -0.6909894347190857, 
                -0.05011787265539169, 
                0.3362395465373993, 
                -0.0031177380587905645, 
                -0.06687445938587189, 
                -0.031445134431123734, 
                -0.058694880455732346, 
                0.2690254747867584, 
                0.100828155875206, 
                -0.024725453928112984, 
                0.20356041193008423, 
                0.04131467267870903, 
                0.01847974956035614, 
                -0.026973526924848557, 
                0.08012686669826508, 
                0.08167695254087448, 
                -0.2723521292209625, 
                0.060469742864370346, 
                -0.0037522446364164352, 
                -0.10664685815572739, 
                -0.07705038040876389, 
                0.14267690479755402, 
                0.01277908030897379, 
                -0.17900268733501434, 
                0.21059054136276245, 
                -0.017385605722665787, 
                0.3697862923145294, 
                -0.24372190237045288, 
                0.37227174639701843, 
                0.07313914597034454, 
                0.2568340599536896, 
                -0.16618412733078003, 
                0.213045135140419, 
                -0.29002606868743896, 
                -0.006328892894089222, 
                0.27952897548675537, 
                0.32174941897392273, 
                -0.44586867094039917, 
                0.14310002326965332, 
                0.06554370373487473
            ]
        }, 
        "Node_3": {
            "bias": 0.2635652422904968, 
            "weights": [
                0.5001477599143982, 
                -0.10166733711957932, 
                -0.32334595918655396, 
                0.16326692700386047, 
                0.27294421195983887, 
                0.07108671963214874, 
                0.2511095106601715, 
                -0.5538444519042969, 
                -0.08408348262310028, 
                -0.8466177582740784, 
                -0.0006300191162154078, 
                0.09932214021682739, 
                0.05918632075190544, 
                0.19058574736118317, 
                -0.4040262997150421, 
                0.16134992241859436, 
                -0.2899668216705322, 
                0.12067649513483047, 
                -0.0004559595254249871, 
                0.07346553355455399, 
                -0.32108962535858154, 
                -0.640631914138794, 
                -0.08472234755754471, 
                -0.0680151879787445, 
                0.1642465740442276, 
                0.23734493553638458, 
                -0.5084702968597412, 
                -0.4523827135562897, 
                0.007101653143763542, 
                0.21476152539253235, 
                0.1897568702697754, 
                0.265127032995224, 
                -0.5336285829544067, 
                0.20963872969150543, 
                0.2804747521877289, 
                -0.000643286679405719, 
                0.15624040365219116, 
                -0.04899467155337334, 
                -0.6360467672348022, 
                0.43267157673835754, 
                -0.29246482253074646, 
                -0.05225204676389694, 
                0.05833223834633827, 
                -0.1328825205564499, 
                -0.04925321787595749, 
                -0.010420942679047585, 
                0.08559870719909668, 
                -0.11716163903474808, 
                0.1993871033191681, 
                -0.014689046889543533, 
                -0.23430657386779785, 
                0.23875269293785095, 
                -0.3597047030925751, 
                -0.8139029145240784, 
                -0.1662134826183319, 
                -0.36203357577323914, 
                0.14559444785118103, 
                -0.608414888381958, 
                -0.023169701918959618, 
                0.07698668539524078
            ]
        }, 
        "Node_2": {
            "bias": 0.04536234959959984, 
            "weights": [
                0.12250304222106934, 
                0.0009926860220730305, 
                -0.06944933533668518, 
                -0.09936322271823883, 
                -0.11472933739423752, 
                -0.26046207547187805, 
                0.0013890675036236644, 
                -0.06509114801883698, 
                -0.0004009110270999372, 
                -0.22738219797611237, 
                -0.43433070182800293, 
                -0.34937143325805664, 
                0.2862718999385834, 
                0.13058042526245117, 
                0.2537415623664856, 
                -0.08226215094327927, 
                0.4053770899772644, 
                0.19832968711853027, 
                -0.2815335690975189, 
                0.12501969933509827, 
                0.0918664038181305, 
                -0.4897840917110443, 
                -0.3064612150192261, 
                0.529094398021698, 
                0.2168383151292801, 
                -0.08294311165809631, 
                -0.019123829901218414, 
                -0.14325399696826935, 
                0.19671942293643951, 
                -0.15098543465137482, 
                -0.1959846317768097, 
                0.32347893714904785, 
                0.14654409885406494, 
                0.2734888792037964, 
                -0.1350148618221283, 
                0.14799271523952484, 
                -0.29754403233528137, 
                -0.2825562357902527, 
                0.17082390189170837, 
                0.17055366933345795, 
                0.09294374287128448, 
                0.2549073398113251, 
                0.0629691332578659, 
                -0.08903473615646362, 
                0.018862053751945496, 
                0.279462069272995, 
                0.06807059794664383, 
                0.19391869008541107, 
                -0.4315680265426636, 
                0.23281893134117126, 
                0.11870437115430832, 
                0.029071789234876633, 
                0.18852443993091583, 
                0.023256314918398857, 
                0.032786037772893906, 
                -0.1329059600830078, 
                -0.105147585272789, 
                -0.2551243007183075, 
                0.6666809916496277, 
                -0.02859366126358509
            ]
        }, 
        "Node_1": {
            "bias": 0.4287055730819702, 
            "weights": [
                0.03058479353785515, 
                -0.02237478829920292, 
                -0.08528999239206314, 
                -0.045294471085071564, 
                0.46480169892311096, 
                -0.10685190558433533, 
                0.3147304058074951, 
                0.20418138802051544, 
                -0.2138371765613556, 
                0.08601310104131699, 
                -0.16272707283496857, 
                0.06538354605436325, 
                0.04024331271648407, 
                0.09188642352819443, 
                -0.16455456614494324, 
                0.08097539842128754, 
                -0.07775247097015381, 
                -0.04302837327122688, 
                0.22796447575092316, 
                -0.2878698408603668, 
                -0.21079516410827637, 
                0.03412112966179848, 
                -0.28282293677330017, 
                -0.30711379647254944, 
                -0.4223681390285492, 
                0.20338697731494904, 
                -0.20822691917419434, 
                -0.08684198558330536, 
                0.04229474067687988, 
                -0.19062481820583344, 
                0.3514549434185028, 
                0.14043253660202026, 
                -0.38232091069221497, 
                0.17665910720825195, 
                0.11459679156541824, 
                0.011342361569404602, 
                0.22638000547885895, 
                0.03729083761572838, 
                0.2236335575580597, 
                -0.024256374686956406, 
                0.21705599129199982, 
                0.2126263678073883, 
                0.15323111414909363, 
                -0.3618321120738983, 
                0.14266401529312134, 
                -0.08291739970445633, 
                -0.39373719692230225, 
                0.09794517606496811, 
                0.5066086649894714, 
                0.21757015585899353, 
                -0.35021108388900757, 
                -0.1408383995294571, 
                0.10980980098247528, 
                -0.30158013105392456, 
                -0.07126031816005707, 
                0.3750118315219879, 
                0.41892826557159424, 
                -0.14757253229618073, 
                0.16977539658546448, 
                -0.011326732113957405
            ]
        }, 
        "Node_0": {
            "bias": 0.09275392442941666, 
            "weights": [
                -0.1650574952363968, 
                -0.017265306785702705, 
                0.3526124060153961, 
                0.041876357048749924, 
                -0.3003377318382263, 
                -0.156496062874794, 
                0.2915387451648712, 
                0.10121787339448929, 
                -0.04297519102692604, 
                -0.18557384610176086, 
                0.3401218354701996, 
                -0.09896281361579895, 
                -0.02249370515346527, 
                -0.004567497409880161, 
                0.25302761793136597, 
                0.09565839171409607, 
                0.3180156648159027, 
                0.09499504417181015, 
                -0.07331853359937668, 
                -0.3131205141544342, 
                -0.32829681038856506, 
                0.21102029085159302, 
                -0.3017743229866028, 
                -0.18953020870685577, 
                0.22515404224395752, 
                -0.3426704406738281, 
                0.2866221070289612, 
                0.153533935546875, 
                0.17182102799415588, 
                0.3414285182952881, 
                -0.32015618681907654, 
                0.44202888011932373, 
                0.19187361001968384, 
                0.21188834309577942, 
                0.15108883380889893, 
                0.1397145390510559, 
                0.19958215951919556, 
                0.009413134306669235, 
                0.08000621944665909, 
                0.24826951324939728, 
                -0.06055431067943573, 
                0.37417060136795044, 
                0.4384458661079407, 
                0.19296438992023468, 
                -0.15088097751140594, 
                -0.0788457840681076, 
                -0.10006921738386154, 
                -0.25862252712249756, 
                0.5045028924942017, 
                -0.23606809973716736, 
                0.0436030812561512, 
                -0.12850971519947052, 
                -0.2365049421787262, 
                -0.006119373720139265, 
                0.2816174328327179, 
                -0.1852797418832779, 
                0.18121108412742615, 
                -0.3491140604019165, 
                0.044966764748096466, 
                -0.5673155784606934
            ]
        }
    }, 
    "Layer_0": {
        "Node_39": {
            "bias": -0.04873967543244362, 
            "weights": [
                1.179760217666626, 
                0.07770544290542603, 
                0.3253679573535919, 
                0.09232641011476517, 
                0.6294430494308472, 
                0.4376908838748932, 
                0.11477018892765045, 
                -0.12547388672828674, 
                0.0354674756526947, 
                -0.4280146658420563, 
                -0.09284260869026184, 
                0.47343969345092773, 
                -0.14715667068958282, 
                -0.1916608363389969, 
                -0.08508821576833725, 
                -0.23465585708618164
            ]
        }, 
        "Node_38": {
            "bias": -0.024356255307793617, 
            "weights": [
                0.32091087102890015, 
                0.09884201735258102, 
                0.029184255748987198, 
                -0.034220293164253235, 
                -0.24421939253807068, 
                -0.3313271999359131, 
                0.7322396636009216, 
                -0.04803311079740524, 
                -0.22855591773986816, 
                0.10858731716871262, 
                0.06627651304006577, 
                0.049717530608177185, 
                -0.024349911138415337, 
                -0.24825340509414673, 
                -0.6613204479217529, 
                0.01050806138664484
            ]
        }, 
        "Node_19": {
            "bias": -0.012863615527749062, 
            "weights": [
                -0.1833680123090744, 
                -0.32069769501686096, 
                -0.020944448187947273, 
                0.360637903213501, 
                0.15279750525951385, 
                0.2508787214756012, 
                -0.0722837895154953, 
                0.17778009176254272, 
                0.1602230966091156, 
                0.2551182508468628, 
                0.03125108778476715, 
                0.17990288138389587, 
                -0.31055864691734314, 
                -0.21475128829479218, 
                0.19863882660865784, 
                -0.3806018531322479
            ]
        }, 
        "Node_18": {
            "bias": 0.5586709976196289, 
            "weights": [
                0.11947434395551682, 
                -0.11891915649175644, 
                -0.13877175748348236, 
                -0.026872649788856506, 
                0.08572471886873245, 
                -0.05933395400643349, 
                0.11653584986925125, 
                0.028265783563256264, 
                0.2807798385620117, 
                0.3906111717224121, 
                -0.12698130309581757, 
                0.24721568822860718, 
                -0.13179808855056763, 
                -0.05558047071099281, 
                -0.5885581374168396, 
                0.08536821603775024
            ]
        }, 
        "Node_17": {
            "bias": 0.26759448647499084, 
            "weights": [
                0.21695460379123688, 
                -0.19419588148593903, 
                -0.1030261367559433, 
                0.3501347005367279, 
                0.15414324402809143, 
                -0.3849266469478607, 
                -0.16533103585243225, 
                1.139770746231079, 
                0.0974525734782219, 
                -0.027665000408887863, 
                0.02633405476808548, 
                0.0010734944371506572, 
                0.16502271592617035, 
                -0.2393389493227005, 
                -0.15788260102272034, 
                0.049514543265104294
            ]
        }, 
        "Node_16": {
            "bias": 0.17484469711780548, 
            "weights": [
                -0.1625421792268753, 
                -0.16676893830299377, 
                0.45042282342910767, 
                -0.06736412644386292, 
                0.16919296979904175, 
                0.006210806779563427, 
                -0.40405869483947754, 
                0.3913685381412506, 
                0.09383814036846161, 
                -0.08328278362751007, 
                0.2830473482608795, 
                -0.25175511837005615, 
                -0.12394905090332031, 
                0.18359589576721191, 
                0.10079078376293182, 
                0.2235940545797348
            ]
        }, 
        "Node_15": {
            "bias": -0.025954214856028557, 
            "weights": [
                -0.19540663063526154, 
                -0.12408706545829773, 
                0.04751655086874962, 
                0.34497201442718506, 
                0.07667795568704605, 
                0.2308247834444046, 
                -0.08230569958686829, 
                -0.4169955551624298, 
                -0.66349196434021, 
                0.24151968955993652, 
                0.3961312770843506, 
                0.47842562198638916, 
                -0.18201345205307007, 
                -0.009060190059244633, 
                0.045594632625579834, 
                0.06517666578292847
            ]
        }, 
        "Node_14": {
            "bias": 0.3502914011478424, 
            "weights": [
                0.34805580973625183, 
                0.053069956600666046, 
                0.0816388726234436, 
                0.31078779697418213, 
                0.2736146152019501, 
                0.37636271119117737, 
                0.2774166762828827, 
                -0.5833737254142761, 
                0.10995066910982132, 
                0.10676715523004532, 
                0.056732866913080215, 
                -0.31580406427383423, 
                -0.3511694073677063, 
                0.016385754570364952, 
                -0.10473448038101196, 
                -0.07026844471693039
            ]
        }, 
        "Node_13": {
            "bias": 0.33871781826019287, 
            "weights": [
                0.2501765191555023, 
                0.18138869106769562, 
                0.04199429601430893, 
                -0.07128807157278061, 
                -0.19958774745464325, 
                -0.09686139971017838, 
                -0.2571411728858948, 
                0.07220247387886047, 
                -0.08114171773195267, 
                -0.18035352230072021, 
                -0.3048209249973297, 
                -0.015408482402563095, 
                0.043613456189632416, 
                0.21419845521450043, 
                0.17734947800636292, 
                0.5729416608810425
            ]
        }, 
        "Node_12": {
            "bias": -0.20382218062877655, 
            "weights": [
                -0.35285627841949463, 
                -0.046985018998384476, 
                -0.14959034323692322, 
                -0.08780918270349503, 
                -0.004365561529994011, 
                0.15379217267036438, 
                -0.333204060792923, 
                -0.10770999640226364, 
                -0.10478212684392929, 
                -0.11155713349580765, 
                -0.12153477221727371, 
                0.1540117710828781, 
                0.15803809463977814, 
                -0.1838083267211914, 
                -0.03887903317809105, 
                -0.17246142029762268
            ]
        }, 
        "Node_11": {
            "bias": -0.3214065730571747, 
            "weights": [
                -0.04363992065191269, 
                0.13255183398723602, 
                0.07987455278635025, 
                0.018278762698173523, 
                -0.14630264043807983, 
                0.01768810860812664, 
                0.04619094729423523, 
                -0.03215145319700241, 
                0.012123491615056992, 
                0.06641476601362228, 
                0.033950384706258774, 
                0.03817799314856529, 
                0.01616247370839119, 
                0.05776234716176987, 
                -0.00939639937132597, 
                -2.027971029281616
            ]
        }, 
        "Node_10": {
            "bias": 0.18752869963645935, 
            "weights": [
                -0.2180318832397461, 
                0.12106217443943024, 
                0.13085918128490448, 
                -0.4168544411659241, 
                -0.10804632306098938, 
                -0.14982308447360992, 
                0.6750589609146118, 
                -0.08575532585382462, 
                0.162712961435318, 
                -0.3298991322517395, 
                0.09417371451854706, 
                0.2635396122932434, 
                -0.2690192461013794, 
                0.05001422390341759, 
                0.12736833095550537, 
                0.2376805692911148
            ]
        }, 
        "Node_45": {
            "bias": -0.11746017634868622, 
            "weights": [
                -0.6776106953620911, 
                0.1566435545682907, 
                0.16037136316299438, 
                -0.03621077537536621, 
                -0.20531503856182098, 
                -0.2253984957933426, 
                -0.4920777976512909, 
                -0.15991321206092834, 
                0.27707213163375854, 
                -0.12897183001041412, 
                -0.042586930096149445, 
                -0.3781830370426178, 
                -0.06529586017131805, 
                -0.2526358962059021, 
                0.08968308568000793, 
                0.3307498097419739
            ]
        }, 
        "Node_31": {
            "bias": 0.2716076374053955, 
            "weights": [
                0.21828356385231018, 
                0.038233738392591476, 
                0.10466841608285904, 
                0.17270107567310333, 
                -0.2957034111022949, 
                -0.027168532833456993, 
                0.01246926374733448, 
                0.4554593563079834, 
                0.18999071419239044, 
                -0.2051418423652649, 
                0.1931956559419632, 
                -0.4817221760749817, 
                -0.030313920229673386, 
                -0.3328304588794708, 
                -0.056097205728292465, 
                -0.10559345036745071
            ]
        }, 
        "Node_40": {
            "bias": -0.19328144192695618, 
            "weights": [
                -0.010627681389451027, 
                -0.043158456683158875, 
                0.02575596421957016, 
                -0.2565097212791443, 
                -0.37681901454925537, 
                0.3865933418273926, 
                -0.46968531608581543, 
                0.12988384068012238, 
                -0.2897596061229706, 
                0.06512393057346344, 
                -0.1312400847673416, 
                0.09453053027391434, 
                0.22110961377620697, 
                -0.3430177569389343, 
                -0.17327705025672913, 
                -0.031055286526679993
            ]
        }, 
        "Node_41": {
            "bias": 0.020587071776390076, 
            "weights": [
                0.3123238980770111, 
                -0.030377766117453575, 
                0.04820239543914795, 
                -0.20811627805233002, 
                0.05097618326544762, 
                0.37052294611930847, 
                -0.005955258384346962, 
                -0.08379535377025604, 
                -0.21441401541233063, 
                -0.024012867361307144, 
                -0.15769299864768982, 
                0.3961777985095978, 
                0.12643159925937653, 
                -0.1781080812215805, 
                -0.9158560633659363, 
                -0.14350315928459167
            ]
        }, 
        "Node_42": {
            "bias": -0.15158586204051971, 
            "weights": [
                0.014610704965889454, 
                0.10193124413490295, 
                0.16501756012439728, 
                -0.5503139495849609, 
                0.24309507012367249, 
                -0.15053804218769073, 
                -0.24875527620315552, 
                -0.08689509332180023, 
                -0.3155106008052826, 
                0.0832107812166214, 
                -0.12656867504119873, 
                -0.29269838333129883, 
                0.17152772843837738, 
                -0.1831858903169632, 
                0.3114023804664612, 
                -0.2989695072174072
            ]
        }, 
        "Node_26": {
            "bias": 0.2626488506793976, 
            "weights": [
                0.031140867620706558, 
                0.013702664524316788, 
                -0.2301504909992218, 
                0.029232440516352654, 
                0.23960141837596893, 
                -0.11280292272567749, 
                -0.043544940650463104, 
                -0.11109708249568939, 
                0.15455396473407745, 
                -0.38436296582221985, 
                0.34734687209129333, 
                -0.03234170377254486, 
                0.2517944872379303, 
                -0.2390020787715912, 
                0.4014691412448883, 
                0.23971465229988098
            ]
        }, 
        "Node_27": {
            "bias": -0.20846402645111084, 
            "weights": [
                -0.4875738322734833, 
                0.3270440995693207, 
                -0.15938402712345123, 
                0.38765981793403625, 
                -0.047336794435977936, 
                -0.02738412655889988, 
                -0.11753187328577042, 
                0.06950335204601288, 
                0.0573454312980175, 
                0.12789574265480042, 
                -0.28299084305763245, 
                -0.471853107213974, 
                -0.1976260393857956, 
                -0.13754384219646454, 
                -0.08214006572961807, 
                0.02646356076002121
            ]
        }, 
        "Node_24": {
            "bias": 0.3652995526790619, 
            "weights": [
                0.04141717404127121, 
                -0.13725948333740234, 
                -0.0005207236972637475, 
                -0.4303191900253296, 
                0.04638959839940071, 
                0.16857799887657166, 
                -0.07307807356119156, 
                0.29480230808258057, 
                0.3529227077960968, 
                -0.21338152885437012, 
                -0.17510004341602325, 
                -0.2584865093231201, 
                -0.040557656437158585, 
                0.0004557403735816479, 
                0.10815945267677307, 
                0.15348991751670837
            ]
        }, 
        "Node_25": {
            "bias": 0.08388261497020721, 
            "weights": [
                -0.028334669768810272, 
                -0.10359979420900345, 
                0.08067984879016876, 
                -0.0464504100382328, 
                0.050173550844192505, 
                0.07166527211666107, 
                0.040105462074279785, 
                0.06486882269382477, 
                -0.4336157441139221, 
                0.327705979347229, 
                0.12835179269313812, 
                0.012699559330940247, 
                -0.08241195976734161, 
                0.04425198212265968, 
                -1.0752284526824951, 
                -0.05330667272210121
            ]
        }, 
        "Node_22": {
            "bias": 0.29445841908454895, 
            "weights": [
                0.07479164749383926, 
                0.04220084100961685, 
                -0.029861334711313248, 
                -0.3651685416698456, 
                -0.1334485411643982, 
                -0.2686178982257843, 
                0.16068848967552185, 
                0.47912147641181946, 
                -0.10934550315141678, 
                -0.10651493072509766, 
                0.09232894331216812, 
                0.2141321301460266, 
                -0.1588260382413864, 
                -0.1985297054052353, 
                -0.18717637658119202, 
                -0.14644137024879456
            ]
        }, 
        "Node_23": {
            "bias": 0.6493600606918335, 
            "weights": [
                0.170819953083992, 
                0.3135765790939331, 
                -0.2583681046962738, 
                0.04321328178048134, 
                -0.1572188436985016, 
                0.04695538431406021, 
                -0.00011869306035805494, 
                0.36502623558044434, 
                0.2022431194782257, 
                0.06444817036390305, 
                0.008438125252723694, 
                0.09003067016601562, 
                0.09078725427389145, 
                0.21867871284484863, 
                0.04307616874575615, 
                0.07912552356719971
            ]
        }, 
        "Node_20": {
            "bias": 0.22161033749580383, 
            "weights": [
                0.4599469006061554, 
                0.20562569797039032, 
                0.08726397156715393, 
                0.08223906904459, 
                0.07569262385368347, 
                0.4012375771999359, 
                0.06011812761425972, 
                -0.531291663646698, 
                -0.11514681577682495, 
                0.19672265648841858, 
                0.17774587869644165, 
                0.15974214673042297, 
                -0.3868689239025116, 
                0.27312734723091125, 
                0.05351688340306282, 
                0.012956518679857254
            ]
        }, 
        "Node_21": {
            "bias": 0.43563416600227356, 
            "weights": [
                -0.13800877332687378, 
                0.059487421065568924, 
                0.07921698689460754, 
                -0.15457549691200256, 
                -0.10359945148229599, 
                0.017584454268217087, 
                0.094419464468956, 
                0.16716310381889343, 
                0.6361712217330933, 
                0.19862677156925201, 
                -0.06423894315958023, 
                -0.17422950267791748, 
                0.04311951622366905, 
                -0.06381114572286606, 
                -0.3751559853553772, 
                -0.12348692119121552
            ]
        }, 
        "Node_30": {
            "bias": 0.45763465762138367, 
            "weights": [
                0.31014975905418396, 
                0.15584413707256317, 
                0.1248193010687828, 
                0.09026288986206055, 
                -0.0476539321243763, 
                -0.23775260150432587, 
                0.16804109513759613, 
                0.5000935792922974, 
                -0.019232118502259254, 
                0.1372131109237671, 
                -0.17202220857143402, 
                0.15899720788002014, 
                0.14166420698165894, 
                -0.20351222157478333, 
                -0.3753013014793396, 
                -0.4437119662761688
            ]
        }, 
        "Node_44": {
            "bias": -0.34449946880340576, 
            "weights": [
                0.06389762461185455, 
                -0.08401593565940857, 
                0.20634695887565613, 
                -0.18875651061534882, 
                0.030522285029292107, 
                -0.19366759061813354, 
                -0.4833204448223114, 
                -0.5422148704528809, 
                -0.4217827022075653, 
                -0.012619897723197937, 
                -0.1482848823070526, 
                -0.24374175071716309, 
                -0.054635293781757355, 
                0.0921962633728981, 
                -0.29490038752555847, 
                0.03174014762043953
            ]
        }, 
        "Node_33": {
            "bias": 0.11560222506523132, 
            "weights": [
                -0.0840568020939827, 
                -0.013922272250056267, 
                -0.17182081937789917, 
                -0.07315206527709961, 
                -0.10867375880479813, 
                -0.26120150089263916, 
                -0.15832814574241638, 
                -0.05319124087691307, 
                0.34253329038619995, 
                0.06226596608757973, 
                0.18306216597557068, 
                -0.18674618005752563, 
                -0.0059129539877176285, 
                0.041704896837472916, 
                0.02171863242983818, 
                -0.16324543952941895
            ]
        }, 
        "Node_28": {
            "bias": 0.44855988025665283, 
            "weights": [
                0.2562488615512848, 
                -0.061659399420022964, 
                -0.0035406206734478474, 
                -0.09362173080444336, 
                0.10113135725259781, 
                0.06972669064998627, 
                0.023974688723683357, 
                0.3240618407726288, 
                0.2732594311237335, 
                -0.014427699148654938, 
                -0.14044301211833954, 
                -0.12411382049322128, 
                0.1289604753255844, 
                0.037718553096055984, 
                0.20576342940330505, 
                -0.6909320950508118
            ]
        }, 
        "Node_29": {
            "bias": 0.5651914477348328, 
            "weights": [
                0.040743183344602585, 
                0.11663568019866943, 
                -0.005686021875590086, 
                -0.18643586337566376, 
                0.4423852264881134, 
                0.21181796491146088, 
                0.38876715302467346, 
                0.3531700670719147, 
                0.19569119811058044, 
                0.1472071409225464, 
                0.05102214217185974, 
                0.3382722735404968, 
                0.012021145783364773, 
                -0.21553340554237366, 
                -0.21697843074798584, 
                -0.38292360305786133
            ]
        }, 
        "Node_32": {
            "bias": 0.3644837439060211, 
            "weights": [
                0.002803449286147952, 
                -0.1543770432472229, 
                0.057294584810733795, 
                0.1365097314119339, 
                0.05986699089407921, 
                -0.3158884346485138, 
                0.20918889343738556, 
                0.2004849910736084, 
                0.32561010122299194, 
                0.32336628437042236, 
                0.23777689039707184, 
                -0.17188332974910736, 
                0.12329933792352676, 
                -0.36872053146362305, 
                -0.08466926962137222, 
                -0.32507047057151794
            ]
        }, 
        "Node_46": {
            "bias": -0.1018296480178833, 
            "weights": [
                -0.18972675502300262, 
                -0.08703862875699997, 
                -0.2371605634689331, 
                0.4215990900993347, 
                0.11601243913173676, 
                0.05849572643637657, 
                -0.21299730241298676, 
                -0.27394378185272217, 
                -0.05436955764889717, 
                0.018809055909514427, 
                -0.21167805790901184, 
                0.16887147724628448, 
                0.12195121496915817, 
                0.17243364453315735, 
                -0.650377631187439, 
                -0.34437865018844604
            ]
        }, 
        "Node_35": {
            "bias": -0.19631162285804749, 
            "weights": [
                -0.5987705588340759, 
                0.21847017109394073, 
                0.032981570810079575, 
                -0.07686694711446762, 
                -0.23350457847118378, 
                -0.25860339403152466, 
                -0.33626267313957214, 
                -0.6381168365478516, 
                0.24879516661167145, 
                -0.053981587290763855, 
                0.04313822090625763, 
                0.19386036694049835, 
                0.16676966845989227, 
                0.08991833031177521, 
                -0.05545865371823311, 
                0.016423216089606285
            ]
        }, 
        "Node_47": {
            "bias": -0.26589104533195496, 
            "weights": [
                0.043457940220832825, 
                -0.005017436575144529, 
                0.04767950624227524, 
                -0.13646699488162994, 
                -0.016140056774020195, 
                0.2458423525094986, 
                0.02519671805202961, 
                0.06327900290489197, 
                -1.03302001953125, 
                0.32857152819633484, 
                -0.035803861916065216, 
                -0.06015558913350105, 
                0.004201599862426519, 
                -0.1312340646982193, 
                0.059247564524412155, 
                0.02932802587747574
            ]
        }, 
        "Node_34": {
            "bias": -0.05301565304398537, 
            "weights": [
                -0.01549982838332653, 
                -0.24252143502235413, 
                0.11636676639318466, 
                -0.0945863202214241, 
                0.1050904169678688, 
                0.11143326014280319, 
                -0.2303362637758255, 
                0.2548366189002991, 
                0.2652440369129181, 
                -0.3460899591445923, 
                -0.016031427308917046, 
                0.1879708617925644, 
                -0.10492070019245148, 
                0.32842060923576355, 
                0.029154883697628975, 
                -0.8592503666877747
            ]
        }, 
        "Node_48": {
            "bias": -0.17695944011211395, 
            "weights": [
                -0.28762710094451904, 
                0.0007143227849155664, 
                -0.05512247234582901, 
                0.3655138611793518, 
                0.024143051356077194, 
                -0.06439299881458282, 
                -0.0887959823012352, 
                -0.29598334431648254, 
                0.4224185347557068, 
                -0.07471410930156708, 
                0.04069069027900696, 
                -0.20519959926605225, 
                -0.022602200508117676, 
                0.07675635814666748, 
                -0.6187201142311096, 
                -0.6494791507720947
            ]
        }, 
        "Node_37": {
            "bias": -0.3387601375579834, 
            "weights": [
                -0.12474973499774933, 
                0.13148242235183716, 
                -0.056399598717689514, 
                0.07494347542524338, 
                -0.08382292836904526, 
                0.05173298344016075, 
                -0.029948195442557335, 
                -0.05291050672531128, 
                -0.6202633380889893, 
                -0.09575674682855606, 
                0.007768552750349045, 
                -0.2673945426940918, 
                0.24967703223228455, 
                0.07179133594036102, 
                -0.3509804308414459, 
                -0.08313674479722977
            ]
        }, 
        "Node_49": {
            "bias": -0.2629137635231018, 
            "weights": [
                -0.21172040700912476, 
                -0.18328465521335602, 
                -0.17241062223911285, 
                0.02846333384513855, 
                -0.3610661029815674, 
                -0.3807682693004608, 
                0.4917214512825012, 
                -0.4518815875053406, 
                -0.03258268162608147, 
                -0.0005991456564515829, 
                0.08418361842632294, 
                -0.059538424015045166, 
                0.31627535820007324, 
                0.056554101407527924, 
                0.0526883602142334, 
                0.05844821035861969
            ]
        }, 
        "Node_36": {
            "bias": -0.20627889037132263, 
            "weights": [
                -0.14325755834579468, 
                -0.0011416985653340816, 
                -0.1744668185710907, 
