{
    "Layer_1": {
        "Node_19": {
            "bias": 0.03926534205675125, 
            "weights": [
                -0.009138780646026134, 
                0.20600512623786926, 
                -0.3781891167163849, 
                0.1092885285615921, 
                0.02559744380414486, 
                -0.12895892560482025, 
                -0.20054905116558075, 
                0.3286064863204956, 
                0.10035090893507004, 
                -0.0207204706966877, 
                -0.002671661553904414, 
                0.29671695828437805, 
                -0.2834216058254242, 
                0.04816445708274841, 
                0.025127606466412544, 
                -0.1935335397720337, 
                -0.024138309061527252, 
                0.19208058714866638, 
                -0.4326976239681244, 
                -0.9415169358253479, 
                0.02660820074379444, 
                0.397041380405426, 
                0.09014862775802612, 
                -0.30798232555389404, 
                -0.1741400957107544, 
                0.14842401444911957, 
                0.2431524246931076, 
                0.12755388021469116, 
                -0.27487054467201233, 
                -0.16921237111091614, 
                0.07525116205215454, 
                -0.5978754162788391, 
                0.10549119859933853, 
                0.011160176247358322, 
                0.33852681517601013, 
                -0.0979284942150116, 
                0.1745287925004959, 
                0.17330947518348694, 
                -0.18999792635440826, 
                0.26612767577171326, 
                0.3982747197151184, 
                0.04264017194509506, 
                -0.16821113228797913, 
                -0.47977685928344727, 
                -0.27484092116355896, 
                0.002873407443985343, 
                -0.5870046019554138, 
                0.19963012635707855, 
                0.16645507514476776, 
                0.09721203148365021, 
                0.07192426919937134, 
                0.02021637372672558, 
                0.3078036904335022, 
                0.1982002556324005, 
                0.25071436166763306, 
                -0.3471410870552063, 
                -0.21200743317604065, 
                0.19594267010688782, 
                0.1937490850687027, 
                -0.06126180663704872
            ]
        }, 
        "Node_18": {
            "bias": -0.01250112522393465, 
            "weights": [
                -0.20440901815891266, 
                0.021686837077140808, 
                -0.08113204687833786, 
                -0.21480976045131683, 
                -0.17533549666404724, 
                0.2000032365322113, 
                0.23099003732204437, 
                0.33269578218460083, 
                0.23300199210643768, 
                0.12699149549007416, 
                0.20020447671413422, 
                0.1741221398115158, 
                0.3073250651359558, 
                0.12502148747444153, 
                0.16598385572433472, 
                0.24480344355106354, 
                -0.5330809950828552, 
                0.12680384516716003, 
                0.43089988827705383, 
                0.07565200328826904, 
                -0.07756742835044861, 
                0.4152161478996277, 
                0.1156296655535698, 
                0.15426971018314362, 
                0.05362030118703842, 
                0.04289675131440163, 
                0.4486662447452545, 
                -0.17770065367221832, 
                -0.13310091197490692, 
                -0.2715905010700226, 
                0.1415564864873886, 
                -0.03405878320336342, 
                -0.015989715233445168, 
                -0.11130952090024948, 
                0.06541093438863754, 
                0.2845906615257263, 
                0.12088288366794586, 
                0.07880249619483948, 
                -0.18781091272830963, 
                0.2546238899230957, 
                0.35193052887916565, 
                -0.003523004474118352, 
                0.3679303526878357, 
                0.05970954895019531, 
                -0.17416012287139893, 
                0.019953440874814987, 
                0.22685779631137848, 
                -0.08705393224954605, 
                0.220850870013237, 
                0.029703214764595032, 
                -0.11015857011079788, 
                0.20803852379322052, 
                -0.18139173090457916, 
                0.18812258541584015, 
                -0.06834333389997482, 
                0.04794023185968399, 
                0.2824249565601349, 
                -0.16402265429496765, 
                -0.13676747679710388, 
                -0.0039272913709282875
            ]
        }, 
        "Node_17": {
            "bias": 0.1898336112499237, 
            "weights": [
                0.12582571804523468, 
                -0.11847840249538422, 
                0.2382836788892746, 
                0.13385117053985596, 
                0.18115077912807465, 
                0.12712404131889343, 
                0.18528960645198822, 
                -0.19011053442955017, 
                -0.17842409014701843, 
                0.23744544386863708, 
                0.2929496169090271, 
                -0.2669983506202698, 
                0.03931385278701782, 
                -0.008935426361858845, 
                0.29898834228515625, 
                0.221649169921875, 
                -0.02726844884455204, 
                0.038324031978845596, 
                0.14115673303604126, 
                -0.06837459653615952, 
                0.024545514956116676, 
                0.1707608550786972, 
                -0.11940173804759979, 
                0.0991896465420723, 
                -0.3110933303833008, 
                0.17955182492733002, 
                -0.04666917398571968, 
                -0.09303739666938782, 
                0.11053398251533508, 
                0.17348068952560425, 
                0.3286380469799042, 
                0.49450790882110596, 
                0.17501428723335266, 
                -0.00602604728192091, 
                -0.10835671424865723, 
                0.14963972568511963, 
                0.18179228901863098, 
                -0.09426362067461014, 
                -0.0623670294880867, 
                0.10202926397323608, 
                -0.25807520747184753, 
                0.1746605783700943, 
                -0.1491803377866745, 
                -0.21081244945526123, 
                0.5680252909660339, 
                -0.059852395206689835, 
                -0.15871934592723846, 
                -0.06445677578449249, 
                0.045632824301719666, 
                -0.12265662848949432, 
                0.07532932609319687, 
                -0.3142915368080139, 
                0.14378729462623596, 
                0.0045052035711705685, 
                -0.33234456181526184, 
                0.1861814558506012, 
                -0.7697644829750061, 
                0.04394588619470596, 
                -0.22359056770801544, 
                0.3372964560985565
            ]
        }, 
        "Node_16": {
            "bias": 0.13287632167339325, 
            "weights": [
                -0.06494145095348358, 
                0.3817451000213623, 
                -0.028695428743958473, 
                0.08903250098228455, 
                -0.47950419783592224, 
                -0.09093127399682999, 
                -0.08704391121864319, 
                0.6556529998779297, 
                -0.3748367130756378, 
                -0.0871768593788147, 
                -0.1069871336221695, 
                0.17085528373718262, 
                -0.4221348762512207, 
                0.531406581401825, 
                0.1297009289264679, 
                -0.1680735945701599, 
                0.2803468704223633, 
                -0.1427517533302307, 
                -0.11172156780958176, 
                -0.42896780371665955, 
                0.3492545485496521, 
                -0.34442025423049927, 
                -1.3917527198791504, 
                0.4612045884132385, 
                -0.4114769697189331, 
                -0.11521539092063904, 
                -0.3569909930229187, 
                -0.9620652198791504, 
                0.1373283416032791, 
                0.3027235269546509, 
                0.18965530395507812, 
                0.049205951392650604, 
                0.15808548033237457, 
                0.4540649354457855, 
                0.030730674043297768, 
                -0.2815443277359009, 
                0.03749167546629906, 
                0.21615779399871826, 
                0.05721242353320122, 
                0.2751988470554352, 
                -0.15163153409957886, 
                -0.37705591320991516, 
                -0.0379108265042305, 
                -0.2036830186843872, 
                -0.17593447864055634, 
                -0.13525351881980896, 
                0.03225108981132507, 
                -0.7780166268348694, 
                -0.11700572073459625, 
                0.03191785141825676, 
                -0.4575110971927643, 
                0.07327881455421448, 
                0.16607597470283508, 
                -0.044333674013614655, 
                0.18429675698280334, 
                -0.1307390034198761, 
                0.08705786615610123, 
                0.17373338341712952, 
                -0.11620122194290161, 
                -0.1409754604101181
            ]
        }, 
        "Node_15": {
            "bias": 0.02476847544312477, 
            "weights": [
                -0.1899222731590271, 
                -0.10625749826431274, 
                0.0012914520921185613, 
                -0.12220609188079834, 
                0.18878288567066193, 
                0.07624078541994095, 
                -0.25212422013282776, 
                0.25485411286354065, 
                -0.2740962505340576, 
                0.21703414618968964, 
                0.1502949297428131, 
                -0.5824546217918396, 
                0.4713469445705414, 
                -0.2605278491973877, 
                0.0571802482008934, 
                0.4088646471500397, 
                0.04145868495106697, 
                0.14687730371952057, 
                -0.1510656476020813, 
                -0.09171704947948456, 
                0.005279749631881714, 
                0.01479494757950306, 
                -0.07977291941642761, 
                0.10727286338806152, 
                -0.01694353297352791, 
                -0.14771579205989838, 
                0.2820613384246826, 
                -0.035845816135406494, 
                -0.23886635899543762, 
                -0.0675346776843071, 
                -0.11651746183633804, 
                -0.1028251051902771, 
                0.2080308049917221, 
                -0.2153969705104828, 
                0.3855386972427368, 
                0.22120244801044464, 
                -0.17395026981830597, 
                -0.45672595500946045, 
                0.11804257333278656, 
                -0.17207814753055573, 
                0.32700520753860474, 
                -0.06895282119512558, 
                0.3876979947090149, 
                -0.044335056096315384, 
                0.4259582757949829, 
                0.28078678250312805, 
                -0.1701861321926117, 
                0.07614530622959137, 
                0.10754137486219406, 
                0.4716697037220001, 
                0.2898823320865631, 
                0.03395361825823784, 
                -0.09784401208162308, 
                0.037300825119018555, 
                -0.1006026417016983, 
                0.33149877190589905, 
                0.21220099925994873, 
                0.16206541657447815, 
                -0.20631764829158783, 
                -0.025935884565114975
            ]
        }, 
        "Node_14": {
            "bias": 0.16135698556900024, 
            "weights": [
                0.013083736412227154, 
                0.16091188788414001, 
                0.15970169007778168, 
                -0.19199097156524658, 
                -0.05411618947982788, 
                -0.1066397875547409, 
                -0.15889810025691986, 
                0.019969400018453598, 
                -0.10949322581291199, 
                0.17632491886615753, 
                0.2647833228111267, 
                -0.01496819406747818, 
                -0.078392893075943, 
                0.31372013688087463, 
                0.10940553992986679, 
                0.17438896000385284, 
                0.28306278586387634, 
                -0.12861992418766022, 
                -0.2324359267950058, 
                -0.47751176357269287, 
                0.5750085711479187, 
                0.13849353790283203, 
                0.24456872045993805, 
                0.03378302976489067, 
                0.14564679563045502, 
                -0.24906256794929504, 
                0.035617999732494354, 
                0.14561930298805237, 
                -0.4553528428077698, 
                -0.13573181629180908, 
                -0.139828160405159, 
                0.024468030780553818, 
                0.031058097258210182, 
                0.09219638258218765, 
                -0.29669487476348877, 
                -0.17191451787948608, 
                0.1336822211742401, 
                0.3336107134819031, 
                -0.04467874765396118, 
                -0.18902559578418732, 
                0.018301501870155334, 
                0.3389289379119873, 
                -0.22753660380840302, 
                -0.28482693433761597, 
                0.6612545847892761, 
                0.004905254580080509, 
                0.2841778099536896, 
                -0.2584248483181, 
                0.10794191807508469, 
                -0.2302485853433609, 
                -0.048055920749902725, 
                -0.09644686430692673, 
                0.277630478143692, 
                -0.08444182574748993, 
                0.2839715778827667, 
                -0.0861118882894516, 
                -0.42550668120384216, 
                0.30480334162712097, 
                -0.08759024739265442, 
                0.2687969207763672
            ]
        }, 
        "Node_13": {
            "bias": 0.15959864854812622, 
            "weights": [
                0.0186869315803051, 
                0.1102462038397789, 
                0.2923482060432434, 
                -0.13253076374530792, 
                0.18041445314884186, 
                -0.006759084295481443, 
                -0.25579410791397095, 
                0.33236441016197205, 
                0.35372447967529297, 
                -0.32974866032600403, 
                0.056159697473049164, 
                0.32183167338371277, 
                0.12638559937477112, 
                0.16038116812705994, 
                -0.2673230469226837, 
                -0.11349647492170334, 
                -0.5608052611351013, 
                0.31528449058532715, 
                0.12073758989572525, 
                -0.0960550308227539, 
                0.06902206689119339, 
                -0.007616247050464153, 
                0.04582033306360245, 
                0.26888591051101685, 
                -0.23304414749145508, 
                0.04344474896788597, 
                -0.21659129858016968, 
                0.18640656769275665, 
                -0.09601475298404694, 
                0.1428753137588501, 
                0.028967851772904396, 
                -0.06523190438747406, 
                -0.42256712913513184, 
                -0.12422256171703339, 
                -0.001491642091423273, 
                0.20140579342842102, 
                0.17862732708454132, 
                -0.0038789098616689444, 
                0.05717112869024277, 
                0.13663190603256226, 
                0.21910695731639862, 
                0.38595911860466003, 
                0.03648851066827774, 
                -0.2744448781013489, 
                -0.5355092883110046, 
                -0.3897443413734436, 
                0.012231730856001377, 
                0.05302930623292923, 
                0.32429471611976624, 
                -0.06050797924399376, 
                -0.11672160774469376, 
                -0.3615768551826477, 
                0.16819359362125397, 
                0.04785537347197533, 
                -0.2853734493255615, 
                0.38432547450065613, 
                -0.264123797416687, 
                0.0010289506753906608, 
                -0.21001596748828888, 
                0.06074747443199158
            ]
        }, 
        "Node_12": {
            "bias": -0.16643942892551422, 
            "weights": [
                0.13732096552848816, 
                0.02494632638990879, 
                0.10977507382631302, 
                -0.20625954866409302, 
                0.17638656497001648, 
                0.12996181845664978, 
                -0.14465300738811493, 
                -0.02246289886534214, 
                -0.4300922751426697, 
                0.3249267041683197, 
                0.5240694284439087, 
                0.13683365285396576, 
                -0.4513797461986542, 
                0.15976400673389435, 
                0.25815680623054504, 
                -0.4862498641014099, 
                -0.4365141987800598, 
                0.09423962235450745, 
                0.4162200689315796, 
                0.09116727858781815, 
                0.006378860678523779, 
                0.1215730831027031, 
                0.3246844410896301, 
                -0.2867443561553955, 
                -0.13444210588932037, 
                -0.22419020533561707, 
                -0.15575042366981506, 
                -0.13032948970794678, 
                0.20627079904079437, 
                0.2751469314098358, 
                0.1929018199443817, 
                0.07516157627105713, 
                0.12472005933523178, 
                0.5750609636306763, 
                -0.027707001194357872, 
                -0.13610491156578064, 
                0.2959989309310913, 
                -0.37465086579322815, 
                -0.017819715663790703, 
                -0.13522538542747498, 
                0.07336825132369995, 
                0.05772566795349121, 
                -0.10915340483188629, 
                -0.14007213711738586, 
                -0.008100047707557678, 
                -0.3754531145095825, 
                0.04698426276445389, 
                -0.8113248944282532, 
                -0.41955551505088806, 
                -0.09030456840991974, 
                -0.30315467715263367, 
                0.18809258937835693, 
                -0.08563872426748276, 
                0.5374029874801636, 
                -0.46454328298568726, 
                0.24327008426189423, 
                0.07288216054439545, 
                0.08093440532684326, 
                0.3860430419445038, 
                -0.3591192960739136
            ]
        }, 
        "Node_11": {
            "bias": -0.010036387480795383, 
            "weights": [
                0.23814091086387634, 
                -0.2877572774887085, 
                0.34776365756988525, 
                -0.7854543328285217, 
                -0.054399244487285614, 
                0.3862023949623108, 
                -0.6175512075424194, 
                -0.40306103229522705, 
                0.11730444431304932, 
                0.31871041655540466, 
                0.061440736055374146, 
                -0.13095241785049438, 
                -0.22150132060050964, 
                -0.011372175998985767, 
                -0.028587790206074715, 
                0.15035130083560944, 
                0.21574130654335022, 
                -0.46062272787094116, 
                0.27365022897720337, 
                -0.0832490622997284, 
                -0.22139880061149597, 
                0.06726802885532379, 
                0.017916115000844002, 
                -0.16074980795383453, 
                -0.4141237437725067, 
                0.27674415707588196, 
                0.2739206552505493, 
                -0.18278807401657104, 
                -0.3096615970134735, 
                -0.38154929876327515, 
                -0.24034272134304047, 
                0.22816582024097443, 
                0.04694315418601036, 
                -0.30351752042770386, 
                0.13018426299095154, 
                -0.029194705188274384, 
                -0.14383068680763245, 
                -0.0162060484290123, 
                0.15985634922981262, 
                -0.388918936252594, 
                -0.048367954790592194, 
                -0.23108980059623718, 
                0.48624178767204285, 
                -0.21141484379768372, 
                -0.009904585778713226, 
                0.2625698447227478, 
                0.0910131186246872, 
                -0.29683828353881836, 
                0.1361369788646698, 
                -0.5317674279212952, 
                -0.27340689301490784, 
                -0.08082704991102219, 
                -0.14388351142406464, 
                -0.055152371525764465, 
                0.10349804162979126, 
                0.4059855043888092, 
                -0.4768742024898529, 
                0.025994090363383293, 
                0.18009942770004272, 
                0.20654693245887756
            ]
        }, 
        "Node_10": {
            "bias": -0.12385063618421555, 
            "weights": [
                0.07322950661182404, 
                0.05484304577112198, 
                -0.15286727249622345, 
                0.12547948956489563, 
                -0.1713835895061493, 
                -0.02962019480764866, 
                0.3350389003753662, 
                -0.1827484369277954, 
                -0.11360713839530945, 
                -0.05907360464334488, 
                0.28905490040779114, 
                0.10004589706659317, 
                0.07630617171525955, 
                0.03858966380357742, 
                -0.005306132137775421, 
                -0.04858468845486641, 
                0.12123552709817886, 
                0.1854461431503296, 
                0.1830572485923767, 
                0.30437788367271423, 
                -0.07353128492832184, 
                -0.2867072522640228, 
                -0.061291322112083435, 
                0.001207187888212502, 
                0.3232197165489197, 
                0.2144940197467804, 
                0.05642127990722656, 
                0.11945648491382599, 
                0.32289302349090576, 
                0.4252246618270874, 
                0.09127059578895569, 
                0.3952726721763611, 
                0.1475086659193039, 
                0.31101709604263306, 
                0.3080609440803528, 
                0.1257658153772354, 
                -0.08467993140220642, 
                -0.12802429497241974, 
                0.18136043846607208, 
                0.2049528956413269, 
                -0.012911326251924038, 
                0.07507698237895966, 
                -0.10407666116952896, 
                0.18523184955120087, 
                0.5972287654876709, 
                0.20530115067958832, 
                0.39868175983428955, 
                0.3091874122619629, 
                0.02765091508626938, 
                0.2195168137550354, 
                0.23571163415908813, 
                -0.11789960414171219, 
                0.03113655373454094, 
                -0.056892137974500656, 
                -0.13168369233608246, 
                -0.03041202574968338, 
                0.25811442732810974, 
                0.25960227847099304, 
                0.11357288807630539, 
                -0.4160531759262085
            ]
        }, 
        "Node_26": {
            "bias": 0.37684646248817444, 
            "weights": [
                -0.2228870987892151, 
                -0.19601565599441528, 
                0.06923510134220123, 
                -0.15099436044692993, 
                0.0780043676495552, 
                -0.17358295619487762, 
                0.26392364501953125, 
                0.20101787149906158, 
                -0.3481816351413727, 
                0.4240824580192566, 
                0.47612011432647705, 
                0.008252616040408611, 
                -0.20893032848834991, 
                -0.45216435194015503, 
                -0.031051473692059517, 
                -0.18737012147903442, 
                0.03526289388537407, 
                -0.15322867035865784, 
                0.3913532495498657, 
                -0.2707267105579376, 
                0.5315654873847961, 
                -0.11879771947860718, 
                0.03741434961557388, 
                -0.1231512501835823, 
                -0.17858456075191498, 
                0.09076757729053497, 
                -0.196611225605011, 
                -0.05811286345124245, 
                -0.08283931016921997, 
                -0.1164013221859932, 
                0.283241331577301, 
                -0.019861498847603798, 
                -0.0034759328700602055, 
                0.2878910303115845, 
                0.3107776939868927, 
                -0.34344181418418884, 
                0.28889575600624084, 
                -0.016503488644957542, 
                0.5064931511878967, 
                0.09060768783092499, 
                0.07437540590763092, 
                -0.18307118117809296, 
                0.11360429972410202, 
                -0.35206517577171326, 
                0.26022711396217346, 
                0.017095964401960373, 
                -0.13124120235443115, 
                -0.2279551923274994, 
                -0.28606536984443665, 
                0.0846918597817421, 
                0.06277395784854889, 
                -0.32703712582588196, 
                0.2660538852214813, 
                0.5433276891708374, 
                -0.30908435583114624, 
                0.11141416430473328, 
                -0.13948003947734833, 
                0.5347352623939514, 
                -0.1643362045288086, 
                0.5680661201477051
            ]
        }, 
        "Node_27": {
            "bias": 0.26536989212036133, 
            "weights": [
                -0.07550796121358871, 
                0.2021677941083908, 
                0.1977301985025406, 
                0.0910753533244133, 
                -0.6666982173919678, 
                -0.04356265068054199, 
                -0.016258183866739273, 
                -0.2438904047012329, 
                -0.14077647030353546, 
                -0.17212547361850739, 
                0.20135098695755005, 
                0.14533275365829468, 
                0.1885615587234497, 
                -0.017009617760777473, 
                0.1411151885986328, 
                -0.06673608720302582, 
                -0.19207897782325745, 
                -0.0898309126496315, 
                -0.12019149959087372, 
                -0.3142206072807312, 
                -0.1643557846546173, 
                -0.22635629773139954, 
                -0.304778128862381, 
                -0.09789640456438065, 
                -0.11054705083370209, 
                0.30594727396965027, 
                -0.0553240105509758, 
                0.0054712980054318905, 
                0.04566429182887077, 
                0.31431883573532104, 
                0.22418339550495148, 
                0.07500165700912476, 
                0.24749961495399475, 
                -0.11375272274017334, 
                0.145722895860672, 
                -0.23855972290039062, 
                0.1544763296842575, 
                -0.01949188858270645, 
                0.10341979563236237, 
                -0.07885964214801788, 
                -0.3882789611816406, 
                -0.1320975124835968, 
                0.03933848813176155, 
                0.269893079996109, 
                0.3600406050682068, 
                -0.040242794901132584, 
                0.08140970021486282, 
                -0.16990971565246582, 
                0.11694963276386261, 
                0.14913523197174072, 
                -0.1796550452709198, 
                0.5455690622329712, 
                0.10144755244255066, 
                0.22430850565433502, 
                -0.17469611763954163, 
                0.14847932755947113, 
                0.11832352727651596, 
                -0.14795801043510437, 
                0.09695383161306381, 
                -0.26078400015830994
            ]
        }, 
        "Node_24": {
            "bias": -0.14321595430374146, 
            "weights": [
                0.06636982411146164, 
                0.2936280071735382, 
                0.2805030643939972, 
                0.09261441230773926, 
                -0.1125243678689003, 
                0.1540379375219345, 
                0.37552860379219055, 
                -0.15089508891105652, 
                0.12187274545431137, 
                0.07131967693567276, 
                -0.0688493549823761, 
                -0.141752690076828, 
                0.21776822209358215, 
                0.06941832602024078, 
                -0.2297431230545044, 
                -0.016469987109303474, 
                0.441306471824646, 
                0.06150345131754875, 
                0.038822464644908905, 
                0.1630755513906479, 
                -0.35071197152137756, 
                -0.08966167271137238, 
                0.3741438388824463, 
                -0.45411592721939087, 
                0.05134912207722664, 
                -0.3093176484107971, 
                -0.24399812519550323, 
                0.1478903740644455, 
                -0.06516890227794647, 
                0.4885598421096802, 
                0.1774677336215973, 
                -0.6040554046630859, 
                -0.10452158749103546, 
                0.4346977472305298, 
                0.2320738136768341, 
                -0.09313653409481049, 
                -0.4509304463863373, 
                -0.014861755073070526, 
                0.25594592094421387, 
                -0.16699041426181793, 
                0.26991814374923706, 
                -0.041815925389528275, 
                -0.2210286259651184, 
                0.19601470232009888, 
                -0.13791677355766296, 
                0.009677295573055744, 
                0.31080490350723267, 
                -0.1192215085029602, 
                0.16483475267887115, 
                0.03770959749817848, 
                -0.13659261167049408, 
                -0.3467496633529663, 
                -0.06522006541490555, 
                -0.13803797960281372, 
                0.5000517964363098, 
                0.325418621301651, 
                0.06964830309152603, 
                -0.16338317096233368, 
                0.04848320409655571, 
                -0.07515846937894821
            ]
        }, 
        "Node_25": {
            "bias": 0.3636869490146637, 
            "weights": [
                -0.1062782034277916, 
                -0.3473171293735504, 
                0.2459440529346466, 
                0.2480471432209015, 
                -0.19687780737876892, 
                0.12359148263931274, 
                0.21180951595306396, 
                -0.09398656338453293, 
                -0.10120145976543427, 
                -0.35644081234931946, 
                -0.2899375557899475, 
                -0.23584114015102386, 
                0.04765566438436508, 
                0.26060807704925537, 
                0.1704527884721756, 
                -0.09968642890453339, 
                -0.058095648884773254, 
                -0.13297033309936523, 
                -0.01773027330636978, 
                -0.34725964069366455, 
                0.29415878653526306, 
                0.155535027384758, 
                -0.23791831731796265, 
                0.044587742537260056, 
                -0.28498366475105286, 
                0.20568785071372986, 
                -0.2508040964603424, 
                -0.04475463181734085, 
                0.4877140522003174, 
                0.09806117415428162, 
                0.06642573326826096, 
                -0.15566378831863403, 
                0.06781858205795288, 
                0.37001872062683105, 
                -0.015154399909079075, 
                -0.06516910344362259, 
                0.19023095071315765, 
                0.1437375694513321, 
                0.018864614889025688, 
                -0.09486565738916397, 
                -0.4182787239551544, 
                -0.38152015209198, 
                -0.4439667761325836, 
                -0.2920209467411041, 
                0.025005968287587166, 
                0.0022982079535722733, 
                -0.09761872887611389, 
                -0.408056378364563, 
                -0.6857774257659912, 
                -0.12227955460548401, 
                -0.38741716742515564, 
                0.21910460293293, 
                0.4149482548236847, 
                0.12215802073478699, 
                0.2910025417804718, 
                0.026515625417232513, 
                -0.2832232117652893, 
                0.11899736523628235, 
                -0.14756637811660767, 
                -0.22323466837406158
            ]
        }, 
        "Node_22": {
            "bias": -0.06401820480823517, 
            "weights": [
                -0.11870208382606506, 
                0.21779082715511322, 
                -0.0175361018627882, 
                0.26086175441741943, 
                -0.27589547634124756, 
                -0.038082730025053024, 
                -0.22511684894561768, 
                0.24828219413757324, 
                0.09395936131477356, 
                0.16303662955760956, 
                0.07053928077220917, 
                -0.022689059376716614, 
                0.14365807175636292, 
                -0.1934751570224762, 
                -0.2432251274585724, 
                -0.30056288838386536, 
                0.14494654536247253, 
                0.42890697717666626, 
                -0.043223943561315536, 
                -0.014960912056267262, 
                -0.3106234073638916, 
                0.29975607991218567, 
                0.16547822952270508, 
                -0.053948067128658295, 
                -0.15412260591983795, 
                -0.08487033098936081, 
                0.15142734348773956, 
                0.22084441781044006, 
                -0.29523399472236633, 
                -0.0592963807284832, 
                0.1037670224905014, 
                -0.2795239984989166, 
                0.044555362313985825, 
                -0.03845050185918808, 
                -0.015420721843838692, 
                0.3794747591018677, 
                -0.3024052679538727, 
                0.2651694416999817, 
                -0.0007680835551582277, 
                0.2826472520828247, 
                0.500408947467804, 
                0.2765084505081177, 
                -0.2056039720773697, 
                0.2283458262681961, 
                -0.36762693524360657, 
                -0.20520681142807007, 
                0.16594251990318298, 
                0.18373648822307587, 
                0.4263245761394501, 
                0.20618991553783417, 
                0.011713571846485138, 
                -0.03616023436188698, 
                -0.17007902264595032, 
                -0.38859376311302185, 
                -0.11217199265956879, 
                0.02798127569258213, 
                0.6014509201049805, 
                -0.13639476895332336, 
                -0.051800038665533066, 
                -0.10737691819667816
            ]
        }, 
        "Node_23": {
            "bias": -0.0370718277990818, 
            "weights": [
                0.21403171122074127, 
                0.06136496737599373, 
                0.20569480955600739, 
                0.4173046946525574, 
                -0.4826352298259735, 
                0.36708468198776245, 
                0.30166444182395935, 
                0.2358342707157135, 
                0.061975184828042984, 
                -0.1484353393316269, 
                -0.14617186784744263, 
                -0.10605407506227493, 
                0.37575042247772217, 
                -0.08894570171833038, 
                0.12341655045747757, 
                -0.30250871181488037, 
                0.12959004938602448, 
                0.018946582451462746, 
                -0.03951054438948631, 
                0.40849360823631287, 
                -0.23437219858169556, 
                0.11303623765707016, 
                0.2586055099964142, 
                -0.0072830719873309135, 
                -0.19533492624759674, 
                0.10323970019817352, 
                0.05338035896420479, 
                0.30728018283843994, 
                0.2156386524438858, 
                0.5528023838996887, 
                -0.36253201961517334, 
                0.10219994932413101, 
                0.1561393141746521, 
                -0.3046739101409912, 
                0.21453778445720673, 
                -0.23391221463680267, 
                -0.1946653574705124, 
                -0.07136517763137817, 
                0.04172055423259735, 
                0.3070859909057617, 
                -0.6898248791694641, 
                -0.025397174060344696, 
                -0.48566582798957825, 
                -0.17974591255187988, 
                -0.13116474449634552, 
                -0.06321271508932114, 
                -0.03821714222431183, 
                0.03852588310837746, 
                -0.7225177884101868, 
                0.23222380876541138, 
                0.13112401962280273, 
                -0.15929682552814484, 
                -0.050334226340055466, 
                -0.22634442150592804, 
                -0.07474100589752197, 
                -0.09972218424081802, 
                0.2785279154777527, 
                -0.2501835525035858, 
                0.0547623485326767, 
                0.1757337898015976
            ]
        }, 
        "Node_20": {
            "bias": 0.3704586625099182, 
            "weights": [
                -0.328220009803772, 
                -0.05313554033637047, 
                0.45062458515167236, 
                -0.05646864324808121, 
                0.18200302124023438, 
                -0.145754873752594, 
                0.060372158885002136, 
                0.07550879567861557, 
                -0.4162719249725342, 
                0.2854389250278473, 
                0.14098969101905823, 
                -0.22383269667625427, 
                0.05875376611948013, 
                -0.20428191125392914, 
                0.049774058163166046, 
                -0.11021392047405243, 
                0.06289231777191162, 
                -0.06895161420106888, 
                0.0020116749219596386, 
                -0.21014952659606934, 
                0.45246759057044983, 
                0.06717295944690704, 
                -0.0292953010648489, 
                0.07280604541301727, 
                -0.2738448679447174, 
                0.26106196641921997, 
                -0.08137090504169464, 
                -0.27292588353157043, 
                0.24176661670207977, 
                0.006476306822150946, 
                0.44026708602905273, 
                0.0467701330780983, 
                0.1821037381887436, 
                0.07501525431871414, 
                0.07071559131145477, 
                -0.17086811363697052, 
                0.004973582457751036, 
                -0.21269652247428894, 
                0.5233346819877625, 
                0.30601251125335693, 
                0.19680705666542053, 
                -0.12953628599643707, 
                -0.011901501566171646, 
                0.07155317813158035, 
                -0.09086204320192337, 
                -0.14641404151916504, 
                0.25763368606567383, 
                -0.28395381569862366, 
                -0.33343014121055603, 
                0.08255083858966827, 
                0.12420395761728287, 
                0.3572427034378052, 
                -0.39415058493614197, 
                0.4408630132675171, 
                -0.3902891278266907, 
                -0.19368132948875427, 
                -0.15302519500255585, 
                -0.01184567715972662, 
                0.10248346626758575, 
                -0.04147476330399513
            ]
        }, 
        "Node_21": {
            "bias": 0.3555081784725189, 
            "weights": [
                0.08759909868240356, 
                0.14178796112537384, 
                0.09263874590396881, 
                -0.055098678916692734, 
                0.09732235968112946, 
                -0.11141137778759003, 
                0.4643271267414093, 
                0.2609928846359253, 
                0.013262449763715267, 
                -0.21761535108089447, 
                0.1717241108417511, 
                -0.7327461242675781, 
                0.28221026062965393, 
                0.15354381501674652, 
                0.24452511966228485, 
                -0.15610022842884064, 
                -0.44469186663627625, 
                0.4433497190475464, 
                0.136602520942688, 
                -0.02342459186911583, 
                -0.08805350959300995, 
                0.08773685991764069, 
                -0.1516922563314438, 
                -0.6753606796264648, 
                0.04921722412109375, 
                -0.08119339495897293, 
                0.06015464663505554, 
                -0.15098939836025238, 
                0.3316479027271271, 
                0.31429484486579895, 
                0.16489997506141663, 
                0.32952913641929626, 
                -0.38767895102500916, 
                -0.02415950410068035, 
                0.1609140932559967, 
                -0.14118891954421997, 
                -0.12691465020179749, 
                0.18966205418109894, 
                0.12490661442279816, 
                0.29557234048843384, 
                0.09550809860229492, 
                -0.042464934289455414, 
                -0.25457778573036194, 
                0.40360227227211, 
                0.2638919949531555, 
                0.30865246057510376, 
                -0.409114807844162, 
                0.031520113348960876, 
                -0.19060198962688446, 
                0.08525004237890244, 
                -0.24323895573616028, 
                0.10541865229606628, 
                0.18311363458633423, 
                -0.009632324799895287, 
                -0.15198981761932373, 
                0.12209609895944595, 
                -0.15331335365772247, 
                0.4961910545825958, 
                0.07487194985151291, 
                -0.27060991525650024
            ]
        }, 
        "Node_28": {
            "bias": -0.09195771813392639, 
            "weights": [
                0.4533184766769409, 
                -0.1227186918258667, 
                0.005115372594445944, 
                0.14971938729286194, 
                0.2667838931083679, 
                -0.21246513724327087, 
                -0.05915253609418869, 
                0.2365693897008896, 
                0.1939876675605774, 
                0.103947214782238, 
                -0.16946670413017273, 
                0.22558656334877014, 
                0.2127288579940796, 
                0.16962352395057678, 
                -0.2264852374792099, 
                -0.027364913374185562, 
                0.273214727640152, 
                -0.35196179151535034, 
                -0.043695177882909775, 
                0.004660190548747778, 
                0.5014671087265015, 
                0.0038747924845665693, 
                0.0014392910525202751, 
                0.19556067883968353, 
                -0.030886925756931305, 
                -0.08571555465459824, 
                0.04368837922811508, 
                -0.061751868575811386, 
                -0.028750572353601456, 
                -0.5230879783630371, 
                -0.1824800968170166, 
                -0.29541170597076416, 
                0.05428789183497429, 
                -0.1669946312904358, 
                0.35480284690856934, 
                0.31267857551574707, 
                -0.006502032279968262, 
                -0.000874191930051893, 
                0.0980231836438179, 
                -0.2448747307062149, 
                -0.14221766591072083, 
                -0.15946786105632782, 
                0.3295269012451172, 
                -0.32569196820259094, 
                0.00362084130756557, 
                0.2187727689743042, 
                0.02356710657477379, 
                -0.2560863196849823, 
                -0.36864325404167175, 
                -0.1987689882516861, 
                0.10620453953742981, 
                -0.3533242344856262, 
                0.2382936328649521, 
                0.18924680352210999, 
                -0.5120139718055725, 
                0.18450096249580383, 
                -0.2735738456249237, 
                0.03851611912250519, 
                -0.12959986925125122, 
                0.16996167600154877
            ]
        }, 
        "Node_29": {
            "bias": 0.47807973623275757, 
            "weights": [
                0.2775760889053345, 
                -0.13047604262828827, 
                0.03328202664852142, 
                -0.46767982840538025, 
                0.06744229048490524, 
                -0.09187936037778854, 
                -0.5103581547737122, 
                0.20860335230827332, 
                0.16729095578193665, 
                0.36672455072402954, 
                0.09357280284166336, 
                -0.1656368225812912, 
                -0.09393233060836792, 
                0.016176709905266762, 
                0.06442494690418243, 
                0.04319319501519203, 
                -0.7510784864425659, 
                0.2651898264884949, 
                0.3512698709964752, 
                -0.31441429257392883, 
                0.28036972880363464, 
                0.3755224049091339, 
                -0.020913109183311462, 
                0.326124370098114, 
                0.13192421197891235, 
                -0.1434471756219864, 
                -0.06981474161148071, 
                -0.23086702823638916, 
                0.06065503880381584, 
                -0.16474607586860657, 
                0.28841668367385864, 
                0.12646670639514923, 
                -0.7047403454780579, 
                0.11743184179067612, 
                0.17638170719146729, 
                0.23359403014183044, 
                0.102166548371315, 
                0.0688258484005928, 
                -0.2877720892429352, 
                -0.1786983460187912, 
                -0.2920348644256592, 
                0.03551049157977104, 
                -0.07211557775735855, 
                0.12289170920848846, 
                0.5881779789924622, 
                -0.10075816512107849, 
                0.19226570427417755, 
                -0.1323203295469284, 
                0.01930568739771843, 
                -0.21515318751335144, 
                -0.9946035742759705, 
                -0.23362606763839722, 
                0.07231932878494263, 
                0.03548354282975197, 
                -0.2734276056289673, 
                0.25350505113601685, 
                -0.01790694333612919, 
                0.17448830604553223, 
                -0.0741952434182167, 
                0.2639433741569519
            ]
        }, 
        "Node_9": {
            "bias": 0.13914921879768372, 
            "weights": [
                0.11198422312736511, 
                0.15984487533569336, 
                0.1160171627998352, 
                -0.2590540647506714, 
                0.5652326345443726, 
                0.13170485198497772, 
                0.27300789952278137, 
                0.2635279595851898, 
                0.2757386863231659, 
                0.0569920539855957, 
                -0.0676342025399208, 
                0.4608910381793976, 
                -0.19150277972221375, 
                -0.024553880095481873, 
                -0.053955644369125366, 
                -0.19308078289031982, 
                -0.20937903225421906, 
                0.29844844341278076, 
                0.479636013507843, 
                0.06218738108873367, 
                -0.15543468296527863, 
                0.12239377945661545, 
                -0.05267037823796272, 
                -0.2690451443195343, 
                -0.026395659893751144, 
                -0.18587972223758698, 
                -0.18181303143501282, 
                0.08769991993904114, 
                0.5614836812019348, 
                -0.4426617920398712, 
                0.11440850049257278, 
                -0.12808799743652344, 
                0.08694546669721603, 
                0.21414843201637268, 
                0.042828984558582306, 
                -0.228415384888649, 
                0.17695778608322144, 
                0.18608465790748596, 
                -0.17719139158725739, 
                0.37504762411117554, 
                -0.42364007234573364, 
                0.1350731998682022, 
                -0.12768715620040894, 
                0.20815947651863098, 
                0.06637267768383026, 
                0.07461023330688477, 
                0.14845676720142365, 
                -0.10783371329307556, 
                -0.039927031844854355, 
                -0.2672731876373291, 
                -0.23833663761615753, 
                -0.005987644661217928, 
                0.335668683052063, 
                0.09092692285776138, 
                -0.2299131155014038, 
                -0.013162219896912575, 
                0.2761186957359314, 
                0.07070674002170563, 
                0.34184765815734863, 
                -0.2030695080757141
            ]
        }, 
        "Node_8": {
            "bias": 0.11961142718791962, 
            "weights": [
                -0.27270957827568054, 
                0.03700719773769379, 
                -0.08798381686210632, 
                -0.3527061939239502, 
                -0.1075812578201294, 
                -0.33441781997680664, 
                -0.06718100607395172, 
                -0.16988122463226318, 
                0.23946824669837952, 
                -0.1751425713300705, 
                0.008466367609798908, 
                -0.27510586380958557, 
                0.0725647509098053, 
                0.07708229124546051, 
                -0.03022126480937004, 
                0.7136728167533875, 
                -0.09614257514476776, 
                -0.008030869998037815, 
                0.0005494836368598044, 
                0.4003775715827942, 
                0.2942906320095062, 
                -0.30015286803245544, 
                -0.2060394436120987, 
                0.07882434874773026, 
                0.12660416960716248, 
                -0.23160074651241302, 
                0.04502082243561745, 
                0.12878656387329102, 
                0.2846809923648834, 
                0.02443566918373108, 
                0.31460505723953247, 
                -0.31033003330230713, 
                0.030788687989115715, 
                -0.18466845154762268, 
                0.08663489669561386, 
                0.3318067789077759, 
                -0.004784760531038046, 
                0.0015975376591086388, 
                0.04119454324245453, 
                -0.14895960688591003, 
                -0.10024016350507736, 
                -0.19924454391002655, 
                -0.0321614071726799, 
                0.14592024683952332, 
                0.1644965559244156, 
                -0.16057388484477997, 
                -0.38722172379493713, 
                0.15965092182159424, 
                -0.2802644670009613, 
                0.5824112892150879, 
                0.286618709564209, 
                -0.008871606551110744, 
                0.02346211113035679, 
                -0.16018782556056976, 
                -0.09937965869903564, 
                0.34961313009262085, 
                -0.5457108020782471, 
                -0.6571839451789856, 
                0.22912664711475372, 
                -0.39383378624916077
            ]
        }, 
        "Node_7": {
            "bias": 0.6618423461914062, 
            "weights": [
                -0.233393132686615, 
                0.10907506942749023, 
                0.29296571016311646, 
                -0.1198166161775589, 
                -0.3128510117530823, 
                -0.14078833162784576, 
                -0.19921241700649261, 
                0.10802426934242249, 
                -0.16485947370529175, 
                0.211817666888237, 
                0.43548762798309326, 
                0.2719353139400482, 
                0.16359519958496094, 
                -0.009601617231965065, 
                0.010401577688753605, 
                0.03248412162065506, 
                0.010837992653250694, 
                0.013032815419137478, 
                0.14548642933368683, 
                -0.5661022067070007, 
                0.1228862777352333, 
                -0.16303838789463043, 
                -0.36610692739486694, 
                0.12289755791425705, 
                -0.3782123327255249, 
                0.3768029808998108, 
                -0.1661074459552765, 
                -0.6654707193374634, 
                -0.1915590465068817, 
                0.28648534417152405, 
                0.0527711920440197, 
                0.18983042240142822, 
                0.2547229528427124, 
                0.36174389719963074, 
                -0.1251225620508194, 
                -0.44078028202056885, 
                0.33608630299568176, 
                -0.11177641898393631, 
                0.13396084308624268, 
                0.11828145384788513, 
                0.13567490875720978, 
                -0.6610978245735168, 
                -0.09282436221837997, 
                0.10479316860437393, 
                -0.16383396089076996, 
                -0.12694703042507172, 
                0.1428460329771042, 
                -0.6535765528678894, 
                -0.1880749613046646, 
                0.49133896827697754, 
                0.17325332760810852, 
                0.3146895468235016, 
                0.44007202982902527, 
                -0.055811285972595215, 
                0.16225579380989075, 
                0.13152101635932922, 
                -0.12513913214206696, 
                -0.1268966794013977, 
                -0.2103668749332428, 
                -0.04518860578536987
            ]
        }, 
        "Node_6": {
            "bias": -0.12931357324123383, 
            "weights": [
                -0.05816059187054634, 
                -0.09673596173524857, 
                -0.06467623263597488, 
                0.6659362316131592, 
                -0.14943690598011017, 
                0.11619602143764496, 
                0.6780805587768555, 
                -0.033996712416410446, 
                0.22462424635887146, 
                -0.38442182540893555, 
                -0.20932447910308838, 
                0.20165155827999115, 
                -0.3545099198818207, 
                0.27138495445251465, 
                -0.24168023467063904, 
                0.18762490153312683, 
                -0.2499694973230362, 
                -0.12254845350980759, 
                -0.34694916009902954, 
                0.33829179406166077, 
                -0.17907670140266418, 
                0.003109997371211648, 
                -0.03505363315343857, 
                -0.479064017534256, 
                0.12585604190826416, 
                0.4763569235801697, 
                -0.358205646276474, 
                0.24317623674869537, 
                0.33624616265296936, 
                0.016302824020385742, 
                -0.39442986249923706, 
                -0.10733003914356232, 
                -0.5125541090965271, 
                0.28604328632354736, 
                0.05512899160385132, 
                -0.14033019542694092, 
                0.20009511709213257, 
                0.3013499081134796, 
                0.004181362222880125, 
                -0.1687120795249939, 
                -0.23180697858333588, 
                -0.0633203387260437, 
                -0.33152151107788086, 
                0.8086828589439392, 
                0.3087913691997528, 
                0.19734442234039307, 
                0.24793829023838043, 
                0.12187667936086655, 
                -0.14408910274505615, 
                -0.28306588530540466, 
                0.03681473061442375, 
                0.3555788993835449, 
                0.3437621593475342, 
                -0.03342978283762932, 
                0.12503841519355774, 
                -0.22550112009048462, 
                -0.11519838124513626, 
                -0.016102323308587074, 
                0.22849810123443604, 
                -0.025704283267259598
            ]
        }, 
        "Node_5": {
            "bias": 0.2292683720588684, 
            "weights": [
                -0.18120044469833374, 
                -0.10311625897884369, 
                0.3638627827167511, 
                0.34759506583213806, 
                0.4763072729110718, 
                -0.014664812944829464, 
                -0.0016645314171910286, 
                0.16390341520309448, 
                0.11033187061548233, 
                -0.11732020229101181, 
                0.060200680047273636, 
                -0.021679634228348732, 
                -0.19296595454216003, 
                0.2636071741580963, 
                0.15236659348011017, 
                0.25362735986709595, 
                0.31833550333976746, 
                0.07355005294084549, 
                0.012437412515282631, 
                -0.33471953868865967, 
                0.3713965117931366, 
                -0.26788851618766785, 
                0.021648066118359566, 
                0.08194290101528168, 
                -0.09861546009778976, 
                -0.16787320375442505, 
                0.03824051097035408, 
                -0.22026695311069489, 
                -0.18622532486915588, 
                -0.10009107738733292, 
                -0.02865796908736229, 
                0.09290522336959839, 
                0.2964739501476288, 
                0.16162842512130737, 
                -0.0569256953895092, 
                -0.05040634796023369, 
                0.16877961158752441, 
                0.4056471884250641, 
                0.3720109760761261, 
                -0.008141717873513699, 
                0.29465770721435547, 
                0.07271239161491394, 
                -0.05720214918255806, 
                -0.2112027108669281, 
                -0.120729461312294, 
                0.07393109798431396, 
                0.3918587565422058, 
                0.01773463562130928, 
                0.2612314522266388, 
                0.16955851018428802, 
                -0.2731357514858246, 
                0.26927438378334045, 
                0.14276428520679474, 
                0.3677334785461426, 
                -0.14971376955509186, 
                -0.1522047221660614, 
                -0.06221576780080795, 
                0.18009690940380096, 
                0.08689473569393158, 
                -0.054384708404541016
            ]
        }, 
        "Node_4": {
            "bias": 0.010572681203484535, 
            "weights": [
                0.11081838607788086, 
                -0.001137923332862556, 
                0.23302167654037476, 
                -0.22182685136795044, 
                0.013277464546263218, 
                0.016246022656559944, 
                0.06435175985097885, 
                0.0032920658122748137, 
                -0.0632544681429863, 
                0.04449214041233063, 
                -0.13382214307785034, 
                -0.23280081152915955, 
                0.22548913955688477, 
                -0.16983233392238617, 
                -0.10256067663431168, 
                -0.024491768330335617, 
                -0.33347880840301514, 
                0.13244816660881042, 
                0.000153119137394242, 
                0.11398467421531677, 
                0.17178891599178314, 
                0.2898421287536621, 
                0.044814519584178925, 
                0.054211944341659546, 
                0.22473280131816864, 
                0.21140120923519135, 
                -0.2378777712583542, 
                0.0770517960190773, 
                0.2507856488227844, 
                0.13443276286125183, 
                0.057610541582107544, 
                -0.14105571806430817, 
                0.0482131652534008, 
                0.3103528618812561, 
                0.22911721467971802, 
                -0.043601058423519135, 
                -0.332845538854599, 
                -0.22929111123085022, 
                -0.32073232531547546, 
                0.1554921716451645, 
                0.24438446760177612, 
                0.19659070670604706, 
                -0.32964450120925903, 
                0.05505098029971123, 
                0.6524871587753296, 
                -0.2082047015428543, 
                0.0253354050219059, 
                0.24321770668029785, 
                0.020241498947143555, 
                0.1488068699836731, 
                -0.06126344949007034, 
                -0.028771521523594856, 
                0.12377587705850601, 
                -0.0335221141576767, 
                -0.3327459990978241, 
                -0.04586444050073624, 
                0.019968003034591675, 
                -0.16332998871803284, 
                0.11960030347108841, 
                0.07459370791912079
            ]
        }, 
        "Node_3": {
            "bias": 0.1311502754688263, 
            "weights": [
                0.03867124766111374, 
                -0.17684639990329742, 
                0.3057413697242737, 
                -0.69635409116745, 
                0.10932539403438568, 
                -0.29150620102882385, 
                -0.1798543930053711, 
                0.09522892534732819, 
                0.05863898620009422, 
                -0.15276551246643066, 
                0.08225186169147491, 
                0.433683842420578, 
                -0.08803582191467285, 
                -0.006606586277484894, 
                0.15564776957035065, 
                -0.7298663258552551, 
                0.17603719234466553, 
                0.11981759965419769, 
                -0.07009290903806686, 
                -0.16155847907066345, 
                0.5081345438957214, 
                -0.17419704794883728, 
                -0.17373596131801605, 
                0.15372948348522186, 
                0.009047023020684719, 
                -0.07413613796234131, 
                -0.3093923032283783, 
                0.10491717606782913, 
                0.03357332572340965, 
                -0.05192030966281891, 
                0.035020630806684494, 
                0.12228837609291077, 
                0.29718226194381714, 
                0.033718280494213104, 
                0.13645236194133759, 
                0.14630158245563507, 
                -0.21610012650489807, 
                0.22057335078716278, 
                -0.11025840044021606, 
                -0.023255841806530952, 
                -0.3976303040981293, 
                0.09696966409683228, 
                0.04094388335943222, 
                -0.086761973798275, 
                -0.28010642528533936, 
                -0.1717027872800827, 
                0.008975764736533165, 
                -0.08190654218196869, 
                -0.260683536529541, 
                0.11717948317527771, 
                0.3847823739051819, 
                -0.09922280162572861, 
                0.07692360877990723, 
                0.10458514839410782, 
                -0.1341654509305954, 
                -0.17203687131404877, 
                -0.21754901111125946, 
                0.020838430151343346, 
                0.5027948021888733, 
                0.2556971609592438
            ]
        }, 
        "Node_2": {
            "bias": -0.053598422557115555, 
            "weights": [
                -0.26275449991226196, 
                -0.19031116366386414, 
                0.19237039983272552, 
                -0.055091533809900284, 
                0.03938798978924751, 
                0.08586926013231277, 
                -0.23052750527858734, 
                -0.15534861385822296, 
                -0.2906593680381775, 
                -0.05421840772032738, 
                0.3248624801635742, 
                -0.9169161915779114, 
                -0.09096822142601013, 
                0.20549046993255615, 
                -0.019494324922561646, 
                -0.04868173971772194, 
                -0.42724674940109253, 
                0.3730756342411041, 
                0.13364683091640472, 
                0.64940345287323, 
                -0.4812510907649994, 
                0.05981924384832382, 
                -0.028837809339165688, 
                -0.09912505000829697, 
                0.0010528977727517486, 
                -0.043258585035800934, 
                -0.26510879397392273, 
                0.10973315685987473, 
                -0.4477681517601013, 
                0.23047660291194916, 
                -0.29112690687179565, 
                0.1203412413597107, 
                -0.10229897499084473, 
                -0.7562127113342285, 
                0.04383110627532005, 
                -0.19986140727996826, 
                -0.30040717124938965, 
                -0.41025909781455994, 
                0.11358380317687988, 
                -0.010286293923854828, 
                -0.3225349187850952, 
                -0.31316453218460083, 
                0.31453844904899597, 
                0.05766762048006058, 
                0.23191845417022705, 
                -0.071638323366642, 
                0.007450676057487726, 
                -0.05867611616849899, 
                0.11427323520183563, 
                0.08276628702878952, 
                0.4980515241622925, 
                -0.05737551674246788, 
                -0.10863713175058365, 
                0.03469400852918625, 
                0.3416889011859894, 
                0.2978321611881256, 
                -0.8915982246398926, 
                -0.4157269299030304, 
                -0.596041738986969, 
                0.31846800446510315
            ]
        }, 
        "Node_1": {
            "bias": 0.2722518742084503, 
            "weights": [
                0.21029525995254517, 
                -0.04790131747722626, 
                0.20032301545143127, 
                -1.1042119264602661, 
                0.0464644730091095, 
                -0.30046722292900085, 
                -0.18689744174480438, 
                0.1559518426656723, 
                -0.17091679573059082, 
                0.4447914958000183, 
                -0.1557782143354416, 
                -0.48207399249076843, 
                0.24737681448459625, 
                0.019457126036286354, 
                -0.0007786864298395813, 
                0.2427465319633484, 
                -0.32357150316238403, 
                -0.5136339068412781, 
                -0.2950155436992645, 
                0.1691920906305313, 
                0.1241665631532669, 
                0.1940222531557083, 
                0.07615408301353455, 
                0.11558299511671066, 
                -0.11144157499074936, 
                -0.16316847503185272, 
                -0.4369489848613739, 
                0.041298992931842804, 
                -0.3075466752052307, 
                -0.163951575756073, 
                0.26113054156303406, 
                -0.10530661791563034, 
                0.08760631084442139, 
                0.15851569175720215, 
                -0.19689308106899261, 
                0.3320114016532898, 
                0.2547290027141571, 
                -0.07229483872652054, 
                -0.09388720989227295, 
                -0.28791019320487976, 
                -0.2732265591621399, 
                -0.03556176275014877, 
                -0.16469325125217438, 
                -0.5060520172119141, 
                1.0272338390350342, 
                -0.28714388608932495, 
                -0.43537667393684387, 
                -0.19185148179531097, 
                0.17157627642154694, 
                0.17363522946834564, 
                0.13462351262569427, 
                -0.11286606639623642, 
                0.1443256139755249, 
                0.053963325917720795, 
                -0.08317156881093979, 
                0.5547427535057068, 
                -0.28598934412002563, 
                0.426438570022583, 
                -0.22394751012325287, 
                0.23803475499153137
            ]
        }, 
        "Node_0": {
            "bias": -0.07676584273576736, 
            "weights": [
                0.2925390303134918, 
                0.23831163346767426, 
                -0.1987268328666687, 
                -0.4121053218841553, 
                0.1515095829963684, 
                -0.06091299280524254, 
                -0.0838051438331604, 
                0.12001017481088638, 
                0.23102182149887085, 
                0.03436259925365448, 
                -0.044102560728788376, 
                0.5630789995193481, 
                0.13556811213493347, 
                0.18702757358551025, 
                -0.276125967502594, 
                -0.02050315961241722, 
                0.42187178134918213, 
                -0.02964238077402115, 
                -0.03926441818475723, 
                0.21839001774787903, 
                0.24144317209720612, 
                0.17253297567367554, 
                0.05740662291646004, 
                0.09256432205438614, 
                0.06129114329814911, 
                0.34015220403671265, 
                0.2203856259584427, 
                0.14862027764320374, 
                -0.10693122446537018, 
                -0.12551090121269226, 
                0.010598690249025822, 
                -0.12099557369947433, 
                0.3163602352142334, 
                -0.2282569706439972, 
                0.289654016494751, 
                -7.177451334428042e-05, 
                -0.15908971428871155, 
                0.23803353309631348, 
                -0.20894667506217957, 
                -0.2150595635175705, 
                -0.02155246026813984, 
                0.060853369534015656, 
                -0.048001036047935486, 
                -0.09488047659397125, 
                0.14728941023349762, 
                0.18147166073322296, 
                0.13552755117416382, 
                -0.01853681169450283, 
                -0.11919502913951874, 
                -0.17979584634304047, 
                -0.10310588032007217, 
                0.06633100658655167, 
                0.39336541295051575, 
                -0.23426927626132965, 
                -0.0005296150338836014, 
                -0.007829760201275349, 
                0.2886883020401001, 
                0.0390266589820385, 
                0.20111969113349915, 
                -0.23754523694515228
            ]
        }
    }, 
    "Layer_0": {
        "Node_39": {
            "bias": 0.5592647194862366, 
            "weights": [
                0.35003867745399475, 
                0.41854315996170044, 
                0.021034525707364082, 
                -0.07704684138298035, 
                -0.09184204041957855, 
                5.786939800600521e-05, 
                0.4900782108306885, 
                0.10041560232639313, 
                0.17937703430652618, 
                -0.1468369960784912, 
                0.025851434096693993, 
                -0.04298890009522438, 
                0.05361231043934822, 
                0.02198929153382778, 
                -0.22356653213500977, 
                0.056847356259822845
            ]
        }, 
        "Node_38": {
            "bias": 0.030780524015426636, 
            "weights": [
                -0.006155467126518488, 
                0.18217262625694275, 
                0.02243627980351448, 
                -0.06337793171405792, 
                0.028794387355446815, 
                0.04532201588153839, 
                -0.3872864842414856, 
                0.27287226915359497, 
                -0.2018355280160904, 
                -0.06338394433259964, 
                0.06855598837137222, 
                -0.5385191440582275, 
                -0.23303987085819244, 
                -0.2324696183204651, 
                -0.04541180655360222, 
                0.1255398541688919
            ]
        }, 
        "Node_19": {
            "bias": -0.12535929679870605, 
            "weights": [
                0.8013521432876587, 
                0.01979600451886654, 
                0.004815145395696163, 
                -0.21615508198738098, 
                0.2676732540130615, 
                0.054620012640953064, 
                0.12161748856306076, 
                0.19918355345726013, 
                0.15224570035934448, 
                -0.0813244953751564, 
                -0.36824214458465576, 
                0.0747339129447937, 
                0.037964120507240295, 
                0.3791985809803009, 
                -0.29579848051071167, 
                0.3732750117778778
            ]
        }, 
        "Node_18": {
            "bias": -0.30708327889442444, 
            "weights": [
                -0.5023015737533569, 
                0.11602535843849182, 
                -0.06436392664909363, 
                -0.11104200780391693, 
                -0.2525008022785187, 
                -0.30166521668434143, 
                0.16495652496814728, 
                0.1704205870628357, 
                0.009605116210877895, 
                0.27364155650138855, 
                -0.07423621416091919, 
                -0.05978568643331528, 
                -0.11743245273828506, 
                -0.32828694581985474, 
                0.08437647670507431, 
                -0.002450179075822234
            ]
        }, 
        "Node_17": {
            "bias": -0.19987323880195618, 
            "weights": [
                0.03513409197330475, 
                -0.12018828839063644, 
                0.011071749031543732, 
                0.003269085194915533, 
                0.12567703425884247, 
                0.04848771542310715, 
                -0.049000341445207596, 
                0.2403482049703598, 
                0.42605698108673096, 
                -0.06315424293279648, 
                0.5796098709106445, 
                0.0794856920838356, 
                -0.014180774800479412, 
                -0.020805470645427704, 
                -0.18677474558353424, 
                0.01119676697999239
            ]
        }, 
        "Node_16": {
            "bias": -0.3286930024623871, 
            "weights": [
                0.08884714543819427, 
                0.018900690600275993, 
                0.035269107669591904, 
                -0.1435067057609558, 
                -0.04914918541908264, 
                -0.22543828189373016, 
                -0.022834723815321922, 
                -0.07318070530891418, 
                -0.9369033575057983, 
                0.2511691153049469, 
                -0.09668868035078049, 
                0.0030508253257721663, 
                0.12037791311740875, 
                0.11911404132843018, 
                0.3067873418331146, 
                -0.026193471625447273
            ]
        }, 
        "Node_15": {
            "bias": -0.31182408332824707, 
            "weights": [
                0.35290974378585815, 
                0.05463843792676926, 
                0.07776498049497604, 
                -0.14225643873214722, 
                -0.09846404939889908, 
                0.15648731589317322, 
                0.08438290655612946, 
                -0.005880753509700298, 
                0.018482457846403122, 
                0.0014472590992227197, 
                0.03759809955954552, 
                0.004148608073592186, 
                0.03703221678733826, 
                -0.012630627490580082, 
                -1.0173841714859009, 
                -1.127853274345398
            ]
        }, 
        "Node_14": {
            "bias": -0.1307545006275177, 
            "weights": [
                0.050765734165906906, 
                -0.12255420535802841, 
                -0.017993025481700897, 
                -0.004139521159231663, 
                -0.1986253261566162, 
                0.19881081581115723, 
                -0.10864852368831635, 
                -0.24121889472007751, 
                -0.2883141338825226, 
                0.0037735351361334324, 
                0.08916348218917847, 
                -0.06169573962688446, 
                -0.06174946948885918, 
                0.123973548412323, 
                -0.09527615457773209, 
                -0.29653236269950867
            ]
        }, 
        "Node_13": {
            "bias": -0.08367383480072021, 
            "weights": [
                0.046395011246204376, 
                0.19373977184295654, 
                -0.21013498306274414, 
                -0.3123871982097626, 
                0.3094833195209503, 
                0.1470808982849121, 
                -0.2766149342060089, 
                0.48203110694885254, 
                -0.21982495486736298, 
                0.03156259283423424, 
                -0.4754806458950043, 
                0.30291318893432617, 
                0.3183606266975403, 
                -0.3514726459980011, 
                0.28255409002304077, 
                -0.45562058687210083
            ]
        }, 
        "Node_12": {
            "bias": -0.4201919436454773, 
            "weights": [
                -0.08336673676967621, 
                0.01724872924387455, 
                0.008409280329942703, 
                -0.3538586497306824, 
                -0.07840505242347717, 
                -0.5095434188842773, 
                -0.4993979334831238, 
                -0.36572858691215515, 
                -0.04020140692591667, 
                -0.0032305805943906307, 
                -0.07028339803218842, 
                0.3041696548461914, 
                -0.04612461104989052, 
                0.09585386514663696, 
                -0.1425207257270813, 
                0.00943348091095686
            ]
        }, 
        "Node_11": {
            "bias": 0.013834554702043533, 
            "weights": [
                0.6699912548065186, 
                0.08442151546478271, 
                0.007425486575812101, 
                -0.03991210460662842, 
                0.18509766459465027, 
                0.827942967414856, 
                -0.2290664166212082, 
                0.0825779139995575, 
                -0.2695593535900116, 
                -0.05800385773181915, 
                0.20065851509571075, 
                0.2490311861038208, 
                -0.04829453304409981, 
                0.02760520949959755, 
                0.38271114230155945, 
                -0.03883792832493782
            ]
        }, 
        "Node_10": {
            "bias": 0.31521645188331604, 
            "weights": [
                0.09877315163612366, 
                0.19866566359996796, 
                0.028167031705379486, 
                0.3052985668182373, 
                -0.11080671101808548, 
                -0.5207667350769043, 
                0.05924446880817413, 
                0.2393677532672882, 
                0.08218685537576675, 
                -0.3070632815361023, 
                -0.4242691993713379, 
                0.06262900680303574, 
                -0.02814551815390587, 
                0.2172076553106308, 
                0.10758465528488159, 
                -0.19512297213077545
            ]
        }, 
        "Node_45": {
            "bias": 0.31742462515830994, 
            "weights": [
                -0.009542671963572502, 
                0.20056244730949402, 
                -0.21393300592899323, 
                0.10053316503763199, 
                0.19862940907478333, 
                0.11284349858760834, 
                -0.181031733751297, 
                -0.2939930856227875, 
                0.30169200897216797, 
                -0.03418535739183426, 
                -0.26099979877471924, 
                -0.27987852692604065, 
                -0.2328258901834488, 
                0.3386595845222473, 
                0.2647820711135864, 
                0.02444971539080143
            ]
        }, 
        "Node_31": {
            "bias": -0.06128397583961487, 
            "weights": [
                -0.168602854013443, 
                0.13290828466415405, 
                0.12686583399772644, 
                -0.03785659745335579, 
                -0.16647933423519135, 
                0.19994288682937622, 
                0.09640670567750931, 
                0.09095441550016403, 
                -0.6630414128303528, 
                0.5485612154006958, 
                -0.1068807989358902, 
                -0.03648891672492027, 
                0.08205847442150116, 
                0.09401757270097733, 
                -0.46962687373161316, 
                -0.38427016139030457
            ]
        }, 
        "Node_40": {
            "bias": -0.40124744176864624, 
            "weights": [
                -0.4062478244304657, 
                -0.06179334223270416, 
                -0.038862112909555435, 
                -0.3650217652320862, 
                0.3570680022239685, 
                -0.09609375149011612, 
                -0.723301351070404, 
                -0.3255639374256134, 
                -0.16933774948120117, 
                0.10170251876115799, 
                -0.013190068304538727, 
                -0.22015555202960968, 
                0.198175311088562, 
                0.2639460265636444, 
                -0.017851559445261955, 
                -0.029391929507255554
            ]
        }, 
        "Node_41": {
            "bias": 0.11020789295434952, 
            "weights": [
                0.1553729772567749, 
                0.08261768519878387, 
                0.17228040099143982, 
                0.2780952453613281, 
                0.15627656877040863, 
                -0.23661479353904724, 
                -0.024301551282405853, 
                -0.09317882359027863, 
                0.518004298210144, 
                -0.5477774143218994, 
                0.17986784875392914, 
                -0.07100217044353485, 
                -0.0035181520506739616, 
                0.1208999827504158, 
                0.2391745001077652, 
                -0.6299115419387817
            ]
        }, 
        "Node_42": {
            "bias": -0.004743841011077166, 
            "weights": [
                0.05300942435860634, 
                -0.08424264192581177, 
                -0.04363461956381798, 
                -0.03639763593673706, 
                0.20769189298152924, 
                -0.2726854085922241, 
                0.07536985725164413, 
                -0.08971069753170013, 
                0.27757370471954346, 
                -0.5463923811912537, 
                0.17395374178886414, 
                0.28259000182151794, 
                0.06568244099617004, 
                -0.025901731103658676, 
                -0.450061559677124, 
                0.4109140634536743
            ]
        }, 
        "Node_26": {
            "bias": 0.47941336035728455, 
            "weights": [
                0.15825258195400238, 
                -0.024858376011252403, 
                -0.05221818760037422, 
                -0.1226089596748352, 
                0.08940239250659943, 
                0.20916928350925446, 
                0.17077529430389404, 
                0.5207439661026001, 
                -0.2580927312374115, 
                0.339402437210083, 
                -0.05944501608610153, 
                -0.04796352982521057, 
                -0.10034060478210449, 
                -0.41693705320358276, 
                -0.31318292021751404, 
                -0.14363254606723785
            ]
        }, 
        "Node_27": {
            "bias": 0.5102777481079102, 
            "weights": [
                0.09682296961545944, 
                -0.16932491958141327, 
                -0.10875165462493896, 
                0.059105534106492996, 
                0.13221897184848785, 
                -0.2593453824520111, 
                -0.030008789151906967, 
                0.0995744913816452, 
                0.3629441559314728, 
                0.37320470809936523, 
                0.058164410293102264, 
                -0.09875261783599854, 
                0.03093733638525009, 
                0.08505825698375702, 
                -0.0037977704778313637, 
                -0.03898925706744194
            ]
        }, 
        "Node_24": {
            "bias": -0.06585831195116043, 
            "weights": [
                -0.2208860069513321, 
                -0.06206610053777695, 
                -0.1832917183637619, 
                -0.13038067519664764, 
                0.3025808036327362, 
                -0.3450557291507721, 
                -0.7261630892753601, 
                -0.38525518774986267, 
                0.2835179269313812, 
                -0.18401357531547546, 
                -0.05436316877603531, 
                -0.41927599906921387, 
                -0.11693073809146881, 
                0.08649788051843643, 
                0.045400470495224, 
                -0.03095303475856781
            ]
        }, 
        "Node_25": {
            "bias": 0.2921311557292938, 
            "weights": [
                -0.16215044260025024, 
                0.06758003681898117, 
                0.10832071304321289, 
                0.11415999382734299, 
                -0.24698051810264587, 
                -0.01985992304980755, 
                -0.3953987956047058, 
                0.42023640871047974, 
                -0.18919101357460022, 
                0.05224387347698212, 
                0.22305884957313538, 
                0.2987087368965149, 
                -0.06953951716423035, 
                0.030723102390766144, 
                -0.09016110002994537, 
                -0.003011846449226141
            ]
        }, 
        "Node_22": {
            "bias": -0.023468108847737312, 
            "weights": [
                -0.21172140538692474, 
                0.10938917100429535, 
                0.16709335148334503, 
                -0.39082539081573486, 
                -0.1321893036365509, 
                0.4038442373275757, 
                -0.1807347536087036, 
                0.23458464443683624, 
                -0.7156293988227844, 
                0.086995430290699, 
                0.20635384321212769, 
                -0.32129254937171936, 
                0.1490647941827774, 
                -0.05778352916240692, 
                0.15511758625507355, 
                0.10991638153791428
            ]
        }, 
        "Node_23": {
            "bias": 0.39211156964302063, 
            "weights": [
                0.0433381125330925, 
                0.06313411891460419, 
                0.4477347731590271, 
                0.15177114307880402, 
                0.1803443878889084, 
                -0.24842993915081024, 
                0.12050451338291168, 
                0.10688579082489014, 
                -0.031491879373788834, 
                0.18951982259750366, 
                -0.239182248711586, 
                -0.13769957423210144, 
                -0.03227827325463295, 
                0.06435702741146088, 
                -0.07458342611789703, 
                0.10796143114566803
            ]
        }, 
        "Node_20": {
            "bias": 0.44480380415916443, 
            "weights": [
                0.11518704891204834, 
                -0.17479027807712555, 
                0.010468929074704647, 
                0.16343198716640472, 
                0.0688563883304596, 
                -0.1956920623779297, 
                -0.10092269629240036, 
                0.6064959168434143, 
                -0.26521536707878113, 
                -0.3153092861175537, 
                0.151437908411026, 
                0.20410315692424774, 
                -0.09792793542146683, 
                0.17248015105724335, 
                0.11254649609327316, 
                -0.12674197554588318
            ]
        }, 
        "Node_21": {
            "bias": 0.40788689255714417, 
            "weights": [
                0.050887126475572586, 
                0.38075581192970276, 
                0.13538938760757446, 
                -0.014135626144707203, 
                0.16095054149627686, 
                0.10900724679231644, 
                0.43206867575645447, 
                0.12113003432750702, 
                0.04112889990210533, 
                -0.13919207453727722, 
                0.10149965435266495, 
                0.19181916117668152, 
                -0.30221498012542725, 
                0.12593914568424225, 
                0.06191422417759895, 
                0.02514287829399109
            ]
        }, 
        "Node_30": {
            "bias": -0.15699364244937897, 
            "weights": [
                -0.06173592805862427, 
                0.05365433916449547, 
                -0.0044344887137413025, 
                -0.11378814280033112, 
                0.14519134163856506, 
                0.0612388513982296, 
                0.45462000370025635, 
                -0.04486798495054245, 
                -0.20729538798332214, 
                -0.3520964980125427, 
                0.08475878834724426, 
                -0.261578232049942, 
                0.19573859870433807, 
                -0.34843137860298157, 
                -0.6638931035995483, 
                -0.1848250925540924
            ]
        }, 
        "Node_44": {
            "bias": -0.07991433143615723, 
            "weights": [
                0.09340886771678925, 
                0.10213074833154678, 
                0.10862588882446289, 
                -0.5044605135917664, 
                -0.09201841801404953, 
                -0.0036044081207364798, 
                -0.23848694562911987, 
                -0.02332111820578575, 
                0.29737675189971924, 
                -0.5152060985565186, 
                0.474565714597702, 
                -0.4215928018093109, 
                -0.060782670974731445, 
                0.2901182770729065, 
                0.15659773349761963, 
                0.02317569963634014
            ]
        }, 
        "Node_33": {
            "bias": -0.22567814588546753, 
            "weights": [
                -0.158664733171463, 
                0.08454625308513641, 
                -0.26088330149650574, 
                0.34678223729133606, 
                0.14566777646541595, 
                -0.07902447134256363, 
                -0.7605994939804077, 
                -0.1406824290752411, 
                0.09850595891475677, 
                -0.010494097135961056, 
                -0.07533615827560425, 
                -0.3597586750984192, 
                0.023557337000966072, 
                0.3341860771179199, 
                0.06328397244215012, 
                -0.010327155701816082
            ]
        }, 
        "Node_28": {
            "bias": 0.3599435091018677, 
            "weights": [
                0.29144394397735596, 
                0.07966224104166031, 
                -0.1973857879638672, 
                0.0962652713060379, 
                0.19190572202205658, 
                0.19487416744232178, 
                -0.11751734465360641, 
                0.4403419494628906, 
                0.2553252875804901, 
                0.03443552553653717, 
                0.10012911260128021, 
                0.017377860844135284, 
                -0.2507835626602173, 
                0.25084811449050903, 
                -0.46673697233200073, 
                -0.47851434350013733
            ]
        }, 
        "Node_29": {
            "bias": 0.4127347469329834, 
            "weights": [
                0.17425616085529327, 
                0.3322296142578125, 
                -0.15162025392055511, 
                -0.19007684290409088, 
                -0.14988981187343597, 
                -0.02364509552717209, 
                0.11125445365905762, 
                0.2889748811721802, 
                0.18642102181911469, 
                -0.2500481903553009, 
                -0.03496555611491203, 
                -0.09952393919229507, 
                -0.12497592717409134, 
                0.2649902105331421, 
                -0.021416854113340378, 
                -0.026151621714234352
            ]
        }, 
        "Node_32": {
            "bias": -0.3681183159351349, 
            "weights": [
                -0.3674057126045227, 
                -0.3134356737136841, 
                -0.16089650988578796, 
                -0.1239355280995369, 
                -0.3334144949913025, 
                -0.0526139922440052, 
                -0.064627505838871, 
                -0.09566878527402878, 
                0.06212566792964935, 
                0.18361763656139374, 
                0.006530716549605131, 
                0.19901993870735168, 
                0.06292899698019028, 
                -0.16610418260097504, 
                -0.0766519084572792, 
                0.03366953134536743
            ]
        }, 
        "Node_46": {
            "bias": -0.3036266565322876, 
            "weights": [
                0.008811505511403084, 
                -0.21788977086544037, 
                0.06714455038309097, 
                -0.09398729354143143, 
                -0.06992518901824951, 
                0.0274830162525177, 
                0.2431459277868271, 
                -0.9054619669914246, 
                -0.09978252649307251, 
                0.14983752369880676, 
                0.10004885494709015, 
                0.08698267489671707, 
                -0.21018993854522705, 
                -0.15547001361846924, 
                -0.06914432346820831, 
                0.013521905988454819
            ]
        }, 
        "Node_35": {
            "bias": -0.3414451479911804, 
            "weights": [
                -0.2254353016614914, 
                -0.1888866424560547, 
                0.018625324591994286, 
                -0.15511251986026764, 
                -0.12999658286571503, 
                -0.015042233280837536, 
                -0.21617913246154785, 
                -0.5856665968894958, 
                -0.14204974472522736, 
                -0.04133232682943344, 
                -0.18407860398292542, 
                -0.4191947281360626, 
                0.03865843638777733, 
                0.02698114700615406, 
                -0.23495516180992126, 
                -0.07748410850763321
            ]
        }, 
        "Node_47": {
            "bias": 0.09051264822483063, 
            "weights": [
                -0.5104798078536987, 
                0.10213784128427505, 
                0.058400604873895645, 
                0.5801054239273071, 
                0.03335073962807655, 
                -0.06580772250890732, 
                -0.010272810235619545, 
                -0.3098834156990051, 
                0.19551575183868408, 
                -0.13911893963813782, 
                -0.11333781480789185, 
                -0.06376912444829941, 
                -0.06525206565856934, 
                -0.17325174808502197, 
                -0.12961602210998535, 
                -0.11762245744466782
            ]
        }, 
        "Node_34": {
            "bias": 0.3775901198387146, 
            "weights": [
                0.33356085419654846, 
                -0.1930607557296753, 
                0.0780683308839798, 
                0.13305367529392242, 
                0.19407984614372253, 
                -0.1656075268983841, 
                -0.1891137957572937, 
                -0.002635334385558963, 
                -0.2526354193687439, 
                0.20077022910118103, 
                0.07106688618659973, 
                0.24649402499198914, 
                -0.21447235345840454, 
                -0.0690450593829155, 
                -0.15582962334156036, 
                -0.060417719185352325
            ]
        }, 
        "Node_48": {
            "bias": -0.04921378195285797, 
            "weights": [
                0.06545545905828476, 
                -0.00027631036937236786, 
                0.1098780632019043, 
                -0.3054651916027069, 
                0.098789282143116, 
                0.31246519088745117, 
                -0.34428441524505615, 
                0.4356834292411804, 
                -0.08652711659669876, 
                0.6445916891098022, 
                0.08136355131864548, 
                -0.2113846242427826, 
                0.1277976930141449, 
                0.11617157608270645, 
                0.10361634939908981, 
                0.28898245096206665
            ]
        }, 
        "Node_37": {
            "bias": -0.18107174336910248, 
            "weights": [
                -0.3843674063682556, 
                -0.14384040236473083, 
                0.0021686777472496033, 
                0.17828938364982605, 
                -0.38515427708625793, 
                -0.012014839798212051, 
                0.26424968242645264, 
                0.2130078375339508, 
                0.019362714141607285, 
                -0.16330640017986298, 
                -0.029248874634504318, 
                -0.10021637380123138, 
                0.16652917861938477, 
                -0.12917077541351318, 
                0.24158702790737152, 
                0.12902703881263733
            ]
        }, 
        "Node_49": {
            "bias": 0.4566432535648346, 
            "weights": [
                0.4664918780326843, 
                -0.14429666101932526, 
                0.1851377934217453, 
                0.40304118394851685, 
                0.2036031186580658, 
                -0.19939081370830536, 
                0.4788099229335785, 
                -0.4407796263694763, 
                0.012543613091111183, 
                -0.14810967445373535, 
                0.06524156033992767, 
                -0.5032148957252502, 
                -0.12990924715995789, 
                0.11392761021852493, 
                0.06174983084201813, 
                0.00821386557072401
            ]
        }, 
        "Node_36": {
            "bias": 0.40650126338005066, 
            "weights": [
                0.03805774077773094, 
