{
    "Layer_1": {
        "Node_19": {
            "bias": -0.029581086710095406, 
            "weights": [
                0.07579062879085541, 
                0.011182053945958614, 
                -0.061337314546108246, 
                -0.07057870924472809, 
                -0.15233606100082397, 
                -0.17147581279277802, 
                0.01718367636203766, 
                -0.10877254605293274, 
                -0.004769045393913984, 
                -0.1222178116440773, 
                0.11558914184570312, 
                -0.07420995831489563, 
                -0.15354405343532562, 
                -0.037079714238643646, 
                -0.023845581337809563, 
                0.013566344045102596, 
                0.005520025733858347, 
                -0.12670834362506866, 
                -0.14692680537700653, 
                0.08865607529878616, 
                -0.12752161920070648, 
                0.007712751626968384, 
                -0.15233388543128967, 
                0.020201489329338074, 
                -0.12022460997104645, 
                -0.16005049645900726, 
                -0.03959985822439194, 
                0.05472339689731598, 
                -0.07359735667705536, 
                0.09239731729030609, 
                -0.1492297649383545, 
                0.09924472868442535, 
                -0.03820982947945595, 
                -0.219452902674675, 
                -0.10898865014314651, 
                0.024030327796936035, 
                -0.0032401317730545998, 
                0.015745949000120163, 
                -0.09148015081882477, 
                -0.001656206208281219, 
                0.0013796240091323853, 
                0.04318622872233391, 
                0.07622461020946503, 
                -0.01450298447161913, 
                0.11696045100688934, 
                0.03867547959089279, 
                -0.08451984822750092, 
                -0.05818457901477814, 
                0.07297263294458389, 
                0.0964784249663353, 
                -0.05973546952009201, 
                -0.1445566862821579, 
                0.041578054428100586, 
                -0.08154290169477463, 
                0.07319439947605133, 
                -0.0028101736679673195, 
                0.10801289230585098, 
                -0.009802701883018017, 
                0.0008632309618405998, 
                0.04835354909300804, 
                0.06613984704017639, 
                0.14385078847408295, 
                -0.035564497113227844, 
                -0.008196577429771423, 
                -0.16787710785865784, 
                -0.10039763897657394, 
                0.010544206015765667, 
                -0.13350385427474976, 
                -0.01847001723945141, 
                0.07593678683042526, 
                0.11045246571302414, 
                0.07091513276100159, 
                -0.15378041565418243, 
                0.007025167346000671, 
                0.1239575520157814, 
                -0.1575125753879547, 
                -0.07486744970083237, 
                0.06404036283493042, 
                -0.15080216526985168, 
                0.03229986131191254, 
                -0.09179680049419403, 
                -0.021984830498695374, 
                -0.08188141882419586, 
                -0.08716683089733124, 
                -0.022758428007364273, 
                -0.1331874430179596, 
                -0.18189407885074615, 
                0.08146548271179199, 
                -0.16782861948013306, 
                -0.14553619921207428, 
                0.12874366343021393, 
                -0.06511708348989487, 
                -0.07050180435180664, 
                -0.05254650115966797, 
                0.14121581614017487, 
                -0.1280072182416916, 
                0.01700652204453945, 
                -0.09464599937200546, 
                -0.242388054728508, 
                -0.14545874297618866, 
                0.12800492346286774, 
                -0.18424715101718903, 
                -0.1765170395374298, 
                -0.0063787102699279785, 
                -0.06828906387090683, 
                -0.1545482724905014, 
                0.011783524416387081, 
                0.05196152999997139, 
                -0.08713839948177338, 
                0.06528924405574799, 
                -0.10300777852535248, 
                0.016139579936861992, 
                -0.22025589644908905, 
                -0.024971451610326767, 
                -0.04007270187139511, 
                -0.050883807241916656, 
                -0.09099716693162918, 
                -0.06838170439004898, 
                -0.135187566280365, 
                -0.05740458890795708, 
                -0.07934766262769699, 
                -0.0862058475613594, 
                0.1431797593832016, 
                -0.05962718278169632, 
                0.003353789448738098, 
                -0.12388914823532104, 
                0.09825704991817474, 
                0.028809035196900368, 
                0.0011314559960737824, 
                -0.0892033576965332, 
                -0.20763340592384338, 
                -0.21199563145637512, 
                -0.19063661992549896, 
                -0.14302320778369904, 
                -0.2397935390472412, 
                -0.022894160822033882, 
                -0.11368837207555771, 
                -0.026251748204231262, 
                0.013339865952730179, 
                0.15247678756713867, 
                -0.028919752687215805, 
                0.06812019646167755, 
                0.09025406837463379, 
                -0.1500205546617508, 
                0.12077771127223969, 
                -0.1070992648601532, 
                -0.041492436081171036, 
                -0.023556450381875038, 
                0.050126075744628906, 
                -0.05970069393515587
            ]
        }, 
        "Node_18": {
            "bias": -1.309553623199463, 
            "weights": [
                0.048740603029727936, 
                0.2516269385814667, 
                0.06552983820438385, 
                0.13535258173942566, 
                -0.3052908778190613, 
                -0.029149530455470085, 
                0.22752737998962402, 
                -0.1333044022321701, 
                0.12602965533733368, 
                -0.03527331352233887, 
                -0.43387284874916077, 
                0.1654510200023651, 
                -0.17250320315361023, 
                -0.07724173367023468, 
                0.07295554876327515, 
                -0.14271827042102814, 
                0.2123451679944992, 
                0.07796123623847961, 
                -0.046254273504018784, 
                0.07083496451377869, 
                -0.09800312668085098, 
                -0.008197098970413208, 
                0.18805740773677826, 
                -0.15732266008853912, 
                -0.04361434653401375, 
                -0.22812382876873016, 
                -0.110085628926754, 
                0.1423950344324112, 
                -0.030652068555355072, 
                -0.16911214590072632, 
                0.015336086042225361, 
                -0.05457422882318497, 
                -0.1494278609752655, 
                -0.07683046907186508, 
                -0.1177973672747612, 
                0.12678632140159607, 
                0.023628447204828262, 
                0.032211657613515854, 
                0.0643351599574089, 
                0.33071279525756836, 
                0.013049750588834286, 
                0.021520940586924553, 
                0.06063167378306389, 
                -0.25721243023872375, 
                0.1544588953256607, 
                -0.00316962250508368, 
                -0.012115444988012314, 
                -0.020985383540391922, 
                0.038317833095788956, 
                0.029374750331044197, 
                -0.04578274488449097, 
                0.006672963500022888, 
                -0.16172043979167938, 
                0.18512538075447083, 
                0.15132290124893188, 
                0.12427208572626114, 
                -0.09509771317243576, 
                0.12595517933368683, 
                -0.036713868379592896, 
                0.04800207167863846, 
                0.028887713328003883, 
                -0.02839595265686512, 
                -0.2445482611656189, 
                0.04033559560775757, 
                -0.12175650149583817, 
                0.14132146537303925, 
                0.045724473893642426, 
                -0.050012264400720596, 
                -0.07770267874002457, 
                -0.032902926206588745, 
                0.07564595341682434, 
                -0.10243461281061172, 
                0.18491697311401367, 
                0.06746761500835419, 
                0.041953153908252716, 
                0.08340167999267578, 
                -0.016976382583379745, 
                -0.04603913798928261, 
                -0.0645609050989151, 
                -0.061077699065208435, 
                -0.11557792872190475, 
                -0.018800437450408936, 
                0.03765666484832764, 
                0.10000604391098022, 
                -0.4336167573928833, 
                0.03224547207355499, 
                0.014782017096877098, 
                -0.0847405418753624, 
                -0.12657397985458374, 
                0.031029043719172478, 
                -0.05760057643055916, 
                0.04823823273181915, 
                -0.13742926716804504, 
                -0.056895822286605835, 
                -0.10343374311923981, 
                0.32208243012428284, 
                -0.2987975776195526, 
                -0.28838083148002625, 
                0.14047205448150635, 
                0.00010668458708096296, 
                0.096044160425663, 
                0.227730855345726, 
                0.01556364819407463, 
                0.11883968859910965, 
                0.001820314209908247, 
                0.03776019439101219, 
                -0.26467108726501465, 
                -0.2667110860347748, 
                0.08599233627319336, 
                0.07561476528644562, 
                0.060387544333934784, 
                0.03218298777937889, 
                0.07303576916456223, 
                0.18431256711483002, 
                -0.014111965894699097, 
                -0.11417905986309052, 
                0.15070393681526184, 
                0.08510100096464157, 
                -0.1790638118982315, 
                -0.09953559190034866, 
                -0.28538453578948975, 
                -0.019673362374305725, 
                -0.18901295959949493, 
                0.2431974709033966, 
                -0.2538858950138092, 
                -0.12287932634353638, 
                -0.06771205365657806, 
                0.14487135410308838, 
                -0.33634501695632935, 
                0.10089163482189178, 
                -0.44582507014274597, 
                -0.09043814986944199, 
                0.5374248623847961, 
                0.0912206768989563, 
                0.141616091132164, 
                -0.15000082552433014, 
                0.12422944605350494, 
                -0.08430419117212296, 
                -0.10847236961126328, 
                -0.0729256272315979, 
                0.012483485043048859, 
                -0.14120730757713318, 
                0.15527498722076416, 
                0.052935972809791565, 
                0.10838475823402405, 
                0.018554629758000374, 
                0.20715276896953583, 
                0.021725328639149666, 
                0.0002796124608721584, 
                -0.15548337996006012
            ]
        }, 
        "Node_17": {
            "bias": -0.508220911026001, 
            "weights": [
                -0.1423376053571701, 
                0.01252223551273346, 
                -0.10012863576412201, 
                0.05877325311303139, 
                -0.13684764504432678, 
                0.010881905443966389, 
                -0.019675707444548607, 
                -0.03438855707645416, 
                0.15463897585868835, 
                0.014628847129642963, 
                0.09658870846033096, 
                -0.17903098464012146, 
                -0.1729739010334015, 
                0.14023377001285553, 
                -0.14490477740764618, 
                -0.14062170684337616, 
                0.16648173332214355, 
                -0.0337366946041584, 
                -0.016158849000930786, 
                0.10750507563352585, 
                0.08770540356636047, 
                0.03931441903114319, 
                0.03976624459028244, 
                -0.13165099918842316, 
                -0.12476897239685059, 
                -0.1064138263463974, 
                0.08019548654556274, 
                -0.1460822969675064, 
                -0.24907834827899933, 
                -0.20385074615478516, 
                0.04004043713212013, 
                -0.08465314656496048, 
                -0.08514773845672607, 
                0.09826123714447021, 
                -0.08681458234786987, 
                0.08553299307823181, 
                -0.08638285845518112, 
                -0.1995428204536438, 
                -0.05847157910466194, 
                -0.053512535989284515, 
                0.09390353411436081, 
                0.10822170972824097, 
                -0.13085268437862396, 
                -0.07562394440174103, 
                -0.0527866929769516, 
                0.07406756281852722, 
                -0.17845745384693146, 
                0.006723931059241295, 
                0.0535995215177536, 
                0.016161637380719185, 
                -0.09524854272603989, 
                0.20132026076316833, 
                -0.049698252230882645, 
                0.018030790612101555, 
                0.04526536166667938, 
                0.023961791768670082, 
                -0.05907063186168671, 
                -0.08077242225408554, 
                0.06401034444570541, 
                -0.011463044211268425, 
                -0.1190151572227478, 
                -0.045622531324625015, 
                -0.12603269517421722, 
                0.060983289033174515, 
                0.03405891731381416, 
                -0.1440507024526596, 
                -0.1562451422214508, 
                -0.27817124128341675, 
                -0.01853506825864315, 
                0.06342203915119171, 
                -0.033345356583595276, 
                -0.13174818456172943, 
                0.2685955762863159, 
                0.09967191517353058, 
                0.07177048176527023, 
                0.07015962898731232, 
                -0.13917960226535797, 
                -0.08471710979938507, 
                -0.05658039450645447, 
                -0.059915147721767426, 
                -0.09905695915222168, 
                0.007477074861526489, 
                -0.028289347887039185, 
                -0.026038333773612976, 
                -0.12405749410390854, 
                -0.044034119695425034, 
                0.03275744616985321, 
                -0.13429957628250122, 
                -0.11925058811903, 
                0.04651666060090065, 
                0.054722219705581665, 
                -0.1163892075419426, 
                -0.0451907180249691, 
                -0.029044166207313538, 
                0.18783175945281982, 
                -0.09204351902008057, 
                -0.30300217866897583, 
                -0.10396990925073624, 
                0.024378342553973198, 
                0.04866760969161987, 
                -0.025704259052872658, 
                -0.04739450663328171, 
                -0.08529721200466156, 
                -0.022020883858203888, 
                -0.04924539104104042, 
                -0.04558577015995979, 
                -0.038219042122364044, 
                -0.393645316362381, 
                0.02358057163655758, 
                -0.17782369256019592, 
                0.012278446927666664, 
                0.08064603805541992, 
                -0.16688768565654755, 
                0.011026223190128803, 
                0.1497235745191574, 
                -0.11159534007310867, 
                -0.09131848067045212, 
                -0.16422973573207855, 
                0.03618743270635605, 
                -0.006443819031119347, 
                -0.24663470685482025, 
                0.12749026715755463, 
                -0.035036660730838776, 
                -0.035335246473550797, 
                -0.1764691025018692, 
                0.13341274857521057, 
                -0.12897828221321106, 
                0.12105703353881836, 
                -0.2654432952404022, 
                -0.08744854480028152, 
                -0.3041783571243286, 
                0.02984876185655594, 
                -0.08219989389181137, 
                0.03256247565150261, 
                -0.035947687923908234, 
                0.13257066905498505, 
                -0.03506079316139221, 
                -0.01949113793671131, 
                0.12122637033462524, 
                -0.005784104578197002, 
                -0.1537511944770813, 
                -0.08865959197282791, 
                0.018980320543050766, 
                -0.06938181072473526, 
                0.15483726561069489, 
                -0.15097281336784363, 
                0.006338538136333227, 
                -0.2723553776741028, 
                0.1549498587846756, 
                -0.10536714643239975
            ]
        }, 
        "Node_16": {
            "bias": -0.006178420037031174, 
            "weights": [
                -0.06289619952440262, 
                0.012842625379562378, 
                -0.16067615151405334, 
                0.03254147619009018, 
                0.09108468145132065, 
                -0.12798796594142914, 
                0.01009994838386774, 
                -0.07690680027008057, 
                -0.16510777175426483, 
                -0.12588922679424286, 
                0.04236537218093872, 
                -0.05248637497425079, 
                -0.0889306291937828, 
                -0.019152531400322914, 
                0.07794085144996643, 
                -0.07392053306102753, 
                -0.018959565088152885, 
                0.07374302297830582, 
                -0.13386675715446472, 
                -0.04589809104800224, 
                0.02797199785709381, 
                -0.14692141115665436, 
                0.04810062795877457, 
                0.049971915781497955, 
                -0.0531611442565918, 
                0.03459284082055092, 
                0.06623520702123642, 
                0.09595034271478653, 
                -0.029278574511408806, 
                -0.0026472951285541058, 
                -0.16737599670886993, 
                0.11982007324695587, 
                -0.17019890248775482, 
                -0.03542206808924675, 
                -0.1729755699634552, 
                -0.1278121918439865, 
                -0.16504764556884766, 
                -0.1318625807762146, 
                -0.012482952326536179, 
                0.12263655662536621, 
                0.06621117889881134, 
                -0.11785109341144562, 
                -0.15340156853199005, 
                0.021753594279289246, 
                0.009247317910194397, 
                0.12581732869148254, 
                -0.04386843740940094, 
                0.008492558263242245, 
                -0.09734926372766495, 
                0.0675266683101654, 
                -0.11631342768669128, 
                0.07124672830104828, 
                0.06668786704540253, 
                -0.039134539663791656, 
                0.015040026977658272, 
                -0.12248536199331284, 
                -0.016409719362854958, 
                -0.02987230196595192, 
                0.025951793417334557, 
                -0.03638291358947754, 
                0.09399169683456421, 
                0.009963199496269226, 
                -0.043852049857378006, 
                0.10778181254863739, 
                0.13999055325984955, 
                0.056184399873018265, 
                0.051521386951208115, 
                -0.06287068128585815, 
                -0.17057134211063385, 
                0.10999493300914764, 
                0.04676898941397667, 
                -0.07821666449308395, 
                -0.09824566543102264, 
                0.14522935450077057, 
                0.08897119760513306, 
                -0.13566726446151733, 
                -0.15432535111904144, 
                0.09601587802171707, 
                0.0695812851190567, 
                0.06223089247941971, 
                0.05717301741242409, 
                -0.05487075448036194, 
                -0.03693021833896637, 
                0.13215823471546173, 
                0.0797710195183754, 
                0.004880458116531372, 
                -0.15643763542175293, 
                -0.07846587151288986, 
                0.04228509962558746, 
                -0.12961065769195557, 
                0.08739954978227615, 
                0.012677053920924664, 
                0.07052186876535416, 
                -0.09985083341598511, 
                -0.01912716031074524, 
                -0.09227199107408524, 
                -0.11321964114904404, 
                -0.15864257514476776, 
                -0.12304245680570602, 
                -0.007944270968437195, 
                -0.010299156419932842, 
                0.05106588453054428, 
                0.0027385312132537365, 
                0.08618568629026413, 
                -0.04744751378893852, 
                -0.14933866262435913, 
                -0.17241621017456055, 
                0.0562482625246048, 
                -0.0987657830119133, 
                -0.0603487603366375, 
                0.07196851819753647, 
                -0.09923214465379715, 
                -0.10274773836135864, 
                0.02418898418545723, 
                0.04520760476589203, 
                0.12034423649311066, 
                0.03651723265647888, 
                0.1265256702899933, 
                -0.12643562257289886, 
                -0.07831573486328125, 
                -0.07688410580158234, 
                -0.10114694386720657, 
                0.11835761368274689, 
                -0.15354348719120026, 
                -0.04503942281007767, 
                0.10351260006427765, 
                0.14982162415981293, 
                -0.018763111904263496, 
                0.06089737266302109, 
                0.09556274116039276, 
                0.07945524156093597, 
                -0.15717008709907532, 
                0.11387459188699722, 
                -0.13985207676887512, 
                0.033836059272289276, 
                -0.040686365216970444, 
                0.11193855106830597, 
                0.05089280754327774, 
                0.052771732211112976, 
                0.11492972820997238, 
                -0.15069927275180817, 
                0.13447250425815582, 
                -0.15303558111190796, 
                0.062194742262363434, 
                -0.0312613882124424, 
                0.012124727480113506, 
                -0.12051846086978912, 
                -0.03639930114150047, 
                -0.10600848495960236, 
                -0.1006907969713211
            ]
        }, 
        "Node_15": {
            "bias": -0.6125306487083435, 
            "weights": [
                -0.033168599009513855, 
                0.11506740748882294, 
                0.007009326945990324, 
                -0.031823933124542236, 
                -0.10271917283535004, 
                -0.1998075395822525, 
                0.04245414957404137, 
                -0.0408860482275486, 
                -0.10547971725463867, 
                -0.011678234674036503, 
                -0.07873266190290451, 
                -0.13966694474220276, 
                0.011877276934683323, 
                -0.03592249006032944, 
                0.14212247729301453, 
                0.14519286155700684, 
                0.13726802170276642, 
                -0.19016174972057343, 
                0.04492510110139847, 
                -0.1950472742319107, 
                -0.0814836174249649, 
                0.028162062168121338, 
                0.0949607565999031, 
                -0.10480225086212158, 
                0.04753315448760986, 
                0.08504695445299149, 
                -0.10977412015199661, 
                0.10408931970596313, 
                -0.3478635251522064, 
                -0.12816104292869568, 
                -0.14732563495635986, 
                0.1491466611623764, 
                0.0057637132704257965, 
                -0.1927552968263626, 
                -0.11993184685707092, 
                -0.15584389865398407, 
                -0.030850857496261597, 
                -0.17067267000675201, 
                -0.04478561133146286, 
                -0.2592713236808777, 
                0.09881056845188141, 
                -0.18765889108181, 
                0.062083397060632706, 
                0.010039646178483963, 
                -0.04934573173522949, 
                0.18626973032951355, 
                -0.010022022761404514, 
                0.13567131757736206, 
                -0.03865574300289154, 
                0.2499154955148697, 
                0.10037307441234589, 
                -0.038272757083177567, 
                -0.2654939293861389, 
                0.02686881087720394, 
                -0.04708722233772278, 
                -0.07671060413122177, 
                -0.19405239820480347, 
                -0.11298701912164688, 
                -0.08311007171869278, 
                0.03919122740626335, 
                -0.14244435727596283, 
                -0.1270425170660019, 
                -0.07859243452548981, 
                -0.055348895490169525, 
                -0.2858448028564453, 
                0.017071466892957687, 
                0.04681013152003288, 
                -0.3141818046569824, 
                0.15531441569328308, 
                -0.07811887562274933, 
                -0.20816943049430847, 
                0.06322935968637466, 
                -0.23481370508670807, 
                -0.1421777606010437, 
                0.07011387497186661, 
                0.06599245220422745, 
                -0.09009307622909546, 
                -0.13918828964233398, 
                -0.050030697137117386, 
                0.06769688427448273, 
                -0.09730030596256256, 
                -0.010834664106369019, 
                -0.0065369755029678345, 
                -0.00401068851351738, 
                -0.057462576776742935, 
                0.04751500487327576, 
                -0.2261856645345688, 
                -0.09323813766241074, 
                0.04582211375236511, 
                -0.0557623915374279, 
                -0.012253206223249435, 
                -0.19597242772579193, 
                -0.060749150812625885, 
                -0.10964129865169525, 
                0.007030701730400324, 
                0.34130096435546875, 
                -0.09154762327671051, 
                -0.3291586637496948, 
                -0.20639866590499878, 
                -0.013932912610471249, 
                -0.006699853576719761, 
                0.19956441223621368, 
                -0.15351861715316772, 
                0.10158303380012512, 
                0.01137671060860157, 
                0.20981980860233307, 
                -0.20315420627593994, 
                -0.1607256829738617, 
                -0.06722306460142136, 
                -0.15105363726615906, 
                -0.04149116203188896, 
                0.1286247819662094, 
                -0.1865755319595337, 
                0.03408598527312279, 
                -0.06597231328487396, 
                0.01858830451965332, 
                0.12789419293403625, 
                -0.023305924609303474, 
                -0.18398445844650269, 
                -0.1707853227853775, 
                -0.025837594643235207, 
                -0.07867714017629623, 
                -0.06376984715461731, 
                0.0821802094578743, 
                -0.030270123854279518, 
                -0.12744206190109253, 
                -0.06069192290306091, 
                0.06113828346133232, 
                -0.16238629817962646, 
                -0.12660451233386993, 
                -0.10100170969963074, 
                -0.04376333951950073, 
                -0.17779900133609772, 
                -0.05989425629377365, 
                -0.13310520350933075, 
                -0.03224897012114525, 
                0.12205339968204498, 
                -0.09379827231168747, 
                0.002674907213076949, 
                -0.14825817942619324, 
                -0.02518027275800705, 
                -0.08492443710565567, 
                0.06945526599884033, 
                -0.0920809805393219, 
                0.10414642840623856, 
                -0.5754066109657288, 
                0.036508142948150635, 
                0.02850559912621975, 
                -0.03158209100365639, 
                -0.09097092598676682
            ]
        }, 
        "Node_14": {
            "bias": 0.07795301824808121, 
            "weights": [
                -0.1873326301574707, 
                -0.10881746560335159, 
                0.28688958287239075, 
                -0.03954332694411278, 
                -0.05200459808111191, 
                -0.02221672423183918, 
                0.2986275553703308, 
                0.017238425090909004, 
                0.007195587269961834, 
                -0.07940168678760529, 
                -0.1547965556383133, 
                -0.09271875768899918, 
                -0.1342073678970337, 
                0.2226865142583847, 
                0.03980563208460808, 
                -0.21836033463478088, 
                -5.821741797262803e-05, 
                -0.13913235068321228, 
                -0.03314480185508728, 
                0.13321983814239502, 
                -0.059430766850709915, 
                0.08599139750003815, 
                -0.22715938091278076, 
                -0.04681228846311569, 
                0.05328919366002083, 
                0.02530636079609394, 
                -0.09815318137407303, 
                -0.07083206623792648, 
                0.15358251333236694, 
                0.3586765229701996, 
                0.18300023674964905, 
                -0.036885857582092285, 
                -0.1538470983505249, 
                0.11214625835418701, 
                0.2599542737007141, 
                0.03470880910754204, 
                -0.07106141000986099, 
                -0.10771667957305908, 
                0.3463544547557831, 
                0.024063715711236, 
                0.019403409212827682, 
                0.05045168474316597, 
                -0.03769046813249588, 
                -0.12218821048736572, 
                -0.012468397617340088, 
                0.2504701316356659, 
                -0.07658182829618454, 
                0.2011948674917221, 
                -0.03266836702823639, 
                -0.04229854792356491, 
                -0.09653450548648834, 
                -0.3023524582386017, 
                0.013194996863603592, 
                0.02854371815919876, 
                0.1303287148475647, 
                0.18254762887954712, 
                0.11442963033914566, 
                0.03344050049781799, 
                -0.12107986211776733, 
                -0.17645519971847534, 
                -0.09386751055717468, 
                0.03324912115931511, 
                0.2572900354862213, 
                -0.07510748505592346, 
                0.0872594490647316, 
                0.037150610238313675, 
                -0.08210070431232452, 
                -0.097751185297966, 
                -0.113930843770504, 
                0.035957131534814835, 
                -0.026210831478238106, 
                0.20011375844478607, 
                -0.05900426208972931, 
                0.0093747079372406, 
                0.11407813429832458, 
                -0.11557972431182861, 
                0.34548407793045044, 
                0.12092079967260361, 
                -0.4170151352882385, 
                0.029253385961055756, 
                -0.31206583976745605, 
                -0.03225047141313553, 
                0.0058250874280929565, 
                -0.06578031182289124, 
                0.2751718759536743, 
                0.0898374691605568, 
                -0.05256333202123642, 
                0.011629045940935612, 
                0.17298704385757446, 
                -0.14441710710525513, 
                -0.04016241058707237, 
                0.32346123456954956, 
                0.04517479985952377, 
                0.08144347369670868, 
                0.011153364554047585, 
                0.1994689553976059, 
                -0.007540180813521147, 
                0.08714063465595245, 
                0.10024676471948624, 
                -0.11110573261976242, 
                -0.2257290482521057, 
                -0.21262392401695251, 
                0.0781974270939827, 
                -0.145306795835495, 
                0.10199686139822006, 
                -0.07209254801273346, 
                0.11470336467027664, 
                0.0355008989572525, 
                -0.07164139300584793, 
                -0.1908714473247528, 
                -0.009468989446759224, 
                0.0027702259831130505, 
                -0.12289293855428696, 
                -0.017428092658519745, 
                0.05427929759025574, 
                0.1548062115907669, 
                0.14761503040790558, 
                0.09051019698381424, 
                -0.23750272393226624, 
                -0.07228214293718338, 
                0.007094339467585087, 
                0.03271415829658508, 
                -0.013832390308380127, 
                -0.395452082157135, 
                0.16508041322231293, 
                -0.01726769097149372, 
                0.05768321454524994, 
                0.03960041329264641, 
                -0.07558034360408783, 
                0.05133220553398132, 
                -0.010268914513289928, 
                -0.060754504054784775, 
                0.12267500907182693, 
                0.24423563480377197, 
                0.15118741989135742, 
                -0.12628471851348877, 
                0.04015891253948212, 
                0.15880340337753296, 
                0.00675394618883729, 
                -0.21875569224357605, 
                0.1493632197380066, 
                -0.13072216510772705, 
                0.029889920726418495, 
                -0.22588637471199036, 
                -0.017511898651719093, 
                0.2653902471065521, 
                -0.3063820004463196, 
                0.13182778656482697, 
                -0.0980805978178978, 
                9.036497795023024e-05
            ]
        }, 
        "Node_13": {
            "bias": -0.006123751401901245, 
            "weights": [
                -0.13352355360984802, 
                -0.13199521601200104, 
                -0.09797606617212296, 
                0.09648959338665009, 
                -0.02022917941212654, 
                0.03914526477456093, 
                -0.12735985219478607, 
                -0.07078947871923447, 
                0.07024852931499481, 
                -0.07489995658397675, 
                -0.1300508975982666, 
                0.09879644215106964, 
                -0.05022542178630829, 
                -0.12874233722686768, 
                -0.1197509840130806, 
                -0.010707319714128971, 
                0.07187450677156448, 
                0.049082882702350616, 
                -0.10129054635763168, 
                -6.758629024261609e-05, 
                0.05587780475616455, 
                0.09504672884941101, 
                -0.06206490844488144, 
                -0.04785875603556633, 
                0.10689108073711395, 
                -0.06945168226957321, 
                -0.11176572740077972, 
                -0.09678120911121368, 
                -0.15379561483860016, 
                -0.08674506843090057, 
                0.13501141965389252, 
                0.021846622228622437, 
                -0.09921729564666748, 
                0.03004826419055462, 
                0.020299917086958885, 
                -0.12707336246967316, 
                -0.03858655318617821, 
                -0.09573233127593994, 
                -0.03437688574194908, 
                -0.06864751130342484, 
                -0.10954935848712921, 
                -0.12551528215408325, 
                0.08342205733060837, 
                -0.046520695090293884, 
                0.11599649488925934, 
                0.13004279136657715, 
                -0.13638272881507874, 
                0.04387759044766426, 
                -0.07807673513889313, 
                -0.06834491342306137, 
                0.01097726821899414, 
                0.13202814757823944, 
                -0.029664967209100723, 
                -0.0474749356508255, 
                -0.004980179946869612, 
                0.04396982863545418, 
                -0.1310647875070572, 
                0.08938281983137131, 
                0.0028564929962158203, 
                -0.17412877082824707, 
                0.09363870322704315, 
                0.08073121309280396, 
                0.058522578328847885, 
                -0.13053926825523376, 
                -0.07845053821802139, 
                -0.11374736577272415, 
                0.0853668674826622, 
                0.03928716853260994, 
                0.016543328762054443, 
                -0.12824894487857819, 
                -0.12105009704828262, 
                -0.129902645945549, 
                -0.03478915989398956, 
                0.022692888975143433, 
                0.13017643988132477, 
                -0.08055143058300018, 
                0.023434042930603027, 
                -0.13519695401191711, 
                -0.09907402843236923, 
                0.043688446283340454, 
                0.11703966557979584, 
                -0.021326348185539246, 
                -0.026569992303848267, 
                -0.034266840666532516, 
                -0.13988721370697021, 
                0.05650503560900688, 
                -0.003743120701983571, 
                0.12840121984481812, 
                -0.09143783152103424, 
                0.06522176414728165, 
                -0.05624225363135338, 
                0.015060117468237877, 
                0.09060610830783844, 
                -0.06173136085271835, 
                -0.1342857927083969, 
                0.07075752317905426, 
                -0.0029187225736677647, 
                -0.10272364318370819, 
                -0.030255213379859924, 
                -0.009355886839330196, 
                -0.10029724985361099, 
                0.1041649580001831, 
                -0.12670843303203583, 
                0.02303391695022583, 
                -0.16050279140472412, 
                -0.0032317189034074545, 
                -0.011486750096082687, 
                0.0037999539636075497, 
                0.11224214732646942, 
                -0.10230229794979095, 
                -0.17012198269367218, 
                0.005489031784236431, 
                0.030248435214161873, 
                -0.0938044935464859, 
                -0.14538587629795074, 
                0.04109877347946167, 
                -0.0397472120821476, 
                0.05327014625072479, 
                -0.09974759072065353, 
                0.11341402679681778, 
                -0.03146562725305557, 
                0.020145326852798462, 
                0.09572025388479233, 
                0.039927929639816284, 
                -0.14134162664413452, 
                -0.02564241550862789, 
                0.13229279220104218, 
                0.07275216281414032, 
                -0.010239806026220322, 
                0.01580864191055298, 
                -0.07568912208080292, 
                0.0023977288510650396, 
                0.12025295943021774, 
                0.05472993105649948, 
                -0.10758655518293381, 
                -0.14266853034496307, 
                0.03789135813713074, 
                0.06269971281290054, 
                -0.10484516620635986, 
                0.08911663293838501, 
                -0.12122293561697006, 
                0.027318865060806274, 
                0.022421326488256454, 
                0.08002571761608124, 
                -0.05948987975716591, 
                0.05319001525640488, 
                0.005072304047644138, 
                0.05653449520468712, 
                -0.1493762582540512, 
                0.033805303275585175
            ]
        }, 
        "Node_12": {
            "bias": -0.027652304619550705, 
            "weights": [
                -0.05069631338119507, 
                -0.01401724573224783, 
                -0.15186099708080292, 
                -0.0806599110364914, 
                0.05740226432681084, 
                -0.15769903361797333, 
                -0.021016374230384827, 
                -0.0835568755865097, 
                0.12379802763462067, 
                -0.10020828247070312, 
                0.12040623277425766, 
                -0.021138634532690048, 
                -0.1358555108308792, 
                0.005146421957761049, 
                -0.1844130903482437, 
                -0.13407082855701447, 
                -0.05854702740907669, 
                0.025144699960947037, 
                0.13374513387680054, 
                -0.11350607126951218, 
                -0.07030016928911209, 
                -0.14518846571445465, 
                0.0038472353480756283, 
                -0.12848564982414246, 
                0.027561277151107788, 
                -0.15301552414894104, 
                0.07328435033559799, 
                -0.06383984535932541, 
                -0.03976835682988167, 
                0.013734487816691399, 
                -0.16271041333675385, 
                0.15326355397701263, 
                0.07949389517307281, 
                0.05107667297124863, 
                0.04804163798689842, 
                -0.008607578463852406, 
                -0.041641656309366226, 
                -0.0898769274353981, 
                0.079252228140831, 
                -0.07971898466348648, 
                0.14641208946704865, 
                -0.023952635005116463, 
                -0.12297175824642181, 
                0.005714040715247393, 
                -0.12445540726184845, 
                0.07380225509405136, 
                -0.05659155547618866, 
                -0.005697852466255426, 
                -0.13350549340248108, 
                0.06631223112344742, 
                0.10872910916805267, 
                0.08189711719751358, 
                -0.14095726609230042, 
                -0.045853812247514725, 
                -0.14691630005836487, 
                -0.1404787003993988, 
                -0.1418100744485855, 
                0.06864477694034576, 
                0.0420638732612133, 
                -0.15438827872276306, 
                0.042474325746297836, 
                0.02406378462910652, 
                -0.08709965646266937, 
                0.12220384925603867, 
                -0.046335574239492416, 
                0.024921966716647148, 
                -0.02526346780359745, 
                -0.09815720468759537, 
                -0.059227630496025085, 
                -0.13109424710273743, 
                -0.03303452208638191, 
                -0.14786599576473236, 
                0.05071651563048363, 
                0.012507036328315735, 
                0.018955988809466362, 
                -0.09077855944633484, 
                0.043759554624557495, 
                0.027437355369329453, 
                0.1041344404220581, 
                0.0019087048713117838, 
                0.05823972448706627, 
                0.12464724481105804, 
                0.11593328416347504, 
                -0.003153669647872448, 
                0.1342897117137909, 
                -0.07392250746488571, 
                -0.023709356784820557, 
                0.0962708443403244, 
                0.03834524750709534, 
                -0.001000886899419129, 
                -0.10199261456727982, 
                0.1262546181678772, 
                -0.05120448023080826, 
                0.08844119310379028, 
                -0.0204109326004982, 
                0.033929191529750824, 
                -0.12598402798175812, 
                -0.14939062297344208, 
                -0.013143150135874748, 
                0.03233389928936958, 
                0.12080753594636917, 
                0.04238997399806976, 
                0.007201128173619509, 
                0.14668861031532288, 
                0.05374413728713989, 
                0.03369145095348358, 
                -0.04147769883275032, 
                -0.08077101409435272, 
                -0.14038847386837006, 
                -0.008796809241175652, 
                0.0605047345161438, 
                -0.014847076497972012, 
                -0.1679053008556366, 
                -0.14548996090888977, 
                0.09071125090122223, 
                0.12071458995342255, 
                -0.12721410393714905, 
                -0.1600889414548874, 
                0.028614627197384834, 
                0.040863726288080215, 
                -0.05842788890004158, 
                0.045098766684532166, 
                -0.04966127872467041, 
                -0.03447912260890007, 
                0.09119410067796707, 
                0.03529686480760574, 
                -0.14102496206760406, 
                0.08937244117259979, 
                0.03244633600115776, 
                -0.02212090790271759, 
                -0.18472634255886078, 
                -0.18686029314994812, 
                0.0026131635531783104, 
                0.0324493832886219, 
                -0.12947306036949158, 
                -0.06532487273216248, 
                -0.02474135160446167, 
                -0.08928129076957703, 
                -0.03864828497171402, 
                0.15313200652599335, 
                0.07050145417451859, 
                -0.09426428377628326, 
                0.03298279643058777, 
                0.0621204636991024, 
                0.03958524763584137, 
                -0.11655489355325699, 
                0.03928794339299202, 
                0.03107924945652485, 
                0.08673804253339767, 
                -0.07571527361869812
            ]
        }, 
        "Node_11": {
            "bias": -0.4498387575149536, 
            "weights": [
                0.10042956471443176, 
                -0.07559731602668762, 
                -0.08483459055423737, 
                0.0891205295920372, 
                0.035990700125694275, 
                0.0065101636573672295, 
                0.06331593543291092, 
                -0.27966612577438354, 
                0.07344640791416168, 
                -0.0976380780339241, 
                -0.189118430018425, 
                -0.43680378794670105, 
                -0.14850957691669464, 
                0.36473968625068665, 
                -0.006536561064422131, 
                0.12034811079502106, 
                0.04757046326994896, 
                -0.05042899027466774, 
                -0.08010689169168472, 
                -0.01462914515286684, 
                -0.10399580746889114, 
                -0.14770455658435822, 
                -0.09797131270170212, 
                -0.13476790487766266, 
                0.014554163441061974, 
                -0.0700245350599289, 
                0.09945479035377502, 
                0.13500548899173737, 
                -0.24169115722179413, 
                -0.14078359305858612, 
                -0.12492068856954575, 
                -0.12110479176044464, 
                -0.40652579069137573, 
                0.014004204422235489, 
                0.030830811709165573, 
                -0.06217127665877342, 
                -0.022625207901000977, 
                -0.13230910897254944, 
                0.03664892539381981, 
                -0.13457360863685608, 
                -0.054318662732839584, 
                -0.10693604499101639, 
                -0.01128056924790144, 
                -0.21699024736881256, 
                0.056574150919914246, 
                0.09327515959739685, 
                -0.13329118490219116, 
                -0.022974150255322456, 
                0.07537040114402771, 
                -0.023183319717645645, 
                -0.10994526743888855, 
                0.18456338346004486, 
                0.10743468999862671, 
                -0.07287821918725967, 
                -0.08265551179647446, 
                0.06859757006168365, 
                0.11906875669956207, 
                0.13209651410579681, 
                -0.11958891153335571, 
                0.02420261688530445, 
                -0.07823221385478973, 
                -0.05409831553697586, 
                -0.02477329410612583, 
                -0.03567067161202431, 
                0.10443290323019028, 
                -0.12000414729118347, 
                -0.03308641538023949, 
                0.04883458465337753, 
                -0.02233715169131756, 
                0.050401054322719574, 
                -0.04506516829133034, 
                0.07386617362499237, 
                0.0780506432056427, 
                -0.060510970652103424, 
                0.14350613951683044, 
                -0.010582645423710346, 
                0.11207783967256546, 
                0.07903037220239639, 
                -0.26811614632606506, 
                0.10756002366542816, 
                0.19069118797779083, 
                0.015428870916366577, 
                -0.0935988500714302, 
                -0.028660845011472702, 
                -0.03589831292629242, 
                -0.008119194768369198, 
                -0.180447056889534, 
                -0.15688857436180115, 
                0.01785152778029442, 
                0.05841232091188431, 
                0.10058773308992386, 
                0.1250142902135849, 
                0.042823415249586105, 
                0.05226290225982666, 
                0.0011675345012918115, 
                -0.02972479909658432, 
                -0.4826491177082062, 
                -0.09762416034936905, 
                -0.11142273247241974, 
                -0.00297121936455369, 
                0.11313418298959732, 
                -0.007312380243092775, 
                -0.17234115302562714, 
                0.10702893137931824, 
                -0.12894704937934875, 
                0.05043758451938629, 
                -0.17515872418880463, 
                -0.3513409495353699, 
                -0.24458102881908417, 
                -0.20228241384029388, 
                -0.12392555922269821, 
                0.020481454208493233, 
                -0.00689466018229723, 
                0.001027062302455306, 
                0.08139172196388245, 
                0.1167212575674057, 
                -0.028395328670740128, 
                0.031105823814868927, 
                -0.008309169672429562, 
                0.07636485248804092, 
                0.16428858041763306, 
                -0.071049265563488, 
                0.005561544559895992, 
                0.031373266130685806, 
                0.06590740382671356, 
                0.05318062752485275, 
                0.0925300121307373, 
                0.09633395820856094, 
                -0.37526407837867737, 
                0.0574476420879364, 
                -0.064432792365551, 
                -0.13635002076625824, 
                -0.023511119186878204, 
                0.06433398276567459, 
                0.11490096896886826, 
                -0.1880093216896057, 
                -0.13761764764785767, 
                0.028302861377596855, 
                -0.08805110305547714, 
                0.12107008695602417, 
                -0.03820269927382469, 
                0.13523845374584198, 
                0.05385863408446312, 
                -0.10748522728681564, 
                0.09455270320177078, 
                0.1974158138036728, 
                0.07396620512008667, 
                -0.13451746106147766, 
                -0.10016310960054398, 
                0.04148081690073013
            ]
        }, 
        "Node_10": {
            "bias": -0.05848173052072525, 
            "weights": [
                0.008350935764610767, 
                -0.06590032577514648, 
                -0.11976493149995804, 
                -0.013335257768630981, 
                0.03319568186998367, 
                -0.08051972836256027, 
                0.07077766954898834, 
                0.06409943848848343, 
                -0.03244730457663536, 
                0.05353270843625069, 
                -0.13662709295749664, 
                -0.1461281180381775, 
                -0.09388233721256256, 
                0.09782690554857254, 
                -0.10778173059225082, 
                0.12465399503707886, 
                -0.0563616007566452, 
                -0.03177538886666298, 
                -0.08799795806407928, 
                0.06771799176931381, 
                0.05761008709669113, 
                0.08866779506206512, 
                0.12440209090709686, 
                -0.009391969069838524, 
                -0.057890716940164566, 
                0.10441940277814865, 
                0.03640883415937424, 
                -0.11683246493339539, 
                0.04544580355286598, 
                0.036332305520772934, 
                -0.12280983477830887, 
                0.10252206027507782, 
                -0.10380599647760391, 
                -0.03318200632929802, 
                -0.03984585776925087, 
                -0.03720866143703461, 
                0.07765964418649673, 
                0.08943615108728409, 
                -0.1406668722629547, 
                0.04846487566828728, 
                0.060983046889305115, 
                0.10638130456209183, 
                -0.15708471834659576, 
                -0.17875081300735474, 
                -0.05159459263086319, 
                0.07313068956136703, 
                -0.17526474595069885, 
                -0.015314806252717972, 
                0.0030566139612346888, 
                -0.010985017754137516, 
                0.04909409582614899, 
                -0.13761527836322784, 
                -0.03684811666607857, 
                0.04757164791226387, 
                -0.1199268251657486, 
                -0.11287008970975876, 
                -0.1517847776412964, 
                -0.004177642520517111, 
                0.1490798443555832, 
                -0.037768758833408356, 
                -0.0581812709569931, 
                -0.14703136682510376, 
                0.04996002838015556, 
                -0.13167399168014526, 
                -0.07637704163789749, 
                0.07938040792942047, 
                -0.010274114087224007, 
                0.04789891093969345, 
                0.171809121966362, 
                -0.15145154297351837, 
                -0.058272529393434525, 
                -0.06576953828334808, 
                -0.0018914085812866688, 
                -0.11973640322685242, 
                -0.09600631892681122, 
                -0.07299770414829254, 
                -0.026550335809588432, 
                -0.00011715285654645413, 
                -0.1081790179014206, 
                -0.1399698406457901, 
                0.023455647751688957, 
                -0.11335287988185883, 
                -0.03623819351196289, 
                -0.1842757761478424, 
                -0.12916125357151031, 
                -0.030757978558540344, 
                0.03028053604066372, 
                0.057437218725681305, 
                -0.016210036352276802, 
                -0.11661124229431152, 
                0.0653277114033699, 
                0.08797572553157806, 
                -0.1267162710428238, 
                -0.07051391899585724, 
                -0.0578196682035923, 
                -0.1632913500070572, 
                -0.15259197354316711, 
                0.10804656893014908, 
                -0.10760682076215744, 
                -0.13323403894901276, 
                -0.12524372339248657, 
                -0.1463637799024582, 
                0.05214431509375572, 
                0.03619145229458809, 
                -0.18649867177009583, 
                -0.15695931017398834, 
                -0.06959856301546097, 
                -0.16943833231925964, 
                0.03682812675833702, 
                0.006218159105628729, 
                0.0021955689880996943, 
                -0.07527992874383926, 
                -0.15776517987251282, 
                0.01622752472758293, 
                0.12722869217395782, 
                0.14159126579761505, 
                -0.06605509668588638, 
                -0.09333609789609909, 
                -0.09016366302967072, 
                -0.01765494793653488, 
                -0.044716913253068924, 
                -0.09696029126644135, 
                -0.10400573164224625, 
                0.06516743451356888, 
                0.0392521433532238, 
                0.07801242917776108, 
                -0.026132822036743164, 
                -0.10151858627796173, 
                -0.16181716322898865, 
                0.08900678157806396, 
                -0.22310861945152283, 
                -0.23775111138820648, 
                -0.20256175100803375, 
                0.016126815229654312, 
                0.05570761486887932, 
                -0.1256929337978363, 
                0.11199454963207245, 
                -0.03374967351555824, 
                0.13928911089897156, 
                0.0036397266667336226, 
                0.04420236125588417, 
                0.026107490062713623, 
                0.12123378366231918, 
                -0.15844950079917908, 
                0.03835020214319229, 
                0.11417935788631439, 
                -0.10141761600971222, 
                -0.04212549328804016, 
                0.030555158853530884, 
                0.0017437257338315248
            ]
        }, 
        "Node_97": {
            "bias": -0.08264090120792389, 
            "weights": [
                -0.019020022824406624, 
                -0.002411150373518467, 
                -0.13336853682994843, 
                -0.06525374203920364, 
                -0.054322250187397, 
                -0.13768556714057922, 
                -0.21155183017253876, 
                -0.1024928092956543, 
                -0.0798429548740387, 
                -0.01541493833065033, 
                -0.05824931710958481, 
                -0.046134475618600845, 
                -0.14865314960479736, 
                -0.04931433126330376, 
                0.09972182661294937, 
                -0.12487240135669708, 
                0.23805947601795197, 
                0.08794254064559937, 
                0.035468265414237976, 
                0.07811573892831802, 
                -0.14454655349254608, 
                -0.141835555434227, 
                -0.05060017853975296, 
                0.18898740410804749, 
                0.11842454969882965, 
                -0.20977190136909485, 
                0.1209447830915451, 
                -0.007924347184598446, 
                -0.04419391229748726, 
                -0.07503209263086319, 
                -0.13992543518543243, 
                0.13273267447948456, 
                0.03759254515171051, 
                -0.2087961882352829, 
                -0.008839607238769531, 
                -0.0852515771985054, 
                0.1854376345872879, 
                -0.13017818331718445, 
                -0.09657984226942062, 
                0.06293296813964844, 
                -0.0532098263502121, 
                0.12834537029266357, 
                0.10199086368083954, 
                0.118627168238163, 
                0.09802772104740143, 
                -0.1761990636587143, 
                -0.10750964283943176, 
                -0.08059929311275482, 
                -0.0730312243103981, 
                0.04612835496664047, 
                -0.041188642382621765, 
                0.05949147418141365, 
                -0.06721261888742447, 
                -0.03027714602649212, 
                0.10255467891693115, 
                -0.023446662351489067, 
                0.20411275327205658, 
                -0.054431699216365814, 
                0.1887376457452774, 
                0.06288863718509674, 
                -0.09107089787721634, 
                -0.025922104716300964, 
                -0.14246343076229095, 
                -0.015169569291174412, 
                -0.17112991213798523, 
                -0.11926484107971191, 
                0.033677682280540466, 
                0.06130106374621391, 
                0.23951883614063263, 
                -0.06293202191591263, 
                -0.18092522025108337, 
                0.07215902954339981, 
                0.14090988039970398, 
                0.14328067004680634, 
                -0.10647379606962204, 
                -0.13862556219100952, 
                0.08695743978023529, 
                -0.19724221527576447, 
                -0.0706990659236908, 
                0.00974111258983612, 
                -0.20346494019031525, 
                0.15233446657657623, 
                -0.0024671852588653564, 
                -0.06238753721117973, 
                0.007810916285961866, 
                -0.038214802742004395, 
                -0.1467670500278473, 
                0.11126457154750824, 
                -0.08832820504903793, 
                -0.1911153495311737, 
                -0.25008198618888855, 
                0.27264830470085144, 
                0.03926263749599457, 
                -0.04162692278623581, 
                0.05085200071334839, 
                -0.17151449620723724, 
                -0.18321546912193298, 
                0.10623393952846527, 
                -0.06537671387195587, 
                -0.07512152940034866, 
                0.08819670230150223, 
                -0.09796982258558273, 
                0.07060863822698593, 
                0.11290954053401947, 
                -0.2612386643886566, 
                -0.24147531390190125, 
                -0.152771458029747, 
                0.10785635560750961, 
                0.14906206727027893, 
                0.09175151586532593, 
                -0.07506272941827774, 
                0.06371095776557922, 
                -0.07399530708789825, 
                -0.038015011698007584, 
                0.1445551961660385, 
                -0.14783522486686707, 
                -0.228282630443573, 
                0.020840177312493324, 
                -0.044508595019578934, 
                -0.11714965850114822, 
                -0.04099243879318237, 
                0.09503698348999023, 
                -0.0030455589294433594, 
                -0.05200689658522606, 
                -0.04511550813913345, 
                -0.08066494762897491, 
                -0.06394661217927933, 
                -0.06218961998820305, 
                0.11099553108215332, 
                0.13831181824207306, 
                -0.17627228796482086, 
                -0.04018407315015793, 
                -0.17274156212806702, 
                -0.03460802882909775, 
                -0.017669472843408585, 
                -0.1461445391178131, 
                -0.11409850418567657, 
                0.01684904284775257, 
                0.06828629970550537, 
                0.03796868771314621, 
                -0.15150704979896545, 
                -0.11214952170848846, 
                -0.11835223436355591, 
                -0.14828439056873322, 
                -0.1502045840024948, 
                -0.0024806600995361805, 
                0.07854026556015015, 
                -0.03542493283748627, 
                0.0987141951918602, 
                0.04449707642197609
            ]
        }, 
        "Node_96": {
            "bias": 0.0721074640750885, 
            "weights": [
                -0.11255823075771332, 
                0.04719756171107292, 
                -0.11502743512392044, 
                0.003487581619992852, 
                0.031620267778635025, 
                -0.11062551289796829, 
                0.13378483057022095, 
                -0.12999175488948822, 
                -0.0038342103362083435, 
                0.015626173466444016, 
                0.11999421566724777, 
                -0.14091213047504425, 
                0.017768854275345802, 
                0.006659772712737322, 
                -0.03957679867744446, 
                -0.15210109949111938, 
                -0.11618676036596298, 
                0.08249040693044662, 
                0.10843275487422943, 
                -0.09193620830774307, 
                0.09574171155691147, 
                0.03568677604198456, 
                -0.0892852321267128, 
                -0.19913795590400696, 
                0.11596736311912537, 
                -0.08546929061412811, 
                -0.0984853208065033, 
                -0.022556595504283905, 
                0.05453503876924515, 
                0.025415819138288498, 
                0.0644083321094513, 
                -0.089592844247818, 
                -0.15071183443069458, 
                -0.14738060534000397, 
                -0.19072464108467102, 
                0.02934599108994007, 
                -0.061773452907800674, 
                -0.0286413487046957, 
                -0.09799551218748093, 
                -0.10366702079772949, 
                0.11008632928133011, 
                -0.15368303656578064, 
                -0.07401684671640396, 
                -0.21678996086120605, 
                -0.08864371478557587, 
                0.04945530742406845, 
                0.05295819416642189, 
                0.022059479728341103, 
                0.016382388770580292, 
                -0.1825961023569107, 
                0.0511787086725235, 
                -0.1731533706188202, 
                0.021566281095147133, 
                -0.25781822204589844, 
                -0.024938838556408882, 
                -0.2356811910867691, 
                0.08363460004329681, 
                0.1632114052772522, 
                -0.06721758842468262, 
                -0.16738931834697723, 
                -0.15621748566627502, 
                -0.05188923329114914, 
                -0.07301779836416245, 
                -0.11520683020353317, 
                -0.020901355892419815, 
                0.08135755360126495, 
                -0.1339256465435028, 
                0.11988072842359543, 
                0.03408848121762276, 
                0.029911868274211884, 
                0.053564850240945816, 
                0.06558632105588913, 
                0.07886464148759842, 
                -0.149189293384552, 
                -0.16247664391994476, 
                -0.08376091718673706, 
                0.018501276150345802, 
                -0.16659986972808838, 
                -0.17681331932544708, 
                0.09195742756128311, 
                -0.08209721744060516, 
                -0.005990371108055115, 
                0.10678346455097198, 
                0.09959973394870758, 
                -0.1414145976305008, 
                -0.17738178372383118, 
                0.023914899677038193, 
                -0.10287342965602875, 
                -0.028752554208040237, 
                0.0666305422782898, 
                -0.12109827995300293, 
                -0.004280882887542248, 
                0.06902699917554855, 
                -0.0791124701499939, 
                -0.0381501279771328, 
                0.08002769201993942, 
                -0.10854370146989822, 
                -0.09251707792282104, 
                -0.13284312188625336, 
                0.1097247526049614, 
                0.0037206264678388834, 
                0.07187812030315399, 
                0.012596102431416512, 
                0.03521542623639107, 
                0.0519876666367054, 
                -0.06413742899894714, 
                -0.05726606398820877, 
                -0.27243295311927795, 
                0.10862225294113159, 
                -0.02622036822140217, 
                -0.13394172489643097, 
                0.021754756569862366, 
                -0.12197862565517426, 
                -0.06914184242486954, 
                0.0861835777759552, 
                0.0623297244310379, 
                0.0968530923128128, 
                -0.09290566295385361, 
                0.060756389051675797, 
                0.005374581553041935, 
                0.00030530625372193754, 
                0.0285273939371109, 
                -0.1397045999765396, 
                -0.04750584810972214, 
                -0.1558484584093094, 
                0.0977368950843811, 
                -0.03169599175453186, 
                0.10997366160154343, 
                -0.17834004759788513, 
                0.024872496724128723, 
                -0.13459821045398712, 
                -0.07250209152698517, 
                0.10798908770084381, 
                -0.005817425902932882, 
                0.09785182774066925, 
                0.09913349896669388, 
                0.06637926399707794, 
                -0.042778752744197845, 
                -0.1341070681810379, 
                0.052492983639240265, 
                0.04634559154510498, 
                -0.10433962941169739, 
                -0.10357435792684555, 
                -0.10687505453824997, 
                -0.18710166215896606, 
                0.028992166742682457, 
                -0.06927734613418579, 
                0.2214067578315735, 
                0.12876185774803162, 
                -0.049834225326776505
            ]
        }, 
        "Node_95": {
            "bias": -0.003591833170503378, 
            "weights": [
                0.06511116772890091, 
                0.05458378791809082, 
                -0.12419633567333221, 
                -0.03305231034755707, 
                -0.1348612755537033, 
                -0.029597006738185883, 
                -0.12095081806182861, 
                0.06768468767404556, 
                -0.12956342101097107, 
                -0.05034395307302475, 
                -0.11074995994567871, 
                -0.13621897995471954, 
                -0.1258624941110611, 
                0.1368975192308426, 
                0.03256109729409218, 
                -0.13008449971675873, 
                0.022051680833101273, 
                -0.1408817172050476, 
                -0.04208466410636902, 
                -0.04357900470495224, 
                0.06979082524776459, 
                -0.05566364526748657, 
                0.11333374679088593, 
                -0.1893739253282547, 
                -0.12512822449207306, 
                -0.11494728922843933, 
                -0.08261880278587341, 
                0.036998480558395386, 
                0.020284943282604218, 
                -0.18687847256660461, 
                -0.13444723188877106, 
                0.08132332563400269, 
                -0.15151506662368774, 
                0.03494413197040558, 
                -0.08934903889894485, 
                -0.08343015611171722, 
                0.09109391272068024, 
                0.09827511757612228, 
                -0.030317984521389008, 
                0.08787733316421509, 
                0.06286518275737762, 
                -0.027045637369155884, 
                0.11215833574533463, 
                -0.08548707515001297, 
                -0.06692145019769669, 
                0.056260138750076294, 
                0.015095298178493977, 
                0.013407924212515354, 
                0.03890753537416458, 
                -0.06801851838827133, 
                0.04475107789039612, 
                0.11032592505216599, 
                -0.08781501650810242, 
                -0.13211652636528015, 
                -0.052687909454107285, 
                0.08145786076784134, 
                0.011495301499962807, 
                0.015021845698356628, 
                0.10715049505233765, 
                -0.04870591312646866, 
                0.05240902304649353, 
                0.12788702547550201, 
                0.0919792577624321, 
                -0.02855794131755829, 
                0.030415689572691917, 
                -0.07625699788331985, 
                -0.18248599767684937, 
                -0.15180467069149017, 
                0.013859194703400135, 
                -0.01013150718063116, 
                0.06482132524251938, 
                -0.07117936760187149, 
                0.04697027429938316, 
                -0.03744170814752579, 
                -0.14023955166339874, 
                -0.008424138650298119, 
                -0.007789870724081993, 
                -0.09396325051784515, 
                0.012377029284834862, 
                -0.06925068795681, 
                -0.10339957475662231, 
                -0.07699202746152878, 
                0.07015660405158997, 
                -0.035407617688179016, 
                -0.07562223076820374, 
                -0.10980883240699768, 
                -0.19400611519813538, 
                0.12912119925022125, 
                0.03920615836977959, 
                -0.002204061020165682, 
                -0.006749562453478575, 
                -0.1578570157289505, 
                -0.004605359863489866, 
                0.006849050521850586, 
                0.08348667621612549, 
                0.11761847883462906, 
                0.11174670606851578, 
                -0.07801201939582825, 
                0.03517979010939598, 
                0.1199072003364563, 
                -0.01104819681495428, 
                -0.14680320024490356, 
                0.13088096678256989, 
                0.01882152259349823, 
                -0.11978573352098465, 
                -0.07264714688062668, 
                -0.2279602438211441, 
                0.10866165161132812, 
                -0.14151495695114136, 
                -0.1098368763923645, 
                -0.08202159404754639, 
                0.12137030810117722, 
                0.029126783832907677, 
                0.04005976766347885, 
                -0.011236459016799927, 
                0.06808348000049591, 
                0.004575841594487429, 
                -0.04022336006164551, 
                -0.0995599776506424, 
                -0.178858682513237, 
                0.07156245410442352, 
                -0.042840659618377686, 
                0.06029157340526581, 
                -0.07279785722494125, 
                -0.13207325339317322, 
                0.0306776762008667, 
                -0.004339277744293213, 
                0.07416780292987823, 
                -0.002734917448833585, 
                -0.1325858235359192, 
                0.03813578188419342, 
                -0.07833746075630188, 
                -0.125971719622612, 
                -0.0513576976954937, 
                0.07938344031572342, 
                -0.06336107850074768, 
                0.14553888142108917, 
                -0.06788410246372223, 
                0.12841467559337616, 
                -0.17515763640403748, 
                -0.16314907371997833, 
                0.09475590288639069, 
                -0.11896166950464249, 
                -0.07833559066057205, 
                0.06200535222887993, 
                -0.06800248473882675, 
                -0.13504627346992493, 
                0.039658334106206894, 
                -0.1274847686290741, 
                -0.10425246506929398
            ]
        }, 
        "Node_94": {
            "bias": -0.020457878708839417, 
            "weights": [
                0.06795649230480194, 
                0.031875744462013245, 
                -0.04122740775346756, 
                0.13210995495319366, 
                -0.016286700963974, 
                -0.15572156012058258, 
                0.1205727756023407, 
                -0.08588404208421707, 
                0.012003595009446144, 
                0.07415962219238281, 
                0.05427398160099983, 
                -0.13547971844673157, 
                -0.050096604973077774, 
                0.12028934061527252, 
                -0.060717493295669556, 
                0.07465972006320953, 
                -0.0018437594408169389, 
                -0.07712636142969131, 
                0.09917443990707397, 
                -0.052801236510276794, 
                -0.07757435739040375, 
                -0.0803113579750061, 
                -0.06334574520587921, 
                -0.11970239132642746, 
                0.007306531071662903, 
                0.008905338123440742, 
                -0.03681790083646774, 
                -0.11170603334903717, 
                -0.06459170579910278, 
                0.048337746411561966, 
                0.051224179565906525, 
                -0.11555199325084686, 
                -0.023723190650343895, 
                0.07546946406364441, 
                -0.04876505210995674, 
                0.07926350086927414, 
                -0.0009333877242170274, 
                0.00840812735259533, 
                -0.05077412351965904, 
                -0.05049296095967293, 
                0.09269692003726959, 
                -0.12706880271434784, 
                0.04943146929144859, 
                0.07309575378894806, 
                -0.028745874762535095, 
                -0.052368730306625366, 
                -0.023732470348477364, 
                -0.018360432237386703, 
                -0.012666875496506691, 
                0.1460561901330948, 
                0.05687446892261505, 
                -0.12913431227207184, 
                0.04404580593109131, 
                0.09781678766012192, 
                -0.006577115040272474, 
                0.07850774377584457, 
                -0.03888479620218277, 
                0.04815906286239624, 
                -0.017819344997406006, 
                0.01976516656577587, 
                -0.10165581107139587, 
                0.13826511800289154, 
                -0.18375253677368164, 
                -0.009484552778303623, 
                -0.015386611223220825, 
                -0.17576037347316742, 
                -0.0073980363085865974, 
                -0.13565275073051453, 
                0.004607021808624268, 
                -0.06540635973215103, 
                -0.05698886886239052, 
                -0.08854187279939651, 
                -0.14627736806869507, 
                0.060887306928634644, 
                -0.05623120069503784, 
                -0.08640879392623901, 
                -0.011715620756149292, 
                0.055879753082990646, 
                -0.16727504134178162, 
                0.0020494163036346436, 
                0.12937460839748383, 
                -0.0019731074571609497, 
                0.13820652663707733, 
                -0.1848670095205307, 
                -0.09973537921905518, 
                -0.007907591760158539, 
                -0.03622967004776001, 
                0.07081881910562515, 
                -0.0129662761464715, 
                -0.16283921897411346, 
                0.12367068231105804, 
                0.004552836529910564, 
                -0.14441907405853271, 
                0.014421641826629639, 
                0.030523106455802917, 
                -0.011412844993174076, 
                -0.096483014523983, 
                -0.05339854955673218, 
                -0.022948581725358963, 
                -0.004939933307468891, 
                -0.16996797919273376, 
                -0.09953277558088303, 
                -0.12730459868907928, 
                0.022478744387626648, 
                -0.05980244651436806, 
                -0.10785587877035141, 
                -0.1635502129793167, 
                -0.0657731369137764, 
                -0.05450335144996643, 
                -0.10934344679117203, 
                0.09833559393882751, 
                -0.11594124883413315, 
                0.0012623013462871313, 
                -0.02291281521320343, 
                -0.141799658536911, 
                0.13864971697330475, 
                0.026708604767918587, 
                -0.10206538438796997, 
                -0.1673552244901657, 
                -0.029473330825567245, 
                0.035372793674468994, 
                -0.04569154232740402, 
                -0.06095965951681137, 
                -0.1385769248008728, 
                0.09831364452838898, 
                -0.007892127148807049, 
                0.02084401249885559, 
                0.025219498202204704, 
                0.0718243345618248, 
                0.02409397065639496, 
                -0.18370723724365234, 
                -0.03948032110929489, 
                0.09810718894004822, 
                -0.1538965404033661, 
                0.037570174783468246, 
                -0.14974907040596008, 
                -0.0006013065576553345, 
                0.016958000138401985, 
                -0.08350315690040588, 
                -0.02294541895389557, 
                -0.13036321103572845, 
                -0.14287880063056946, 
                0.03144877403974533, 
                -0.0001180924300570041, 
                0.05066158249974251, 
                0.008572578430175781, 
                -0.08391048014163971, 
                -0.10535934567451477, 
                0.09650008380413055, 
                -0.014382867142558098
            ]
        }, 
        "Node_93": {
            "bias": -0.02473997324705124, 
            "weights": [
                -0.1640094816684723, 
                -0.35182854533195496, 
                0.12276796996593475, 
                0.03832162916660309, 
                0.08541402220726013, 
                -0.09921663254499435, 
                0.0077035934664309025, 
                -0.24297483265399933, 
                0.004165806341916323, 
                0.04530619457364082, 
                0.09176404029130936, 
                -0.08840987086296082, 
                0.1565445214509964, 
                -0.12120009958744049, 
                0.08659683167934418, 
                0.05354125797748566, 
                -0.27945849299430847, 
                -0.019186582416296005, 
                -0.07954408973455429, 
                -0.03366556763648987, 
                -0.1327260434627533, 
                -0.05122169107198715, 
                0.09071288257837296, 
                0.008169290609657764, 
                0.11260709166526794, 
                0.1388009786605835, 
                -0.08661079406738281, 
                0.007137432228773832, 
                0.18461674451828003, 
                0.034570422023534775, 
                -0.1919090449810028, 
                -0.1298186182975769, 
                -0.20873107016086578, 
                -0.046614304184913635, 
                -0.08521882444620132, 
                0.01746826432645321, 
                0.2116842269897461, 
                0.31739088892936707, 
                -0.0024546273052692413, 
                0.23867127299308777, 
                0.14261028170585632, 
                -0.07408912479877472, 
                0.09623721987009048, 
                -0.22275055944919586, 
                -0.003816738724708557, 
                0.0003611669526435435, 
                -0.2336558699607849, 
                -0.06542312353849411, 
                -0.02877727895975113, 
                -0.10566399246454239, 
                0.04549924284219742, 
                -0.1325976550579071, 
                0.06419090926647186, 
                0.13724590837955475, 
                0.10102009773254395, 
                -0.36953601241111755, 
                -0.0015429265331476927, 
                -0.05672274902462959, 
                0.3136672079563141, 
                -0.09120374917984009, 
                -0.10559742152690887, 
                -0.15518879890441895, 
                -0.04465838894248009, 
                -0.07478725910186768, 
                0.24270041286945343, 
                0.07265687733888626, 
                0.018737202510237694, 
                0.14317889511585236, 
                -0.02398422546684742, 
                0.031888481229543686, 
                -0.10307958722114563, 
                0.07176478207111359, 
                -0.04792032390832901, 
                -0.10036516189575195, 
                0.1239686906337738, 
                -0.13781490921974182, 
                0.5519874095916748, 
                -0.1003451719880104, 
                0.12575839459896088, 
                0.07224225997924805, 
                0.15493153035640717, 
                0.027907907962799072, 
                0.13984332978725433, 
                0.04583403468132019, 
                -0.2067841738462448, 
                -0.09950385242700577, 
                0.04759940505027771, 
                0.05257311463356018, 
                0.0913836807012558, 
                -0.03703039512038231, 
                -0.3199319541454315, 
                0.02717241458594799, 
                -0.12129966914653778, 
                0.08157892525196075, 
                0.12143189460039139, 
                -0.28394776582717896, 
                0.11826657503843307, 
                -0.1712159365415573, 
                0.01815780997276306, 
                -0.03530876338481903, 
                -0.1969299167394638, 
                -0.07533178478479385, 
                -0.04546689614653587, 
                0.0473625585436821, 
                -0.1633332371711731, 
                -0.11120764166116714, 
                -0.23724709451198578, 
                -0.02547689899802208, 
                -0.14995597302913666, 
                -0.05230908468365669, 
                -0.1705935299396515, 
                0.009348641149699688, 
                -0.08529705554246902, 
                -0.2157987803220749, 
                -0.06353079527616501, 
                0.020692944526672363, 
                0.10311325639486313, 
                0.08704166114330292, 
                -0.20972996950149536, 
                -0.1825365424156189, 
                0.20900879800319672, 
                -0.002083614468574524, 
                0.08026673644781113, 
                0.07835417240858078, 
                -0.17888085544109344, 
                -0.14809024333953857, 
                -0.14366966485977173, 
                -0.04891146346926689, 
                -0.05643709376454353, 
                -0.10837879776954651, 
                -0.26746487617492676, 
                -0.047322701662778854, 
                -0.18880870938301086, 
                0.18524572253227234, 
                0.09845985472202301, 
                -0.18159683048725128, 
                -0.08047982305288315, 
                -0.1307222545146942, 
                -0.018868984654545784, 
                -0.04791467636823654, 
                -0.02221371792256832, 
                0.06842575967311859, 
                -0.16767923533916473, 
                -0.2939388155937195, 
                0.009901105426251888, 
                -0.025028642266988754, 
                0.04229840636253357, 
                -0.09794996678829193, 
                -0.21597014367580414, 
                0.058216582983732224
            ]
        }, 
        "Node_92": {
            "bias": 0.8607481718063354, 
            "weights": [
                -0.08578517287969589, 
                -0.07861658930778503, 
                -0.2772653102874756, 
                0.11565949022769928, 
                0.024362821131944656, 
                0.13264290988445282, 
                -0.3635658621788025, 
                0.23286370933055878, 
                0.013504303060472012, 
                -0.18136966228485107, 
                0.5296674966812134, 
                -0.12903672456741333, 
                -0.038155581802129745, 
                -0.14712844789028168, 
                -0.025233574211597443, 
                0.05948615446686745, 
                -0.08551742136478424, 
                -0.015353787690401077, 
                0.04965723678469658, 
                0.3485616147518158, 
                0.10054872930049896, 
                -0.11047881096601486, 
                0.08778003603219986, 
                0.2505936026573181, 
                -0.014620860107243061, 
                0.0849560797214508, 
                0.021578416228294373, 
                -0.10277910530567169, 
                -0.1467609405517578, 
                -0.02143016830086708, 
                0.02503783628344536, 
                -0.05006013810634613, 
                0.010301006026566029, 
                0.040188759565353394, 
                0.08337893337011337, 
                -0.017084261402487755, 
                -0.16253478825092316, 
                -0.3416540026664734, 
                0.07003724575042725, 
                -0.3349904716014862, 
                0.1287052482366562, 
                0.0002308035036548972, 
                -0.08089444041252136, 
                0.3885945975780487, 
                -0.07052706927061081, 
                0.01028403826057911, 
                -0.012982558459043503, 
                -0.15558014810085297, 
                0.045897845178842545, 
                -0.1865490823984146, 
                0.040548160672187805, 
                0.0017717393347993493, 
                0.004500607028603554, 
                0.06966621428728104, 
                -0.04505632072687149, 
                -0.12071782350540161, 
                -0.07005617022514343, 
                0.07236732542514801, 
                0.25931021571159363, 
                -0.06891242414712906, 
                -0.05963505059480667, 
                0.07685848325490952, 
                -0.014072605408728123, 
                0.028727460652589798, 
                0.12311666458845139, 
                -0.07627115398645401, 
                0.018312256783246994, 
                0.09817211329936981, 
                -0.021908726543188095, 
                0.1540105789899826, 
                -0.0720188096165657, 
                0.30512627959251404, 
                -0.11075528711080551, 
                0.08479028940200806, 
                -0.5719647407531738, 
                -0.10923168808221817, 
                0.5692307353019714, 
                0.017133910208940506, 
                0.1890016794204712, 
                -0.011537629179656506, 
                -0.513256311416626, 
                0.11669035255908966, 
                -0.1498154252767563, 
                -0.07967489212751389, 
                0.23757542669773102, 
                -0.03914276137948036, 
                -0.13795572519302368, 
                -0.0259078461676836, 
                -0.0813281461596489, 
                -0.09724301099777222, 
                -0.16887375712394714, 
                0.04933980107307434, 
                0.015474798157811165, 
                0.027377665042877197, 
                -0.09619958698749542, 
                -0.24455857276916504, 
                -0.12610355019569397, 
                0.038077592849731445, 
                -0.033042777329683304, 
                -0.11150152236223221, 
                -0.35704779624938965, 
                -0.06524878740310669, 
                -0.03444483503699303, 
                0.09382329881191254, 
                -0.08397671580314636, 
                -0.14411470293998718, 
                -0.013217974454164505, 
                0.05281985178589821, 
                0.020789392292499542, 
                -0.09869751334190369, 
                -0.032935354858636856, 
                -0.02332303300499916, 
                0.09110184013843536, 
                -0.09387104958295822, 
                0.1153317540884018, 
                0.14982743561267853, 
                -0.15303939580917358, 
                0.15927855670452118, 
                0.20764705538749695, 
                0.06714202463626862, 
                0.37781450152397156, 
                -0.06016746908426285, 
                0.008603106252849102, 
                0.001810921123251319, 
                0.14858941733837128, 
                -0.02894558198750019, 
                0.09691958129405975, 
                -0.22053630650043488, 
                0.08255822211503983, 
                -0.12002305686473846, 
                0.3050956428050995, 
                0.20416134595870972, 
                -0.47180432081222534, 
                -0.13722532987594604, 
                -0.045438818633556366, 
                0.038978930562734604, 
                -0.09719730913639069, 
                -0.11731966584920883, 
                -0.022275282070040703, 
                0.10814591497182846, 
                -0.055263668298721313, 
                0.020492345094680786, 
                0.08735904097557068, 
                0.22695377469062805, 
                -0.12193542718887329, 
                -0.15959779918193817, 
                -0.29498741030693054, 
                0.06570971012115479, 
                -0.022374041378498077, 
                0.014381442219018936
            ]
        }, 
        "Node_91": {
            "bias": -0.13753162324428558, 
            "weights": [
                0.08512945473194122, 
                -0.001443646615371108, 
                -0.09191852062940598, 
                -0.1893686056137085, 
                0.06162762641906738, 
                -0.19748052954673767, 
                -0.07801967114210129, 
                0.009673822671175003, 
                -0.03275967389345169, 
                0.02683793380856514, 
                -0.023042796179652214, 
                0.06787731498479843, 
                0.0652475655078888, 
                0.10391613095998764, 
                -0.12742333114147186, 
                -0.023947903886437416, 
                -0.15143296122550964, 
                0.0313112773001194, 
                -0.12446431815624237, 
                -0.12178085744380951, 
                -0.015237877145409584, 
                -0.11802059412002563, 
                -0.14421553909778595, 
                -0.06544626504182816, 
                -0.017037231475114822, 
                -0.04627165570855141, 
                0.00814102590084076, 
                -0.04110801964998245, 
                -0.16694803535938263, 
                -0.11213933676481247, 
                -0.13609866797924042, 
                -0.1356196105480194, 
                -0.022791091352701187, 
                -0.10704934597015381, 
                -0.139708012342453, 
                0.0008500086260028183, 
                -0.26193860173225403, 
                -0.20772159099578857, 
                -0.11741507053375244, 
                0.051000967621803284, 
                -0.02817399799823761, 
                0.04327032342553139, 
                -0.11167079210281372, 
                0.014576381072402, 
                -0.11857306957244873, 
                -0.027172179892659187, 
                0.007959900423884392, 
                0.057580187916755676, 
                -0.00789927039295435, 
                0.070114865899086, 
                0.05617229640483856, 
                0.1027962937951088, 
                -0.10818636417388916, 
                -0.09052520245313644, 
                -0.12233298271894455, 
                -0.032638587057590485, 
                -0.060004547238349915, 
                -0.10932649672031403, 
                -0.012527520768344402, 
                -0.16287358105182648, 
                -0.050529226660728455, 
                0.14404277503490448, 
                -0.14044910669326782, 
                0.11016567051410675, 
                -0.10707519203424454, 
                -0.11596528440713882, 
                -0.14815206825733185, 
                0.04277920722961426, 
                -0.03570965677499771, 
                -0.05681847780942917, 
                0.06759437918663025, 
                -0.17997963726520538, 
                -0.08373527973890305, 
                0.10483689606189728, 
                -0.018181350082159042, 
                -0.12138431519269943, 
                0.11855752766132355, 
                -0.08472809940576553, 
                0.036113545298576355, 
                -0.14424140751361847, 
                0.11912361532449722, 
                -0.043119192123413086, 
                -0.11633747071027756, 
                -0.06733561307191849, 
                -0.16565532982349396, 
                0.06355183571577072, 
                -0.11619312316179276, 
                -0.07594671100378036, 
                0.019974643364548683, 
                -0.10088156908750534, 
                0.06641072034835815, 
                0.014211001805961132, 
                0.02798222191631794, 
                0.09319444000720978, 
                0.10440737009048462, 
                0.10785158723592758, 
                0.11958759278059006, 
                -0.06297709047794342, 
                -0.10544734448194504, 
                -0.013492261990904808, 
                -0.03270597383379936, 
                -0.07063869386911392, 
                0.05741977319121361, 
                0.15294276177883148, 
                -0.03912852331995964, 
                -0.06511561572551727, 
                0.06666333228349686, 
                -0.23973947763442993, 
                0.08119267970323563, 
                0.0808006078004837, 
                -0.12463515996932983, 
                -0.03346937522292137, 
                -0.026868140324950218, 
                0.06574548035860062, 
                -0.13887068629264832, 
                -0.07472850382328033, 
                0.04021114483475685, 
                -0.22466911375522614, 
                -0.04545335844159126, 
                -0.08683300763368607, 
                0.016579801216721535, 
                -0.01372477412223816, 
                0.02932000160217285, 
                0.043809711933135986, 
                -0.012997061014175415, 
                0.11539466679096222, 
                -0.026751413941383362, 
                0.016600795090198517, 
                -0.12181850522756577, 
                -0.036349110305309296, 
                0.03673925995826721, 
                0.02582896128296852, 
                0.11253272742033005, 
                -0.02112012915313244, 
                -0.14805839955806732, 
                -0.06794440001249313, 
                0.06772734224796295, 
