{
    "Layer_1": {
        "Node_19": {
            "bias": 0.4275210201740265, 
            "weights": [
                -0.28267818689346313, 
                0.11514630168676376, 
                -0.23380522429943085, 
                0.009505650028586388, 
                -0.11985998600721359, 
                -0.0717611089348793, 
                0.23271390795707703, 
                -0.06421688944101334, 
                -0.1955988109111786, 
                0.1391284316778183, 
                0.03257941082119942, 
                0.09886307269334793, 
                0.12931230664253235, 
                0.013944169506430626, 
                0.05017280951142311, 
                0.23655331134796143, 
                0.016817569732666016, 
                -0.1495845764875412, 
                0.24618691205978394, 
                -0.05711071938276291, 
                -0.16382987797260284, 
                0.13065315783023834, 
                0.09349960088729858, 
                0.03624315187335014, 
                0.045045748353004456, 
                -0.16235290467739105, 
                0.21025992929935455, 
                0.12961667776107788, 
                0.16778750717639923, 
                -0.16079524159431458, 
                0.13222423195838928, 
                -0.38782984018325806, 
                -0.09104292094707489, 
                0.0365985743701458, 
                -0.24041123688220978, 
                0.4387144148349762, 
                -0.07862745225429535, 
                0.1518852412700653, 
                0.1906084418296814, 
                -0.08468153327703476
            ]
        }, 
        "Node_18": {
            "bias": 0.09862951189279556, 
            "weights": [
                0.18608294427394867, 
                -0.3178808391094208, 
                -0.002177260350435972, 
                0.04877287521958351, 
                0.17856675386428833, 
                -0.0001834397844504565, 
                0.058967139571905136, 
                -0.14341476559638977, 
                -0.13408522307872772, 
                0.002190899569541216, 
                0.12289194762706757, 
                0.10754263401031494, 
                0.08946714550256729, 
                -0.10039584338665009, 
                -0.18010899424552917, 
                0.29628288745880127, 
                0.2432411164045334, 
                -0.005110836122184992, 
                -0.04076268523931503, 
                0.2469128519296646, 
                0.061141274869441986, 
                0.048159439116716385, 
                0.17517581582069397, 
                -0.09426955878734589, 
                0.03050186298787594, 
                -0.12147608399391174, 
                -0.20725837349891663, 
                0.2093786597251892, 
                -0.0818137526512146, 
                0.049374520778656006, 
                0.5175301432609558, 
                0.25232216715812683, 
                -0.1641020029783249, 
                -0.17269721627235413, 
                -0.03072923794388771, 
                -0.12222734838724136, 
                0.08267486095428467, 
                -0.2298920899629593, 
                -0.22311514616012573, 
                -0.25102344155311584
            ]
        }, 
        "Node_17": {
            "bias": -0.07287920266389847, 
            "weights": [
                0.2045401930809021, 
                -0.049573395401239395, 
                -0.04973312467336655, 
                0.24245880544185638, 
                -0.07391316443681717, 
                -0.021825117990374565, 
                0.15240849554538727, 
                -0.1550188958644867, 
                -0.13326364755630493, 
                0.17820388078689575, 
                -0.23601339757442474, 
                -0.2735171914100647, 
                0.08460869640111923, 
                -0.09996375441551208, 
                0.14741064608097076, 
                0.27513039112091064, 
                -0.2989159822463989, 
                -0.03881566971540451, 
                0.09170006960630417, 
                0.0499497726559639, 
                0.05835221707820892, 
                -0.012892116792500019, 
                0.0849737823009491, 
                0.38547825813293457, 
                0.17878197133541107, 
                -0.01971869170665741, 
                -0.1366548091173172, 
                0.03647524118423462, 
                -0.0022957781329751015, 
                0.15751691162586212, 
                -0.5678902864456177, 
                -0.26573798060417175, 
                0.07524857670068741, 
                -0.09265882521867752, 
                0.15230196714401245, 
                -0.27046698331832886, 
                0.016369564458727837, 
                -0.0812554880976677, 
                0.15564820170402527, 
                0.1620154082775116
            ]
        }, 
        "Node_16": {
            "bias": -0.023401718586683273, 
            "weights": [
                0.21833646297454834, 
                0.12151315808296204, 
                0.1982690542936325, 
                0.00011849222210003063, 
                -0.06227737292647362, 
                0.041809480637311935, 
                0.08368583023548126, 
                -0.06082205846905708, 
                -0.25111788511276245, 
                -0.12414145469665527, 
                -0.032625675201416016, 
                -0.15553469955921173, 
                0.12333045899868011, 
                -0.17339438199996948, 
                0.04008622094988823, 
                0.09971123933792114, 
                -0.27494025230407715, 
                -0.19944778084754944, 
                0.1573319137096405, 
                -0.01702273264527321, 
                -0.15675465762615204, 
                0.0925806388258934, 
                0.06808746606111526, 
                -0.004646495450288057, 
                -0.22821234166622162, 
                -0.02150861732661724, 
                0.0023250419180840254, 
                -0.2774105668067932, 
                -0.2214115560054779, 
                0.028817059472203255, 
                0.16955119371414185, 
                -0.06841850280761719, 
                0.042846716940402985, 
                -0.1708907037973404, 
                0.12813058495521545, 
                0.12675264477729797, 
                0.018609078601002693, 
                -0.03003576211631298, 
                -0.23528555035591125, 
                0.19386518001556396
            ]
        }, 
        "Node_15": {
            "bias": -0.024114053696393967, 
            "weights": [
                -0.054832134395837784, 
                -0.11183007806539536, 
                0.1794707179069519, 
                0.1990918219089508, 
                0.07792346179485321, 
                0.03294524550437927, 
                -0.03657649829983711, 
                -0.14766176044940948, 
                -0.2015017569065094, 
                -0.10153108835220337, 
                -0.018864328041672707, 
                -0.09818772971630096, 
                -0.1569381058216095, 
                0.031161949038505554, 
                0.030406570062041283, 
                0.059553295373916626, 
                -0.01988288201391697, 
                0.06101632118225098, 
                0.05682241544127464, 
                0.17346160113811493, 
                0.15924277901649475, 
                0.04311002418398857, 
                0.09045685827732086, 
                -0.04089130833745003, 
                0.03850933909416199, 
                0.042993661016225815, 
                -0.26619410514831543, 
                0.22371649742126465, 
                0.25614240765571594, 
                -0.11761465668678284, 
                -0.07323750853538513, 
                -0.29826876521110535, 
                -0.18220384418964386, 
                0.113160640001297, 
                -0.042845577001571655, 
                0.19499386847019196, 
                0.211955726146698, 
                -0.14566387236118317, 
                0.24101513624191284, 
                -0.19867511093616486
            ]
        }, 
        "Node_14": {
            "bias": 0.1898995041847229, 
            "weights": [
                -0.0341186486184597, 
                0.23074232041835785, 
                0.0585651695728302, 
                0.026275519281625748, 
                -0.18051669001579285, 
                0.07822055369615555, 
                0.22170552611351013, 
                0.16751211881637573, 
                -0.06466704607009888, 
                -0.07866422086954117, 
                -0.15775515139102936, 
                -0.023143157362937927, 
                -0.013815844431519508, 
                -0.17628078162670135, 
                -0.04695330560207367, 
                -0.044847190380096436, 
                -0.09910475462675095, 
                0.02848566509783268, 
                -0.2149585783481598, 
                0.06483452767133713, 
                0.22126007080078125, 
                0.1447390913963318, 
                0.09586117416620255, 
                -0.03629158064723015, 
                -0.04733993113040924, 
                0.28692886233329773, 
                -0.0035903200041502714, 
                -0.13572975993156433, 
                -0.24568338692188263, 
                -0.2754029333591461, 
                -0.2435591071844101, 
                0.2031623125076294, 
                0.07600507140159607, 
                0.11196838319301605, 
                0.08947689086198807, 
                -0.2550051510334015, 
                0.0910458043217659, 
                0.09930100291967392, 
                0.14721781015396118, 
                -0.0644616112112999
            ]
        }, 
        "Node_13": {
            "bias": -0.030115710571408272, 
            "weights": [
                -0.2369895875453949, 
                -0.16000600159168243, 
                -0.06857392191886902, 
                -0.10440785437822342, 
                0.2067377120256424, 
                -0.1946563720703125, 
                0.06256157159805298, 
                0.26088452339172363, 
                -0.2462528944015503, 
                -0.13885493576526642, 
                0.19408203661441803, 
                -0.03353746235370636, 
                -0.11077342182397842, 
                0.00853089801967144, 
                0.2553595304489136, 
                -0.09414316713809967, 
                0.11650894582271576, 
                -0.06987924128770828, 
                0.0825517550110817, 
                -0.2077309787273407, 
                0.08932756632566452, 
                -0.1002625972032547, 
                0.13523022830486298, 
                0.0027759005315601826, 
                -0.3191440999507904, 
                0.07994705438613892, 
                -0.09840644896030426, 
                -0.246449276804924, 
                -0.0030956361442804337, 
                0.009852362796664238, 
                0.01361746247857809, 
                -0.05441070720553398, 
                -0.2319134622812271, 
                0.2557966411113739, 
                0.19582758843898773, 
                -0.32741779088974, 
                5.237187724560499e-05, 
                -0.23291005194187164, 
                0.056692272424697876, 
                -0.0986456498503685
            ]
        }, 
        "Node_12": {
            "bias": 0.02725137397646904, 
            "weights": [
                -0.11797136813402176, 
                -0.2270699143409729, 
                0.17484791576862335, 
                0.23525378108024597, 
                0.016094759106636047, 
                -0.013465983793139458, 
                0.2152351588010788, 
                -0.07375949621200562, 
                -0.05046719312667847, 
                -0.016374889761209488, 
                -0.23207512497901917, 
                -0.2504243552684784, 
                0.1571342647075653, 
                -0.2612802982330322, 
                -0.022421861067414284, 
                -0.10535673797130585, 
                0.18540950119495392, 
                -0.056824445724487305, 
                -0.03924392908811569, 
                0.11664728820323944, 
                0.10333403199911118, 
                -0.22800663113594055, 
                0.07133344560861588, 
                0.12406080961227417, 
                -0.24987389147281647, 
                -0.09418635815382004, 
                0.2647460997104645, 
                -0.096731036901474, 
                0.05590614676475525, 
                0.022025205194950104, 
                0.02192407101392746, 
                -0.008150351233780384, 
                -0.11544860899448395, 
                0.21143746376037598, 
                0.25773122906684875, 
                -0.1660083383321762, 
                0.29287034273147583, 
                -0.1288284957408905, 
                -0.18709474802017212, 
                0.19907325506210327
            ]
        }, 
        "Node_11": {
            "bias": 0.37794387340545654, 
            "weights": [
                -0.11800150573253632, 
                -0.15667177736759186, 
                -0.4470284879207611, 
                -0.19562773406505585, 
                0.261619508266449, 
                0.0249765794724226, 
                0.22089266777038574, 
                0.10984969139099121, 
                0.14738795161247253, 
                -0.2676085829734802, 
                -0.3143021762371063, 
                -0.0288417749106884, 
                0.26454615592956543, 
                -0.08463873714208603, 
                -0.23445485532283783, 
                0.28441792726516724, 
                0.2008206993341446, 
                -0.06349740922451019, 
                -0.22855503857135773, 
                -0.15136383473873138, 
                -0.009371224790811539, 
                0.19969771802425385, 
                -0.17557217180728912, 
                -0.09814809262752533, 
                0.1647970825433731, 
                -0.1254437267780304, 
                0.06542488932609558, 
                -0.17584733664989471, 
                -0.241317018866539, 
                -0.5036754608154297, 
                0.23154231905937195, 
                -0.12567247450351715, 
                0.2633441388607025, 
                0.008197648450732231, 
                -0.05365852639079094, 
                0.5202937126159668, 
                0.11722653359174728, 
                -0.10595767199993134, 
                0.05658143758773804, 
                0.0840221717953682
            ]
        }, 
        "Node_10": {
            "bias": -0.030306842178106308, 
            "weights": [
                -0.20277979969978333, 
                -0.21536123752593994, 
                0.21008014678955078, 
                0.16634969413280487, 
                -0.29074281454086304, 
                -0.1239294782280922, 
                0.2612447142601013, 
                -0.28067901730537415, 
                -0.29111117124557495, 
                0.009054761379957199, 
                -0.12139128148555756, 
                0.06193564459681511, 
                -0.1894480586051941, 
                -0.030445950105786324, 
                0.04777160659432411, 
                -0.024108320474624634, 
                -0.19512103497982025, 
                0.2123565524816513, 
                -0.08945786952972412, 
                -0.22010715305805206, 
                0.09765380620956421, 
                0.023947665467858315, 
                0.1362592577934265, 
                0.039301782846450806, 
                0.21849916875362396, 
                0.18106381595134735, 
                -0.047648292034864426, 
                -0.0679970383644104, 
                0.16975446045398712, 
                0.22503937780857086, 
                -0.20378996431827545, 
                -0.0790799930691719, 
                -0.2890739440917969, 
                0.256748229265213, 
                0.06515926122665405, 
                -0.09603630751371384, 
                0.0747099444270134, 
                -0.1164025068283081, 
                0.07234063744544983, 
                -0.03286344185471535
            ]
        }, 
        "Node_24": {
            "bias": 0.0, 
            "weights": [
                -0.13488689064979553, 
                0.17922860383987427, 
                -0.04003804922103882, 
                0.08189049363136292, 
                -0.21312756836414337, 
                -0.1346684843301773, 
                -0.21338045597076416, 
                -0.1765279620885849, 
                0.04773452877998352, 
                0.2602303624153137, 
                -0.2836052179336548, 
                -0.10939501225948334, 
                0.23394078016281128, 
                0.124135822057724, 
                -0.17806217074394226, 
                0.12292692065238953, 
                -0.06386713683605194, 
                0.005670130252838135, 
                0.14005634188652039, 
                -0.2923215925693512, 
                -0.17165839672088623, 
                -0.08492615818977356, 
                -0.12011478841304779, 
                -0.2777900695800781, 
                -0.07325544953346252, 
                0.17841297388076782, 
                -0.0842088907957077, 
                -0.09045113623142242, 
                0.0066564977169036865, 
                -0.109456866979599, 
                -0.22964489459991455, 
                -0.041476428508758545, 
                -0.03630521893501282, 
                0.10635048151016235, 
                0.20891916751861572, 
                0.19341585040092468, 
                -0.06381946802139282, 
                0.1393914520740509, 
                0.0863373875617981, 
                0.11924603581428528
            ]
        }, 
        "Node_22": {
            "bias": 0.14957454800605774, 
            "weights": [
                0.29018503427505493, 
                -0.10242997109889984, 
                0.12623436748981476, 
                0.03436696529388428, 
                -0.03077949956059456, 
                0.22056443989276886, 
                -0.10866575688123703, 
                0.1405065506696701, 
                -0.2627239227294922, 
                0.25879138708114624, 
                -0.0004998531076125801, 
                -0.23851829767227173, 
                0.10830028355121613, 
                -0.15511028468608856, 
                -0.1416391283273697, 
                0.0514850914478302, 
                0.060018956661224365, 
                0.20401747524738312, 
                -0.2820592522621155, 
                0.18503205478191376, 
                -0.09708742052316666, 
                0.021917562931776047, 
                0.03380558639764786, 
                -0.13165265321731567, 
                -0.19694846868515015, 
                -0.014131561852991581, 
                0.21079859137535095, 
                0.04038596153259277, 
                -0.18792535364627838, 
                0.10750602930784225, 
                0.26351603865623474, 
                0.03576924279332161, 
                -0.22502689063549042, 
                0.1580309122800827, 
                -0.09135722368955612, 
                -0.20483286678791046, 
                -0.09510745853185654, 
                0.09343355149030685, 
                -0.029487401247024536, 
                -0.04368169233202934
            ]
        }, 
        "Node_23": {
            "bias": -0.02581510692834854, 
            "weights": [
                0.22572369873523712, 
                -0.23749014735221863, 
                0.003976701758801937, 
                -0.018366148695349693, 
                0.197653666138649, 
                -0.11868812888860703, 
                0.022533055394887924, 
                0.06035024672746658, 
                0.008371442556381226, 
                -0.12981359660625458, 
                0.042146556079387665, 
                -0.24051591753959656, 
                -0.19885137677192688, 
                -0.026993628591299057, 
                0.13810373842716217, 
                0.16329434514045715, 
                0.16212911903858185, 
                0.003718371968716383, 
                -0.2800769507884979, 
                -0.07550524175167084, 
                -0.24612019956111908, 
                0.15695887804031372, 
                0.23423439264297485, 
                0.15350963175296783, 
                0.21640770137310028, 
                0.13544270396232605, 
                -0.07907801866531372, 
                -0.10164543986320496, 
                -0.2121620774269104, 
                0.09797968715429306, 
                -0.0646689385175705, 
                -0.04028218239545822, 
                -0.11126811057329178, 
                -0.32413503527641296, 
                -0.07570318132638931, 
                -0.3708428740501404, 
                -0.13829772174358368, 
                -0.3198360800743103, 
                -0.13522538542747498, 
                -0.19553197920322418
            ]
        }, 
        "Node_20": {
            "bias": -0.1984913945198059, 
            "weights": [
                0.05097772553563118, 
                0.0646953210234642, 
                0.040036890655756, 
                -0.15506461262702942, 
                0.03227848559617996, 
                0.05607905238866806, 
                -0.22978396713733673, 
                -0.08714707940816879, 
                0.041118353605270386, 
                0.1881207674741745, 
                -0.002117835683748126, 
                0.21499085426330566, 
                -0.11992167681455612, 
                -0.10398147255182266, 
                -0.007536795921623707, 
                -0.1684318482875824, 
                0.12716032564640045, 
                0.027894115075469017, 
                -0.04906846955418587, 
                -0.14393350481987, 
                0.19043920934200287, 
                -0.15915332734584808, 
                0.27112120389938354, 
                -0.18103694915771484, 
                0.04154707118868828, 
                0.17935711145401, 
                -0.11554910242557526, 
                -0.06536433100700378, 
                -0.016212407499551773, 
                -0.12166837602853775, 
                -0.0189368836581707, 
                -0.06681995838880539, 
                -0.040361907333135605, 
                -0.09021180123090744, 
                -0.04452410712838173, 
                -0.1522529274225235, 
                0.13238516449928284, 
                0.2065802365541458, 
                -0.11311210691928864, 
                -0.2270703911781311
            ]
        }, 
        "Node_21": {
            "bias": -0.7458074688911438, 
            "weights": [
                -0.18364307284355164, 
                0.22700178623199463, 
                -0.20939576625823975, 
                -0.02341906912624836, 
                -0.29009851813316345, 
                -0.16390854120254517, 
                -0.26934757828712463, 
                0.09934255480766296, 
                -0.2773653566837311, 
                0.13248926401138306, 
                0.30518901348114014, 
                -0.25710171461105347, 
                0.07233628630638123, 
                -0.26966753602027893, 
                -0.04378237575292587, 
                0.02473345398902893, 
                0.032937753945589066, 
                0.2672385275363922, 
                -0.03020433336496353, 
                0.2077382504940033, 
                0.06377647817134857, 
                0.18935835361480713, 
                -0.14450791478157043, 
                0.10479606688022614, 
                -0.20374548435211182, 
                0.16641931235790253, 
                -0.2915668189525604, 
                -0.08189186453819275, 
                0.03896100074052811, 
                0.21238398551940918, 
                -0.0850699245929718, 
                0.29001718759536743, 
                0.016981905326247215, 
                -0.17252635955810547, 
                0.24641749262809753, 
                0.044176135212183, 
                -0.10532721132040024, 
                -0.04406815767288208, 
                0.017405837774276733, 
                0.2958945333957672
            ]
        }, 
        "Node_9": {
            "bias": 0.2385452687740326, 
            "weights": [
                -0.14213337004184723, 
                -0.008926563896238804, 
                0.12131569534540176, 
                0.08422760665416718, 
                0.27261117100715637, 
                0.01875787414610386, 
                0.04229173809289932, 
                0.021299587562680244, 
                0.3011043667793274, 
                0.13759401440620422, 
                0.09371504187583923, 
                0.18741178512573242, 
                0.03819693997502327, 
                0.01921340823173523, 
                0.06516025960445404, 
                -0.27821576595306396, 
                0.19354169070720673, 
                -0.027360331267118454, 
                -0.1377544105052948, 
                -0.10354340821504593, 
                0.11277223378419876, 
                -0.05501098185777664, 
                -0.1777830719947815, 
                0.010837635956704617, 
                -0.25672289729118347, 
                -0.17669063806533813, 
                0.200088232755661, 
                0.01890084147453308, 
                0.10384631901979446, 
                0.14424970746040344, 
                -0.18772615492343903, 
                -0.17009422183036804, 
                0.1928054690361023, 
                -0.050208259373903275, 
                -0.0073736319318413734, 
                -0.033687084913253784, 
                -0.15248370170593262, 
                -0.22521992027759552, 
                -0.11171023547649384, 
                0.15866272151470184
            ]
        }, 
        "Node_8": {
            "bias": 0.37076523900032043, 
            "weights": [
                -0.24575990438461304, 
                -0.22274154424667358, 
                -0.1954858899116516, 
                -0.10597492754459381, 
                0.18456541001796722, 
                0.07975109666585922, 
                -0.016280855983495712, 
                -0.331889271736145, 
                -0.24147889018058777, 
                0.1946696788072586, 
                -0.28513169288635254, 
                0.026993080973625183, 
                -0.08161379396915436, 
                0.011392984539270401, 
                0.07471608370542526, 
                -0.06627348065376282, 
                0.05965268611907959, 
                0.040457192808389664, 
                0.04442606493830681, 
                0.07482840865850449, 
                0.09631875902414322, 
                0.27321305871009827, 
                0.09681397676467896, 
                -0.13918021321296692, 
                -0.2947891056537628, 
                0.043500952422618866, 
                -0.1759672462940216, 
                -0.13695387542247772, 
                0.11223020404577255, 
                -0.1658637970685959, 
                0.1748642474412918, 
                -0.20588935911655426, 
                0.21165049076080322, 
                0.14594468474388123, 
                0.11180126667022705, 
                -0.17145702242851257, 
                0.11302400380373001, 
                -0.006465217098593712, 
                0.25464606285095215, 
                -0.1255032867193222
            ]
        }, 
        "Node_7": {
            "bias": -0.4471941292285919, 
            "weights": [
                0.10865624994039536, 
                0.11894619464874268, 
                -0.007709114346653223, 
                -0.04035034403204918, 
                0.04961996525526047, 
                -0.09299081563949585, 
                0.14175496995449066, 
                -0.11161864548921585, 
                0.012506932020187378, 
                -0.06027882918715477, 
                0.2645896077156067, 
                0.2663485109806061, 
                0.07576772570610046, 
                -0.03029012680053711, 
                -0.053289901465177536, 
                -0.2076733112335205, 
                -0.20922595262527466, 
                0.10004257410764694, 
                0.0009647243423387408, 
                0.22505997121334076, 
                0.2747042775154114, 
                0.06422208994626999, 
                -0.015170957893133163, 
                0.1267600804567337, 
                -0.07948008924722672, 
                -0.011019563302397728, 
                -0.0942704826593399, 
                -0.02810502052307129, 
                0.21342608332633972, 
                -0.08446820080280304, 
                0.11787904053926468, 
                0.053683795034885406, 
                -0.17950376868247986, 
                0.11413425207138062, 
                0.1586495339870453, 
                0.05187198147177696, 
                0.07322844862937927, 
                -0.022170590236783028, 
                0.22171252965927124, 
                -0.10941553115844727
            ]
        }, 
        "Node_6": {
            "bias": 0.0, 
            "weights": [
                -0.12327991425991058, 
                0.19145333766937256, 
                0.02257680892944336, 
                -0.057387664914131165, 
                -0.24853894114494324, 
                -0.19979479908943176, 
                0.07911470532417297, 
                -0.10616911947727203, 
                0.09023192524909973, 
                0.21784740686416626, 
                -0.13438765704631805, 
                0.07684701681137085, 
                -0.0333709716796875, 
                0.13825273513793945, 
                0.13110598921775818, 
                -0.14310447871685028, 
                0.21393054723739624, 
                0.16632327437400818, 
                -0.06015482544898987, 
                -0.22270335257053375, 
                -0.1194792240858078, 
                -0.2134881615638733, 
                -0.2888975143432617, 
                -0.11683695018291473, 
                0.17011889815330505, 
                -0.2953101098537445, 
                -0.16301611065864563, 
                -0.08295580744743347, 
                0.14355504512786865, 
                0.07660108804702759, 
                0.15392819046974182, 
                0.11103793978691101, 
                -0.2868708670139313, 
                0.028493225574493408, 
                -0.06889742612838745, 
                -0.006509900093078613, 
                0.006423264741897583, 
                -0.26126614212989807, 
                0.13705715537071228, 
                0.28942006826400757
            ]
        }, 
        "Node_5": {
            "bias": -0.023634033277630806, 
            "weights": [
                0.1359516978263855, 
                -0.13641393184661865, 
                0.05447837710380554, 
                0.1122424304485321, 
                -0.0153236985206604, 
                0.007607609499245882, 
                -0.10607867687940598, 
                0.18769431114196777, 
                0.24240267276763916, 
                -0.31378597021102905, 
                -0.1584850400686264, 
                0.14868801832199097, 
                0.14798417687416077, 
                0.2796194553375244, 
                -0.09550367295742035, 
                0.14526104927062988, 
                -0.17970392107963562, 
                -0.05836755782365799, 
                -0.23370389640331268, 
                -0.14446412026882172, 
                -0.3044113218784332, 
                -0.0931210070848465, 
                -0.12785884737968445, 
                -0.2977379858493805, 
                0.2114008665084839, 
                0.26203733682632446, 
                -0.2892859876155853, 
                0.2771846055984497, 
                -0.251212477684021, 
                -0.11197173595428467, 
                0.2221449911594391, 
                -0.2760319411754608, 
                0.006768697407096624, 
                0.12335962057113647, 
                -0.1849798858165741, 
                0.2579824924468994, 
                -0.1398312747478485, 
                -0.02972012758255005, 
                0.22387152910232544, 
                -0.297110915184021
            ]
        }, 
        "Node_4": {
            "bias": -0.04510622099041939, 
            "weights": [
                0.147552028298378, 
                0.0876816138625145, 
                -0.07223865389823914, 
                -0.3061716556549072, 
                -0.20380230247974396, 
                -0.2961995005607605, 
                -0.055378854274749756, 
                -0.10959630459547043, 
                0.08654525876045227, 
                0.17786943912506104, 
                -0.2385462522506714, 
                0.17383117973804474, 
                -0.12231064587831497, 
                -0.16030216217041016, 
                0.05488508939743042, 
                -0.2621404528617859, 
                0.26515522599220276, 
                -0.31302326917648315, 
                0.12643465399742126, 
                0.2660314440727234, 
                0.20491769909858704, 
                -0.0036115797702223063, 
                0.21517804265022278, 
                0.09836910665035248, 
                -0.29299575090408325, 
                0.18381768465042114, 
                0.15532460808753967, 
                -0.10597404837608337, 
                -0.2630407214164734, 
                -0.2707647979259491, 
                -0.19509056210517883, 
                -0.19582730531692505, 
                0.024518799036741257, 
                -0.13335247337818146, 
                -0.053991202265024185, 
                -0.014361454173922539, 
                -0.29744860529899597, 
                -0.2645255923271179, 
                -0.22635561227798462, 
                0.04247710853815079
            ]
        }, 
        "Node_3": {
            "bias": -0.20899273455142975, 
            "weights": [
                -0.00280753243714571, 
                0.16161227226257324, 
                -0.23618261516094208, 
                0.23586446046829224, 
                -0.012857278808951378, 
                0.14516358077526093, 
                0.01409617718309164, 
                0.2527644634246826, 
                -0.2038048803806305, 
                -0.1738145500421524, 
                0.1225394532084465, 
                -0.1381666213274002, 
                0.0022622053511440754, 
                0.14909960329532623, 
                -0.05231095477938652, 
                -0.2642132341861725, 
                0.18596823513507843, 
                -0.07771911472082138, 
                -0.011073818430304527, 
                -0.045386239886283875, 
                0.2177167385816574, 
                0.04996918886899948, 
                0.04330289363861084, 
                -0.08527935296297073, 
                -0.044792890548706055, 
                0.077530138194561, 
                0.043342672288417816, 
                0.29365795850753784, 
                -0.18063756823539734, 
                -0.1995575875043869, 
                -0.22966691851615906, 
                -0.25789740681648254, 
                -0.27189192175865173, 
                0.13559666275978088, 
                -0.2967332899570465, 
                0.16702671349048615, 
                -0.09132525324821472, 
                0.14199835062026978, 
                0.011841177940368652, 
                0.13148199021816254
            ]
        }, 
        "Node_2": {
            "bias": -0.02332686446607113, 
            "weights": [
                -0.28343987464904785, 
                -0.013434258289635181, 
                -0.2078656107187271, 
                0.2518635094165802, 
                0.015367121435701847, 
                -0.1941874474287033, 
                0.07610894739627838, 
                -0.34085968136787415, 
                -0.17127542197704315, 
                0.1788332462310791, 
                0.01812005043029785, 
                0.18702904880046844, 
                0.042334768921136856, 
                -0.06616394966840744, 
                0.17861735820770264, 
                0.15839245915412903, 
                0.04618965461850166, 
                -0.05228114500641823, 
                -0.16112163662910461, 
                0.04815758764743805, 
                -0.16200217604637146, 
                -0.01571466773748398, 
                -0.2180597484111786, 
                -0.028920121490955353, 
                0.05007068067789078, 
                0.03899720311164856, 
                0.23682911694049835, 
                -0.07182365655899048, 
                -0.12454064190387726, 
                -0.006801679264754057, 
                0.27908527851104736, 
                0.11483003199100494, 
                -0.29767221212387085, 
                -0.12563273310661316, 
                -0.31254345178604126, 
                -0.17497095465660095, 
                0.08549631386995316, 
                -0.2732197344303131, 
                0.25899189710617065, 
                0.11910680681467056
            ]
        }, 
        "Node_1": {
            "bias": 0.48167386651039124, 
            "weights": [
                0.20202670991420746, 
                -0.24803857505321503, 
                -0.04511067643761635, 
                -0.07321586459875107, 
                0.10898396372795105, 
                0.27431735396385193, 
                -0.1956825703382492, 
                -0.25923416018486023, 
                -0.044220030307769775, 
                0.21133092045783997, 
                -0.136235773563385, 
                -0.10176603496074677, 
                -0.1789768487215042, 
                0.0516291968524456, 
                0.19941264390945435, 
                0.23057770729064941, 
                0.3381113111972809, 
                -0.2049354910850525, 
                0.18632933497428894, 
                -0.12013182044029236, 
                0.04356619343161583, 
                -0.5438632369041443, 
                0.19730786979198456, 
                -0.024868832901120186, 
                -0.04202476516366005, 
                0.0952916368842125, 
                0.2246897965669632, 
                -0.2496059238910675, 
                0.09227821230888367, 
                0.07922113686800003, 
                0.0669223889708519, 
                -0.2897826135158539, 
                0.11715797334909439, 
                -0.06308767199516296, 
                0.008769680745899677, 
                0.061661794781684875, 
                0.18277253210544586, 
                -0.09034941345453262, 
                0.22566527128219604, 
                -0.08127785474061966
            ]
        }, 
        "Node_0": {
            "bias": 0.7007994651794434, 
            "weights": [
                -0.09316897392272949, 
                0.11262021213769913, 
                -0.13926945626735687, 
                0.2254425287246704, 
                -0.24307459592819214, 
                0.008945988491177559, 
                0.11403822898864746, 
                0.1486116498708725, 
                -0.006996363401412964, 
                0.1442590355873108, 
                0.18406900763511658, 
                0.06305645406246185, 
                -0.003262755461037159, 
                -0.12831419706344604, 
                -0.19967582821846008, 
                0.2298526167869568, 
                -0.24684301018714905, 
                0.08472514152526855, 
                -0.02120927907526493, 
                -0.2068454623222351, 
                -0.2031170129776001, 
                -0.14358359575271606, 
                -0.16239479184150696, 
                -0.1280285269021988, 
                0.14910940825939178, 
                -0.22078877687454224, 
                0.26741811633110046, 
                -0.012383639812469482, 
                -0.11174813657999039, 
                -0.023405635729432106, 
                -0.20238855481147766, 
                -0.12675806879997253, 
                0.04402191936969757, 
                -0.08919743448495865, 
                -0.30606457591056824, 
                -0.17559665441513062, 
                0.25210756063461304, 
                0.21787936985492706, 
                0.1394791603088379, 
                0.27407658100128174
            ]
        }
    }, 
    "Layer_0": {
        "Node_39": {
            "bias": 0.3349118232727051, 
            "weights": [
                0.18223851919174194, 
                -0.16674375534057617, 
                0.15893098711967468, 
                -0.13621458411216736, 
                0.01966692879796028, 
                -0.21475441753864288, 
                -0.01142428070306778, 
                0.21766501665115356, 
                0.08447010815143585, 
                -0.6373589634895325, 
                0.22509880363941193, 
                -0.16127710044384003, 
                0.2501949071884155, 
                0.07733114063739777
            ]
        }, 
        "Node_38": {
            "bias": 0.0, 
            "weights": [
                0.043907731771469116, 
                0.04088568687438965, 
                0.14439687132835388, 
                0.11414369940757751, 
                0.2738271653652191, 
                -0.13295523822307587, 
                0.11115512251853943, 
                -0.17083144187927246, 
                -0.08007898926734924, 
                -0.06007757782936096, 
                -0.01708856225013733, 
                -0.3230040967464447, 
                -0.014906167984008789, 
                -0.13202659785747528
            ]
        }, 
        "Node_19": {
            "bias": -0.21760590374469757, 
            "weights": [
                0.005415488965809345, 
                -0.08296237885951996, 
                -0.469111829996109, 
                0.002526023890823126, 
                0.0859697014093399, 
                0.14391587674617767, 
                0.1498544067144394, 
                0.24588894844055176, 
                0.017917491495609283, 
                0.12987278401851654, 
                -0.09682122617959976, 
                0.07074472308158875, 
                -0.060401927679777145, 
                0.07608791440725327
            ]
        }, 
        "Node_18": {
            "bias": 0.3921807110309601, 
            "weights": [
                0.010863480158150196, 
                0.37402185797691345, 
                0.5102097988128662, 
                0.05094591900706291, 
                0.45268315076828003, 
                -0.11587455868721008, 
                0.13389259576797485, 
                0.04275331646203995, 
                -0.3152485191822052, 
                -1.2468153238296509, 
                -0.14631029963493347, 
                0.005716938525438309, 
                -0.22741082310676575, 
                0.07133154571056366
            ]
        }, 
        "Node_17": {
            "bias": -0.019174113869667053, 
            "weights": [
                -0.047070346772670746, 
                0.2347000241279602, 
                0.1366652250289917, 
                0.024095769971609116, 
                0.3070480227470398, 
                0.16666631400585175, 
                0.2969575822353363, 
                0.14596803486347198, 
                0.1600576639175415, 
                -0.30151107907295227, 
                -0.15159635245800018, 
                -0.17132017016410828, 
                -0.2611123323440552, 
                -0.03309887275099754
            ]
        }, 
        "Node_16": {
            "bias": 0.10535997152328491, 
            "weights": [
                -0.0069199795834720135, 
                -0.058685872703790665, 
                0.22426582872867584, 
                0.1913882941007614, 
                0.0114033417776227, 
                0.21816550195217133, 
                -0.0060343146324157715, 
                0.2532467246055603, 
                -0.0055496711283922195, 
                0.002138088922947645, 
                -0.17562147974967957, 
                -0.06126231700181961, 
                0.14003804326057434, 
                0.1972549706697464
            ]
        }, 
        "Node_15": {
            "bias": 0.0, 
            "weights": [
                0.05368661880493164, 
                0.28083786368370056, 
                -0.2254544198513031, 
                -0.29375791549682617, 
                0.17833271622657776, 
                -0.09399747848510742, 
                0.08173274993896484, 
                -0.0690511167049408, 
                -0.08801102638244629, 
                -0.10184440016746521, 
                0.26205524802207947, 
                -0.08204269409179688, 
                0.14432120323181152, 
                -0.3207666873931885
            ]
        }, 
        "Node_14": {
            "bias": -0.10984305292367935, 
            "weights": [
                -0.04707690328359604, 
                -0.3786563277244568, 
                -0.3976644277572632, 
                0.22235605120658875, 
                -0.17521291971206665, 
                -0.12819573283195496, 
                -0.004243934527039528, 
                0.24069616198539734, 
                0.07893012464046478, 
                0.001776908291503787, 
                -0.2364952564239502, 
                0.2488301396369934, 
                0.021343285217881203, 
                -0.18042804300785065
            ]
        }, 
        "Node_13": {
            "bias": 0.05603563413023949, 
            "weights": [
                -0.15208131074905396, 
                0.07738812267780304, 
                -0.352194607257843, 
                -0.2894735038280487, 
                -0.038269877433776855, 
                -0.10159346461296082, 
                -0.026963934302330017, 
                -0.11921709030866623, 
                0.1856168806552887, 
                0.2679385840892792, 
                -0.22702853381633759, 
                0.07008219510316849, 
                -0.1961820125579834, 
                -0.268832266330719
            ]
        }, 
        "Node_12": {
            "bias": -0.1805872917175293, 
            "weights": [
                0.20307163894176483, 
                -0.025431182235479355, 
                -0.17890627682209015, 
                -0.2407623827457428, 
                -0.3697522282600403, 
                -0.031923096626996994, 
                0.05076297000050545, 
                -0.3155621588230133, 
                -0.22422629594802856, 
                -0.29189300537109375, 
                -0.06904109567403793, 
                -0.07154636085033417, 
                -0.4636083245277405, 
                0.11129852384328842
            ]
        }, 
        "Node_11": {
            "bias": -0.3377147912979126, 
            "weights": [
                -0.006162033416330814, 
                -0.7900010347366333, 
                -0.2625710368156433, 
                -0.25836631655693054, 
                -0.3667851686477661, 
                0.23549635708332062, 
                -0.05475708469748497, 
                0.09323477745056152, 
                0.024212000891566277, 
                0.9387748837471008, 
                -0.5783644914627075, 
                0.22265833616256714, 
                -0.5784685611724854, 
                0.15483346581459045
            ]
        }, 
        "Node_10": {
            "bias": 0.45461446046829224, 
            "weights": [
                -0.003135014558210969, 
                0.6974549889564514, 
                0.3846902847290039, 
                0.09611190110445023, 
                0.4328354299068451, 
                -0.09216449409723282, 
                0.12211974710226059, 
                -0.16620752215385437, 
                0.10333799570798874, 
                0.5863163471221924, 
                0.48467016220092773, 
                -0.07025443017482758, 
                0.6469957828521729, 
                -0.24729682505130768
            ]
        }, 
        "Node_31": {
            "bias": -0.04311291500926018, 
            "weights": [
                -0.05074730142951012, 
                0.6309260725975037, 
                0.21167267858982086, 
                -0.15058594942092896, 
                0.2468080073595047, 
                -0.11993388831615448, 
                -0.145507350564003, 
                0.14630062878131866, 
                0.06685468554496765, 
                -0.36858880519866943, 
                -0.27105262875556946, 
                0.1013181284070015, 
                0.013881552033126354, 
                0.21565742790699005
            ]
        }, 
        "Node_26": {
            "bias": 0.698147177696228, 
            "weights": [
                -0.24370892345905304, 
                0.8956027626991272, 
                0.9314344525337219, 
                0.3231077194213867, 
                1.0659998655319214, 
                0.08413797616958618, 
                -0.13163140416145325, 
                -0.11030257493257523, 
                0.23075048625469208, 
                -0.9336057901382446, 
                0.7307429909706116, 
                0.056294821202754974, 
                0.9141984581947327, 
                0.09588733315467834
            ]
        }, 
        "Node_27": {
            "bias": 0.0, 
            "weights": [
                -0.13774800300598145, 
                -0.22827284038066864, 
                -0.25405725836753845, 
                -0.27414530515670776, 
                -0.15482792258262634, 
                0.006654411554336548, 
                -0.13647103309631348, 
                -0.1833278387784958, 
                -0.2049780786037445, 
                -0.14165060222148895, 
                -0.226156085729599, 
                0.039177656173706055, 
                -0.2775542140007019, 
                -0.04652047157287598
            ]
        }, 
        "Node_24": {
            "bias": -0.061362382024526596, 
            "weights": [
                -0.17170606553554535, 
                0.06591709703207016, 
                -0.1564871221780777, 
                0.12348832190036774, 
                -0.24254290759563446, 
                -0.003289081621915102, 
                0.034613512456417084, 
                0.25027593970298767, 
                0.12596255540847778, 
                0.36365723609924316, 
                -0.24551492929458618, 
                -0.14878147840499878, 
                -0.36288654804229736, 
                0.017178885638713837
            ]
        }, 
        "Node_25": {
            "bias": 0.33724460005760193, 
            "weights": [
                0.2027219831943512, 
                0.4852859675884247, 
                -0.3365573287010193, 
                -0.3403070271015167, 
                0.08593817800283432, 
                0.2879113256931305, 
                -0.16991420090198517, 
                -0.15546387434005737, 
                -0.24235495924949646, 
                0.8410857319831848, 
                0.826612651348114, 
                -0.09572868794202805, 
                0.5809970498085022, 
                -0.05626624822616577
            ]
        }, 
        "Node_22": {
            "bias": -0.12654338777065277, 
            "weights": [
                -0.06414367258548737, 
                -0.28100648522377014, 
                -0.3347504436969757, 
                -0.02938583306968212, 
                -0.35533007979393005, 
                -0.02789553441107273, 
                0.010728077962994576, 
                -0.0711369439959526, 
                0.08871794492006302, 
                0.43821409344673157, 
                -0.03496518358588219, 
                0.021280786022543907, 
                0.04877598211169243, 
                0.01971738040447235
            ]
        }, 
        "Node_23": {
            "bias": -0.19203141331672668, 
            "weights": [
                -0.06044274568557739, 
                -0.4657684862613678, 
                -0.09663224220275879, 
                -0.2049739509820938, 
                -0.11562129855155945, 
                -0.06797494739294052, 
                0.003257723990827799, 
                0.22155500948429108, 
                -0.11723999679088593, 
                -0.008894164115190506, 
                -0.12510132789611816, 
                0.09257665276527405, 
                -0.12128008902072906, 
                0.0605752132833004
            ]
        }, 
        "Node_20": {
            "bias": -0.40747979283332825, 
            "weights": [
                0.27325084805488586, 
                -0.15381579101085663, 
                -0.3754655122756958, 
                0.17573949694633484, 
                -0.25397151708602905, 
                0.20853641629219055, 
                0.019249284639954567, 
                -0.14972420036792755, 
                0.17114503681659698, 
                0.5701239109039307, 
                -0.9321085810661316, 
                -0.05755116790533066, 
                -0.6827549934387207, 
                -0.08665731549263
            ]
        }, 
        "Node_21": {
            "bias": -0.317466676235199, 
            "weights": [
                -0.07651054114103317, 
                -0.49538126587867737, 
                -0.3683842718601227, 
                0.023151978850364685, 
                0.009183942340314388, 
                -0.039401594549417496, 
                0.037298835813999176, 
                -0.20170532166957855, 
                0.10310523957014084, 
                0.004193356726318598, 
                -0.025315074250102043, 
                0.10598106682300568, 
                -0.21800319850444794, 
                -0.07383017987012863
            ]
        }, 
        "Node_30": {
            "bias": 0.025240398943424225, 
            "weights": [
                0.14262133836746216, 
                -0.49162083864212036, 
                0.6697323322296143, 
                0.11404399573802948, 
                0.06187362223863602, 
                0.14607109129428864, 
                -0.10282358527183533, 
                -0.17264427244663239, 
                -0.05421936511993408, 
                0.24275532364845276, 
                0.17788980901241302, 
                0.03957834467291832, 
                -0.1933438926935196, 
                -0.18420207500457764
            ]
        }, 
        "Node_33": {
            "bias": 0.1031375452876091, 
            "weights": [
                0.18375159800052643, 
                0.6148645281791687, 
                0.08045769482851028, 
                0.029979979619383812, 
                0.21441768109798431, 
                0.05205931514501572, 
                -0.11485442519187927, 
                0.11294377595186234, 
                0.05452036112546921, 
                0.03275850787758827, 
                0.4805928170681, 
                -0.15206246078014374, 
                0.12027895450592041, 
                0.05360599607229233
            ]
        }, 
        "Node_28": {
            "bias": -0.2555760443210602, 
            "weights": [
                0.24163444340229034, 
                -0.6639668941497803, 
                -0.24847528338432312, 
                -0.26986128091812134, 
                -0.4074142575263977, 
                -0.016367927193641663, 
                0.018091903999447823, 
                0.05330219119787216, 
                0.18941082060337067, 
                0.6977221965789795, 
                -0.3400295674800873, 
                -0.23774085938930511, 
                -0.48446252942085266, 
                -0.08021925389766693
            ]
        }, 
        "Node_29": {
            "bias": -0.08304277807474136, 
            "weights": [
                0.17511574923992157, 
                -0.489766001701355, 
                -0.35222429037094116, 
                0.3139704465866089, 
                -0.2155550867319107, 
                0.34061843156814575, 
                -0.1852034479379654, 
                -0.13087797164916992, 
                0.0034030135720968246, 
                -0.625555157661438, 
                -0.38510996103286743, 
                -0.08223483711481094, 
                0.10380414873361588, 
                -0.027517685666680336
            ]
        }, 
        "Node_32": {
            "bias": 0.313270628452301, 
            "weights": [
                0.253156453371048, 
                0.5050768256187439, 
                0.09852582961320877, 
                -0.06429849565029144, 
                0.35082098841667175, 
                -0.1277039498090744, 
                0.01643960364162922, 
                -0.002346915425732732, 
                0.1149042546749115, 
                -0.3886451721191406, 
                0.32256364822387695, 
                -0.11101479083299637, 
                0.173458531498909, 
                -0.10265037417411804
            ]
        }, 
        "Node_35": {
            "bias": 1.0601121187210083, 
            "weights": [
                -0.36580172181129456, 
                0.36779770255088806, 
                0.6268652081489563, 
                -0.004073437303304672, 
                0.23325663805007935, 
                0.09778466820716858, 
                0.3301292955875397, 
                -0.06795327365398407, 
                -0.0027033197693526745, 
                1.5371625423431396, 
                0.7586826682090759, 
                -0.02362886629998684, 
                1.2951014041900635, 
                0.13435447216033936
            ]
        }, 
        "Node_34": {
            "bias": 0.38827478885650635, 
            "weights": [
                -0.21500243246555328, 
                1.0660688877105713, 
                0.5102792382240295, 
                -0.25315454602241516, 
                0.9034556746482849, 
                0.16442430019378662, 
                0.21080289781093597, 
                0.19909952580928802, 
                -0.14511245489120483, 
                1.2046798467636108, 
                0.8379812836647034, 
                -0.04818155989050865, 
                0.7806547284126282, 
                0.05577164515852928
            ]
        }, 
        "Node_37": {
            "bias": -0.19407208263874054, 
            "weights": [
                0.06272908300161362, 
                0.26374512910842896, 
                -0.002103043720126152, 
                0.1913774013519287, 
                -0.2571702003479004, 
                0.09775948524475098, 
                0.11504656821489334, 
                0.2517339289188385, 
                0.11718416213989258, 
                -0.3346160054206848, 
                0.34128955006599426, 
                0.18438175320625305, 
                -0.16765064001083374, 
                0.1972680240869522
            ]
        }, 
        "Node_36": {
            "bias": 0.25489577651023865, 
            "weights": [
                -0.15416774153709412, 
                -0.009255983866751194, 
                0.017734939232468605, 
                -0.1421821117401123, 
                0.466825395822525, 
                -0.014461175538599491, 
                0.06404519826173782, 
                -0.3220332860946655, 
                0.25741004943847656, 
                0.183563232421875, 
                0.08608043938875198, 
                0.11909870058298111, 
                0.1009388342499733, 
                -0.27138152718544006
            ]
        }, 
        "Node_9": {
            "bias": -0.049395084381103516, 
            "weights": [
                0.22944706678390503, 
                0.31669971346855164, 
                0.003750736592337489, 
                -0.13784220814704895, 
                -0.13849236071109772, 
                -0.024603331461548805, 
                -0.002610735595226288, 
                0.12008491158485413, 
                -0.022751828655600548, 
                -0.35345473885536194, 
                -0.19577880203723907, 
                -0.10649216175079346, 
                -0.26067477464675903, 
                -0.2461705356836319
            ]
        }, 
        "Node_8": {
            "bias": 0.0, 
            "weights": [
                -0.14427241683006287, 
                -0.2705744206905365, 
                -0.0868486613035202, 
                -0.2876436710357666, 
                -0.02229514718055725, 
                -0.29748043417930603, 
                0.22429898381233215, 
                0.018079757690429688, 
                -0.33269184827804565, 
                0.012598127126693726, 
                -0.18565282225608826, 
                -0.24433724582195282, 
                -0.18879365921020508, 
                -0.14027023315429688
            ]
        }, 
        "Node_7": {
            "bias": 0.1535903811454773, 
            "weights": [
                0.053840022534132004, 
                0.18369966745376587, 
                0.7420627474784851, 
                -0.04520659148693085, 
                0.06511114537715912, 
                0.18526965379714966, 
                0.004833827260881662, 
                0.07891172915697098, 
                0.20172695815563202, 
                -0.9129965901374817, 
                0.5919459462165833, 
                0.1454562246799469, 
                0.2547433078289032, 
                -0.109963059425354
            ]
        }, 
        "Node_6": {
            "bias": 0.25580301880836487, 
            "weights": [
                0.07040680199861526, 
                0.48771554231643677, 
                0.4763568639755249, 
                0.3062466084957123, 
                0.35687360167503357, 
                0.247981458902359, 
                0.11163277179002762, 
                -0.021138053387403488, 
                0.1486109346151352, 
                -0.34650716185569763, 
                0.15041479468345642, 
                -0.16828154027462006, 
                0.0978384017944336, 
                -0.08185146003961563
            ]
        }, 
        "Node_5": {
            "bias": 0.5427488684654236, 
            "weights": [
                0.11098746210336685, 
                0.6966058015823364, 
                0.7022978663444519, 
                -0.1699383556842804, 
                0.9574916362762451, 
                0.10246752947568893, 
                0.2756420075893402, 
                0.07947332412004471, 
                -0.1592569351196289, 
                -0.39834117889404297, 
                0.8050601482391357, 
                0.17269450426101685, 
                0.4951474666595459, 
                0.2345312535762787
            ]
        }, 
        "Node_4": {
            "bias": 0.10414136946201324, 
            "weights": [
                -0.1499016135931015, 
                0.0673980563879013, 
                -0.22982308268547058, 
                0.26209548115730286, 
                -0.3399834632873535, 
                -0.2867867648601532, 
                -0.033119719475507736, 
                0.23414628207683563, 
                0.3062290847301483, 
                0.5419291257858276, 
                0.02970077469944954, 
                -0.05600724369287491, 
                -0.027593012899160385, 
                0.07909167557954788
            ]
        }, 
        "Node_3": {
            "bias": 0.12027411162853241, 
            "weights": [
                -0.25613462924957275, 
                -0.14231745898723602, 
                0.5445481538772583, 
                -0.1679701805114746, 
                0.33836817741394043, 
                -0.17289608716964722, 
                0.13915789127349854, 
                0.19006942212581635, 
                0.06416784226894379, 
                -0.6293681263923645, 
                0.23304298520088196, 
                -0.04838421195745468, 
                -0.3159702718257904, 
                0.2995013892650604
            ]
        }, 
        "Node_2": {
            "bias": -0.6021130084991455, 
            "weights": [
                -0.2479756474494934, 
                -0.4144856333732605, 
                -0.6644731163978577, 
                -0.2278769612312317, 
                -0.6671997904777527, 
                0.06949657201766968, 
                -0.3209052085876465, 
                0.029950426891446114, 
                0.007610457483679056, 
                -0.55727618932724, 
                -0.5228205919265747, 
                -0.06495710462331772, 
                -0.7565714716911316, 
                0.18412727117538452
            ]
        }, 
        "Node_1": {
            "bias": -0.5714845657348633, 
            "weights": [
                -0.1566549390554428, 
                -0.3441212475299835, 
                -0.6358054876327515, 
                0.2645643353462219, 
                0.03671875223517418, 
                -0.08055641502141953, 
                -0.11341109871864319, 
                -0.04643337056040764, 
                0.15840575098991394, 
                -0.9611507654190063, 
                -0.44191038608551025, 
                -0.2272947132587433, 
                -0.10811299085617065, 
                0.03636246547102928
            ]
        }, 
        "Node_0": {
            "bias": -0.12662498652935028, 
            "weights": [
                0.04054645448923111, 
                0.26936107873916626, 
                -0.062458209693431854, 
                0.18968969583511353, 
                -0.33940833806991577, 
                -0.15458667278289795, 
                -0.09228964149951935, 
                0.10658007115125656, 
                0.28126975893974304, 
                0.15522976219654083, 
                -0.3843592405319214, 
                -0.24474146962165833, 
                -0.16202214360237122, 
                0.12832669913768768
            ]
        }
    }, 
    "Layer_3": {
        "Node_5": {
            "bias": 0.24877235293388367, 
            "weights": [
                -0.1370674967765808, 
                0.09754236787557602, 
                -0.08877046406269073, 
                0.38072600960731506, 
                0.4159427583217621, 
                0.43852728605270386, 
                0.038250409066677094, 
                0.35951611399650574, 
                0.38208281993865967, 
                0.06912290304899216, 
                0.01920248568058014, 
                -0.18486103415489197, 
                0.08041931688785553, 
                -0.07556656748056412, 
                -0.23268485069274902, 
                -0.4555320739746094, 
                0.36248284578323364, 
                -0.2821906805038452, 
                0.3300364315509796, 
                0.2867875099182129
            ]
        }, 
        "Node_4": {
            "bias": 0.6183544397354126, 
            "weights": [
                -0.334990918636322, 
                -0.22924664616584778, 
                0.2810807526111603, 
                0.25322115421295166, 
                0.09010728448629379, 
                -0.288079172372818, 
                -0.2128785103559494, 
                -0.3074163496494293, 
                -0.18535414338111877, 
                0.10154031217098236, 
                0.11781810969114304, 
                0.21931736171245575, 
                -0.08156538754701614, 
                -0.026990694925189018, 
                -0.07832463085651398, 
                0.1244363933801651, 
                -0.29108497500419617, 
                -0.2810582220554352, 
                0.21322958171367645, 
                -0.15365634858608246
            ]
        }, 
        "Node_3": {
            "bias": 0.06043418496847153, 
            "weights": [
                -0.057562243193387985, 
                -0.009212424978613853, 
                0.22016285359859467, 
                0.171188622713089, 
                -0.2961766719818115, 
                0.2541235089302063, 
                -0.3653910458087921, 
                0.26299530267715454, 
                0.27022892236709595, 
                0.2908881604671478, 
                0.253680020570755, 
                -0.3731459975242615, 
                0.06990433484315872, 
                -0.09271597862243652, 
                -0.23847395181655884, 
                -0.39545392990112305, 
                -0.4418826401233673, 
                0.03236847370862961, 
                -0.0430043525993824, 
                -0.10888984054327011
            ]
        }, 
        "Node_2": {
            "bias": -0.24674436450004578, 
            "weights": [
                -0.10734369605779648, 
                0.1272854208946228, 
                -0.05554870516061783, 
                0.40474367141723633, 
                0.20316703617572784, 
                0.1912447065114975, 
                -0.32621121406555176, 
                -0.24038955569267273, 
                -0.010578220710158348, 
                0.38054925203323364, 
                0.3089294731616974, 
                -0.20079904794692993, 
                -0.1913282871246338, 
                -0.03597712144255638, 
                0.2908419072628021, 
                -0.14466960728168488, 
                -0.27385413646698, 
                -0.1429046243429184, 
                0.24669800698757172, 
                -0.21599367260932922
            ]
        }, 
        "Node_1": {
            "bias": -0.14357437193393707, 
            "weights": [
                0.057414863258600235, 
                -0.16501258313655853, 
                -0.12130393832921982, 
                0.33347317576408386, 
                0.18839365243911743, 
                0.06756123900413513, 
                -0.13897009193897247, 
                -0.14163702726364136, 
                0.3113076984882355, 
                0.4372473955154419, 
                0.46548837423324585, 
                -0.1765449494123459, 
                -0.026049930602312088, 
                -0.10872910171747208, 
                -0.03269508108496666, 
                -0.28519657254219055, 
                -0.2148958146572113, 
                -0.17026323080062866, 
                0.03211032971739769, 
                -0.16555176675319672
            ]
        }, 
        "Node_0": {
            "bias": -0.15921445190906525, 
            "weights": [
                -0.2022591531276703, 
                0.11524809896945953, 
                -0.08476605266332626, 
                0.2407364696264267, 
                -0.28290578722953796, 
                -0.170907661318779, 
                0.1123589426279068, 
                0.007025133352726698, 
                0.15755601227283478, 
                0.1723179668188095, 
                0.43029189109802246, 
                -0.18010984361171722, 
                0.397550493478775, 
                -0.08429742604494095, 
                -0.25672176480293274, 
                -0.1887405812740326, 
                -0.1499347984790802, 
                0.035794809460639954, 
                -0.13921058177947998, 
                0.4194740653038025
            ]
        }
    }, 
    "Layer_2": {
        "Node_12": {
            "bias": -0.04870613291859627, 
            "weights": [
                -0.05033089965581894, 
                -0.12845319509506226, 
                0.348283588886261, 
                0.3013853132724762, 
                -0.21477702260017395, 
                -0.12029359489679337, 
                0.32248467206954956, 
                0.07476501166820526, 
                -0.09556389600038528, 
                -0.12905055284500122, 
                -0.016042813658714294, 
                0.31749701499938965, 
                0.10308515280485153, 
                0.3347534239292145, 
                -0.25764575600624084, 
                0.18994709849357605, 
                0.08801289647817612, 
                -0.11431250721216202, 
                0.2794724106788635, 
                0.04767338186502457, 
                0.26913028955459595, 
                0.150149866938591, 
                -0.0983530580997467, 
                0.12172409892082214, 
                0.18224668502807617
            ]
        }, 
        "Node_14": {
            "bias": -0.032455142587423325, 
            "weights": [
                0.09253879636526108, 
                0.014263508841395378, 
                -0.34788691997528076, 
                -0.22717994451522827, 
                0.24989010393619537, 
                0.16627413034439087, 
                0.13231202960014343, 
                -0.34491974115371704, 
                0.07761634141206741, 
                -0.14434517920017242, 
                -0.29158058762550354, 
                -0.02075330726802349, 
                0.20403645932674408, 
                0.33240923285484314, 
                0.18866364657878876, 
                -0.19283974170684814, 
                0.05849315971136093, 
                -0.2126024067401886, 
                0.018109014257788658, 
                0.09168361872434616, 
                0.18284589052200317, 
                -0.2867272198200226, 
                -0.10523617267608643, 
                -0.09916256368160248, 
                0.05899453163146973
            ]
        }, 
        "Node_19": {
            "bias": -0.03414292633533478, 
            "weights": [
                -0.055493712425231934, 
                -0.07725442945957184, 
                -0.1877208799123764, 
                -0.26622486114501953, 
                -0.01770061068236828, 
                0.00722929835319519, 
                0.2755926847457886, 
                -0.1727599799633026, 
                0.30237478017807007, 
                -0.0163246002048254, 
                0.2398381382226944, 
                0.3177669942378998, 
                0.16847170889377594, 
                0.2917386591434479, 
                0.08613494783639908, 
                -0.2762564718723297, 
                0.3302455544471741, 
                0.13402239978313446, 
                -0.25022733211517334, 
                0.12365943193435669, 
                -0.07783900946378708, 
                -0.1298152059316635, 
                0.014408609829843044, 
                0.12058387696743011, 
                0.17503416538238525
            ]
        }, 
        "Node_9": {
            "bias": -0.2614668607711792, 
            "weights": [
                0.09284311532974243, 
                -0.4065669775009155, 
                -0.2828729748725891, 
                0.2592957019805908, 
                0.3697868585586548, 
                -0.16230508685112, 
                -0.13986049592494965, 
                -0.04578382149338722, 
                0.2155729979276657, 
                -0.19673404097557068, 
                -0.2503078877925873, 
                0.3059425950050354, 
                -0.040689922869205475, 
                -0.1563415229320526, 
                -0.15381217002868652, 
                -0.21484871208667755, 
                0.2167224884033203, 
                0.24474065005779266, 
                -0.07508422434329987, 
                -0.08124922215938568, 
                0.2472028136253357, 
                0.12503638863563538, 
                0.3174688220024109, 
                -0.010022620670497417, 
                -0.18251699209213257
            ]
        }, 
        "Node_8": {
            "bias": 0.009666692465543747, 
            "weights": [
                -0.06886915117502213, 
                -0.28654927015304565, 
                -0.03050413727760315, 
                -0.05575067922472954, 
                -0.0807843953371048, 
                -0.17559638619422913, 
                0.1263907551765442, 
                -0.015541828237473965, 
                -0.26714813709259033, 
                0.21766532957553864, 
                0.24698126316070557, 
                -0.16590379178524017, 
                -0.20859390497207642, 
                -0.2483091801404953, 
                0.09414325654506683, 
                -0.22084391117095947, 
                0.2748878598213196, 
                -0.10326826572418213, 
                -0.07133883237838745, 
                -0.3357757329940796, 
                -0.3359074890613556, 
                0.1015971302986145, 
                -0.26830121874809265, 
                0.0788852795958519, 
                -0.18612885475158691
            ]
        }, 
        "Node_7": {
            "bias": 0.00711651798337698, 
            "weights": [
                0.25432273745536804, 
                -0.13734111189842224, 
                0.2226046770811081, 
                0.28013163805007935, 
                0.26318636536598206, 
                -0.27101418375968933, 
                0.2852271795272827, 
                -0.18753546476364136, 
                0.003545843530446291, 
                0.20377697050571442, 
                -0.0968630388379097, 
                -0.18472807109355927, 
                0.004730690270662308, 
                0.15185204148292542, 
                0.10056523233652115, 
                -0.17591559886932373, 
                0.023010261356830597, 
                0.2187184989452362, 
                -0.1472499668598175, 
                -0.02342676930129528, 
                0.07408826053142548, 
                0.055577315390110016, 
                0.15788504481315613, 
                0.261862188577652, 
                0.055969417095184326
            ]
        }, 
        "Node_6": {
            "bias": -0.019729148596525192, 
            "weights": [
                -0.038347888737916946, 
                0.18897637724876404, 
                -0.3394986689090729, 
                0.15910741686820984, 
                -0.3011794686317444, 
                0.35822635889053345, 
                -0.1720210760831833, 
                -0.00862889550626278, 
                0.21800723671913147, 
                -0.10788492113351822, 
                -0.016894519329071045, 
                0.29247021675109863, 
                -0.3217346668243408, 
                0.3505025804042816, 
                -0.0919022262096405, 
                0.03321203961968422, 
                -0.23338845372200012, 
                -0.23706762492656708, 
                0.14463093876838684, 
                0.14503076672554016, 
                -0.30254170298576355, 
                0.09971919655799866, 
                -0.373284250497818, 
                0.08366358280181885, 
                0.1926913857460022
            ]
        }, 
        "Node_5": {
            "bias": -0.07000266760587692, 
            "weights": [
                -0.26897743344306946, 
                0.16039317846298218, 
                0.17054705321788788, 
                -0.03835713863372803, 
                0.33041295409202576, 
                -0.3209146559238434, 
                -0.3201315402984619, 
                0.1853681355714798, 
                0.014427701942622662, 
                -0.3422342538833618, 
                0.009057089686393738, 
                0.22954648733139038, 
                0.1979369968175888, 
                0.10569252073764801, 
                0.12604869902133942, 
                -0.19221231341362, 
                -0.3215520977973938, 
                0.20083531737327576, 
                0.003932978492230177, 
                0.328829824924469, 
                -0.23832352459430695, 
                -0.04722722992300987, 
                0.09528762102127075, 
                -0.3147389888763428, 
                0.005528092384338379
            ]
        }, 
        "Node_4": {
            "bias": 0.004407880362123251, 
            "weights": [
                -0.3094542622566223, 
                -0.2735821008682251, 
                -0.08155947923660278, 
                -0.3448390066623688, 
                -0.14939089119434357, 
                0.029905706644058228, 
                -0.2555862069129944, 
                -0.10603811591863632, 
                -0.12785840034484863, 
                0.23694558441638947, 
                0.28088119626045227, 
                -0.151584193110466, 
                0.000261405308265239, 
                -0.06794095039367676, 
                0.061120375990867615, 
                -0.1277800053358078, 
                0.05999542027711868, 
                0.32153618335723877, 
                0.1698705554008484, 
                0.09834495931863785, 
                -0.09569720178842545, 
                -0.3384628891944885, 
                -0.14705735445022583, 
                0.21559715270996094, 
                0.06656450033187866
            ]
        }, 
        "Node_3": {
            "bias": -0.20358268916606903, 
            "weights": [
                0.058004580438137054, 
                0.21021315455436707, 
                0.3669833838939667, 
                0.2539624869823456, 
                -0.32310280203819275, 
                -0.24624329805374146, 
                -0.24928632378578186, 
                0.29114973545074463, 
                -0.0922498032450676, 
                0.16002246737480164, 
                -0.0406787171959877, 
                0.18728144466876984, 
                -0.3092014193534851, 
                -0.08501524478197098, 
                -0.24972794950008392, 
                0.09777118265628815, 
                -0.3304920792579651, 
                -0.3341211676597595, 
                0.028633343055844307, 
                -0.050203338265419006, 
                0.12528745830059052, 
                -0.024957001209259033, 
                -0.37957048416137695, 
                0.22016851603984833, 
                -0.04761192202568054
            ]
        }, 
        "Node_2": {
            "bias": -0.43650001287460327, 
            "weights": [
                -0.0401301234960556, 
                -0.09792327880859375, 
                0.28192514181137085, 
                0.3181487023830414, 
                0.14530616998672485, 
                0.07009392976760864, 
                -0.10018253326416016, 
                0.13952279090881348, 
                0.1350000947713852, 
                -0.14624491333961487, 
                0.1140490472316742, 
                -0.11518052965402603, 
                -0.14136286079883575, 
                -0.24055400490760803, 
                0.1833663135766983, 
                0.20177988708019257, 
                -0.2845381498336792, 
                -0.03340473026037216, 
                0.15925677120685577, 
                0.08219558745622635, 
                -0.35312166810035706, 
                -0.05474108085036278, 
                -0.3208741843700409, 
                -0.2960003614425659, 
                -0.15400473773479462
            ]
        }, 
        "Node_1": {
            "bias": -0.05485381931066513, 
            "weights": [
                -0.29511550068855286, 
                0.05902918800711632, 
                0.22287023067474365, 
                0.0075290147215127945, 
                0.0040206462144851685, 
                0.15979373455047607, 
                -0.35348212718963623, 
                0.26764291524887085, 
                0.2664526700973511, 
                -0.23694384098052979, 
                0.213863343000412, 
                -0.310625821352005, 
                0.20431356132030487, 
                0.34499669075012207, 
                -0.3689417541027069, 
                0.14872634410858154, 
                -0.12537933886051178, 
                -0.22862613201141357, 
                0.20790086686611176, 
                0.24637524783611298, 
                0.11417514830827713, 
                0.23442214727401733, 
                -0.3186313509941101, 
                0.03778987377882004, 
                -0.01668807864189148
            ]
        }, 
        "Node_0": {
            "bias": -0.47410714626312256, 
            "weights": [
                0.0180366113781929, 
                0.12428309768438339, 
                -0.049403972923755646, 
                -0.03379148989915848, 
                -0.10649063438177109, 
                0.18629460036754608, 
                -0.08649376034736633, 
                0.05187804251909256, 
                -0.2561260163784027, 
                -0.11625098437070847, 
                0.13334818184375763, 
                0.037979111075401306, 
                0.029161393642425537, 
                0.3140949308872223, 
                -0.19175060093402863, 
                0.38232216238975525, 
                -0.16597501933574677, 
                -0.15473347902297974, 
                0.28424203395843506, 
                0.17119666934013367, 
                0.2633868455886841, 
                -0.02804410085082054, 
                0.13078269362449646, 
                -0.2486874908208847, 
                0.14884191751480103
            ]
        }, 
        "Node_17": {
            "bias": -0.12671798467636108, 
            "weights": [
                0.05044349655508995, 
                -0.2411612719297409, 
                0.09052418172359467, 
                -0.2651321291923523, 
                0.1630004346370697, 
                -0.08043760806322098, 
                -0.24370494484901428, 
                -0.10061328113079071, 
                0.059043098241090775, 
                -0.0008264502976089716, 
                -0.27737534046173096, 
                -0.007981905713677406, 
                0.1167416051030159, 
                0.2162986695766449, 
                -0.12496158480644226, 
                0.06585215032100677, 
                -0.12517718970775604, 
                0.11700092256069183, 
                -0.14937423169612885, 
                -0.029924118891358376, 
                0.3042227625846863, 
                0.08991042524576187, 
                0.33047419786453247, 
                -0.3226777911186218, 
                -0.19335798919200897
            ]
        }, 
        "Node_11": {
            "bias": 0.4605275094509125, 
            "weights": [
                0.19491693377494812, 
                -0.10996722429990768, 
                0.3301950693130493, 
                0.029807982966303825, 
                0.08783885836601257, 
                0.33080458641052246, 
                -0.06280791759490967, 
                0.026935603469610214, 
                0.09619541466236115, 
                -0.02443765103816986, 
                -0.06047293543815613, 
                0.31163841485977173, 
                0.06423674523830414, 
                -0.2326434850692749, 
                -0.12283848226070404, 
                -0.2757064402103424, 
                0.03989267349243164, 
                0.3384999632835388, 
                -0.15038815140724182, 
                0.027856482192873955, 
                -0.19395653903484344, 
                0.29181644320487976, 
                0.2491525113582611, 
                -0.19765691459178925, 
                0.2209365963935852
            ]
        }, 
        "Node_16": {
            "bias": -0.028249910101294518, 
            "weights": [
                0.33611881732940674, 
                -0.13846735656261444, 
                0.20143000781536102, 
                -0.12104900926351547, 
                -0.09831885993480682, 
                0.12069350481033325, 
                -0.23717783391475677, 
                -0.32171323895454407, 
                0.17540964484214783, 
                0.031989406794309616, 
                -0.3180205225944519, 
                0.07900118082761765, 
                -0.0863347053527832, 
                -0.15372337400913239, 
                -0.2995266020298004, 
                -0.22221122682094574, 
                -0.06434649974107742, 
                0.18709921836853027, 
                -0.09271955490112305, 
                -0.03765581175684929, 
                0.2471683919429779, 
                -0.36199891567230225, 
                0.018158195540308952, 
                -0.12343557178974152, 
                -0.20788173377513885
            ]
        }, 
        "Node_18": {
            "bias": 0.2716835141181946, 
            "weights": [
                0.2824379503726959, 
                -0.19866199791431427, 
                -0.1414695829153061, 
                0.1717231422662735, 
                -0.24230217933654785, 
                0.14499402046203613, 
                -0.20704998075962067, 
                -0.18369974195957184, 
                -0.044411830604076385, 
                0.3201029896736145, 
                -0.17836759984493256, 
                -0.15633158385753632, 
                -0.1524977684020996, 
                -0.311565101146698, 
                -0.08322005718946457, 
                0.20388276875019073, 
                -0.14459532499313354, 
                -0.25276821851730347, 
                0.07274434715509415, 
                -0.16115209460258484, 
                0.3095546066761017, 
                0.17691528797149658, 
                0.04888263717293739, 
                0.30252963304519653, 
                -0.34033408761024475
            ]
        }, 
        "Node_10": {
            "bias": -0.3959857225418091, 
            "weights": [
                0.05266311764717102, 
                -0.022619683295488358, 
                0.012444409541785717, 
                0.17659983038902283, 
                -0.0052934433333575726, 
                -0.2776273190975189, 
                0.19923031330108643, 
                0.30169159173965454, 
                -0.012934524565935135, 
                0.1071988046169281, 
                0.23817771673202515, 
                -0.18879979848861694, 
                0.04123905673623085, 
                -0.10476265102624893, 
                -0.30522245168685913, 
                -0.09465846419334412, 
                0.1928584724664688, 
                0.23611865937709808, 
                -0.3024444878101349, 
                0.17497168481349945, 
                0.19435089826583862, 
                0.2771364152431488, 
                -0.0290447399020195, 
                -0.04291803762316704, 
                0.1702333688735962
            ]
        }, 
        "Node_13": {
            "bias": -0.347334086894989, 
            "weights": [
                0.3193448483943939, 
                -0.33598747849464417, 
                0.24791207909584045, 
                0.0764651745557785, 
                -0.05034531280398369, 
                0.24827778339385986, 
                0.11121460795402527, 
                0.12281592190265656, 
                0.046157389879226685, 
                0.17457200586795807, 
                -0.10964401811361313, 
                -0.2056320756673813, 
                0.21256783604621887, 
                -0.07181817293167114, 
                -0.3527151048183441, 
                -0.03780866041779518, 
                0.26012957096099854, 
                0.3056580722332001, 
                0.20861971378326416, 
                0.2605808675289154, 
                -0.06711696833372116, 
                0.17479732632637024, 
                -0.24749408662319183, 
                0.29342126846313477, 
                0.1370365023612976
            ]
        }, 
        "Node_15": {
            "bias": 0.2502211928367615, 
            "weights": [
                -0.07648294419050217, 
                0.044085051864385605, 
                0.23398788273334503, 
                0.2295968234539032, 
                -0.280648410320282, 
                -0.07049784064292908, 
                0.17010492086410522, 
                -0.0678032860159874, 
                -0.1454649567604065, 
                -0.24832452833652496, 
                -0.08136414736509323, 
                -0.05515168234705925, 
                0.24189741909503937, 
                0.09958309680223465, 
                0.17175331711769104, 
                0.3208252787590027, 
                0.31933602690696716, 
                -0.20252683758735657, 
                0.04199850931763649, 
                0.35114553570747375, 
                0.1542331427335739, 
                -0.22257408499717712, 
                0.2981053590774536, 
                0.11919771879911423, 
                -0.32756292819976807
            ]
        }
    }
}