{
    "Layer_1": {
        "Node_19": {
            "bias": -0.014126638881862164, 
            "weights": [
                -0.22499573230743408, 
                -0.10788197815418243, 
                0.12756620347499847, 
                -0.12538525462150574, 
                -0.22306448221206665, 
                0.07639949023723602, 
                0.10898230969905853, 
                0.19012707471847534, 
                -0.2979245185852051, 
                -0.0008140178397297859, 
                0.007148934993892908, 
                -0.059142690151929855, 
                0.1467597633600235, 
                0.14666208624839783, 
                -0.11019017547369003, 
                0.07110090553760529, 
                0.1636744737625122, 
                0.04785160720348358, 
                0.19843295216560364, 
                0.19985398650169373, 
                -0.2209351509809494, 
                0.2091141790151596, 
                0.12270469218492508, 
                -0.123063825070858, 
                -0.05338682234287262, 
                -0.08505575358867645, 
                0.2789326608181, 
                0.001530840527266264, 
                -0.19851289689540863, 
                0.17055054008960724, 
                -0.25505590438842773, 
                0.013881560415029526, 
                0.16273906826972961, 
                0.10844501107931137, 
                -0.0044672731310129166, 
                0.200723797082901, 
                -0.29613247513771057, 
                0.17767170071601868, 
                0.2683273255825043, 
                0.19466470181941986
            ]
        }, 
        "Node_18": {
            "bias": 0.7233572602272034, 
            "weights": [
                0.027064349502325058, 
                0.13486742973327637, 
                -0.11359429359436035, 
                0.14184807240962982, 
                0.0790516585111618, 
                -0.2833424210548401, 
                0.12035774439573288, 
                -0.31588512659072876, 
                0.28494787216186523, 
                0.005130521487444639, 
                -0.08761247247457504, 
                -0.007764667738229036, 
                0.1169639453291893, 
                0.06878893077373505, 
                0.1860739290714264, 
                0.003588452935218811, 
                0.24973535537719727, 
                -0.14411085844039917, 
                -0.17785204946994781, 
                -0.09138952940702438, 
                0.23989543318748474, 
                0.013958820141851902, 
                -0.2714460492134094, 
                -0.09028356522321701, 
                -0.0427761934697628, 
                0.02679702639579773, 
                -0.1690051555633545, 
                0.2015490084886551, 
                0.003336847061291337, 
                -0.19662155210971832, 
                0.15927357971668243, 
                0.1213037371635437, 
                -0.15620902180671692, 
                0.22360020875930786, 
                0.010193862952291965, 
                -0.22087973356246948, 
                -0.12114358693361282, 
                -0.029775604605674744, 
                -0.2570103406906128, 
                0.25360235571861267
            ]
        }, 
        "Node_17": {
            "bias": 0.07499496638774872, 
            "weights": [
                0.17382124066352844, 
                -0.18025246262550354, 
                -0.08535678684711456, 
                -0.09217750281095505, 
                -0.0193179938942194, 
                -0.2526158094406128, 
                -0.12206405401229858, 
                -0.14719326794147491, 
                0.1528729796409607, 
                -0.25757303833961487, 
                0.23621632158756256, 
                -0.045798417180776596, 
                -0.04540429636836052, 
                -0.2594831883907318, 
                -0.14901985228061676, 
                0.19101764261722565, 
                0.17230531573295593, 
                -0.23722897469997406, 
                0.0035182801075279713, 
                0.25253015756607056, 
                -0.12498646974563599, 
                -0.24140764772891998, 
                -0.1620182991027832, 
                0.2309729903936386, 
                0.10303005576133728, 
                0.14819076657295227, 
                -0.05216977745294571, 
                0.03736395016312599, 
                0.10296235978603363, 
                0.13497132062911987, 
                0.12834015488624573, 
                0.20319010317325592, 
                -0.16830050945281982, 
                -0.01617664471268654, 
                0.10728541761636734, 
                -0.08563042432069778, 
                -0.15329115092754364, 
                -0.008057549595832825, 
                0.21385042369365692, 
                0.1628202199935913
            ]
        }, 
        "Node_16": {
            "bias": 0.29091039299964905, 
            "weights": [
                -0.11880055069923401, 
                -0.24455294013023376, 
                0.08594465255737305, 
                -0.051139947026968, 
                -0.12186204642057419, 
                -0.07507085055112839, 
                -0.21609443426132202, 
                0.201873317360878, 
                0.015118510462343693, 
                -0.2149192839860916, 
                -0.09959197044372559, 
                -0.1383926421403885, 
                0.16603399813175201, 
                0.2124311625957489, 
                0.10011383891105652, 
                -0.01126317959278822, 
                -0.2579087018966675, 
                0.13690175116062164, 
                -0.1178017407655716, 
                0.07875591516494751, 
                0.18168583512306213, 
                -0.1506974995136261, 
                -0.10613714903593063, 
                -0.1958991438150406, 
                0.03669540211558342, 
                -0.25019657611846924, 
                -0.1569432020187378, 
                -0.15855485200881958, 
                0.2709079682826996, 
                0.10593786090612411, 
                -0.02576553076505661, 
                -0.048553675413131714, 
                -0.0535355806350708, 
                -0.05652136728167534, 
                0.2820259928703308, 
                -0.11100347340106964, 
                -0.06134810298681259, 
                -0.22361287474632263, 
                0.2890998423099518, 
                0.1497165709733963
            ]
        }, 
        "Node_15": {
            "bias": -0.01711242087185383, 
            "weights": [
                0.061096157878637314, 
                0.026220908388495445, 
                -0.21464093029499054, 
                -0.030350565910339355, 
                -0.0033980654552578926, 
                -0.15237446129322052, 
                0.015377163887023926, 
                -0.15326988697052002, 
                -0.035581544041633606, 
                0.03895489498972893, 
                0.05938199162483215, 
                -0.2090831845998764, 
                0.09708931297063828, 
                -0.0808839201927185, 
                0.12009896337985992, 
                0.26906618475914, 
                -0.24671034514904022, 
                0.29240307211875916, 
                -0.1057954728603363, 
                -0.024499572813510895, 
                -0.295045405626297, 
                -0.13635702431201935, 
                -0.286470890045166, 
                0.25841912627220154, 
                0.016839295625686646, 
                -0.22142969071865082, 
                0.021433968096971512, 
                -0.25742384791374207, 
                -0.05923369526863098, 
                -0.09991750121116638, 
                0.10577347129583359, 
                -0.161634162068367, 
                0.15262572467327118, 
                0.1320403665304184, 
                0.2781274914741516, 
                -0.22174608707427979, 
                -0.0669429823756218, 
                0.1621539294719696, 
                0.15625351667404175, 
                0.22963614761829376
            ]
        }, 
        "Node_14": {
            "bias": -0.02863006480038166, 
            "weights": [
                -0.1833227276802063, 
                -0.22202809154987335, 
                0.24620342254638672, 
                -0.030432919040322304, 
                0.1720597892999649, 
                0.2488710582256317, 
                -0.1670503318309784, 
                -0.2788579761981964, 
                0.2349342554807663, 
                0.01494688168168068, 
                0.18338806927204132, 
                0.14705030620098114, 
                0.21798747777938843, 
                -0.22088731825351715, 
                0.11962784081697464, 
                0.19335287809371948, 
                -0.09474736452102661, 
                0.1919185221195221, 
                0.12681332230567932, 
                0.267924964427948, 
                -0.23954355716705322, 
                0.2013111114501953, 
                -0.2954777479171753, 
                0.19969534873962402, 
                0.07954807579517365, 
                0.19080689549446106, 
                0.18725331127643585, 
                -0.15088948607444763, 
                -0.2302316427230835, 
                0.22140999138355255, 
                -0.20852310955524445, 
                -0.2856276333332062, 
                -0.1791531890630722, 
                0.23505766689777374, 
                -0.05246267095208168, 
                -0.2120913863182068, 
                0.14589394629001617, 
                0.1182771846652031, 
                -0.186762273311615, 
                -0.18042662739753723
            ]
        }, 
        "Node_13": {
            "bias": 0.0, 
            "weights": [
                0.02912256121635437, 
                0.15349814295768738, 
                -0.28675177693367004, 
                -0.11348885297775269, 
                0.28242820501327515, 
                -0.22036610543727875, 
                -0.17364606261253357, 
                0.04833495616912842, 
                0.09881040453910828, 
                0.0667296051979065, 
                -0.29178789258003235, 
                -0.29567426443099976, 
                0.021187692880630493, 
                -0.18266849219799042, 
                0.07368138432502747, 
                -0.2002628743648529, 
                0.02305886149406433, 
                0.29755741357803345, 
                0.0995388925075531, 
                -0.02993723750114441, 
                0.1455579698085785, 
                -0.16446687281131744, 
                -0.2934782803058624, 
                -0.1913975477218628, 
                0.2865021228790283, 
                -0.052412569522857666, 
                -0.16549012064933777, 
                0.23340725898742676, 
                -0.012819796800613403, 
                -0.10183283686637878, 
                -0.20892326533794403, 
                0.3001953363418579, 
                -0.23755136132240295, 
                -0.08616156876087189, 
                -0.2853754758834839, 
                0.06719937920570374, 
                0.1812622845172882, 
                0.2800799012184143, 
                0.16271904110908508, 
                -0.057035550475120544
            ]
        }, 
        "Node_12": {
            "bias": 0.0, 
            "weights": [
                -0.02966076135635376, 
                -0.012854546308517456, 
                -0.23660019040107727, 
                -0.07698383927345276, 
                -0.27035826444625854, 
                -0.22064852714538574, 
                -0.056564927101135254, 
                -0.26611462235450745, 
                -0.14277829229831696, 
                -0.2686769366264343, 
                0.13567805290222168, 
                -0.21444012224674225, 
                -0.26554837822914124, 
                -0.2436693012714386, 
                -0.11354361474514008, 
                0.18190979957580566, 
                0.014518141746520996, 
                -0.12766146659851074, 
                -0.2299877405166626, 
                -0.1178206354379654, 
                -0.017150282859802246, 
                -0.2045697569847107, 
                0.1461862325668335, 
                0.004093825817108154, 
                -0.17283020913600922, 
                -0.11425204575061798, 
                9.483098983764648e-05, 
                0.04873022437095642, 
                -0.21917350590229034, 
                -0.08115148544311523, 
                -0.25636303424835205, 
                0.14175686240196228, 
                -0.1263490468263626, 
                0.2701670527458191, 
                0.12073817849159241, 
                -0.24272038042545319, 
                0.17196357250213623, 
                -0.2688874304294586, 
                -0.20702898502349854, 
                0.15933668613433838
            ]
        }, 
        "Node_11": {
            "bias": -0.012391715310513973, 
            "weights": [
                -0.17018605768680573, 
                0.2350493222475052, 
                -0.33044299483299255, 
                -0.026355605572462082, 
                -0.21007946133613586, 
                0.12270089983940125, 
                -0.03666764497756958, 
                0.2582356631755829, 
                -0.2698464095592499, 
                0.06395655870437622, 
                -0.20844367146492004, 
                -0.25610876083374023, 
                0.1467350870370865, 
                -0.23664222657680511, 
                -0.20387078821659088, 
                0.029159387573599815, 
                0.10484495759010315, 
                0.13298743963241577, 
                0.020646950230002403, 
                0.19228637218475342, 
                0.03112768568098545, 
                0.21090935170650482, 
                0.07854922115802765, 
                -0.2584402859210968, 
                -0.16970738768577576, 
                -0.2621702253818512, 
                0.1926913559436798, 
                -0.1628037989139557, 
                -0.09134525805711746, 
                -0.17092928290367126, 
                0.009438172914087772, 
                -0.13607099652290344, 
                -0.22252097725868225, 
                0.1400957554578781, 
                0.28269699215888977, 
                0.29718858003616333, 
                -0.26385053992271423, 
                -0.24403561651706696, 
                0.1907138228416443, 
                -0.2526957094669342
            ]
        }, 
        "Node_10": {
            "bias": -0.44934895634651184, 
            "weights": [
                0.170927032828331, 
                0.3026726543903351, 
                -0.0218206699937582, 
                0.2871544361114502, 
                0.05578037351369858, 
                0.18563425540924072, 
                -0.3652251064777374, 
                0.13661625981330872, 
                -0.07878802716732025, 
                -0.11845628917217255, 
                -0.36733177304267883, 
                -0.21685494482517242, 
                -0.060420166701078415, 
                -0.2469598948955536, 
                -0.21647290885448456, 
                -0.10204147547483444, 
                -0.23794694244861603, 
                -0.1630380004644394, 
                0.23490124940872192, 
                -0.25238463282585144, 
                0.13477307558059692, 
                -0.24860383570194244, 
                0.10474026203155518, 
                -0.17745144665241241, 
                0.18001976609230042, 
                0.0783454179763794, 
                -0.30270522832870483, 
                -0.016032662242650986, 
                -0.2717479169368744, 
                -0.07788069546222687, 
                -0.04233543947339058, 
                0.08026708662509918, 
                0.12005741894245148, 
                -0.251272052526474, 
                -0.07014304399490356, 
                0.25000709295272827, 
                -0.02635340578854084, 
                0.13037805259227753, 
                -0.058763276785612106, 
                0.18406563997268677
            ]
        }, 
        "Node_24": {
            "bias": -2.7839114409289323e-05, 
            "weights": [
                -0.23986098170280457, 
                -0.08284579962491989, 
                0.12645946443080902, 
                -0.14829447865486145, 
                0.07355600595474243, 
                -0.28210750222206116, 
                -0.22091299295425415, 
                -0.26370322704315186, 
                0.2520843744277954, 
                0.24167019128799438, 
                -0.1829223334789276, 
                -0.12427755445241928, 
                0.03700047731399536, 
                -0.22874271869659424, 
                -0.1825694441795349, 
                0.2778129577636719, 
                0.07813882827758789, 
                -0.05624024569988251, 
                0.14442826807498932, 
                0.24795079231262207, 
                0.0008397698402404785, 
                -0.08084416389465332, 
                -0.16972734034061432, 
                -0.1839316487312317, 
                -0.003633856773376465, 
                0.23078173398971558, 
                -0.17551013827323914, 
                -0.2609250545501709, 
                0.12250155955553055, 
                -0.13533875346183777, 
                0.2302527129650116, 
                0.12207946926355362, 
                -0.13740526139736176, 
                0.1328466236591339, 
                0.1005275696516037, 
                0.05075809359550476, 
                -0.08828641474246979, 
                0.05531340464949608, 
                -0.057546377182006836, 
                0.2012861967086792
            ]
        }, 
        "Node_22": {
            "bias": 0.4765394926071167, 
            "weights": [
                0.12002652138471603, 
                0.19375096261501312, 
                0.28341278433799744, 
                0.22660616040229797, 
                0.12290633469820023, 
                0.11522985249757767, 
                -0.22968636453151703, 
                -0.07161033153533936, 
                -0.0496504008769989, 
                -0.07041356712579727, 
                -0.015774089843034744, 
                0.09996611624956131, 
                -0.15350070595741272, 
                0.23817133903503418, 
                0.015034854412078857, 
                -0.22714751958847046, 
                0.11624795198440552, 
                -0.08346398919820786, 
                0.21479278802871704, 
                -0.09648594260215759, 
                -0.08021533489227295, 
                -0.1303238421678543, 
                0.12542277574539185, 
                -0.027934085577726364, 
                -0.2253199815750122, 
                0.24534708261489868, 
                0.2131042778491974, 
                -0.19005416333675385, 
                0.3423117399215698, 
                -0.03430093079805374, 
                -0.16839385032653809, 
                -0.43992307782173157, 
                0.07132156938314438, 
                -0.0983768031001091, 
                -0.19137872755527496, 
                0.09534993767738342, 
                0.22022859752178192, 
                -0.22858314216136932, 
                -0.13806110620498657, 
                -0.397052526473999
            ]
        }, 
        "Node_23": {
            "bias": -0.35027119517326355, 
            "weights": [
                -0.1212875172495842, 
                -0.12129541486501694, 
                -0.07101941108703613, 
                -0.3620202839374542, 
                0.23235520720481873, 
                -0.13466693460941315, 
                0.12286266684532166, 
                0.17872704565525055, 
                0.189714714884758, 
                -0.027937864884734154, 
                -0.003798933234065771, 
                -0.015584368258714676, 
                0.2196854203939438, 
                -0.19465862214565277, 
                -0.05263903737068176, 
                -0.16512934863567352, 
                -0.24152205884456635, 
                -0.21896103024482727, 
                0.20179030299186707, 
                0.2807081639766693, 
                0.14175601303577423, 
                0.17568399012088776, 
                -0.07946986705064774, 
                0.05534312129020691, 
                -0.1012868732213974, 
                -0.0038092434406280518, 
                0.0764651745557785, 
                -0.34509825706481934, 
                -0.08331959694623947, 
                -0.31253981590270996, 
                -0.20832638442516327, 
                -0.014865567907691002, 
                0.20554839074611664, 
                -0.3098250925540924, 
                -0.23444043099880219, 
                -0.16805697977542877, 
                0.12516623735427856, 
                -0.122037872672081, 
                0.18391962349414825, 
                -0.11146294325590134
            ]
        }, 
        "Node_20": {
            "bias": -0.02385445311665535, 
            "weights": [
                -0.07773837447166443, 
                0.22717353701591492, 
                -0.15875229239463806, 
                -0.04960400611162186, 
                0.20196901261806488, 
                -0.05525391176342964, 
                -0.18801772594451904, 
                -0.29107728600502014, 
                -0.22478902339935303, 
                0.012773178517818451, 
                0.03974431753158569, 
                -0.31588852405548096, 
                0.08269383758306503, 
                -0.10827363282442093, 
                -0.19879671931266785, 
                -0.2588299512863159, 
                0.00869646668434143, 
                0.13145506381988525, 
                0.26549389958381653, 
                0.15828809142112732, 
                0.1311672329902649, 
                0.0683736577630043, 
                -0.06883659958839417, 
                0.01626885123550892, 
                -0.26577845215797424, 
                0.13893139362335205, 
                0.13166500627994537, 
                0.161058709025383, 
                0.06172521412372589, 
                0.010324938222765923, 
                0.2217143028974533, 
                0.02020673267543316, 
                0.22715625166893005, 
                0.27005240321159363, 
                -0.19739460945129395, 
                0.2972380518913269, 
                -0.32079094648361206, 
                0.2372441589832306, 
                -0.2641155421733856, 
                0.01396872103214264
            ]
        }, 
        "Node_21": {
            "bias": -0.011040679179131985, 
            "weights": [
                -0.14015544950962067, 
                -0.02735978737473488, 
                0.1382775902748108, 
                -0.006014292128384113, 
                -0.2463172972202301, 
                -0.13178907334804535, 
                -0.03008747100830078, 
                0.0975436270236969, 
                -0.1749597042798996, 
                0.28316056728363037, 
                -0.124080590903759, 
                -0.2668033838272095, 
                -0.24043072760105133, 
                0.2849169671535492, 
                -0.2916799783706665, 
                -0.2358091175556183, 
                0.26180869340896606, 
                0.014109522104263306, 
                0.05522040277719498, 
                -0.09467638283967972, 
                -0.30635958909988403, 
                0.075038842856884, 
                -0.30800795555114746, 
                -0.26929134130477905, 
                0.2660120725631714, 
                0.19125521183013916, 
                -0.2747025191783905, 
                -0.04553699493408203, 
                -0.2832183241844177, 
                -0.28401979804039, 
                -0.10715357959270477, 
                0.19579607248306274, 
                0.2684444487094879, 
                -0.01408243179321289, 
                0.248553067445755, 
                -0.09276656806468964, 
                -0.13287211954593658, 
                -0.12403451651334763, 
                0.08896825462579727, 
                0.13303649425506592
            ]
        }, 
        "Node_9": {
            "bias": -0.49435314536094666, 
            "weights": [
                -0.09693767875432968, 
                0.21094782650470734, 
                0.07914165407419205, 
                -0.13878020644187927, 
                -0.04456382989883423, 
                0.19013498723506927, 
                -0.18792736530303955, 
                0.12127649039030075, 
                0.04720144718885422, 
                0.012837053276598454, 
                -0.19068723917007446, 
                -0.1422346979379654, 
                -0.2972477972507477, 
                0.2156994789838791, 
                0.04975177347660065, 
                0.1562059223651886, 
                0.24884939193725586, 
                -0.1782553791999817, 
                0.0502006895840168, 
                0.09464559704065323, 
                0.22076599299907684, 
                0.06774741411209106, 
                0.034508418291807175, 
                -0.19200095534324646, 
                -0.23446249961853027, 
                -0.06955152750015259, 
                0.17132852971553802, 
                0.015818575397133827, 
                -0.19216038286685944, 
                -0.05602559819817543, 
                0.14802753925323486, 
                0.007327567785978317, 
                -0.15024350583553314, 
                -0.11086206138134003, 
                0.11089855432510376, 
                -0.0462825782597065, 
                0.008284242823719978, 
                -0.14257335662841797, 
                0.07174773514270782, 
                -0.034255266189575195
            ]
        }, 
        "Node_8": {
            "bias": 0.009922566823661327, 
            "weights": [
                -0.10849136859178543, 
                0.22508025169372559, 
                -0.23261387646198273, 
                -0.31542888283729553, 
                -0.14298278093338013, 
                0.16613011062145233, 
                -0.0960494875907898, 
                0.26736143231391907, 
                0.14742177724838257, 
                -0.0009512152755632997, 
                -0.11494651436805725, 
                -0.1832943856716156, 
                -0.28468701243400574, 
                -0.3125975728034973, 
                0.038455527275800705, 
                -0.3080796003341675, 
                0.26651960611343384, 
                0.06037537381052971, 
                0.0047446503303945065, 
                0.20399513840675354, 
                0.07865571975708008, 
                -0.23943912982940674, 
                -0.057774629443883896, 
                0.1810164898633957, 
                -0.12512603402137756, 
                0.09606868028640747, 
                -0.27447134256362915, 
                -0.2416374534368515, 
                -0.1692603975534439, 
                0.028349528089165688, 
                -0.12807077169418335, 
                -0.1656785011291504, 
                0.205882266163826, 
                0.06154217943549156, 
                0.1826018989086151, 
                0.27624332904815674, 
                0.1636907160282135, 
                0.05255700647830963, 
                -0.1905379444360733, 
                -0.20028746128082275
            ]
        }, 
        "Node_7": {
            "bias": -0.04048765450716019, 
            "weights": [
                0.035884156823158264, 
                0.2326785922050476, 
                -0.17563185095787048, 
                -0.22495496273040771, 
                -0.2980427145957947, 
                0.18272849917411804, 
                -0.2732860743999481, 
                0.12440937757492065, 
                -0.08578533679246902, 
                0.16629758477210999, 
                0.07335319370031357, 
                0.032319940626621246, 
                0.10103461146354675, 
                -0.1474733203649521, 
                -0.3461810052394867, 
                0.1173020675778389, 
                0.2991650104522705, 
                -0.2031889408826828, 
                0.23740461468696594, 
                -0.19104059040546417, 
                -0.29023608565330505, 
                -0.22454939782619476, 
                -0.24508850276470184, 
                0.1806037276983261, 
                0.08764969557523727, 
                -0.09299127757549286, 
                -0.18249495327472687, 
                -0.1756848692893982, 
                0.07916635274887085, 
                0.03667554631829262, 
                -0.10821062326431274, 
                -0.0507056824862957, 
                -0.1833493858575821, 
                0.2367488592863083, 
                -0.17466546595096588, 
                -0.15138092637062073, 
                -0.05422211438417435, 
                0.16419930756092072, 
                -0.043841246515512466, 
                0.27045151591300964
            ]
        }, 
        "Node_6": {
            "bias": -0.015710027888417244, 
            "weights": [
                0.09059273451566696, 
                -0.12069285660982132, 
                0.13514815270900726, 
                0.2191295325756073, 
                0.24669449031352997, 
                -0.31486743688583374, 
                0.3036658763885498, 
                0.04991958290338516, 
                -0.1841544359922409, 
                0.0013819135492667556, 
                0.034262776374816895, 
                0.0487629733979702, 
                -0.15925373136997223, 
                0.032453715801239014, 
                -0.26065489649772644, 
                0.11978547275066376, 
                0.28176265954971313, 
                0.15033388137817383, 
                0.2739022672176361, 
                -0.04213270917534828, 
                0.10099370032548904, 
                -0.209720641374588, 
                -0.26665645837783813, 
                -0.24437054991722107, 
                0.004571574740111828, 
                0.07481652498245239, 
                -0.09102369099855423, 
                -0.19632214307785034, 
                0.12057575583457947, 
                0.19661158323287964, 
                -0.004542628303170204, 
                -0.2695304751396179, 
                0.12310671806335449, 
                -0.08695024251937866, 
                -0.0019534537568688393, 
                0.0805525928735733, 
                -0.17257778346538544, 
                -0.005450368393212557, 
                0.10362104326486588, 
                0.25229376554489136
            ]
        }, 
        "Node_5": {
            "bias": 0.0, 
            "weights": [
                -0.14898821711540222, 
                0.1432826817035675, 
                -0.2518555223941803, 
                0.005403578281402588, 
                -0.22037777304649353, 
                0.1425657570362091, 
                0.288080632686615, 
                -0.24074873328208923, 
                -0.052807122468948364, 
                -0.2896154224872589, 
                -0.15904781222343445, 
                -0.15329168736934662, 
                0.12042632699012756, 
                -0.2464543581008911, 
                0.015328139066696167, 
                0.2772311568260193, 
                0.09081172943115234, 
                -0.04438266158103943, 
                0.08097842335700989, 
                0.023159116506576538, 
                0.22737723588943481, 
                -0.023674219846725464, 
                -0.0918172150850296, 
                0.1683555543422699, 
                0.131342351436615, 
                0.16786402463912964, 
                -0.18683919310569763, 
                -0.021684318780899048, 
                -0.25499391555786133, 
                0.26433151960372925, 
                -0.29916244745254517, 
                -0.3017693758010864, 
                0.17115989327430725, 
                -0.2444685697555542, 
                0.18935179710388184, 
                0.024578601121902466, 
                0.10966339707374573, 
                -0.1722487509250641, 
                -0.023931294679641724, 
                -0.023626059293746948
            ]
        }, 
        "Node_4": {
            "bias": -0.01048294361680746, 
            "weights": [
                -0.058770764619112015, 
                0.2517257630825043, 
                0.13747943937778473, 
                0.24548861384391785, 
                -0.0334014855325222, 
                0.00573508907109499, 
                -0.05445404350757599, 
                0.001806063810363412, 
                -0.0013383221812546253, 
                -0.18254658579826355, 
                0.011701934970915318, 
                -0.24342702329158783, 
                0.16732637584209442, 
                -0.17785373330116272, 
                -0.07948271930217743, 
                -0.12924537062644958, 
                0.16760170459747314, 
                -0.04244541749358177, 
                -0.055252328515052795, 
                -0.07077111303806305, 
                -0.30911022424697876, 
                -0.22831782698631287, 
                0.2683066129684448, 
                -0.1815645396709442, 
                0.22061985731124878, 
                0.028778910636901855, 
                -0.28738534450531006, 
                -0.2396801859140396, 
                -0.23156313598155975, 
                -0.2172255963087082, 
                -0.19500435888767242, 
                0.27521294355392456, 
                -0.06533919274806976, 
                0.1274837851524353, 
                -0.21094679832458496, 
                -0.14176641404628754, 
                0.010718302801251411, 
                0.07214102894067764, 
                -0.2961817681789398, 
                0.05723598226904869
            ]
        }, 
        "Node_3": {
            "bias": -0.0037456536665558815, 
            "weights": [
                -0.2597406208515167, 
                -0.10973434895277023, 
                -0.1422179788351059, 
                0.098638616502285, 
                0.10222003608942032, 
                0.14565418660640717, 
                0.13618165254592896, 
                0.026569005101919174, 
                -0.17593322694301605, 
                0.11437024921178818, 
                -0.2648846507072449, 
                0.03893869370222092, 
                -0.24690388143062592, 
                -0.17211972177028656, 
                0.14849106967449188, 
                0.2547190189361572, 
                -0.15069809556007385, 
                -0.18672743439674377, 
                -0.06069054454565048, 
                0.2193434238433838, 
                -0.16085150837898254, 
                -0.02585233375430107, 
                0.14927485585212708, 
                -0.2882791757583618, 
                0.13608193397521973, 
                -0.24849757552146912, 
                0.21910493075847626, 
                -0.044256117194890976, 
                0.0978681668639183, 
                -0.11616552621126175, 
                0.11672069877386093, 
                0.04601435363292694, 
                0.020846378058195114, 
                -0.06945855170488358, 
                -0.05597133934497833, 
                0.05941348895430565, 
                -0.027512535452842712, 
                0.262348473072052, 
                0.10425915569067001, 
                -0.11449933052062988
            ]
        }, 
        "Node_2": {
            "bias": 0.3524094223976135, 
            "weights": [
                -0.15466001629829407, 
                0.057687509804964066, 
                0.07562368363142014, 
                -0.006519755814224482, 
                0.24185417592525482, 
                0.18670369684696198, 
                -0.12063878774642944, 
                0.24079930782318115, 
                -0.2740096151828766, 
                0.02211589924991131, 
                -0.1351124346256256, 
                0.07442440092563629, 
                -0.09309609234333038, 
                -0.0016648538876324892, 
                -0.3272465467453003, 
                0.048967380076646805, 
                0.2474537491798401, 
                -0.047384873032569885, 
                -0.2791171669960022, 
                -0.07429815083742142, 
                -0.24377582967281342, 
                -0.18232479691505432, 
                -0.04188285395503044, 
                0.11361941695213318, 
                0.14927564561367035, 
                -0.02810552716255188, 
                0.08890797942876816, 
                -0.004607554525136948, 
                0.02712501399219036, 
                0.19167068600654602, 
                0.16554933786392212, 
                0.34735411405563354, 
                0.07852223515510559, 
                0.2800668776035309, 
                -0.21308064460754395, 
                0.16294065117835999, 
                -0.11826348304748535, 
                -0.10216992348432541, 
                -0.13961981236934662, 
                0.11051234602928162
            ]
        }, 
        "Node_1": {
            "bias": 0.0, 
            "weights": [
                -0.25740382075309753, 
                -0.1510702669620514, 
                -0.015568464994430542, 
                -0.30339688062667847, 
                0.08079993724822998, 
                -0.09943698346614838, 
                0.2586228847503662, 
                -0.24000978469848633, 
                -0.30149006843566895, 
                0.22660291194915771, 
                -0.21116924285888672, 
                -0.2569767236709595, 
                -0.27560102939605713, 
                -0.16097599267959595, 
                0.25970780849456787, 
                -0.2802453637123108, 
                0.15656620264053345, 
                0.25278592109680176, 
                -0.09977816045284271, 
                -0.23496630787849426, 
                -0.06360816955566406, 
                0.135761559009552, 
                -0.07377590239048004, 
                0.11458495259284973, 
                0.03568524122238159, 
                -0.24391485750675201, 
                0.11502864956855774, 
                0.016420036554336548, 
                0.14062431454658508, 
                -0.1448959857225418, 
                0.22867953777313232, 
                0.03249505162239075, 
                -0.22828532755374908, 
                0.183113694190979, 
                -0.3004319667816162, 
                0.21334189176559448, 
                -0.0795535296201706, 
                0.30032825469970703, 
                0.020159155130386353, 
                0.10747015476226807
            ]
        }, 
        "Node_0": {
            "bias": -0.20255590975284576, 
            "weights": [
                -0.007824063301086426, 
                0.0012487884378060699, 
                -0.010751206427812576, 
                0.03897972032427788, 
                -0.19661922752857208, 
                0.21318484842777252, 
                -0.2242647409439087, 
                -0.24288249015808105, 
                0.11650479584932327, 
                0.2763917148113251, 
                -0.1327751874923706, 
                -0.2893311679363251, 
                -0.13702023029327393, 
                0.150340735912323, 
                -0.11407183855772018, 
                0.20485791563987732, 
                -0.08350177109241486, 
                -0.03335871174931526, 
                -0.2952185571193695, 
                0.03197498247027397, 
                0.2524770498275757, 
                0.2358812540769577, 
                -0.12030268460512161, 
                -0.207114577293396, 
                -0.12452056258916855, 
                -0.1608729213476181, 
                0.010636882856488228, 
                0.1916789710521698, 
                -0.27405089139938354, 
                0.22517536580562592, 
                0.05052340403199196, 
                -0.2011987566947937, 
                -0.07040859758853912, 
                0.10233262926340103, 
                -0.029707983136177063, 
                -0.08653639256954193, 
                0.2079477161169052, 
                -0.16028061509132385, 
                -0.04536857828497887, 
                -0.27873700857162476
            ]
        }
    }, 
    "Layer_0": {
        "Node_39": {
            "bias": -0.004635645542293787, 
            "weights": [
                0.17283782362937927, 
                -0.2789080739021301, 
                -0.30305376648902893, 
                0.060258474200963974, 
                0.2095033973455429, 
                0.03324476629495621, 
                -0.26973384618759155, 
                -0.15982727706432343, 
                -0.17697280645370483, 
                -0.25316035747528076, 
                -0.0337676964700222, 
                0.09003175795078278, 
                0.10151438415050507, 
                -0.2575528919696808
            ]
        }, 
        "Node_38": {
            "bias": -1.0100820064544678, 
            "weights": [
                0.316459983587265, 
                -0.512534499168396, 
                -0.9869322776794434, 
                -0.1486446112394333, 
                -0.8079469203948975, 
                0.21026092767715454, 
                0.17250894010066986, 
                0.1781195104122162, 
                0.1569223701953888, 
                -0.5893492698669434, 
                -1.2057703733444214, 
                0.0029087380971759558, 
                -1.0441097021102905, 
                -0.1557200849056244
            ]
        }, 
        "Node_19": {
            "bias": -0.45831355452537537, 
            "weights": [
                -0.13171163201332092, 
                -0.08376359194517136, 
                -0.4308747351169586, 
                -0.002758168848231435, 
                -0.41151511669158936, 
                0.19140303134918213, 
                0.12007938325405121, 
                -0.06280217319726944, 
                -0.2971802353858948, 
                -0.10000497102737427, 
                0.0411863811314106, 
                0.23899130523204803, 
                -0.2409263253211975, 
                0.14667436480522156
            ]
        }, 
        "Node_18": {
            "bias": -0.10027635842561722, 
            "weights": [
                0.017526734620332718, 
                -0.11198963224887848, 
                0.16921266913414001, 
                0.1266149878501892, 
                -0.2789130210876465, 
                0.15275347232818604, 
                0.2019873708486557, 
                0.11149314790964127, 
                -0.3918682336807251, 
                0.17900018393993378, 
                0.2512475550174713, 
                -0.3534456789493561, 
                -0.11472734063863754, 
                -0.24170789122581482
            ]
        }, 
        "Node_17": {
            "bias": -0.01071282010525465, 
            "weights": [
                -0.28144705295562744, 
                -0.2994449734687805, 
                0.3216334283351898, 
                -0.1324763149023056, 
                0.09395682066679001, 
                -0.009871583431959152, 
                0.14983557164669037, 
                0.03620878979563713, 
                -0.032029345631599426, 
                -0.18715646862983704, 
                -0.28582310676574707, 
                0.12198640406131744, 
                -0.08053071051836014, 
                0.06709376722574234
            ]
        }, 
        "Node_16": {
            "bias": 0.0, 
            "weights": [
                -0.11452755331993103, 
                -0.1681005209684372, 
                -0.03159904479980469, 
                -0.06106829643249512, 
                -0.29263657331466675, 
                -0.05855441093444824, 
                0.0532439649105072, 
                0.15290680527687073, 
                -0.2945510745048523, 
                -0.11006078124046326, 
                -0.22289030253887177, 
                -0.2922453284263611, 
                0.27421292662620544, 
                -0.24200105667114258
            ]
        }, 
        "Node_15": {
            "bias": -0.03152856230735779, 
            "weights": [
                -0.37141871452331543, 
                0.07768978923559189, 
                -0.12644746899604797, 
                -0.34779006242752075, 
                -0.10535817593336105, 
                0.08921043574810028, 
                0.3019118309020996, 
                -0.15641026198863983, 
                -0.03606733679771423, 
                0.27311021089553833, 
                0.17329582571983337, 
                -0.12424100935459137, 
                -0.2797604501247406, 
                0.064816914498806
            ]
        }, 
        "Node_14": {
            "bias": 0.10396511107683182, 
            "weights": [
                -0.19226062297821045, 
                0.09225113689899445, 
                0.22204329073429108, 
                0.2648105323314667, 
                0.1594306379556656, 
                -0.028585029765963554, 
                -0.5540233850479126, 
                0.24648483097553253, 
                -0.0006271636229939759, 
                -0.7654469609260559, 
                -0.23888598382472992, 
                -0.06985583901405334, 
                0.3890601694583893, 
                -0.11354681104421616
            ]
        }, 
        "Node_13": {
            "bias": 0.35209921002388, 
            "weights": [
                0.10712624341249466, 
                0.16148529946804047, 
                0.1536845564842224, 
                -0.017893580719828606, 
                0.11539871990680695, 
                0.244378000497818, 
                -0.02630813978612423, 
                -0.10487184673547745, 
                0.22804749011993408, 
                -0.2235678881406784, 
                0.014828747138381004, 
                -0.1637105643749237, 
                -0.07826428860425949, 
                0.11098083108663559
            ]
        }, 
        "Node_12": {
            "bias": 0.1741897463798523, 
            "weights": [
                0.0881621316075325, 
                0.12869645655155182, 
                0.2788639962673187, 
                -0.3040597438812256, 
                0.08783092349767685, 
                0.24137182533740997, 
                0.1414187252521515, 
                0.15815334022045135, 
                0.026242975145578384, 
                -0.6991012096405029, 
                0.18549729883670807, 
                -0.1055385172367096, 
                -0.09364491701126099, 
                0.13744476437568665
            ]
        }, 
        "Node_11": {
            "bias": 0.694878876209259, 
            "weights": [
                0.17557919025421143, 
                0.5963549017906189, 
                0.9197756052017212, 
                0.039859265089035034, 
                0.3726437985897064, 
                -0.041201841086149216, 
                0.16427844762802124, 
                0.1858760416507721, 
                0.0881766527891159, 
                -0.38115638494491577, 
                0.1807021200656891, 
                0.1239350438117981, 
                0.744050145149231, 
                0.11765612661838531
            ]
        }, 
        "Node_10": {
            "bias": 0.13690808415412903, 
            "weights": [
                -0.3604014217853546, 
                0.1667795181274414, 
                0.03788727894425392, 
                0.14003624022006989, 
                0.1683100461959839, 
                0.2933126986026764, 
                -0.17796000838279724, 
                -0.08046039938926697, 
                -0.19415616989135742, 
                -0.314512699842453, 
                0.1649676412343979, 
                0.18313637375831604, 
                -0.04476415738463402, 
                0.21386153995990753
            ]
        }, 
        "Node_31": {
            "bias": 0.30969104170799255, 
            "weights": [
                -0.11977200210094452, 
                -0.08727376163005829, 
                -0.13430309295654297, 
                0.2748488485813141, 
                -0.0017387669067829847, 
                0.26822730898857117, 
                0.548620343208313, 
                -0.0924670398235321, 
                0.012966995127499104, 
                1.0044598579406738, 
                -0.4737156629562378, 
                0.09845161437988281, 
                -0.0316956453025341, 
                -0.037856344133615494
            ]
        }, 
        "Node_26": {
            "bias": 0.14557398855686188, 
            "weights": [
                0.25029563903808594, 
                0.2638031244277954, 
                -0.16992178559303284, 
                -0.2498711198568344, 
                -0.2089495211839676, 
                0.20145876705646515, 
                0.1584857553243637, 
                -0.20996896922588348, 
                0.1553480327129364, 
                0.8738551735877991, 
                -0.006782824639230967, 
                0.1670723408460617, 
                0.4113709330558777, 
                -0.2708902955055237
            ]
        }, 
        "Node_27": {
            "bias": -0.03447661176323891, 
            "weights": [
                -0.03596654534339905, 
                -0.33640992641448975, 
                -0.44335901737213135, 
                -0.28550446033477783, 
                -0.10636952519416809, 
                0.013844834640622139, 
                0.00791820976883173, 
                -0.07733891159296036, 
                0.26932939887046814, 
                1.035333514213562, 
                -0.37158384919166565, 
                -0.1575137823820114, 
                -0.1402152180671692, 
                0.046718135476112366
            ]
        }, 
        "Node_24": {
            "bias": -0.03599799424409866, 
            "weights": [
                -0.3632083237171173, 
                0.21141837537288666, 
                0.12649549543857574, 
                -0.20014500617980957, 
                -0.2327582687139511, 
                -0.12305047363042831, 
                -0.42568886280059814, 
                0.13986459374427795, 
                0.1519240140914917, 
                -0.30537447333335876, 
                0.3442869484424591, 
                -0.30380719900131226, 
                -0.24511869251728058, 
                -0.2760482132434845
            ]
        }, 
        "Node_25": {
            "bias": 0.0, 
            "weights": [
                -0.050699859857559204, 
                -0.33310040831565857, 
                0.25333479046821594, 
                -0.2822387218475342, 
                0.16857436299324036, 
                -0.1297813355922699, 
                -0.0964713990688324, 
                -0.33120793104171753, 
                -0.2986838221549988, 
                0.1417078971862793, 
                0.32635578513145447, 
                0.27810099720954895, 
                0.01571059226989746, 
                -0.2851219177246094
            ]
        }, 
        "Node_22": {
            "bias": -0.16952824592590332, 
            "weights": [
                0.1323109269142151, 
                0.15483373403549194, 
                0.20143811404705048, 
                0.1837518811225891, 
                0.17450307309627533, 
                -0.032446619123220444, 
                0.10991004854440689, 
                -0.0755450502038002, 
                -0.07735609263181686, 
                0.018609818071126938, 
                -0.30904561281204224, 
                0.05946536362171173, 
                -0.19715999066829681, 
                0.11108139902353287
            ]
        }, 
        "Node_23": {
            "bias": -0.06006750091910362, 
            "weights": [
                0.1686253845691681, 
                -0.3546932637691498, 
                0.014629684388637543, 
                -0.23686398565769196, 
                0.10745606571435928, 
                0.17826801538467407, 
                0.09314925968647003, 
                0.10961086302995682, 
                -0.22654519975185394, 
                -0.14272435009479523, 
                0.01322868186980486, 
                -0.06332651525735855, 
                -0.07853914797306061, 
                0.2056836485862732
            ]
        }, 
        "Node_20": {
            "bias": -0.36088287830352783, 
            "weights": [
                0.21889559924602509, 
                -0.20191740989685059, 
                -0.6235209107398987, 
                -0.1853492558002472, 
                -0.0451984666287899, 
                0.26290109753608704, 
                -0.30349966883659363, 
                -0.04267805814743042, 
                0.10340304672718048, 
                0.07610443979501724, 
                0.0696067288517952, 
                0.030326327309012413, 
                -0.17457236349582672, 
                0.17446240782737732
            ]
        }, 
        "Node_21": {
            "bias": -0.49399131536483765, 
            "weights": [
                0.2890359163284302, 
                -0.6454083919525146, 
                -0.6269325613975525, 
                -0.008899994194507599, 
                -0.7019466757774353, 
                -0.04746396839618683, 
                0.16447418928146362, 
                0.27662450075149536, 
                0.04309757798910141, 
                1.0697485208511353, 
                -0.5096625089645386, 
                0.023891689255833626, 
                -0.7534763813018799, 
                -0.1220693364739418
            ]
        }, 
        "Node_30": {
            "bias": 0.19374839961528778, 
            "weights": [
                0.06435175240039825, 
                0.26981523633003235, 
                -0.17076848447322845, 
                -0.033285148441791534, 
                0.017200108617544174, 
                0.1850419044494629, 
                0.030366206541657448, 
                0.17985288798809052, 
                0.1871964931488037, 
                1.0879100561141968, 
                -0.17362149059772491, 
                0.19754251837730408, 
                -0.11458554118871689, 
                0.0782385915517807
            ]
        }, 
        "Node_33": {
            "bias": -0.8144137263298035, 
            "weights": [
                0.36718520522117615, 
                -0.7488226294517517, 
                0.3422756493091583, 
                -0.13069485127925873, 
                -0.4937053918838501, 
                -0.00019462808268144727, 
                -0.04144322872161865, 
                0.21334205567836761, 
                -0.013347471132874489, 
                -0.7331151962280273, 
                -1.518773078918457, 
                -0.18045476078987122, 
                -1.1658679246902466, 
                -0.2513670027256012
            ]
        }, 
        "Node_28": {
            "bias": 0.6505604386329651, 
            "weights": [
                0.08547260612249374, 
                0.4462064206600189, 
                0.8427358865737915, 
                0.1991228610277176, 
                0.5191403031349182, 
                -0.18445096909999847, 
                0.22111564874649048, 
                0.0018733760807663202, 
                0.07775663584470749, 
                -1.1263726949691772, 
                0.9279129505157471, 
                0.22820228338241577, 
                0.6959896087646484, 
                -0.11430705338716507
            ]
        }, 
        "Node_29": {
            "bias": 0.17122074961662292, 
            "weights": [
                -0.09216801077127457, 
                0.2536934018135071, 
                0.5005976557731628, 
                0.1286797672510147, 
                0.3682267367839813, 
                -0.05107720196247101, 
                0.210423082113266, 
                0.20868168771266937, 
                0.021393200382590294, 
                0.3761059045791626, 
                0.005688067991286516, 
                -0.2771186828613281, 
                0.07798648625612259, 
                0.1394473910331726
            ]
        }, 
        "Node_32": {
            "bias": -0.04833725094795227, 
            "weights": [
                0.008121941238641739, 
                -0.26594671607017517, 
                -0.48163041472435, 
                0.2578975260257721, 
                -0.3331655263900757, 
                0.006744059734046459, 
                0.008648932911455631, 
                0.16763728857040405, 
                -0.2587124705314636, 
                0.4367557168006897, 
                0.32449862360954285, 
                0.06684504449367523, 
                -0.2989614009857178, 
                -0.03078029863536358
            ]
        }, 
        "Node_35": {
            "bias": -0.10581125319004059, 
            "weights": [
                -0.25914251804351807, 
                0.1998136043548584, 
                0.015301257371902466, 
                0.22370527684688568, 
                0.16473440825939178, 
                -0.28242385387420654, 
                -0.01837553270161152, 
                -0.28533801436424255, 
                0.08588002622127533, 
                -0.31722578406333923, 
                0.1459653675556183, 
                -0.16884352266788483, 
                0.13272327184677124, 
                -0.31689348816871643
            ]
        }, 
        "Node_34": {
            "bias": -0.5082378387451172, 
            "weights": [
                -0.17062358558177948, 
                0.1003636047244072, 
                -0.6776880621910095, 
                0.2543734014034271, 
                -0.5148080587387085, 
                0.08356226235628128, 
                0.32291150093078613, 
                -0.1315169334411621, 
                0.05922683700919151, 
                -1.0939445495605469, 
                -0.28293055295944214, 
                0.1623743176460266, 
                -0.1079092025756836, 
                -0.28382405638694763
            ]
        }, 
        "Node_37": {
            "bias": -0.38605090975761414, 
            "weights": [
                0.2686314582824707, 
                -0.34596407413482666, 
                -0.3037644624710083, 
                0.23334573209285736, 
                -0.37775900959968567, 
                -0.15606385469436646, 
                -0.09120046347379684, 
                -0.21298937499523163, 
                -0.009393495507538319, 
                0.5389416217803955, 
                -0.6899445652961731, 
                0.2217879295349121, 
                -0.07250738143920898, 
                0.008137710392475128
            ]
        }, 
        "Node_36": {
            "bias": -0.21783216297626495, 
            "weights": [
                0.2436649054288864, 
                -0.12926769256591797, 
                0.11508902162313461, 
                0.12604345381259918, 
                -0.3981834352016449, 
                0.32858923077583313, 
                0.09165623039007187, 
                -0.04183477908372879, 
                0.09872046858072281, 
                -0.37504690885543823, 
                -0.2873518168926239, 
                0.08487571775913239, 
                0.11169803142547607, 
                -0.011270532384514809
            ]
        }, 
        "Node_9": {
            "bias": -0.2299099713563919, 
            "weights": [
                0.12858447432518005, 
                -0.06432386487722397, 
                -0.5222335457801819, 
                -0.27162986993789673, 
                -0.22964543104171753, 
                -0.03862594813108444, 
                -0.020496400073170662, 
                0.2690050005912781, 
                -0.3285742402076721, 
                -0.057925596833229065, 
                -0.11481828987598419, 
                0.10903699696063995, 
                0.03706986457109451, 
                0.08788011223077774
            ]
        }, 
        "Node_8": {
            "bias": -0.11359346657991409, 
            "weights": [
                0.15043851733207703, 
                -0.28705859184265137, 
                -0.2329399436712265, 
                0.25214579701423645, 
                0.10586520284414291, 
                -0.12017593532800674, 
                0.27578046917915344, 
                0.04628114402294159, 
                0.24370412528514862, 
                -0.5073725581169128, 
                0.0036789956502616405, 
                0.04012015089392662, 
                -0.2455294132232666, 
                -0.20835186541080475
            ]
        }, 
        "Node_7": {
            "bias": -0.24597576260566711, 
            "weights": [
                0.08400780707597733, 
                0.15287989377975464, 
                -0.11546442657709122, 
                -0.08689883351325989, 
                -0.08387933671474457, 
                -0.1334860771894455, 
                -0.18839751183986664, 
                0.07592649012804031, 
                0.07676288485527039, 
                0.5169135332107544, 
                0.23159253597259521, 
                0.19623419642448425, 
                -0.22431625425815582, 
                0.15092536807060242
            ]
        }, 
        "Node_6": {
            "bias": -0.012355908751487732, 
            "weights": [
                -0.27953648567199707, 
                -0.23830488324165344, 
                0.05150161683559418, 
                -0.26903942227363586, 
                0.05767606198787689, 
                0.14405030012130737, 
                -0.1771242618560791, 
                -0.28221309185028076, 
                0.024319052696228027, 
                0.15888458490371704, 
                -0.2948615252971649, 
                -0.33063948154449463, 
                0.07543659210205078, 
                -0.14154808223247528
            ]
        }, 
        "Node_5": {
            "bias": -0.2965494692325592, 
            "weights": [
                -0.05946601554751396, 
                -0.32413172721862793, 
                -0.49147963523864746, 
                0.03172106295824051, 
                -0.3646116554737091, 
                0.23938924074172974, 
                0.318603515625, 
                -0.16705825924873352, 
                0.2519654929637909, 
                0.5500474572181702, 
                -0.2930397689342499, 
                0.2317175567150116, 
                -0.4438321590423584, 
                -0.2697027027606964
            ]
        }, 
        "Node_4": {
            "bias": -0.04851863533258438, 
            "weights": [
                -0.13485850393772125, 
                -0.08653071522712708, 
                -0.31133919954299927, 
                0.1186724528670311, 
                0.10583556443452835, 
                -0.021830668672919273, 
                0.0942133367061615, 
                -0.005653133615851402, 
                -0.0012447055196389556, 
                -0.3046519160270691, 
                -0.3752173185348511, 
                -0.17752143740653992, 
                0.13958226144313812, 
                -0.3297346234321594
            ]
        }, 
        "Node_3": {
            "bias": -0.01851336658000946, 
            "weights": [
                0.008373033255338669, 
                0.300447940826416, 
                -0.007598028518259525, 
                -0.043389372527599335, 
                0.1947019398212433, 
                0.34727850556373596, 
                0.09378497302532196, 
                -0.22382785379886627, 
                0.24333719909191132, 
                -0.844089150428772, 
                0.36351701617240906, 
                0.012992681935429573, 
                0.33597832918167114, 
                -0.23851177096366882
            ]
        }, 
        "Node_2": {
            "bias": 0.25487303733825684, 
            "weights": [
                -0.0971762090921402, 
                0.26248130202293396, 
                0.21888810396194458, 
                0.09400102496147156, 
                0.2342720478773117, 
                0.2604484260082245, 
                -0.045990876853466034, 
                -0.055838458240032196, 
                0.2919195592403412, 
                -0.9566716551780701, 
                0.1536474972963333, 
                -0.05754059925675392, 
                -0.03147701546549797, 
                -0.11396437138319016
            ]
        }, 
        "Node_1": {
            "bias": -0.09133981913328171, 
            "weights": [
                0.03456210717558861, 
                0.09203512221574783, 
                -0.1811462640762329, 
                -0.019677719101309776, 
                -0.4308505952358246, 
                -0.023731794208288193, 
                0.03832152485847473, 
                0.3328140079975128, 
                0.2598738372325897, 
                0.7457686066627502, 
                -0.11367155611515045, 
                -0.05251685902476311, 
                0.11236517876386642, 
                -0.09275543689727783
            ]
        }, 
        "Node_0": {
            "bias": -0.0035681254230439663, 
            "weights": [
                0.21051840484142303, 
                0.3805246353149414, 
                -0.07649273425340652, 
                0.16865414381027222, 
                -0.03342614695429802, 
                -0.23188816010951996, 
                0.11711278557777405, 
                0.14351843297481537, 
                0.08316449820995331, 
                -0.6677000522613525, 
                -0.09453770518302917, 
                0.2866542935371399, 
                0.26499614119529724, 
                0.06772571057081223
            ]
        }
    }, 
    "Layer_3": {
        "Node_3": {
            "bias": 0.3865903913974762, 
            "weights": [
                -0.2640703320503235, 
                0.17713668942451477, 
                -0.13631345331668854, 
                0.11007403582334518, 
                -0.34375861287117004, 
                0.3901398777961731, 
                -0.06476350128650665, 
                -0.03214501217007637, 
                0.024903932586312294, 
                0.4987568259239197, 
                0.45629242062568665, 
                0.32913053035736084, 
                -0.15831363201141357, 
                -0.11261235922574997, 
                0.4053654670715332, 
                -0.08348637819290161, 
                0.19474400579929352, 
                0.4054962396621704, 
                0.4458235502243042, 
                0.24364665150642395
            ]
        }, 
        "Node_2": {
            "bias": 0.7082183361053467, 
            "weights": [
                0.029264481738209724, 
                0.3806231915950775, 
                0.17149461805820465, 
                0.42170286178588867, 
                -0.027763672173023224, 
                -0.00791125651448965, 
                -0.16383875906467438, 
                -0.05529911071062088, 
                -0.31097477674484253, 
                0.25865060091018677, 
                0.2473667860031128, 
                -0.43921977281570435, 
                0.22737698256969452, 
                0.05391062796115875, 
                0.14610964059829712, 
                0.3459005653858185, 
                -0.07729805260896683, 
                -0.1173296570777893, 
                0.46700525283813477, 
                0.16768395900726318
            ]
        }, 
        "Node_1": {
            "bias": 0.3270359933376312, 
            "weights": [
                -0.22942695021629333, 
                -0.19518984854221344, 
                0.23613236844539642, 
                -0.12468551099300385, 
                0.13421393930912018, 
                -0.18199700117111206, 
                -0.4345731735229492, 
                0.2507413625717163, 
                0.3533254861831665, 
                -0.2777496874332428, 
                0.3578604757785797, 
                0.29743146896362305, 
                0.38844552636146545, 
                0.3643238842487335, 
                0.11619950085878372, 
                0.4092240035533905, 
                0.47985565662384033, 
                -0.3363257944583893, 
                0.06793321669101715, 
                -0.4168936312198639
            ]
        }, 
        "Node_0": {
            "bias": -0.9278239607810974, 
            "weights": [
                -0.197303906083107, 
                -0.15570968389511108, 
                -0.12666790187358856, 
                0.14271287620067596, 
                -0.044368330389261246, 
                -0.12617608904838562, 
                -0.39016231894493103, 
                -0.0010746406624093652, 
                0.12654121220111847, 
                0.022633453831076622, 
                0.39928528666496277, 
                0.263823002576828, 
                0.26949211955070496, 
                0.27133598923683167, 
                -0.11260513216257095, 
                0.28342971205711365, 
                0.17236660420894623, 
                0.29476600885391235, 
                0.4122558534145355, 
                0.1761031448841095
            ]
        }
    }, 
    "Layer_2": {
        "Node_12": {
            "bias": -0.2767445743083954, 
            "weights": [
                -0.06874869763851166, 
                -0.2452983558177948, 
                0.25779634714126587, 
                -0.10434715449810028, 
                -0.24568389356136322, 
                0.22662758827209473, 
                -0.13812725245952606, 
                0.1403886377811432, 
                0.02504536882042885, 
                -0.12171713262796402, 
                -0.2307504266500473, 
                -0.047133177518844604, 
                0.316087543964386, 
                0.09457030892372131, 
                0.06489625573158264, 
                0.10016515105962753, 
                0.08659110218286514, 
                0.08206058293581009, 
                -0.1310541182756424, 
                0.3413519561290741, 
                0.22618889808654785, 
                -0.12897133827209473, 
                -0.1867704838514328, 
                -0.1704922914505005, 
                0.2556140422821045
            ]
        }, 
        "Node_14": {
            "bias": 0.10343833267688751, 
            "weights": [
                0.0336078517138958, 
                0.05999907851219177, 
                -0.2571026682853699, 
                -0.15297339856624603, 
                -0.20005519688129425, 
                -0.1303633153438568, 
                -0.027947191148996353, 
                -0.027243666350841522, 
                -0.18392036855220795, 
                -0.32291245460510254, 
                0.09739118069410324, 
                0.28134769201278687, 
                -0.2981932461261749, 
                0.2447195053100586, 
                0.2396996021270752, 
                -0.34760579466819763, 
                0.14775089919567108, 
                0.11238732188940048, 
                0.0008861375972628593, 
                -0.03666795790195465, 
                0.11620446294546127, 
                -0.11253231763839722, 
                0.08885423839092255, 
                -0.11506441980600357, 
                0.34540286660194397
            ]
        }, 
        "Node_19": {
            "bias": 0.4361867308616638, 
            "weights": [
                -0.04291035607457161, 
                -0.11363029479980469, 
                0.07747519761323929, 
                0.2695912718772888, 
                -0.2695520222187042, 
                -0.2457703948020935, 
                0.2777986526489258, 
                -0.11039715260267258, 
                -0.01267528161406517, 
                -0.011049116030335426, 
                0.0331106074154377, 
                0.22758084535598755, 
                0.1325591802597046, 
                -0.15596511960029602, 
                -0.04616263881325722, 
                -0.10757951438426971, 
                0.15829356014728546, 
                0.15059474110603333, 
                -0.095784030854702, 
                0.2260202020406723, 
                -0.23952160775661469, 
                0.2131957709789276, 
                0.08309678733348846, 
                -0.3072643578052521, 
                -0.043152883648872375
            ]
        }, 
        "Node_9": {
            "bias": -0.6735286116600037, 
            "weights": [
                0.07364927977323532, 
                -0.12107464671134949, 
                0.014723039232194424, 
                -0.21520258486270905, 
                0.06927500665187836, 
                -0.2151847779750824, 
                -0.34152939915657043, 
                -0.10335199534893036, 
                -0.37138643860816956, 
                -0.18394191563129425, 
                -0.004824201576411724, 
                -0.3352906405925751, 
                0.0928465723991394, 
                -0.20909035205841064, 
                0.11511304974555969, 
                -0.00519590824842453, 
                -0.11476480960845947, 
                -0.0988929271697998, 
                0.08452905714511871, 
                -0.07725890725851059, 
                -0.17166464030742645, 
                0.09448931366205215, 
                0.07578206062316895, 
                0.0449809655547142, 
                0.15347915887832642
            ]
        }, 
        "Node_8": {
            "bias": -0.42969295382499695, 
            "weights": [
                -0.2866588830947876, 
                0.2834460139274597, 
                0.1607387363910675, 
                -0.3328847885131836, 
                0.30675676465034485, 
                0.22112256288528442, 
                -0.36280208826065063, 
                0.060265254229307175, 
                -0.25356805324554443, 
                -0.1733088493347168, 
                0.09922999888658524, 
                -0.36217042803764343, 
                -0.07987961173057556, 
                0.07623752951622009, 
                -0.1044883206486702, 
                0.2669024169445038, 
                -0.18386821448802948, 
                0.19802327454090118, 
                0.13242536783218384, 
                -0.3375106453895569, 
                0.20279066264629364, 
                -0.044916607439517975, 
                0.12912152707576752, 
                -0.09004949033260345, 
                0.31648123264312744
            ]
        }, 
        "Node_7": {
            "bias": -0.38424262404441833, 
            "weights": [
                -0.3608786165714264, 
                -0.09688326716423035, 
                0.3363027274608612, 
                0.09252291172742844, 
                -0.282952219247818, 
                0.2733534574508667, 
                0.21609185636043549, 
                -0.016977675259113312, 
                -0.17077961564064026, 
                -0.2429204285144806, 
                0.32052725553512573, 
                0.020411966368556023, 
                -0.03988942503929138, 
                -0.28994813561439514, 
                0.23384644091129303, 
                -0.06832493096590042, 
                -0.2283666729927063, 
                -0.010070880874991417, 
                -0.1495703160762787, 
                0.09494704753160477, 
                0.17562194168567657, 
                -0.24793902039527893, 
                -0.057818133383989334, 
                -0.1505594551563263, 
                0.30062952637672424
            ]
        }, 
        "Node_6": {
            "bias": 0.7396595478057861, 
            "weights": [
                0.2020745426416397, 
                -0.0023758113384246826, 
                -0.10971852391958237, 
                0.250533789396286, 
                -0.2833571135997772, 
                0.1450202465057373, 
                -0.061453044414520264, 
                -0.06963912397623062, 
                -0.3752782344818115, 
                -0.17801758646965027, 
                0.27160948514938354, 
                -0.10383135080337524, 
                0.11602988839149475, 
                -0.1827893853187561, 
                -0.0634830966591835, 
                -0.17050868272781372, 
                0.14980532228946686, 
                -0.3848362863063812, 
                0.24367858469486237, 
                0.2309943437576294, 
                -0.20486272871494293, 
                0.07898934185504913, 
                0.3269592523574829, 
                -0.32349246740341187, 
                0.30702632665634155
            ]
        }, 
        "Node_5": {
            "bias": 0.16375850141048431, 
            "weights": [
                -0.2378145307302475, 
                -0.2589069604873657, 
                0.3579264283180237, 
                0.20349018275737762, 
                -0.30259642004966736, 
                0.03420001268386841, 
                -0.29904285073280334, 
                -0.3351905941963196, 
                0.13572759926319122, 
                -0.3023654520511627, 
                0.32002609968185425, 
                0.23569001257419586, 
                -0.36128777265548706, 
                0.17993509769439697, 
                0.10793109238147736, 
                0.19167615473270416, 
                -0.21685625612735748, 
                -0.016615014523267746, 
                0.07167968153953552, 
                0.3288232982158661, 
                -0.158357635140419, 
                0.2906157970428467, 
                -0.16700232028961182, 
                -0.11362375319004059, 
                -0.31825709342956543
            ]
        }, 
        "Node_4": {
            "bias": -0.3132057785987854, 
            "weights": [
                0.14952519536018372, 
                -0.33054232597351074, 
                0.08371276408433914, 
                -0.08030419051647186, 
                0.17951053380966187, 
                0.059740692377090454, 
                0.15665870904922485, 
                0.12975236773490906, 
                -0.35620391368865967, 
                -0.17070776224136353, 
                -0.2283618003129959, 
                -0.37556883692741394, 
                0.03166660666465759, 
                -0.08874422311782837, 
                -0.0707881897687912, 
                0.22931867837905884, 
                0.2259584665298462, 
                -0.15001603960990906, 
                0.10867714136838913, 
                0.1660744547843933, 
                -0.1477230042219162, 
                -0.1493644267320633, 
                0.30018195509910583, 
                0.04847608879208565, 
                0.31778770685195923
            ]
        }, 
        "Node_3": {
            "bias": 0.06170858442783356, 
            "weights": [
                0.04704386740922928, 
                -0.28034675121307373, 
                0.19899778068065643, 
                -0.3434602618217468, 
                0.35665425658226013, 
                -0.15110109746456146, 
                -0.24401310086250305, 
                -0.07564685493707657, 
                -0.09857835620641708, 
                -0.27827125787734985, 
                -0.06832942366600037, 
                -0.032028794288635254, 
                0.26769405603408813, 
                -0.27946823835372925, 
                -0.3971239924430847, 
                0.01386681105941534, 
                0.004574731923639774, 
                0.25064167380332947, 
                -0.007169272750616074, 
                -0.04712522402405739, 
                0.13561323285102844, 
                0.17745047807693481, 
                0.08495250344276428, 
                -0.08974533528089523, 
                0.1688721776008606
            ]
        }, 
        "Node_2": {
            "bias": 0.3904282748699188, 
            "weights": [
                -0.006204678677022457, 
                -0.35311076045036316, 
                -0.45264309644699097, 
                0.2812979519367218, 
                0.27710455656051636, 
                -0.25988173484802246, 
                -0.21000786125659943, 
                -0.09853945672512054, 
                -0.15941870212554932, 
                -0.16815482079982758, 
                -0.0067507922649383545, 
                0.02469310164451599, 
                -0.1890655905008316, 
                0.27662408351898193, 
                -0.06502740830183029, 
                -0.05930636450648308, 
                0.257641464471817, 
                0.1416485458612442, 
                -0.15851713716983795, 
                -0.024611126631498337, 
                -0.2993967831134796, 
                -0.23133771121501923, 
                -0.009014365263283253, 
                -0.30586081743240356, 
                0.018111765384674072
            ]
        }, 
        "Node_1": {
            "bias": 0.0011680236784741282, 
            "weights": [
                -0.20415987074375153, 
                0.14669978618621826, 
                -0.14547979831695557, 
                0.11271099001169205, 
                0.22960075736045837, 
                0.19078326225280762, 
                0.059085406363010406, 
                -0.16295401751995087, 
                0.16513888537883759, 
                -0.028583623468875885, 
                -0.08524871617555618, 
                0.08916520327329636, 
                0.08559131622314453, 
                -0.27230823040008545, 
                0.010259642265737057, 
                -0.1287311613559723, 
                0.1809307038784027, 
                -0.18697556853294373, 
                -0.3251726031303406, 
                0.2552488148212433, 
                0.3359284996986389, 
                0.13308677077293396, 
                -0.36998552083969116, 
                -0.14888015389442444, 
                -0.010752379894256592
            ]
        }, 
        "Node_0": {
            "bias": 0.4950534999370575, 
            "weights": [
                0.3000583350658417, 
                -0.057582706212997437, 
                -0.08948730677366257, 
                0.04097951576113701, 
                -0.27354127168655396, 
                -0.03870517015457153, 
                -0.19322210550308228, 
                0.21175222098827362, 
                -0.30415403842926025, 
                0.2748727798461914, 
                -0.21278707683086395, 
                -0.3307848274707794, 
                -0.3256821036338806, 
                0.06852740049362183, 
                0.11296937614679337, 
                0.35320281982421875, 
                -0.06137530133128166, 
                0.06612753123044968, 
                -0.24027672410011292, 
                -0.015016933903098106, 
                0.33477261662483215, 
                -0.03221515938639641, 
                -0.15860088169574738, 
                -0.2477101981639862, 
                -0.09427127242088318
            ]
        }, 
        "Node_17": {
            "bias": -0.041411932557821274, 
            "weights": [
                0.24045002460479736, 
                0.13703513145446777, 
                0.2029694765806198, 
                -0.33360016345977783, 
                0.30951178073883057, 
                -0.09119820594787598, 
                0.04350873455405235, 
                -0.18820905685424805, 
                0.2541179955005646, 
                0.21210861206054688, 
                -0.14156797528266907, 
                -0.11096460372209549, 
                0.3277571201324463, 
                0.09529551863670349, 
                -0.32250329852104187, 
                -0.12990453839302063, 
                -0.24654163420200348, 
                -0.14142324030399323, 
                0.10354416817426682, 
                0.30097222328186035, 
                0.0650361105799675, 
                0.1530081033706665, 
                -0.19634796679019928, 
                -0.08670519292354584, 
                0.20245850086212158
            ]
        }, 
        "Node_11": {
            "bias": 0.016299594193696976, 
            "weights": [
                0.010986250825226307, 
                0.09818992018699646, 
                -0.18100899457931519, 
                -0.19173955917358398, 
                0.20957642793655396, 
                -0.15866035223007202, 
                -0.03891795873641968, 
                0.07215725630521774, 
                0.21724127233028412, 
                -0.04287081956863403, 
                -0.12522181868553162, 
                0.25553229451179504, 
                -0.20663662254810333, 
                -0.29994824528694153, 
                0.31141161918640137, 
                -0.23986992239952087, 
                0.16520798206329346, 
                0.12395627051591873, 
                -0.16104833781719208, 
                0.07734565436840057, 
                -0.23309411108493805, 
                -0.28591063618659973, 
                -0.28375956416130066, 
                -0.25861963629722595, 
                -0.27760234475135803
            ]
        }, 
        "Node_16": {
            "bias": -0.5857681035995483, 
            "weights": [
                0.27933499217033386, 
                -0.03683429956436157, 
                0.018576253205537796, 
                0.44321680068969727, 
                -0.23123976588249207, 
                0.07082486152648926, 
                0.10598962754011154, 
                0.08376683294773102, 
                -0.011324306018650532, 
                0.3622233271598816, 
                0.012305933982133865, 
                0.33332303166389465, 
                0.19911879301071167, 
                -0.3608088791370392, 
                -0.23718233406543732, 
                0.162876158952713, 
                -0.05777406692504883, 
                0.05799366533756256, 
                -0.26802676916122437, 
                -0.32303205132484436, 
                0.2199828326702118, 
                0.24445712566375732, 
                -0.17725378274917603, 
                -0.17367935180664062, 
                0.036489423364400864
            ]
        }, 
        "Node_18": {
            "bias": -0.9382505416870117, 
            "weights": [
                -0.18526308238506317, 
                0.34760457277297974, 
                0.2015402615070343, 
                -0.14074210822582245, 
                -0.01137763075530529, 
                -0.2690708041191101, 
                0.33893999457359314, 
                0.23964335024356842, 
                -0.0013480921043083072, 
                -0.18741406500339508, 
                -0.23771359026432037, 
                0.21746189892292023, 
                0.04144620895385742, 
                -0.1557730734348297, 
                -0.186754047870636, 
                0.28862443566322327, 
                -0.2661656141281128, 
                -0.30966946482658386, 
                -0.297815203666687, 
                0.27080103754997253, 
                -0.3070307970046997, 
                -0.12866149842739105, 
                -0.07764506340026855, 
                0.019183959811925888, 
                0.30626344680786133
            ]
        }, 
        "Node_10": {
            "bias": -0.4452829658985138, 
            "weights": [
                -0.05978870391845703, 
                0.23786884546279907, 
                0.20742498338222504, 
                -0.21536977589130402, 
                -0.3352442681789398, 
                0.3489565849304199, 
                -0.29106396436691284, 
                0.16816340386867523, 
                -0.012286439538002014, 
                0.06551177054643631, 
                -0.11932450532913208, 
                0.02562670409679413, 
                -0.021066606044769287, 
                -0.17916594445705414, 
                0.1631178855895996, 
                0.18025581538677216, 
                0.04312979057431221, 
                0.11371194571256638, 
                -0.2728187143802643, 
                -0.16722263395786285, 
                0.3243580460548401, 
                0.14704173803329468, 
                -0.2637562155723572, 
                0.32695573568344116, 
                0.23584306240081787
            ]
        }, 
        "Node_13": {
            "bias": -0.6006978154182434, 
            "weights": [
                -0.2839915156364441, 
                0.35981494188308716, 
                0.17846442759037018, 
                0.05715020000934601, 
                0.21216103434562683, 
                0.20993942022323608, 
                0.14374931156635284, 
                -0.37583649158477783, 
                0.33161216974258423, 
                -0.08115741610527039, 
                0.18248941004276276, 
                0.0574583001434803, 
                -0.20565634965896606, 
                0.3169209957122803, 
                0.011866985820233822, 
                -0.2178424447774887, 
                0.18973040580749512, 
                0.09623736143112183, 
                -0.15194740891456604, 
                0.16419591009616852, 
                -0.28784263134002686, 
                -0.004437625408172607, 
                -0.05618352070450783, 
                0.14847731590270996, 
                0.10848816484212875
            ]
        }, 
        "Node_15": {
            "bias": 0.1778571605682373, 
            "weights": [
                0.17034509778022766, 
                0.16256409883499146, 
                0.22308698296546936, 
                0.1469310224056244, 
                -0.009096510708332062, 
                0.1624068021774292, 
                0.1293720155954361, 
                0.08736540377140045, 
                -0.12608382105827332, 
                0.2843678593635559, 
                0.24625785648822784, 
                0.2548196017742157, 
                -0.24181604385375977, 
                -0.19112077355384827, 
                -0.015448221936821938, 
                0.046513691544532776, 
                -0.30686357617378235, 
                -0.17479732632637024, 
                0.11891046911478043, 
                -0.3094387948513031, 
                -0.31257888674736023, 
                -0.23512622714042664, 
                -0.2779349088668823, 
                0.0586356446146965, 
                -0.138675257563591
            ]
        }
    }
}