{
    "Layer_1": {
        "Node_19": {
            "bias": -1.0419635772705078, 
            "weights": [
                -0.06560975313186646, 
                0.1112750843167305, 
                -0.1552879512310028, 
                -0.001681559719145298, 
                -0.02283751405775547, 
                -0.2928549349308014, 
                -0.02207283489406109, 
                0.014209629036486149, 
                -0.09137360751628876, 
                0.03405353054404259, 
                0.14297716319561005, 
                0.03313259780406952, 
                -0.09447481483221054, 
                0.013859392143785954, 
                -0.1326531320810318, 
                0.06776928156614304, 
                -0.0002021575637627393, 
                -0.15638679265975952, 
                -0.08116460591554642, 
                -0.059306494891643524, 
                0.22245046496391296, 
                -0.05635136365890503, 
                -0.005626952275633812, 
                0.086328886449337, 
                0.11305715143680573, 
                -0.013479647226631641, 
                0.012383396737277508, 
                0.017134079709649086, 
                0.1481238156557083, 
                -0.03334353119134903, 
                0.008623423054814339, 
                -0.0011268334928900003, 
                -0.05665438994765282, 
                0.04005589336156845, 
                0.009170464240014553, 
                0.08326475322246552, 
                -0.035798802971839905, 
                -0.06046144291758537, 
                -0.11899503320455551, 
                0.03522302582859993, 
                0.1136724203824997, 
                -0.16398516297340393, 
                -0.07156703621149063, 
                -0.12489058077335358, 
                -0.05212938413023949, 
                0.08844761550426483, 
                -0.5037255883216858, 
                0.1560060679912567, 
                -0.14701920747756958, 
                0.027371203526854515, 
                -0.04111447185277939, 
                0.12740983068943024, 
                -0.02757650427520275, 
                0.013523004949092865, 
                -0.09922763705253601, 
                -0.06413907557725906, 
                0.009572272188961506, 
                0.2952413260936737, 
                0.015109910629689693, 
                -0.005491113290190697, 
                -0.11146102845668793, 
                0.10792441666126251, 
                -0.043847501277923584, 
                0.09120289981365204, 
                0.01553271897137165, 
                -0.004879430867731571, 
                0.016341930255293846, 
                -0.18086828291416168, 
                -0.025003455579280853, 
                -0.11361559480428696, 
                -0.1871318370103836, 
                -0.06812821328639984, 
                0.07351177930831909, 
                -0.20514033734798431, 
                -0.2456526756286621, 
                0.070253886282444, 
                -0.03538627550005913, 
                -0.049301281571388245, 
                0.06882588565349579, 
                -0.15982086956501007, 
                0.007068464532494545, 
                -0.04421725124120712, 
                0.023053767159581184, 
                0.19161869585514069, 
                -0.04198702797293663, 
                -0.019299935549497604, 
                0.010779372416436672, 
                -0.18442149460315704, 
                0.05431794747710228, 
                0.06768286228179932, 
                -0.07286389917135239, 
                0.006014677695930004, 
                0.09262455254793167, 
                0.09759143739938736, 
                0.07265251874923706, 
                0.12076860666275024, 
                -0.12191274017095566, 
                -0.24738383293151855, 
                -0.0703049823641777, 
                -0.03095562756061554, 
                0.019411474466323853, 
                0.08650946617126465, 
                0.22525598108768463, 
                -0.10051297396421432, 
                0.03927697241306305, 
                -0.09758418798446655, 
                0.20547173917293549, 
                0.06524335592985153, 
                0.11935727298259735, 
                -0.1657308042049408, 
                0.1251688450574875, 
                -0.018985146656632423, 
                0.11036468297243118, 
                -0.12178872525691986, 
                -0.1802762895822525, 
                -0.11098162829875946, 
                0.03761006146669388, 
                0.0016437761951237917, 
                -0.21659091114997864, 
                0.02851550094783306, 
                -0.011257538571953773, 
                -0.11702582240104675, 
                -0.15117484331130981, 
                0.09064196050167084, 
                0.058578573167324066, 
                0.06726100295782089, 
                -0.050385262817144394, 
                -0.02547588013112545, 
                -0.11944697797298431, 
                -0.05023776739835739, 
                0.09236118942499161, 
                0.09207324683666229, 
                -0.011021018959581852, 
                0.1207275241613388, 
                0.16037024557590485, 
                0.11323783546686172, 
                -0.06601022183895111, 
                0.022027675062417984, 
                -0.07843120396137238, 
                0.08447747677564621, 
                0.15501560270786285, 
                -0.2826220393180847, 
                -0.014395089820027351, 
                -0.06926941871643066, 
                0.007777730468660593, 
                -0.054136551916599274, 
                0.0009640821372158825, 
                -0.058138590306043625, 
                0.19429151713848114, 
                0.09231468290090561
            ]
        }, 
        "Node_18": {
            "bias": -0.10063464939594269, 
            "weights": [
                0.09068875759840012, 
                -0.12503400444984436, 
                0.2319885939359665, 
                -0.07637222856283188, 
                -0.17639116942882538, 
                0.03239363059401512, 
                0.061674464493989944, 
                -0.0028472947888076305, 
                -0.14667673408985138, 
                -0.04338237643241882, 
                -0.062059562653303146, 
                0.04083000868558884, 
                -0.00039833466871641576, 
                -0.17441032826900482, 
                0.0744946300983429, 
                -0.017247207462787628, 
                -0.039275482296943665, 
                -0.07718759775161743, 
                0.06170656904578209, 
                0.054276660084724426, 
                -0.13008998334407806, 
                -0.051816146820783615, 
                -0.018367214128375053, 
                0.05438561737537384, 
                -0.059127289801836014, 
                -0.01673262193799019, 
                0.0027002610731869936, 
                0.1118386834859848, 
                -0.06358224898576736, 
                0.11743301898241043, 
                -0.04947125166654587, 
                -0.03230724111199379, 
                -0.12336906045675278, 
                0.09119025617837906, 
                -0.0966031476855278, 
                0.0874437615275383, 
                0.03789837658405304, 
                -0.08217206597328186, 
                -0.09237166494131088, 
                0.13144028186798096, 
                -0.20690162479877472, 
                0.07435382157564163, 
                -0.1293531060218811, 
                -0.09601206332445145, 
                -0.0273091122508049, 
                0.0656430795788765, 
                -0.06619274616241455, 
                0.04843061417341232, 
                0.08700160682201385, 
                -0.07358773797750473, 
                -0.10532621294260025, 
                -0.11192606389522552, 
                -0.2206004410982132, 
                -0.14906732738018036, 
                0.023167306557297707, 
                0.07910075038671494, 
                0.08216030895709991, 
                0.11695526540279388, 
                0.06222529709339142, 
                -0.04328899085521698, 
                -0.0271435659378767, 
                -0.10507296025753021, 
                -0.15757420659065247, 
                -0.1309879571199417, 
                -0.11266645789146423, 
                -0.008653396740555763, 
                -0.09679899364709854, 
                -0.11748399585485458, 
                -0.2048618495464325, 
                -0.21149136126041412, 
                0.045102499425411224, 
                0.06865782290697098, 
                -0.022853298112750053, 
                -0.05017347261309624, 
                0.21726952493190765, 
                0.05708668380975723, 
                0.002629676600918174, 
                0.1492035984992981, 
                0.06357474625110626, 
                0.03796771168708801, 
                -0.10139947384595871, 
                0.05945350229740143, 
                -0.032584309577941895, 
                0.07246863842010498, 
                0.007551614660769701, 
                -0.18088321387767792, 
                -0.11117587983608246, 
                -0.021703094244003296, 
                -0.102225162088871, 
                -0.061066433787345886, 
                -0.24398621916770935, 
                0.02512967213988304, 
                -0.15115928649902344, 
                -0.018483934924006462, 
                -0.03184979036450386, 
                0.0011747315293177962, 
                -0.07322407513856888, 
                -0.037524521350860596, 
                0.09563426673412323, 
                -0.12908171117305756, 
                -0.10844798386096954, 
                -0.08724839240312576, 
                0.1930282562971115, 
                -0.0746842473745346, 
                0.029100028797984123, 
                -0.007490670308470726, 
                -0.15344220399856567, 
                -0.1107044517993927, 
                -0.18327002227306366, 
                -0.07150532305240631, 
                -0.04803434759378433, 
                0.017471814528107643, 
                0.016448505222797394, 
                -0.14708152413368225, 
                -0.17171554267406464, 
                0.11686296761035919, 
                0.009280725382268429, 
                -0.09831821918487549, 
                0.48126673698425293, 
                0.007307454943656921, 
                -0.025400608777999878, 
                0.053902991116046906, 
                0.09527628123760223, 
                -0.12017568200826645, 
                -0.14095665514469147, 
                -0.15555867552757263, 
                -0.0825708732008934, 
                0.01762881875038147, 
                0.06027142331004143, 
                0.04822513461112976, 
                -0.05896017327904701, 
                -0.09180957078933716, 
                -0.1409313976764679, 
                0.061721403151750565, 
                -0.07970106601715088, 
                -0.03377873823046684, 
                -0.09426863491535187, 
                -0.1542329490184784, 
                -0.1574552059173584, 
                -0.1437186598777771, 
                0.062387336045503616, 
                -0.05900045111775398, 
                0.20123301446437836, 
                0.07113798707723618, 
                -0.13242249190807343, 
                0.03872160613536835, 
                -0.11225386708974838, 
                0.06338667869567871, 
                -0.004670101683586836, 
                -0.09542635083198547
            ]
        }, 
        "Node_17": {
            "bias": 0.49634283781051636, 
            "weights": [
                0.2170332372188568, 
                -0.12758497893810272, 
                -0.25857067108154297, 
                0.06406033784151077, 
                -0.2373659908771515, 
                -0.23463043570518494, 
                0.042303841561079025, 
                -0.06355217844247818, 
                0.13078796863555908, 
                0.051715876907110214, 
                -0.039729438722133636, 
                0.14280256628990173, 
                -0.03465036675333977, 
                -0.10566487163305283, 
                0.045477062463760376, 
                -0.06753158569335938, 
                -0.09503353387117386, 
                0.04905029758810997, 
                0.0593942366540432, 
                -0.08504674583673477, 
                0.07004892081022263, 
                0.08109152317047119, 
                -0.13147421181201935, 
                -0.2479693442583084, 
                0.018646935001015663, 
                -0.028430793434381485, 
                -0.05856568366289139, 
                -0.08127818256616592, 
                0.1304568499326706, 
                -0.2272922247648239, 
                -0.07054790109395981, 
                0.017111219465732574, 
                -0.08664239943027496, 
                -0.24375584721565247, 
                -0.0730241984128952, 
                -0.12870089709758759, 
                0.18056747317314148, 
                -0.008845798671245575, 
                -0.029497796669602394, 
                -0.07621326297521591, 
                0.09818077087402344, 
                0.08913461863994598, 
                -0.01155580673366785, 
                -0.029816877096891403, 
                -0.17509102821350098, 
                0.045121386647224426, 
                -0.5648971796035767, 
                -0.08162011951208115, 
                -0.19831424951553345, 
                -0.1477281153202057, 
                0.15373019874095917, 
                -0.07088392227888107, 
                0.02752392739057541, 
                0.12024840712547302, 
                0.1200995072722435, 
                0.14737142622470856, 
                0.10056404769420624, 
                -0.39998340606689453, 
                0.08731839805841446, 
                -0.018223023042082787, 
                0.022717293351888657, 
                -0.06536813080310822, 
                0.01101282425224781, 
                -0.03153099864721298, 
                0.06700083613395691, 
                -0.17803622782230377, 
                -0.04503297060728073, 
                -0.03413492813706398, 
                0.07934737205505371, 
                -0.10852517932653427, 
                -0.015086309053003788, 
                -0.03805234655737877, 
                0.11992006003856659, 
                -0.05275516211986542, 
                -0.015341321937739849, 
                -0.0313284695148468, 
                -0.04997922480106354, 
                -0.07270199060440063, 
                -0.0005455210921354592, 
                0.03793434053659439, 
                0.1392623633146286, 
                0.14939646422863007, 
                0.014736618846654892, 
                0.02196277678012848, 
                -0.0042578112334012985, 
                0.11604836583137512, 
                -0.0672697052359581, 
                -0.12229355424642563, 
                0.10654610395431519, 
                -0.019895534962415695, 
                -0.12003319710493088, 
                -0.01070503331720829, 
                0.07922262698411942, 
                -0.025650840252637863, 
                0.01707475073635578, 
                -0.16188101470470428, 
                0.0012646728428080678, 
                0.05820414051413536, 
                -0.046138323843479156, 
                -0.0749911367893219, 
                -0.041673142462968826, 
                0.06513191759586334, 
                -0.028322754427790642, 
                -0.14977212250232697, 
                0.09126449376344681, 
                -0.015887970104813576, 
                -0.16147243976593018, 
                -0.09462269395589828, 
                0.048860739916563034, 
                -0.1466696709394455, 
                -0.04003893956542015, 
                -0.14697785675525665, 
                0.019227052107453346, 
                0.11231769621372223, 
                -0.02875327877700329, 
                0.038707658648490906, 
                -0.09350617229938507, 
                -0.007707442156970501, 
                -0.029687931761145592, 
                -0.04608652740716934, 
                0.00846288725733757, 
                -0.19875921308994293, 
                -0.08831679075956345, 
                0.04065107926726341, 
                0.004644983448088169, 
                -0.05865631625056267, 
                0.056920137256383896, 
                0.060512565076351166, 
                0.06093025952577591, 
                -0.11896669864654541, 
                0.079515740275383, 
                0.1259562373161316, 
                0.05399627611041069, 
                -0.028330769389867783, 
                -0.3097193241119385, 
                0.1669655591249466, 
                -0.01864560879766941, 
                -0.08814414590597153, 
                0.09296073019504547, 
                0.12430322170257568, 
                0.08220556378364563, 
                -0.16077588498592377, 
                0.07023372501134872, 
                -0.06755136698484421, 
                -0.01871669292449951, 
                0.018810197710990906, 
                0.056389570236206055, 
                0.12197284400463104, 
                -0.14027494192123413, 
                -0.18572932481765747
            ]
        }, 
        "Node_16": {
            "bias": -0.0682188868522644, 
            "weights": [
                -0.031730614602565765, 
                -0.11772196739912033, 
                -0.044187311083078384, 
                -0.18117834627628326, 
                0.052978869527578354, 
                0.12120786309242249, 
                -0.17292264103889465, 
                0.06851361691951752, 
                -0.1688748598098755, 
                -0.036473870277404785, 
                0.06383775174617767, 
                0.007146601565182209, 
                0.003988563548773527, 
                0.02567332424223423, 
                0.1379312425851822, 
                -0.09856870770454407, 
                0.15270882844924927, 
                -0.08330872654914856, 
                -0.1239771619439125, 
                -0.024161189794540405, 
                0.057086046785116196, 
                -0.07743828743696213, 
                0.11723090708255768, 
                0.05345647409558296, 
                0.015758082270622253, 
                -0.09792625904083252, 
                0.04131419211626053, 
                0.06873694062232971, 
                -0.04367326200008392, 
                0.00025304779410362244, 
                -0.07118437439203262, 
                -0.010127712972462177, 
                -0.22508905827999115, 
                -0.12466615438461304, 
                -0.1052527129650116, 
                -0.23602227866649628, 
                -0.15442858636379242, 
                0.022970199584960938, 
                0.009757124818861485, 
                0.05740446224808693, 
                -0.14885982871055603, 
                -0.18319788575172424, 
                -0.16890455782413483, 
                -0.08542639017105103, 
                -0.11119489371776581, 
                -0.09185489267110825, 
                -0.15649834275245667, 
                -0.12888921797275543, 
                -0.07575159519910812, 
                -0.06851938366889954, 
                -0.13406503200531006, 
                -0.0344330295920372, 
                0.15295560657978058, 
                -0.07689882814884186, 
                -0.02536851353943348, 
                0.02371480129659176, 
                -0.07996422797441483, 
                -0.1424105018377304, 
                -0.09786342829465866, 
                0.006248835474252701, 
                -0.039198823273181915, 
                0.09234541654586792, 
                0.02186434529721737, 
                0.013136200606822968, 
                -0.008387884125113487, 
                -0.05057188868522644, 
                0.04029884934425354, 
                -0.09235689789056778, 
                0.052618131041526794, 
                0.08232906460762024, 
                -0.15079286694526672, 
                -0.07195345312356949, 
                -0.014558816328644753, 
                0.0013110402505844831, 
                -0.16979274153709412, 
                0.033654458820819855, 
                0.0020255008712410927, 
                0.06327883899211884, 
                -0.03627297282218933, 
                -0.12810181081295013, 
                0.03566361218690872, 
                -0.09477155655622482, 
                0.004495560657233, 
                -0.0005349648999981582, 
                0.0939301922917366, 
                0.04290027171373367, 
                0.010323872789740562, 
                -0.0643775463104248, 
                -0.12663613259792328, 
                -0.13842368125915527, 
                -0.1736232191324234, 
                0.10977818071842194, 
                -0.020292095839977264, 
                -0.026289470493793488, 
                -0.09409096837043762, 
                -0.16685669124126434, 
                0.06573855876922607, 
                0.075996994972229, 
                -0.0380823090672493, 
                -0.03208187222480774, 
                0.020578475669026375, 
                0.12984202802181244, 
                -0.04502787068486214, 
                0.0963435098528862, 
                -0.0138733284547925, 
                0.013065687380731106, 
                -0.12061898410320282, 
                0.12237109243869781, 
                -0.021232755854725838, 
                0.015271631069481373, 
                -0.12157933413982391, 
                -0.06670645624399185, 
                0.05807587876915932, 
                -0.06071031093597412, 
                0.013905860483646393, 
                -0.007959391921758652, 
                -0.044075123965740204, 
                0.04546019062399864, 
                -0.13901759684085846, 
                -0.1314011514186859, 
                -0.13818608224391937, 
                0.09611253440380096, 
                0.03978833556175232, 
                -0.0943717360496521, 
                -0.1253826916217804, 
                -0.03569209575653076, 
                -0.10923200845718384, 
                0.048011988401412964, 
                -0.011755287647247314, 
                0.05038410425186157, 
                0.02365598827600479, 
                -0.1646527498960495, 
                0.08447317779064178, 
                0.10295922309160233, 
                0.0037378761917352676, 
                -0.11115193367004395, 
                -0.12617088854312897, 
                0.06904485821723938, 
                0.012916757725179195, 
                -0.06226758658885956, 
                -0.08909022808074951, 
                -0.07261325418949127, 
                0.051184967160224915, 
                -0.0007893972215242684, 
                0.15161362290382385, 
                0.09259096533060074, 
                -0.017772851511836052, 
                -0.07221671938896179, 
                0.03885085508227348, 
                0.02816253900527954
            ]
        }, 
        "Node_15": {
            "bias": -0.06445788592100143, 
            "weights": [
                -0.5329167246818542, 
                0.04273563623428345, 
                -0.14568297564983368, 
                -0.05620730668306351, 
                0.20232181251049042, 
                -0.8167142271995544, 
                0.1567106395959854, 
                -0.23033300042152405, 
                0.007603396195918322, 
                0.08756869286298752, 
                0.11593557894229889, 
                -0.3657633662223816, 
                0.11995218694210052, 
                -0.024382442235946655, 
                -0.13164570927619934, 
                0.04152035340666771, 
                0.019351735711097717, 
                0.11540580540895462, 
                0.048869382590055466, 
                -0.028338884934782982, 
                0.08886650204658508, 
                0.09801269322633743, 
                -0.06314726173877716, 
                0.05641238018870354, 
                0.051320966333150864, 
                0.1480185091495514, 
                -0.06631685048341751, 
                -0.12200547754764557, 
                -0.06992778927087784, 
                0.0838765949010849, 
                0.015876900404691696, 
                0.14165250957012177, 
                0.10367979854345322, 
                -0.05052606761455536, 
                -0.09704481065273285, 
                -0.16773080825805664, 
                -0.018245745450258255, 
                -0.1273445338010788, 
                0.20885983109474182, 
                -0.054120033979415894, 
                -0.1144365519285202, 
                -0.1317584216594696, 
                0.03908524662256241, 
                -0.004336794372648001, 
                0.09463897347450256, 
                -0.4156164824962616, 
                -0.12884457409381866, 
                -0.18634261190891266, 
                -0.1079767569899559, 
                0.0874728187918663, 
                0.1349300891160965, 
                0.06119069457054138, 
                0.04584658890962601, 
                -0.10929001122713089, 
                -0.1437675803899765, 
                -0.32703012228012085, 
                -0.3091059625148773, 
                -0.1840398758649826, 
                -0.12031756341457367, 
                -0.0639452412724495, 
                -0.13718630373477936, 
                0.13551712036132812, 
                -0.05184926092624664, 
                -0.054728034883737564, 
                -0.012053505517542362, 
                -0.150991290807724, 
                0.16998951137065887, 
                0.1500614434480667, 
                -0.01610627956688404, 
                -0.07164839655160904, 
                -0.05567947402596474, 
                0.07950817048549652, 
                -0.12058162689208984, 
                -0.34564322233200073, 
                -0.11701523512601852, 
                -0.06465760618448257, 
                -0.08492568880319595, 
                -0.24334664642810822, 
                -0.061614662408828735, 
                0.11278390884399414, 
                -0.0926700010895729, 
                0.10697014629840851, 
                -0.03257931023836136, 
                -0.09030628949403763, 
                0.13529567420482635, 
                -0.09029286354780197, 
                0.07527537643909454, 
                -0.06771976500749588, 
                0.06337441504001617, 
                -0.2449238896369934, 
                -0.2370741069316864, 
                -0.1440821886062622, 
                0.1407853662967682, 
                0.004480420146137476, 
                -0.08454171568155289, 
                0.10326363146305084, 
                -0.08000266551971436, 
                0.056114476174116135, 
                0.1348010003566742, 
                0.05939216539263725, 
                -0.18854016065597534, 
                0.10769571363925934, 
                0.01860800012946129, 
                -0.07941941916942596, 
                -0.16561681032180786, 
                -0.049204010516405106, 
                -0.15923579037189484, 
                0.03064883127808571, 
                -0.1748715341091156, 
                -0.14856445789337158, 
                -0.17147022485733032, 
                0.11856341361999512, 
                -0.12606796622276306, 
                0.13611562550067902, 
                -0.08805709332227707, 
                -0.1135297417640686, 
                0.024899940937757492, 
                -0.0696086511015892, 
                0.02493995614349842, 
                0.1046808585524559, 
                -0.12673138082027435, 
                -0.29006102681159973, 
                -2.8952956199645996e-05, 
                0.14157268404960632, 
                0.00543945049867034, 
                -0.1999107301235199, 
                -0.17773669958114624, 
                -0.040249552577733994, 
                -0.2168389856815338, 
                0.10932563245296478, 
                -0.3569834232330322, 
                -0.34836891293525696, 
                -0.006572762969881296, 
                -0.12233235687017441, 
                -0.0411052368581295, 
                0.03551826626062393, 
                0.02902277372777462, 
                -0.12892410159111023, 
                0.05522232875227928, 
                0.06979535520076752, 
                0.062032442539930344, 
                -0.2577950656414032, 
                -0.40562576055526733, 
                -0.18767337501049042, 
                0.07087685912847519, 
                0.13394968211650848, 
                0.0822029784321785, 
                0.09692614525556564, 
                0.03985418379306793, 
                0.016258127987384796
            ]
        }, 
        "Node_14": {
            "bias": -0.3445507884025574, 
            "weights": [
                -0.10045315325260162, 
                0.047804635018110275, 
                -0.26506564021110535, 
                -0.10830600559711456, 
                0.012162945233285427, 
                0.13702118396759033, 
                -0.040785424411296844, 
                -0.01366792805492878, 
                0.02805488556623459, 
                0.013927948661148548, 
                -0.0847637727856636, 
                0.08591407537460327, 
                -0.24701601266860962, 
                -0.05869688093662262, 
                0.06888613104820251, 
                0.0025404717307537794, 
                -0.09069801867008209, 
                0.32516804337501526, 
                0.16606658697128296, 
                -0.04078013077378273, 
                0.060503117740154266, 
                -0.0976780503988266, 
                -0.232316255569458, 
                0.2929132580757141, 
                0.0865599662065506, 
                -0.0971493050456047, 
                0.05869753658771515, 
                -0.01139332540333271, 
                -0.06635744124650955, 
                -0.1563018560409546, 
                -0.18806995451450348, 
                0.18745163083076477, 
                0.008597312495112419, 
                0.10735727101564407, 
                -0.06512165814638138, 
                -0.1156366690993309, 
                -0.05326837673783302, 
                0.0772978886961937, 
                0.04714055731892586, 
                -0.04247131571173668, 
                -0.07413773983716965, 
                -0.05197635293006897, 
                0.057754963636398315, 
                -0.007816925644874573, 
                0.16731399297714233, 
                -0.17531083524227142, 
                0.1239551305770874, 
                0.12451846897602081, 
                0.22415199875831604, 
                -0.11854667961597443, 
                -0.011300012469291687, 
                -0.15994101762771606, 
                0.04552752524614334, 
                0.0656655877828598, 
                0.1367977261543274, 
                -0.07053475826978683, 
                0.07961405813694, 
                -0.23927593231201172, 
                -0.23963850736618042, 
                -0.13991239666938782, 
                0.1717919260263443, 
                0.003032685723155737, 
                0.02599380351603031, 
                0.17428183555603027, 
                -0.07933726161718369, 
                -0.20250745117664337, 
                -0.053148239850997925, 
                0.06859235465526581, 
                0.012964784167706966, 
                0.02963569387793541, 
                -0.13192817568778992, 
                -0.07704876363277435, 
                0.03463255986571312, 
                0.08000808209180832, 
                -0.03025570884346962, 
                -0.04567370191216469, 
                0.08304858207702637, 
                0.22627660632133484, 
                0.033692408353090286, 
                0.07577725499868393, 
                0.04487036168575287, 
                -0.06306902319192886, 
                -0.011309295892715454, 
                -0.10490220785140991, 
                -0.1295110136270523, 
                0.06011797860264778, 
                0.0352143831551075, 
                0.09230029582977295, 
                -0.12761454284191132, 
                0.05557907000184059, 
                0.09597349911928177, 
                0.14141878485679626, 
                0.10696234554052353, 
                -0.02681845985352993, 
                -0.09911434352397919, 
                0.21357804536819458, 
                0.0428604893386364, 
                0.08390790224075317, 
                0.14442166686058044, 
                -0.05471470206975937, 
                0.051916565746068954, 
                0.042909976094961166, 
                -0.0437653511762619, 
                -0.06748712062835693, 
                -0.006735932547599077, 
                0.09629639983177185, 
                0.12394671887159348, 
                -0.009197009727358818, 
                -0.11823753267526627, 
                -0.3485157787799835, 
                -0.0738118514418602, 
                -0.07333168387413025, 
                -0.06498763710260391, 
                0.05708685517311096, 
                -0.038413241505622864, 
                0.1187172457575798, 
                0.09367066621780396, 
                -0.021887315437197685, 
                -0.0034069286193698645, 
                0.19085277616977692, 
                0.12358091026544571, 
                0.23382088541984558, 
                0.0942351371049881, 
                0.03579150512814522, 
                -0.08019736409187317, 
                0.08700334280729294, 
                0.09123148769140244, 
                0.1476423591375351, 
                0.0005030671018175781, 
                -0.13826940953731537, 
                0.0038236984983086586, 
                -0.22839102149009705, 
                0.059937506914138794, 
                -0.1262827068567276, 
                -0.15540094673633575, 
                -0.066554956138134, 
                -0.02125026099383831, 
                0.06673802435398102, 
                0.14357662200927734, 
                -0.11063599586486816, 
                -0.1835576742887497, 
                -0.29804614186286926, 
                0.17024099826812744, 
                -0.008900929242372513, 
                0.06351526081562042, 
                0.06919870525598526, 
                -0.010762765072286129, 
                0.2209535837173462, 
                -0.006065759342163801, 
                -0.35220494866371155
            ]
        }, 
        "Node_13": {
            "bias": 0.3444231450557709, 
            "weights": [
                -0.4547426700592041, 
                0.08480033278465271, 
                -0.0840698704123497, 
                -0.1912587583065033, 
                0.2892873287200928, 
                0.4541529715061188, 
                -0.06837613880634308, 
                -0.1728108823299408, 
                -0.03899199143052101, 
                0.09226840734481812, 
                -0.00480191595852375, 
                -0.36903929710388184, 
                -0.02505839429795742, 
                0.0946764424443245, 
                0.004627779126167297, 
                0.027093684300780296, 
                0.09965694695711136, 
                -0.014368286356329918, 
                0.13129547238349915, 
                -0.12002737820148468, 
                -0.08258222043514252, 
                -0.2952718734741211, 
                -0.04164496436715126, 
                -0.07622013986110687, 
                0.003996551036834717, 
                0.061773452907800674, 
                0.017349867150187492, 
                -0.16944770514965057, 
                0.10103403031826019, 
                -0.12154089659452438, 
                -0.043901942670345306, 
                0.22162874042987823, 
                -0.10626916587352753, 
                -0.1638125479221344, 
                0.012634695507586002, 
                -0.16958679258823395, 
                -0.2857213020324707, 
                0.01424043532460928, 
                -0.10803955048322678, 
                0.08989810198545456, 
                0.11596773564815521, 
                -0.26412591338157654, 
                0.07896527647972107, 
                0.18566301465034485, 
                -0.19787567853927612, 
                0.12107938528060913, 
                0.23353655636310577, 
                -0.027973568066954613, 
                0.07196437567472458, 
                -0.12402666360139847, 
                0.02102816104888916, 
                0.052684977650642395, 
                -0.039576951414346695, 
                -0.062208015471696854, 
                -0.13962823152542114, 
                0.06409213691949844, 
                -0.2829552888870239, 
                -0.24457857012748718, 
                -0.12134970724582672, 
                0.08571900427341461, 
                0.07716567069292068, 
                0.08132243901491165, 
                0.11069714277982712, 
                -0.06046471372246742, 
                0.07082606106996536, 
                0.4244944751262665, 
                0.004187108017504215, 
                0.021871404722332954, 
                -0.01457760576158762, 
                0.018917355686426163, 
                0.12114747613668442, 
                -0.09560337662696838, 
                -0.0022685022559016943, 
                0.06765866279602051, 
                -0.1852944940328598, 
                0.13733460009098053, 
                0.06898477673530579, 
                0.3319810926914215, 
                0.02732081338763237, 
                0.0709032267332077, 
                -0.03880022466182709, 
                0.026495784521102905, 
                -0.1260645091533661, 
                -0.15871208906173706, 
                -0.031144224107265472, 
                -0.049169618636369705, 
                -0.1432885229587555, 
                -0.293734610080719, 
                -0.08330271393060684, 
                -0.19465702772140503, 
                0.01352420262992382, 
                -0.08874940127134323, 
                -0.03511408716440201, 
                -0.2614072263240814, 
                0.014814318157732487, 
                -0.0952024981379509, 
                -0.14403559267520905, 
                0.05430840328335762, 
                -0.013024263083934784, 
                -0.08007210493087769, 
                -0.002426296239718795, 
                0.05393797159194946, 
                0.05390104651451111, 
                0.12003801763057709, 
                -0.07715526968240738, 
                -0.0721127912402153, 
                0.0800856202840805, 
                0.09925130754709244, 
                -0.07134357839822769, 
                0.025605550035834312, 
                -0.20818087458610535, 
                -0.36291348934173584, 
                -0.11435823887586594, 
                0.0805298388004303, 
                -0.17596225440502167, 
                -0.14700041711330414, 
                0.09541922807693481, 
                -0.013482054695487022, 
                -0.0855223536491394, 
                -0.0019084392115473747, 
                0.10698552429676056, 
                0.4191271960735321, 
                0.08642424643039703, 
                0.010258106514811516, 
                -0.18912771344184875, 
                -0.061265163123607635, 
                0.028824906796216965, 
                -0.16705666482448578, 
                -0.0868726447224617, 
                -0.020063549280166626, 
                -0.06357738375663757, 
                0.06421768665313721, 
                0.04887508600950241, 
                -0.0467972531914711, 
                -0.16052532196044922, 
                0.035484861582517624, 
                0.07245315611362457, 
                0.13419389724731445, 
                -0.0027469643391668797, 
                -0.11417374759912491, 
                0.08867037296295166, 
                0.21156375110149384, 
                -0.02363349311053753, 
                0.0026055972557514906, 
                -0.19392019510269165, 
                0.0100452471524477, 
                -0.13170616328716278, 
                -0.07612945139408112, 
                -0.11663485318422318, 
                -0.3645627498626709
            ]
        }, 
        "Node_12": {
            "bias": 0.061622727662324905, 
            "weights": [
                -0.0009950733510777354, 
                0.14040507376194, 
                0.22538208961486816, 
                -0.1763022094964981, 
                0.07605504989624023, 
                0.25036004185676575, 
                -0.05353774502873421, 
                0.0148012675344944, 
                0.030287129804491997, 
                -0.07378394901752472, 
                0.06773287057876587, 
                -0.013451234437525272, 
                -0.11340835690498352, 
                -0.14711357653141022, 
                -0.0497964546084404, 
                -0.018091978505253792, 
                -0.1653119921684265, 
                -0.07534655183553696, 
                -0.45559802651405334, 
                0.12200052291154861, 
                -0.02722732536494732, 
                -0.06461717933416367, 
                -0.015346785075962543, 
                -0.18270325660705566, 
                -0.13701167702674866, 
                0.021161163225769997, 
                -0.19053956866264343, 
                -0.041703857481479645, 
                -0.046911194920539856, 
                -0.010898268781602383, 
                0.09666908532381058, 
                0.2274930775165558, 
                -0.08051180094480515, 
                -0.25928834080696106, 
                -0.0546024926006794, 
                -0.3270150423049927, 
                -0.11746329814195633, 
                0.0016673144418746233, 
                -0.007073063403367996, 
                0.09956061840057373, 
                -0.025692500174045563, 
                0.09949282556772232, 
                0.12764409184455872, 
                -0.034176893532276154, 
                -0.515052080154419, 
                0.10366979986429214, 
                -0.026798440143465996, 
                0.07333668321371078, 
                -0.00555143877863884, 
                -0.1705242544412613, 
                -0.013134762644767761, 
                -0.08081434667110443, 
                0.10886023193597794, 
                0.008670123293995857, 
                0.09515665471553802, 
                -0.03048817440867424, 
                -0.07063093781471252, 
                -0.4013381600379944, 
                0.03668634220957756, 
                0.08864482492208481, 
                -0.09896693378686905, 
                -0.04228629916906357, 
                0.014603923074901104, 
                0.058514613658189774, 
                -0.15077096223831177, 
                -0.22934646904468536, 
                0.15437227487564087, 
                0.06437403708696365, 
                0.032038114964962006, 
                -0.09439928084611893, 
                0.0004244716838002205, 
                -0.10343294590711594, 
                -0.23052778840065002, 
                0.027361756190657616, 
                0.026725854724645615, 
                0.15578950941562653, 
                0.11840783059597015, 
                -0.1493663489818573, 
                -0.08213551342487335, 
                -0.05704590305685997, 
                0.12268157303333282, 
                -0.11415387690067291, 
                -0.07789138704538345, 
                -0.1158430427312851, 
                0.0967024564743042, 
                -0.1718476414680481, 
                0.0654214546084404, 
                0.1304304599761963, 
                -0.14411717653274536, 
                -0.38709133863449097, 
                -0.02213631011545658, 
                0.15567375719547272, 
                -0.04282217100262642, 
                0.0014928379096090794, 
                0.08970466256141663, 
                -0.03793928772211075, 
                0.06625840812921524, 
                0.023859797045588493, 
                -0.08729685097932816, 
                0.12919360399246216, 
                0.1332153081893921, 
                0.09145580232143402, 
                -0.03818688169121742, 
                -0.012118377722799778, 
                -0.0763692781329155, 
                -0.21548445522785187, 
                0.23507444560527802, 
                -0.09692580997943878, 
                0.052919190376996994, 
                0.044782839715480804, 
                0.09211038798093796, 
                -0.06910154968500137, 
                -0.1655760109424591, 
                0.1034298688173294, 
                -0.1356104463338852, 
                0.04032953083515167, 
                -0.1471453756093979, 
                0.042622748762369156, 
                -0.15320704877376556, 
                0.000970956520177424, 
                0.03877463936805725, 
                0.2670419216156006, 
                -0.0578325092792511, 
                -0.09812856465578079, 
                -0.05640270933508873, 
                0.1195245161652565, 
                0.001977824606001377, 
                -0.19303227961063385, 
                -0.18402329087257385, 
                0.08804021775722504, 
                0.2667592465877533, 
                -0.04131634160876274, 
                -0.0190945565700531, 
                0.1674490123987198, 
                -0.04354746639728546, 
                -0.13451221585273743, 
                -0.021732624620199203, 
                0.14055389165878296, 
                -0.07022970914840698, 
                -0.12907449901103973, 
                0.013698392547667027, 
                -0.1199817955493927, 
                -0.14397487044334412, 
                0.13222381472587585, 
                0.04766548052430153, 
                0.030282562598586082, 
                0.1536642611026764, 
                -0.07532824575901031, 
                -0.25751733779907227, 
                0.25818371772766113
            ]
        }, 
        "Node_11": {
            "bias": -0.5034322142601013, 
            "weights": [
                0.10769739747047424, 
                -0.07192026078701019, 
                -0.023140309378504753, 
                0.13191726803779602, 
                -0.09417597204446793, 
                -0.08256324380636215, 
                -0.03907188028097153, 
                -0.068027563393116, 
                0.12265382707118988, 
                0.10259956121444702, 
                0.056391868740320206, 
                -0.06275387853384018, 
                0.21743740141391754, 
                0.1431952714920044, 
                0.09345579147338867, 
                -0.14776834845542908, 
                -0.013153227046132088, 
                -0.2655911147594452, 
                -0.03121861256659031, 
                -0.025084873661398888, 
                0.11829399317502975, 
                -0.04557480290532112, 
                0.17722783982753754, 
                -0.0273930374532938, 
                -0.10149185359477997, 
                0.15487827360630035, 
                0.028960032388567924, 
                0.012636755593121052, 
                0.010227039456367493, 
                0.055224187672138214, 
                0.06527099758386612, 
                -0.20100505650043488, 
                -0.05365313962101936, 
                0.074341781437397, 
                -0.19900307059288025, 
                0.186346173286438, 
                0.12830746173858643, 
                0.11005930602550507, 
                -0.08329165726900101, 
                0.041528765112161636, 
                0.06970108300447464, 
                0.12338393181562424, 
                -0.1483498215675354, 
                0.051216743886470795, 
                -0.13700009882450104, 
                0.027058741077780724, 
                0.519142210483551, 
                -0.0346342958509922, 
                -0.02273097261786461, 
                -0.1268908530473709, 
                -0.15270908176898956, 
                0.04561983793973923, 
                -0.04871925339102745, 
                -0.03249271586537361, 
                -0.0285395048558712, 
                -0.11313329637050629, 
                0.014194203540682793, 
                0.18406975269317627, 
                -0.11896533519029617, 
                0.13885554671287537, 
                -0.10962865501642227, 
                -0.03504094108939171, 
                -0.027590123936533928, 
                0.13993161916732788, 
                0.0849783718585968, 
                0.2839375436306, 
                -0.005775150842964649, 
                -0.10258927941322327, 
                0.12166748195886612, 
                0.10085121542215347, 
                -0.028854889795184135, 
                -0.013061165809631348, 
                -0.0728301927447319, 
                0.11208628118038177, 
                -0.030273668467998505, 
                -0.06498942524194717, 
                -0.05368902161717415, 
                0.04480300843715668, 
                -0.07289408147335052, 
                0.10293300449848175, 
                -0.14022332429885864, 
                -0.0920928344130516, 
                -0.07779122143983841, 
                0.06873409450054169, 
                0.06725015491247177, 
                0.08569563925266266, 
                -0.0031662434339523315, 
                -0.08176787942647934, 
                0.0854915902018547, 
                0.037714697420597076, 
                0.0033493961673229933, 
                -0.042070284485816956, 
                -0.029057694599032402, 
                -0.06247102469205856, 
                -0.0708707943558693, 
                0.02623618394136429, 
                -0.06714086979627609, 
                -0.03936244174838066, 
                -0.30093374848365784, 
                -0.19816677272319794, 
                0.08982176333665848, 
                -0.07169101387262344, 
                0.20778121054172516, 
                -0.018866611644625664, 
                0.1086411103606224, 
                0.07482379674911499, 
                -0.12372319400310516, 
                -0.14859730005264282, 
                -0.06259307265281677, 
                0.13047073781490326, 
                0.030514907091856003, 
                -0.06058714911341667, 
                0.15758982300758362, 
                -0.12678925693035126, 
                -0.12743833661079407, 
                -0.11734405159950256, 
                -0.012323821894824505, 
                0.120122529566288, 
                -0.07119803875684738, 
                0.5383038520812988, 
                -0.029288604855537415, 
                -0.017814209684729576, 
                -0.10256412625312805, 
                -0.05743987485766411, 
                0.11963240057229996, 
                -0.01260427851229906, 
                0.12356425076723099, 
                -0.03471682220697403, 
                -0.05658496543765068, 
                0.13236545026302338, 
                0.06242317706346512, 
                0.0988793820142746, 
                -0.04893928021192551, 
                -0.07283847033977509, 
                0.027316348627209663, 
                -0.04094955325126648, 
                -0.13644824922084808, 
                0.06806638091802597, 
                -0.024315129965543747, 
                0.08133972436189651, 
                0.04510483890771866, 
                0.0585484504699707, 
                -0.05742695927619934, 
                0.4518575966358185, 
                0.09788309037685394, 
                -0.0777210146188736, 
                -0.04018938168883324, 
                -0.1069626584649086, 
                0.11215473711490631, 
                -0.06895126402378082
            ]
        }, 
        "Node_10": {
            "bias": 0.5440964698791504, 
            "weights": [
                0.2394835501909256, 
                0.017757922410964966, 
                -0.02793189324438572, 
                0.0020966350566595793, 
                -0.04656349495053291, 
                0.18335047364234924, 
                -0.2309407889842987, 
                0.023073621094226837, 
                -0.05872776359319687, 
                0.0740310326218605, 
                0.3439680337905884, 
                0.11378799378871918, 
                -0.29681944847106934, 
                -0.25507497787475586, 
                0.06163148581981659, 
                0.3840245306491852, 
                0.056186601519584656, 
                0.15676157176494598, 
                0.02605396695435047, 
                -0.01805134490132332, 
                0.0014144283486530185, 
                0.01980774477124214, 
                -0.35644298791885376, 
                -0.03051615320146084, 
                0.006167292594909668, 
                -0.0710165724158287, 
                -0.0178996454924345, 
                -0.02672841213643551, 
                0.008304685354232788, 
                -0.016139594838023186, 
                -0.21451258659362793, 
                -0.19678911566734314, 
                -0.18822023272514343, 
                0.05240722745656967, 
                0.03623081371188164, 
                -0.2523649036884308, 
                -0.03474946320056915, 
                0.08298343420028687, 
                0.11882717907428741, 
                0.055060163140296936, 
                -0.0970320850610733, 
                -0.12567681074142456, 
                -0.19088588654994965, 
                -0.12304522097110748, 
                -0.14798538386821747, 
                0.08166437596082687, 
                0.263543039560318, 
                -0.07913839817047119, 
                -0.0444672517478466, 
                -0.099234439432621, 
                0.05946488678455353, 
                -0.2072368860244751, 
                0.0022735234815627337, 
                -0.007332587148994207, 
                0.09491446614265442, 
                0.11672540009021759, 
                -0.009231510572135448, 
                -0.08318839967250824, 
                0.14535222947597504, 
                0.06011172756552696, 
                0.11047457903623581, 
                0.10895556211471558, 
                0.08505799621343613, 
                -0.24468041956424713, 
                0.0987488180398941, 
                0.1277334988117218, 
                -0.36825811862945557, 
                0.09825955331325531, 
                0.07520978152751923, 
                0.027748294174671173, 
                -0.14084190130233765, 
                -0.0013037993339821696, 
                0.033992163836956024, 
                -0.05535052344202995, 
                -0.12532150745391846, 
                -0.09111213684082031, 
                -0.12449261546134949, 
                0.05130622908473015, 
                -0.10331188142299652, 
                0.04933714121580124, 
                0.03549332544207573, 
                -0.021780699491500854, 
                0.05667036399245262, 
                0.15868490934371948, 
                -0.011873280629515648, 
                0.11434303224086761, 
                0.06310973316431046, 
                -0.14381909370422363, 
                -0.056375227868556976, 
                0.006386856082826853, 
                0.07663021236658096, 
                -0.1226097121834755, 
                -0.16496635973453522, 
                -0.03975429758429527, 
                0.003088352270424366, 
                -0.25635650753974915, 
                -0.07413872331380844, 
                0.031068556010723114, 
                0.05501098930835724, 
                -0.042770981788635254, 
                -0.004605510737746954, 
                -0.11828198283910751, 
                -0.07292059808969498, 
                -0.07682380080223083, 
                -0.13705304265022278, 
                -0.06735645979642868, 
                -0.1794959455728531, 
                -0.09798695147037506, 
                -0.1369084119796753, 
                0.2598098814487457, 
                0.07883444428443909, 
                0.15175992250442505, 
                -0.1647253930568695, 
                0.1258244663476944, 
                0.08821035176515579, 
                0.12245089560747147, 
                -0.020156802609562874, 
                -0.01936560682952404, 
                0.029091209173202515, 
                0.4323781728744507, 
                -0.026294099166989326, 
                -0.3628154397010803, 
                -0.09369897842407227, 
                0.15120434761047363, 
                0.11798929423093796, 
                -0.13000470399856567, 
                -0.10260926187038422, 
                -0.11217156052589417, 
                -0.10043104737997055, 
                -0.08581987023353577, 
                0.02712309919297695, 
                -0.05782792717218399, 
                0.02616032212972641, 
                -0.1291632056236267, 
                -0.08666520565748215, 
                0.07831788808107376, 
                0.09386702626943588, 
                -0.19889193773269653, 
                0.15419217944145203, 
                -0.04285905510187149, 
                0.11774224787950516, 
                0.05131610482931137, 
                -0.07572342455387115, 
                -0.05688083916902542, 
                -0.14586246013641357, 
                0.09831713885068893, 
                0.1523253321647644, 
                0.08913690596818924, 
                -0.09164583683013916, 
                0.1197865828871727
            ]
        }, 
        "Node_97": {
            "bias": -0.014004138298332691, 
            "weights": [
                -0.07159401476383209, 
                -0.09070907533168793, 
                -0.1173371896147728, 
                0.05630723014473915, 
                0.06672680377960205, 
                -0.16961181163787842, 
                -0.08557140827178955, 
                0.08486183732748032, 
                0.13075919449329376, 
                -0.08766581118106842, 
                -0.04055977612733841, 
                -0.17122918367385864, 
                -0.1020556315779686, 
                -0.03600376471877098, 
                0.02557353675365448, 
                -0.08490494638681412, 
                -0.10807041078805923, 
                0.16117741167545319, 
                -0.05176609382033348, 
                -0.02376924455165863, 
                -0.08934278041124344, 
                0.027735328301787376, 
                -0.024894775822758675, 
                0.0684819296002388, 
                -0.013721853494644165, 
                -0.0665191113948822, 
                0.052716214209795, 
                0.036907557398080826, 
                -0.08314318209886551, 
                -0.1645762175321579, 
                0.017881760373711586, 
                0.03899010643362999, 
                -0.12394747138023376, 
                -0.08746553212404251, 
                0.07365728914737701, 
                -0.08492965996265411, 
                -0.07518626749515533, 
                -0.009309515357017517, 
                -0.10190363973379135, 
                -0.1322929412126541, 
                -0.05818365514278412, 
                -0.0822993665933609, 
                0.043261487036943436, 
                -0.10065417736768723, 
                0.01968911476433277, 
                -0.026509692892432213, 
                0.06243767961859703, 
                0.04954163730144501, 
                0.008840934373438358, 
                0.09190941601991653, 
                -0.019493669271469116, 
                -0.14147432148456573, 
                0.05371231585741043, 
                -0.12662839889526367, 
                -0.05955138057470322, 
                -0.05734208598732948, 
                0.1499754637479782, 
                -0.12036975473165512, 
                0.10273268818855286, 
                -0.1204439178109169, 
                -0.0610961839556694, 
                -0.03502175211906433, 
                -0.10860300809144974, 
                -0.03415089473128319, 
                -0.09856444597244263, 
                -0.02694225311279297, 
                0.013792991638183594, 
                0.1110537126660347, 
                0.07105331122875214, 
                -0.05160112306475639, 
                0.13021759688854218, 
                0.13738486170768738, 
                -0.133896142244339, 
                0.0212925523519516, 
                -0.03078579157590866, 
                -0.0422510951757431, 
                -0.12789645791053772, 
                -0.13221676647663116, 
                -0.20679475367069244, 
                -0.18053574860095978, 
                -0.12758950889110565, 
                0.15151937305927277, 
                0.0741393193602562, 
                0.08456876128911972, 
                0.024136453866958618, 
                0.011533147655427456, 
                0.14985226094722748, 
                0.1146475225687027, 
                -0.13922397792339325, 
                0.06480983644723892, 
                -0.03507512807846069, 
                -0.030107954517006874, 
                -0.10573358088731766, 
                -0.09803403913974762, 
                0.10421179234981537, 
                -0.09875261038541794, 
                -0.15288245677947998, 
                -0.16083985567092896, 
                0.1322374790906906, 
                -0.061570726335048676, 
                0.10380084067583084, 
                0.11249379813671112, 
                0.04719588905572891, 
                -0.05232148617506027, 
                -0.13029320538043976, 
                -0.10512378066778183, 
                -0.06479635834693909, 
                -0.04541238397359848, 
                0.04479950666427612, 
                -0.12597297132015228, 
                -0.09889932721853256, 
                0.03001127950847149, 
                -0.022383494302630424, 
                0.1407640129327774, 
                -0.1455104500055313, 
                -0.15299645066261292, 
                -0.13789701461791992, 
                0.10302716493606567, 
                0.04919875040650368, 
                -0.059835419058799744, 
                0.14704830944538116, 
                0.15410380065441132, 
                -0.11155027896165848, 
                0.024199608713388443, 
                -0.022507930174469948, 
                0.05672803148627281, 
                -0.007137211970984936, 
                0.045253388583660126, 
                0.04771975800395012, 
                -0.05860505253076553, 
                0.10470322519540787, 
                0.020946459844708443, 
                -0.018840450793504715, 
                0.039706259965896606, 
                -0.03414180129766464, 
                -0.1154789999127388, 
                -0.16290655732154846, 
                0.1066523939371109, 
                -0.1364513784646988, 
                0.11855677515268326, 
                -0.14217343926429749, 
                -0.13324859738349915, 
                -0.07846035808324814, 
                0.0630725845694542, 
                -0.004910017363727093, 
                0.015524134039878845, 
                -0.005265833344310522, 
                -0.10680094361305237, 
                -0.13822227716445923, 
                0.08770336210727692
            ]
        }, 
        "Node_96": {
            "bias": -0.01293282862752676, 
            "weights": [
                -0.11747899651527405, 
                0.14077229797840118, 
                0.028110181912779808, 
                -0.0730414092540741, 
                -0.04398036003112793, 
                -0.03512159734964371, 
                -0.007000358775258064, 
                -0.03564652428030968, 
                -0.12390453368425369, 
                0.037163227796554565, 
                -0.10511118918657303, 
                0.0911073163151741, 
                0.021610016003251076, 
                -0.0372343547642231, 
                -0.08503446727991104, 
                -0.1460457593202591, 
                0.09179569035768509, 
                0.019947171211242676, 
                0.05446269363164902, 
                0.0412776805460453, 
                -0.11200393736362457, 
                -0.009014405310153961, 
                0.027876373380422592, 
                -0.08052357286214828, 
                -0.04691727086901665, 
                -0.15006396174430847, 
                0.11018887162208557, 
                -0.079381063580513, 
                -0.15054576098918915, 
                0.0876394584774971, 
                0.01583484187722206, 
                -0.019683822989463806, 
                0.017628217115998268, 
                0.08187149465084076, 
                -0.11078168451786041, 
                -0.06468986719846725, 
                -0.03704989328980446, 
                -0.020971551537513733, 
                0.09826434403657913, 
                0.09798813611268997, 
                -0.1623140126466751, 
                0.09427977353334427, 
                0.11190225929021835, 
                -0.16258655488491058, 
                0.059929437935352325, 
                0.0914405882358551, 
                -0.18746037781238556, 
                -0.130928173661232, 
                0.05785638466477394, 
                -0.12791720032691956, 
                0.05674313008785248, 
                0.024517640471458435, 
                0.02056695707142353, 
                -0.06770443171262741, 
                0.004016431979835033, 
                -0.11397667229175568, 
                0.0910201147198677, 
                -0.10626224428415298, 
                -0.007689404767006636, 
                0.08480499684810638, 
                -0.13409239053726196, 
                0.03078499250113964, 
                0.06741661578416824, 
                -0.06633594632148743, 
                -0.10460744053125381, 
                -0.04744923114776611, 
                -0.05727463215589523, 
                -0.1818418651819229, 
                0.09632756561040878, 
                -0.0629536360502243, 
                0.10441125929355621, 
                0.12611699104309082, 
                -0.03897799924015999, 
                -0.07497905194759369, 
                -0.02337835356593132, 
                0.07360540330410004, 
                0.1409502625465393, 
                0.058920323848724365, 
                -0.022663980722427368, 
                -0.10286861658096313, 
                -0.1725677251815796, 
                0.02409142255783081, 
                0.015773510560393333, 
                -0.028501924127340317, 
                0.0816226378083229, 
                -0.020644549280405045, 
                0.12279990315437317, 
                -0.1436792016029358, 
                0.03771545737981796, 
                -0.035433150827884674, 
                -0.15504184365272522, 
                -0.07763443887233734, 
                0.03483205661177635, 
                -0.1558402180671692, 
                0.044257570058107376, 
                -0.1427932232618332, 
                0.11815549433231354, 
                -0.15679167211055756, 
                0.12001709640026093, 
                -0.020405476912856102, 
                -0.04111648350954056, 
                -0.10416248440742493, 
                0.0035252936650067568, 
                -0.10551086068153381, 
                -0.14381667971611023, 
                0.09777811169624329, 
                -0.19947709143161774, 
                -0.06945250928401947, 
                0.020371118560433388, 
                0.053674086928367615, 
                -0.03586922585964203, 
                -0.10422901809215546, 
                0.06327637284994125, 
                -0.021558791399002075, 
                0.013678929768502712, 
                -0.014886454679071903, 
                -0.10604079067707062, 
                -0.14471396803855896, 
                -0.11182219535112381, 
                -0.01942850835621357, 
                0.13011662662029266, 
                -0.11776406317949295, 
                -0.12958015501499176, 
                -0.016387760639190674, 
                0.09284534305334091, 
                0.03090626373887062, 
                -0.019638599827885628, 
                -0.17403392493724823, 
                -0.1772433966398239, 
                0.051590755581855774, 
                -0.07743224501609802, 
                -0.14585670828819275, 
                -0.16015605628490448, 
                0.013853136450052261, 
                -0.028713492676615715, 
                0.11541101336479187, 
                0.08335085958242416, 
                -0.09843485802412033, 
                -0.10991394519805908, 
                0.11829674988985062, 
                -0.05250093713402748, 
                0.001020349096506834, 
                -0.06260209530591965, 
                -0.0236976221203804, 
                -0.07373099029064178, 
                -0.08076710253953934, 
                0.046303071081638336, 
                0.08540564030408859, 
                -0.06608651578426361, 
                0.060264214873313904
            ]
        }, 
        "Node_95": {
            "bias": -0.05001244693994522, 
            "weights": [
                0.06764711439609528, 
                0.06931085884571075, 
                0.012266435660421848, 
                -0.15130773186683655, 
                0.12626037001609802, 
                -0.002791417995467782, 
                0.09659340977668762, 
                -0.08807241916656494, 
                0.04707590490579605, 
                -0.00443028099834919, 
                0.06180395931005478, 
                -0.05067615583539009, 
                -0.059287529438734055, 
                -0.0826246365904808, 
                -0.003649577498435974, 
                -0.05019775778055191, 
                -0.10047905147075653, 
                0.004108579829335213, 
                0.10833881050348282, 
                0.039857178926467896, 
                -0.047823403030633926, 
                0.07173261046409607, 
                -0.05339745804667473, 
                -0.0322093740105629, 
                -0.14833016693592072, 
                -0.05385786294937134, 
                -0.045306626707315445, 
                -0.1418965607881546, 
                0.08567152917385101, 
                0.03493424132466316, 
                0.1329982727766037, 
                -0.08185747265815735, 
                0.09273640066385269, 
                -0.1127132996916771, 
                0.08973337709903717, 
                0.01573987677693367, 
                -0.07530111074447632, 
                0.07483336329460144, 
                -0.08607916533946991, 
                -0.11035513132810593, 
                -0.09131444990634918, 
                -0.04761170595884323, 
                0.049569021910429, 
                -0.1863587498664856, 
                0.003696887521073222, 
                0.022540539503097534, 
                -0.07588492333889008, 
                -0.14036615192890167, 
                0.08285405486822128, 
                0.10172228515148163, 
                0.026892587542533875, 
                -0.0075488705188035965, 
                -0.10356196016073227, 
                -0.04584374651312828, 
                0.06524422764778137, 
                -0.09096060693264008, 
                0.07452517002820969, 
                0.05469822138547897, 
                0.0711192712187767, 
                -0.046569470316171646, 
                0.27322036027908325, 
                -0.05390908196568489, 
                -0.14431491494178772, 
                0.01812649704515934, 
                -0.06175350770354271, 
                0.2201181799173355, 
                0.13364170491695404, 
                -0.25375592708587646, 
                0.05902755260467529, 
                -0.131900817155838, 
                0.05377504602074623, 
                0.13642171025276184, 
                -0.13778993487358093, 
                -0.09789826720952988, 
                0.1409783512353897, 
                0.027729371562600136, 
                -0.13632802665233612, 
                0.02946583367884159, 
                -0.15422604978084564, 
                -0.09321599453687668, 
                -0.15639227628707886, 
                -0.1466369330883026, 
                -0.10982609540224075, 
                -0.14918553829193115, 
                0.07482796907424927, 
                -0.17630329728126526, 
                -0.08941508084535599, 
                -0.10776811093091965, 
                0.0061590406112372875, 
                -0.05483994632959366, 
                -0.09572532773017883, 
                0.09532900899648666, 
                -0.13828831911087036, 
                -0.1779232621192932, 
                0.0375521183013916, 
                -0.07649288326501846, 
                -0.035516925156116486, 
                0.07872477173805237, 
                0.055812615901231766, 
                0.11677056550979614, 
                0.03489554673433304, 
                0.1331273764371872, 
                0.014430639334022999, 
                0.14697547256946564, 
                -0.19341889023780823, 
                0.06202271953225136, 
                -0.07273400574922562, 
                -0.08152979612350464, 
                -0.03207295760512352, 
                0.09531519562005997, 
                0.09902428835630417, 
                -0.015466741286218166, 
                -0.09312202036380768, 
                0.006577387452125549, 
                -0.1681441217660904, 
                0.08071024715900421, 
                0.04662594571709633, 
                0.13097858428955078, 
                0.03528520464897156, 
                -0.12300356477499008, 
                0.14466027915477753, 
                0.07920900732278824, 
                0.123130664229393, 
                -0.08459837734699249, 
                -0.11709960550069809, 
                -0.13732171058654785, 
                -0.04886532947421074, 
                0.011859577149152756, 
                0.08795639872550964, 
                -0.04670479893684387, 
                -0.17312662303447723, 
                -0.17551440000534058, 
                -0.10839763283729553, 
                0.0019059361657127738, 
                0.11610998213291168, 
                0.02608194760978222, 
                -0.023842448368668556, 
                0.07528897374868393, 
                0.04729790240526199, 
                -0.18891341984272003, 
                -0.08275366574525833, 
                -0.15948286652565002, 
                0.11081983149051666, 
                0.003999220672994852, 
                0.13642364740371704, 
                -0.14727193117141724, 
                -0.06114828959107399, 
                0.14011216163635254, 
                -0.012672223150730133, 
                0.0766025260090828
            ]
        }, 
        "Node_94": {
            "bias": -0.7234295010566711, 
            "weights": [
                -0.1553661823272705, 
                -0.10657025873661041, 
                -0.19952692091464996, 
                -0.13356941938400269, 
                -0.013633837923407555, 
                0.0925854966044426, 
                0.05981983616948128, 
                0.18528547883033752, 
                -0.11121948808431625, 
                0.07342522591352463, 
                -0.2613156735897064, 
                -0.02107934094965458, 
                0.05685404688119888, 
                -0.08380360156297684, 
                0.13507382571697235, 
                0.11332632601261139, 
                -0.13550078868865967, 
                0.09747988730669022, 
                -0.18753662705421448, 
                -0.12156294286251068, 
                -0.05021824687719345, 
                0.0775919258594513, 
                -0.04186532273888588, 
                -0.10116425901651382, 
                -0.10155630111694336, 
                -0.3509208858013153, 
                0.16517235338687897, 
                -0.19298937916755676, 
                -0.07858303189277649, 
                -0.03663115203380585, 
                -0.13313336670398712, 
                0.02865305170416832, 
                -0.029922138899564743, 
                -0.28500598669052124, 
                -0.10684195160865784, 
                -0.31731799244880676, 
                0.08775142580270767, 
                -0.07963614165782928, 
                -0.07972177863121033, 
                0.07537949830293655, 
                -0.02387337014079094, 
                0.11322098225355148, 
                -0.1858641356229782, 
                -0.15130719542503357, 
                -0.012169723398983479, 
                0.1245027631521225, 
                -0.23702937364578247, 
                0.09079622477293015, 
                -0.019706688821315765, 
                0.06768257170915604, 
                0.11011345684528351, 
                0.19864238798618317, 
                -0.1083221286535263, 
                0.06998856365680695, 
                0.11169932037591934, 
                0.05477088317275047, 
                -0.13447719812393188, 
                0.09943009912967682, 
                0.05361606553196907, 
                0.22601936757564545, 
                0.013012288138270378, 
                0.1386631280183792, 
                0.1076241135597229, 
                -0.04821833595633507, 
                0.013331429101526737, 
                0.029073866084218025, 
                -0.06314229220151901, 
                -0.07180777192115784, 
                0.10900067538022995, 
                -0.08346667140722275, 
                -0.003459058003500104, 
                -0.11737824231386185, 
                0.08502538502216339, 
                0.023942861706018448, 
                -0.13204248249530792, 
                -0.024652883410453796, 
                -0.023797709494829178, 
                0.10716205090284348, 
                0.10301460325717926, 
                0.09179697930812836, 
                -0.10696243494749069, 
                -0.1526327282190323, 
                -0.08468926697969437, 
                -0.14735271036624908, 
                -0.03148190677165985, 
                -0.10889588296413422, 
                0.04675254225730896, 
                -0.09632446616888046, 
                -0.11223822832107544, 
                -0.09943585842847824, 
                0.005106817930936813, 
                -0.042017385363578796, 
                0.16618411242961884, 
                0.03991797938942909, 
                0.06810855865478516, 
                -0.002718132920563221, 
                0.12446341663599014, 
                0.04421768710017204, 
                -0.01705699972808361, 
                0.18002764880657196, 
                -0.18968240916728973, 
                -0.0222613662481308, 
                0.08164744079113007, 
                0.07191497832536697, 
                -0.0919908955693245, 
                -0.09495305269956589, 
                0.16323322057724, 
                0.151724711060524, 
                -0.062749482691288, 
                0.24015182256698608, 
                -0.007689658552408218, 
                0.08522184938192368, 
                0.007125698029994965, 
                0.07628870010375977, 
                -0.005931593477725983, 
                0.13415275514125824, 
                0.1642025113105774, 
                0.11768399924039841, 
                -0.13566988706588745, 
                -0.0962725356221199, 
                -0.04323050007224083, 
                -0.25401806831359863, 
                -0.11438579112291336, 
                -0.03195915371179581, 
                0.03678114712238312, 
                -0.020822927355766296, 
                0.07620272040367126, 
                -0.07401643693447113, 
                0.017093652859330177, 
                -0.11692105233669281, 
                0.1010906994342804, 
                0.01923026703298092, 
                0.014871486462652683, 
                -0.06261333078145981, 
                0.1447688788175583, 
                0.020028207451105118, 
                0.04881712794303894, 
                -0.2040245085954666, 
                -0.04667162895202637, 
                0.11919141560792923, 
                -0.022295931354165077, 
                -0.297115683555603, 
                -0.18194152414798737, 
                0.14338788390159607, 
                -0.06628213822841644, 
                -0.07287025451660156, 
                0.016017910093069077, 
                -0.1521613448858261, 
                0.10888910293579102, 
                -0.006484062410891056
            ]
        }, 
        "Node_93": {
            "bias": 0.6217578649520874, 
            "weights": [
                0.19328266382217407, 
                -0.08788961917161942, 
                -0.1267928034067154, 
                -0.061232585459947586, 
                0.026806170120835304, 
                -0.28677186369895935, 
                -0.08371618390083313, 
                -0.06508097052574158, 
                -0.08318352699279785, 
                -0.29321134090423584, 
                0.00023799604969099164, 
                0.23800607025623322, 
                0.06839768588542938, 
                -0.1896744668483734, 
                -0.1222112774848938, 
                -0.17310823500156403, 
                0.05549148842692375, 
                -0.038675062358379364, 
                0.23463140428066254, 
                0.027148975059390068, 
                -0.02077241986989975, 
                0.005485904403030872, 
                -0.20622581243515015, 
                -0.0687464103102684, 
                0.007079645991325378, 
                0.04655667021870613, 
                0.06451697647571564, 
                0.12263710796833038, 
                -0.060224682092666626, 
                -0.17569150030612946, 
                0.010045447386801243, 
                -0.23005278408527374, 
                -0.1606481373310089, 
                0.017512958496809006, 
                0.04207192733883858, 
                -0.20419193804264069, 
                -0.03341216221451759, 
                0.1245209127664566, 
                0.022590767592191696, 
                0.04634474962949753, 
                -0.17289873957633972, 
                -0.10475273430347443, 
                -0.041608016937971115, 
                -0.15670159459114075, 
                -0.09501344710588455, 
                0.05693650618195534, 
                0.17056217789649963, 
                0.1348896622657776, 
                0.03965756669640541, 
                -0.04706604406237602, 
                0.014423146843910217, 
                0.03827846050262451, 
                0.10315095633268356, 
                -0.12217697501182556, 
                -0.040331222116947174, 
                0.0020673612598329782, 
                -0.3730219602584839, 
                -0.17091496288776398, 
                0.012828567996621132, 
                -0.15098226070404053, 
                0.048780329525470734, 
                -0.14297173917293549, 
                0.04933427274227142, 
                0.016565268859267235, 
                0.02952999249100685, 
                0.278383731842041, 
                -0.18458713591098785, 
                0.09281914681196213, 
                0.052892155945301056, 
                -0.030405716970562935, 
                -0.24204203486442566, 
                0.026058509945869446, 
                0.0897313579916954, 
                0.13229699432849884, 
                -0.1585283726453781, 
                0.2084764540195465, 
                -0.040594350546598434, 
                0.02613459713757038, 
                0.07994668185710907, 
                -0.022376997396349907, 
                -0.11496322602033615, 
                0.10700114071369171, 
                0.09195324778556824, 
                0.049854155629873276, 
                -0.17194242775440216, 
                0.11953933537006378, 
                0.030963286757469177, 
                -0.19279971718788147, 
                -0.10309647768735886, 
                0.057618435472249985, 
                0.04807862266898155, 
                0.09259121119976044, 
                -0.06653498858213425, 
                0.1299162656068802, 
                -0.1339980810880661, 
                0.1490505337715149, 
                -0.022540995851159096, 
                0.11656814068555832, 
                -0.07844621688127518, 
                -0.1681816428899765, 
                0.07157844305038452, 
                -0.03439760208129883, 
                0.18695275485515594, 
                0.05819464847445488, 
                0.09555497020483017, 
                -0.31188490986824036, 
                0.05357186868786812, 
                0.16631874442100525, 
                0.10096869617700577, 
                0.10801590979099274, 
                -0.0752423107624054, 
                -0.15500102937221527, 
                -0.008158051408827305, 
                0.016730844974517822, 
                -0.19627827405929565, 
                -0.013442885130643845, 
                0.0964043065905571, 
                0.027186868712306023, 
                -0.25662022829055786, 
                -0.19435282051563263, 
                -0.1397283375263214, 
                0.016836674883961678, 
                0.09678803384304047, 
                -0.18124929070472717, 
                0.06186439096927643, 
                -0.002718893578276038, 
                -0.10599926114082336, 
                -0.16541768610477448, 
                -0.14875423908233643, 
                -0.09568792581558228, 
                -0.14234620332717896, 
                -0.10415763407945633, 
                -0.10491346567869186, 
                -0.10535964369773865, 
                0.02104712277650833, 
                0.16853319108486176, 
                -0.01962670311331749, 
                0.012146485038101673, 
                0.10002017766237259, 
                0.02920749969780445, 
                0.021253250539302826, 
                0.20636701583862305, 
                0.07568992674350739, 
                0.022808149456977844, 
                -0.017398620024323463, 
                0.022367795929312706, 
                0.09905049949884415, 
                -0.14197798073291779, 
                -0.06884278357028961, 
                -0.3265221416950226
            ]
        }, 
        "Node_92": {
            "bias": -0.05219555273652077, 
            "weights": [
                -0.1988164186477661, 
                0.09042814373970032, 
                0.11868218332529068, 
                -0.02401713654398918, 
                -0.015440426766872406, 
                0.05546611174941063, 
                0.03363202512264252, 
                -0.09276533871889114, 
                -0.011914500966668129, 
                -0.08597566932439804, 
                0.1352476179599762, 
                0.043978720903396606, 
                -0.03933246433734894, 
                -0.09027335792779922, 
                -0.0028215497732162476, 
                -0.07516676187515259, 
                -0.061076756566762924, 
                0.05330244451761246, 
                0.05014592409133911, 
                -0.12898747622966766, 
                0.11609359085559845, 
                -0.17056319117546082, 
                -0.05774843692779541, 
                -0.025648217648267746, 
                0.04041983187198639, 
                -0.14551107585430145, 
                0.07881852239370346, 
                0.02785843424499035, 
                -0.008101388812065125, 
                -0.1304084062576294, 
                0.1345987170934677, 
                -0.05384194105863571, 
                0.1003183126449585, 
                -0.04901762679219246, 
                -0.04249868169426918, 
                -0.12434755265712738, 
                -0.16140712797641754, 
                0.1366884857416153, 
                0.07324008643627167, 
                0.013079041615128517, 
                0.041726864874362946, 
                -0.00282533117569983, 
                0.07495229691267014, 
                -0.03234206140041351, 
                0.07704479247331619, 
                -0.042346592992544174, 
                0.038474660366773605, 
                -0.013873779214918613, 
                0.030947096645832062, 
                -0.041332852095365524, 
                0.09839029610157013, 
                0.11026443541049957, 
                -0.11405547708272934, 
                0.01820719987154007, 
                -0.044202663004398346, 
                0.11890388280153275, 
                0.06156380474567413, 
                -0.008877451531589031, 
                0.0794198215007782, 
                -0.06553839892148972, 
                -0.15702445805072784, 
                0.06904934346675873, 
                0.03505442291498184, 
                0.11376316100358963, 
                0.011164040304720402, 
                -0.13335590064525604, 
                -0.06088436022400856, 
                -0.13731268048286438, 
                -0.00445682043209672, 
                0.07703221589326859, 
                -0.13461625576019287, 
                -0.13605670630931854, 
                0.008543824777007103, 
                0.07998266816139221, 
                0.06489961594343185, 
                -0.03014921396970749, 
                -0.18173249065876007, 
                -0.09817337244749069, 
                -0.09057273715734482, 
                -0.03830492123961449, 
                -0.06284695863723755, 
                -0.06955163925886154, 
                -0.12217530608177185, 
                -0.06859896332025528, 
                -0.02820160984992981, 
                -0.12086981534957886, 
                0.00812892522662878, 
                -0.06505906581878662, 
                -0.12507441639900208, 
                0.0910630002617836, 
                -0.0877608135342598, 
                -0.0555063858628273, 
                -0.09510232508182526, 
                -0.14299868047237396, 
                -0.0009856128599494696, 
                0.12815193831920624, 
                0.10888681560754776, 
                0.05240952968597412, 
                -0.08673985302448273, 
                -0.0999976396560669, 
                0.02814856544137001, 
                -0.00936456024646759, 
                -0.036538057029247284, 
                -0.1503819227218628, 
                0.07071464508771896, 
                0.04893434792757034, 
                -0.1788606345653534, 
                -0.0023933202028274536, 
                -0.01423894427716732, 
                -0.1712781935930252, 
                -0.10316652804613113, 
                -0.0003012851229868829, 
                -0.11930157244205475, 
                0.03942522406578064, 
                -0.07648312300443649, 
                0.03512012958526611, 
                0.09231125563383102, 
                -0.00029219751013442874, 
                0.075685054063797, 
                0.08284511417150497, 
                -0.12070673704147339, 
                -0.06118907034397125, 
                0.11374910175800323, 
                0.030217256397008896, 
                -0.07688014209270477, 
                -0.10656023770570755, 
                -0.08270888775587082, 
                -0.1638413518667221, 
                -0.04482470080256462, 
                0.024151742458343506, 
                0.09195702522993088, 
                0.07231392711400986, 
                0.0008129188208840787, 
                -0.08664477616548538, 
                -0.06926262378692627, 
                0.028943410143256187, 
                -0.15673385560512543, 
                -0.13181065022945404, 
                -0.17635886371135712, 
                -0.10426194220781326, 
                0.07348550856113434, 
                -0.019442399963736534, 
                -0.04268798977136612, 
                -0.12950247526168823, 
                -0.06085813418030739, 
                -0.09018382430076599, 
                -0.005143798887729645, 
                -0.06020743399858475, 
                0.05846560373902321, 
                0.08001577854156494
            ]
        }, 
        "Node_91": {
            "bias": -0.029033346101641655, 
            "weights": [
                -0.3744584918022156, 
                -0.09892348945140839, 
                0.19808122515678406, 
                -0.32151830196380615, 
                0.08896131068468094, 
                -0.17660249769687653, 
                0.04674053192138672, 
                -0.04341966658830643, 
                -0.07885472476482391, 
                -0.2047966569662094, 
                -0.09216438233852386, 
                -0.12930750846862793, 
                -0.05292123928666115, 
                -0.045387543737888336, 
                -0.1356796771287918, 
                -0.10612860321998596, 
                0.06950238347053528, 
                -0.08090974390506744, 
                -0.06482058018445969, 
                -0.05349145084619522, 
                0.03875207155942917, 
                -0.1370503157377243, 
                -0.4571482837200165, 
                0.033345647156238556, 
                0.1420622318983078, 
                0.14286233484745026, 
                -0.01921035721898079, 
                0.02079167030751705, 
                0.0337696373462677, 
                0.06089134141802788, 
                -0.1969360113143921, 
                -0.08904562145471573, 
                -0.29737019538879395, 
                -0.21632304787635803, 
                0.13234277069568634, 
                -0.0470619834959507, 
                -0.30615922808647156, 
                -0.017546579241752625, 
                -0.17126144468784332, 
                -0.01565137505531311, 
                -0.011108567006886005, 
                0.009529910050332546, 
                0.024058444425463676, 
                -0.09611697494983673, 
                -0.19705776870250702, 
                -0.07789410650730133, 
                0.0009929051157087088, 
                -0.2303488701581955, 
                -0.05053066089749336, 
                0.029673874378204346, 
                0.09776933491230011, 
                -0.13749846816062927, 
                -0.23186220228672028, 
                -0.12442000210285187, 
                0.10687041282653809, 
                0.14577794075012207, 
                -0.06627441197633743, 
                0.04555584117770195, 
                0.10312247276306152, 
                0.08139568567276001, 
                -0.4341437518596649, 
                0.15269377827644348, 
                0.05997621268033981, 
                -0.316745787858963, 
                -0.1880706548690796, 
                0.03909451141953468, 
                -0.03087697923183441, 
                0.06011630967259407, 
                -0.08572230488061905, 
                0.07354405522346497, 
                -0.029341012239456177, 
                0.07776889204978943, 
                -0.17263901233673096, 
                0.20649750530719757, 
                -0.0004088360583409667, 
                -0.037180572748184204, 
                0.11356794089078903, 
                -0.038147225975990295, 
                0.1369515061378479, 
                0.12688840925693512, 
                0.07055892795324326, 
                -0.007493913173675537, 
                0.0473090298473835, 
                0.02909625694155693, 
                -0.07690102607011795, 
                -0.10518039017915726, 
                -0.0888836607336998, 
                0.05973292887210846, 
                -0.007317643612623215, 
                -0.08958407491445541, 
                -0.2662658095359802, 
                -0.0632195770740509, 
                0.01925126276910305, 
                0.06016088277101517, 
                -0.11898323893547058, 
                0.30169469118118286, 
                0.017205536365509033, 
                0.00260856281965971, 
                0.09481675922870636, 
                -0.10022594034671783, 
                -0.06765836477279663, 
                -0.11705302447080612, 
                0.09190378338098526, 
                0.17461392283439636, 
                0.16484075784683228, 
                0.11274944990873337, 
                0.11371172964572906, 
                -0.08188880980014801, 
                -0.28271815180778503, 
                0.06756963580846786, 
                -0.0325128398835659, 
                -0.022929031401872635, 
                -0.11119957268238068, 
                -0.06152711063623428, 
                -0.23825153708457947, 
                0.00750930979847908, 
                -0.2443200945854187, 
                0.09275832027196884, 
                0.017965948209166527, 
                -0.09331053495407104, 
                0.0020629114005714655, 
                0.08337618410587311, 
                0.08311589062213898, 
                0.03273388743400574, 
                -0.0008316180901601911, 
                -0.0946757048368454, 
                0.06053135544061661, 
                -0.17209960520267487, 
                -0.11155906319618225, 
                -0.08178006857633591, 
                0.022212164476513863, 
                0.025524893775582314, 
                0.002453702501952648, 
                -0.10669000446796417, 
                0.024609053507447243, 
                0.01524366531521082, 
                0.11646770685911179, 
                -0.07948470860719681, 
                0.09575079381465912, 
                -0.1734783947467804, 
